minWeight=-1.000000, maxWeight=1.000000
0.999382,0.964433,0.999385,-1.000000,-1.000000,-1.000000,0.999391,-1.000000,0.999395,-1.000000,-1.000000,-1.000000,0.999401,-1.000000,0.999404,-1.000000,-1.000000,-1.000000,0.999410,0.999411,-1.000000,-1.000000,-1.000000,-1.000000,-1.000000,-1.000000,0.999422,0.999424,-1.000000,-1.000000,-1.000000,-1.000000,0.999432,-1.000000,-1.000000,0.999436,-1.000000,-1.000000,0.999441,0.999442,-1.000000,0.999445,0.999447,0.999448,0.999450,-1.000000,-1.000000,-1.000000,-1.000000,-1.000000,0.999459,0.999461,-1.000000,0.999464,-1.000000,-1.000000,-1.000000,0.999470,-1.000000,-1.000000,-1.000000,-1.000000,-1.000000,0.999479,0.999481,-1.000000,-1.000000,-1.000000,-1.000000,-1.000000,0.999490,-1.000000,0.999493,-1.000000,-1.000000,-1.000000,-1.000000,0.999501,-1.000000,0.999504,-1.000000,0.999507,-1.000000,0.999510,0.999512,-1.000000,-1.000000,-1.000000,0.999518,-1.000000,0.999521,0.999522,0.999524,0.999525,-1.000000,0.999529,0.999530,-1.000000,-1.000000,-1.000000,-1.000000,0.999538,-1.000000,-1.000000,0.999542,-1.000000,-1.000000,-1.000000,0.999549,-1.000000,-1.000000,0.999553,-1.000000,-1.000000,-1.000000,-1.000000,-1.000000,-1.000000,0.999564,0.999566,-1.000000,0.999569,-1.000000,-1.000000,-1.000000,-1.000000,-1.000000,-1.000000,-1.000000,-1.000000,-1.000000,-1.000000,-1.000000,-1.000000,-1.000000,-1.000000,-1.000000,-1.000000,-1.000000,0.999596,0.999598,-1.000000,-1.000000,-1.000000,-1.000000,-1.000000,-1.000000,0.999609,-1.000000,0.999612,-1.000000,0.999615,0.999616,0.999618,0.999619,0.999621,-1.000000,0.999624,-1.000000,0.999627,-1.000000,-1.000000,0.999632,-1.000000,-1.000000,0.999636,-1.000000,-1.000000,0.999641,0.999643,0.999644,-1.000000,-1.000000,0.999649,0.999650,-1.000000,-1.000000,-1.000000,-1.000000,0.999658,-1.000000,-1.000000,-1.000000,0.999664,0.999666,-1.000000,0.999669,-1.000000,-1.000000,0.999673,0.999675,-1.000000,0.999678,-1.000000,-1.000000,0.999683,-1.000000,-1.000000,0.999687,0.999689,-1.000000,-1.000000,-1.000000,-1.000000,-1.000000,-1.000000,-1.000000,0.999701,-1.000000,-1.000000,-1.000000,-1.000000,0.999709,-1.000000,-1.000000,0.999713,0.999715,-1.000000,-1.000000,-1.000000,0.999721,-1.000000,-1.000000,-1.000000,0.999727,-1.000000,-1.000000,0.999732,0.999733,0.999735,-1.000000,-1.000000,0.999740,0.999741,-1.000000,-1.000000,-1.000000,0.999747,-1.000000,-1.000000,-1.000000,-1.000000,0.999755,0.999757,0.999758,0.999760,-1.000000,-1.000000,-1.000000,-1.000000,-1.000000,0.999769,0.999770,0.999772,-1.000000,-1.000000,0.999777,-1.000000,0.999780,0.999781,-1.000000,-1.000000,-1.000000,0.999787,0.999789,0.999790,-1.000000,-1.000000,-1.000000,-1.000000,-1.000000,-1.000000,0.999801,-1.000000,0.999804,-1.000000,0.999807,-1.000000,-1.000000,0.999812,0.999814,-1.000000,-1.000000,-1.000000,0.999820,-1.000000,-1.000000,0.999824,0.999826,-1.000000,-1.000000,0.999831,0.999832,0.999834,0.999835,-1.000000,-1.000000,-1.000000,0.999841,-1.000000,-1.000000,-1.000000,-1.000000,0.999849,0.999851,-1.000000,-1.000000,0.999855,0.999857,0.999858,-1.000000,-1.000000,0.999863,-1.000000,-1.000000,-1.000000,-1.000000,-1.000000,0.999872,-1.000000,-1.000000,-1.000000,-1.000000,0.999880,0.999881,-1.000000,-1.000000,0.999886,0.999888,-1.000000,-1.000000,0.999892,0.999894,-1.000000,-1.000000,-1.000000,-1.000000,0.999901,-1.000000,0.999904,-1.000000,-1.000000,0.999909,0.999911,-1.000000,-1.000000,-1.000000,0.999917,-1.000000,0.999920,0.999921,-1.000000,-1.000000,-1.000000,0.999928,-1.000000,0.999931,0.999932,-1.000000,-1.000000,0.999937,0.999938,-1.000000,-1.000000,-1.000000,-1.000000,0.999946,-1.000000,0.999949,0.999951,-1.000000,-1.000000,0.999955,-1.000000,0.999958,-1.000000,-1.000000,-1.000000,-1.000000,0.999966,-1.000000,0.999969,0.999971,-1.000000,0.999974,-1.000000,-1.000000,-1.000000,0.999980,-1.000000,0.999983,-1.000000,-1.000000,-1.000000,-1.000000,-1.000000,-1.000000,-1.000000,-1.000000,-1.000000,
-1.000000,-1.000000,0.999384,-1.000000,-1.000000,-1.000000,0.999390,-1.000000,-1.000000,0.999395,0.999396,-1.000000,0.999399,-1.000000,-1.000000,-1.000000,0.999405,0.999407,-1.000000,0.999410,0.999411,0.999413,-1.000000,0.999416,-1.000000,-1.000000,-1.000000,-1.000000,-1.000000,0.999425,0.999427,0.999428,0.999430,-1.000000,-1.000000,0.999435,0.999436,-1.000000,0.999439,-1.000000,0.999442,0.999444,-1.000000,-1.000000,-1.000000,-1.000000,-1.000000,0.999453,0.999455,-1.000000,0.999458,0.999459,-1.000000,-1.000000,-1.000000,-1.000000,0.999467,-1.000000,-1.000000,0.999472,0.999473,0.999475,-1.000000,-1.000000,0.999479,0.999481,-1.000000,-1.000000,0.999485,0.999487,-1.000000,-1.000000,-1.000000,0.999493,-1.000000,-1.000000,-1.000000,-1.000000,-1.000000,0.999502,-1.000000,-1.000000,-1.000000,0.999509,0.999510,0.999512,0.999513,0.999515,-1.000000,0.999518,-1.000000,-1.000000,-1.000000,0.999524,0.999525,-1.000000,-1.000000,-1.000000,-1.000000,0.999533,-1.000000,-1.000000,-1.000000,-1.000000,-1.000000,-1.000000,0.999544,-1.000000,0.999547,-1.000000,-1.000000,0.999552,-1.000000,-1.000000,-1.000000,0.999558,-1.000000,0.999561,0.999562,-1.000000,0.999566,-1.000000,-1.000000,0.999570,-1.000000,0.999573,0.999575,-1.000000,-1.000000,0.999579,-1.000000,0.999582,-1.000000,-1.000000,-1.000000,-1.000000,-1.000000,0.999592,-1.000000,0.999595,-1.000000,-1.000000,0.999599,0.999601,0.999602,-1.000000,-1.000000,-1.000000,-1.000000,0.999610,-1.000000,-1.000000,0.970189,0.999616,-1.000000,-1.000000,-1.000000,0.999623,-1.000000,0.999626,0.999627,-1.000000,0.999630,-1.000000,0.999633,0.999635,-1.000000,-1.000000,-1.000000,-1.000000,-1.000000,-1.000000,0.999646,-1.000000,0.999649,-1.000000,-1.000000,0.999653,0.999655,-1.000000,0.999658,-1.000000,0.999661,-1.000000,0.999664,0.999666,0.999667,-1.000000,-1.000000,-1.000000,-1.000000,-1.000000,0.970249,-1.000000,0.999680,-1.000000,-1.000000,0.999684,-1.000000,0.999687,-1.000000,-1.000000,0.999692,0.999693,0.999695,-1.000000,0.999698,-1.000000,0.999701,-1.000000,-1.000000,-1.000000,-1.000000,0.999709,-1.000000,-1.000000,-1.000000,-1.000000,0.999716,-1.000000,-1.000000,-1.000000,-1.000000,0.999724,-1.000000,-1.000000,0.999729,-1.000000,0.999732,-1.000000,0.999735,-1.000000,0.999738,-1.000000,-1.000000,0.999743,-1.000000,-1.000000,0.999747,-1.000000,-1.000000,0.999752,-1.000000,0.999755,-1.000000,-1.000000,0.999760,-1.000000,-1.000000,-1.000000,-1.000000,0.970337,-1.000000,-1.000000,-1.000000,-1.000000,-1.000000,-1.000000,0.999778,-1.000000,-1.000000,-1.000000,-1.000000,0.999786,-1.000000,-1.000000,-1.000000,-1.000000,0.999794,-1.000000,-1.000000,-1.000000,-1.000000,-1.000000,0.999803,0.999804,0.999806,-1.000000,-1.000000,-1.000000,-1.000000,0.999814,-1.000000,-1.000000,0.999818,-1.000000,0.999821,-1.000000,-1.000000,-1.000000,-1.000000,-1.000000,-1.000000,-1.000000,0.999834,-1.000000,-1.000000,-1.000000,0.999840,-1.000000,-1.000000,-1.000000,0.999846,0.999847,0.999849,-1.000000,-1.000000,-1.000000,-1.000000,-1.000000,0.999858,0.970427,0.999861,-1.000000,-1.000000,-1.000000,-1.000000,0.999869,-1.000000,0.999872,0.999874,-1.000000,-1.000000,0.999878,-1.000000,-1.000000,-1.000000,0.999884,0.999886,-1.000000,0.999889,-1.000000,0.999892,-1.000000,0.999895,-1.000000,-1.000000,0.999900,-1.000000,-1.000000,-1.000000,-1.000000,-1.000000,0.999909,-1.000000,-1.000000,-1.000000,0.999915,0.999917,-1.000000,0.999920,0.999921,-1.000000,0.999924,0.999926,-1.000000,0.999929,-1.000000,-1.000000,-1.000000,-1.000000,-1.000000,-1.000000,0.999940,0.999941,-1.000000,-1.000000,0.999946,0.999948,-1.000000,-1.000000,-1.000000,0.999954,-1.000000,0.999957,-1.000000,-1.000000,0.999961,-1.000000,-1.000000,-1.000000,0.999968,0.999969,-1.000000,-1.000000,-1.000000,0.999975,-1.000000,0.999978,-1.000000,-1.000000,-1.000000,0.999985,-1.000000,-1.000000,0.999989,-1.000000,-1.000000,0.999994,-1.000000,
-1.000000,-1.000000,0.999382,0.999384,-1.000000,-1.000000,0.999388,-1.000000,-1.000000,-1.000000,-1.000000,0.999396,-1.000000,0.999399,0.969980,-1.000000,-1.000000,-1.000000,-1.000000,-1.000000,-1.000000,-1.000000,0.999413,0.999415,0.999416,0.999418,-1.000000,-1.000000,0.999422,-1.000000,-1.000000,-1.000000,-1.000000,0.999430,-1.000000,0.999433,-1.000000,0.999436,-1.000000,-1.000000,-1.000000,-1.000000,-1.000000,0.999445,-1.000000,-1.000000,-1.000000,-1.000000,-1.000000,-1.000000,-1.000000,0.999458,-1.000000,-1.000000,-1.000000,-1.000000,0.999465,-1.000000,0.999468,-1.000000,-1.000000,0.999473,-1.000000,-1.000000,-1.000000,0.999479,0.999481,-1.000000,-1.000000,0.999485,0.999487,0.999488,0.999490,0.999492,-1.000000,0.999495,-1.000000,-1.000000,0.999499,-1.000000,0.999502,0.999504,0.999505,0.999507,-1.000000,-1.000000,0.999512,-1.000000,0.999515,-1.000000,-1.000000,0.999519,-1.000000,-1.000000,0.999524,0.999525,0.999527,-1.000000,-1.000000,0.999532,0.999533,0.999535,0.999536,0.999538,0.999539,-1.000000,-1.000000,-1.000000,-1.000000,0.999547,0.999549,0.999550,-1.000000,-1.000000,-1.000000,-1.000000,-1.000000,-1.000000,-1.000000,0.999562,-1.000000,0.999566,0.999567,-1.000000,0.999570,-1.000000,0.999573,-1.000000,-1.000000,-1.000000,-1.000000,-1.000000,0.999582,-1.000000,-1.000000,-1.000000,0.999589,-1.000000,-1.000000,-1.000000,-1.000000,-1.000000,0.999598,0.999599,-1.000000,-1.000000,0.999604,0.999606,-1.000000,0.999609,-1.000000,-1.000000,-1.000000,-1.000000,0.999616,-1.000000,-1.000000,-1.000000,0.999623,-1.000000,-1.000000,-1.000000,-1.000000,-1.000000,-1.000000,0.999633,-1.000000,0.999636,-1.000000,-1.000000,-1.000000,-1.000000,-1.000000,-1.000000,0.999647,0.999649,-1.000000,-1.000000,-1.000000,-1.000000,-1.000000,0.999658,-1.000000,-1.000000,0.999663,-1.000000,-1.000000,-1.000000,0.999669,0.999670,-1.000000,-1.000000,-1.000000,-1.000000,0.999678,-1.000000,-1.000000,0.999683,0.999684,0.381798,-1.000000,-1.000000,0.999690,0.999692,-1.000000,-1.000000,-1.000000,-1.000000,-1.000000,0.999701,-1.000000,-1.000000,-1.000000,-1.000000,-1.000000,0.999710,-1.000000,-1.000000,-1.000000,-1.000000,-1.000000,-1.000000,-1.000000,-1.000000,-1.000000,-1.000000,-1.000000,-1.000000,0.999730,-1.000000,0.999733,-1.000000,0.999737,-1.000000,-1.000000,0.999741,-1.000000,-1.000000,-1.000000,-1.000000,0.999749,-1.000000,-1.000000,0.999753,-1.000000,-1.000000,0.999758,-1.000000,0.999761,-1.000000,-1.000000,0.999766,0.999767,0.999769,-1.000000,0.999772,-1.000000,0.999775,-1.000000,-1.000000,0.777091,-1.000000,-1.000000,-1.000000,0.999786,-1.000000,0.999789,0.999790,-1.000000,-1.000000,0.999795,0.999797,-1.000000,0.999800,0.999801,-1.000000,0.999804,-1.000000,0.999807,-1.000000,0.999810,0.999812,-1.000000,0.999815,-1.000000,-1.000000,0.970388,0.999821,-1.000000,-1.000000,-1.000000,-1.000000,-1.000000,-1.000000,-1.000000,-1.000000,0.999835,0.999837,-1.000000,-1.000000,0.999841,-1.000000,-1.000000,0.999846,0.999847,0.999849,-1.000000,-1.000000,-1.000000,-1.000000,0.999857,-1.000000,-1.000000,0.999861,0.999863,-1.000000,-1.000000,-1.000000,-1.000000,-1.000000,0.999872,-1.000000,-1.000000,-1.000000,-1.000000,-1.000000,-1.000000,-1.000000,0.999884,-1.000000,0.999888,-1.000000,-1.000000,-1.000000,-1.000000,0.999895,-1.000000,0.999898,0.999900,-1.000000,-1.000000,-1.000000,-1.000000,-1.000000,-1.000000,-1.000000,0.999912,-1.000000,-1.000000,0.999917,-1.000000,0.999920,-1.000000,0.999923,-1.000000,-1.000000,-1.000000,0.999929,-1.000000,0.999932,-1.000000,0.999935,-1.000000,-1.000000,0.999940,-1.000000,0.999943,-1.000000,0.999946,-1.000000,-1.000000,0.999951,0.999952,0.999954,-1.000000,0.999957,-1.000000,0.999960,0.999961,0.999963,0.999965,0.999966,-1.000000,0.999969,-1.000000,-1.000000,-1.000000,-1.000000,0.999977,0.999978,0.999980,-1.000000,-1.000000,0.999985,-1.000000,-1.000000,0.999989,-1.000000,-1.000000,-1.000000,
-1.000000,0.999379,-1.000000,0.999382,0.999384,-1.000000,0.999387,0.999388,-1.000000,-1.000000,-1.000000,-1.000000,0.999396,-1.000000,-1.000000,0.999401,-1.000000,-1.000000,0.999405,-1.000000,0.999408,0.999410,-1.000000,-1.000000,-1.000000,0.999416,-1.000000,-1.000000,-1.000000,0.999422,-1.000000,0.999425,-1.000000,-1.000000,-1.000000,-1.000000,-1.000000,0.999435,0.999436,-1.000000,0.999439,-1.000000,0.999442,-1.000000,-1.000000,0.999447,0.999448,0.999450,0.999452,0.999453,0.999455,-1.000000,-1.000000,-1.000000,-1.000000,-1.000000,0.999464,-1.000000,-1.000000,-1.000000,-1.000000,-1.000000,0.999473,0.999475,0.999476,-1.000000,-1.000000,0.999481,0.999482,-1.000000,0.999485,-1.000000,0.999488,-1.000000,-1.000000,0.999493,0.999495,-1.000000,-1.000000,0.970076,0.999501,0.999502,-1.000000,-1.000000,0.999507,-1.000000,-1.000000,-1.000000,0.999513,0.999515,-1.000000,0.999518,0.999519,-1.000000,-1.000000,-1.000000,-1.000000,0.999527,0.999529,-1.000000,0.999532,-1.000000,-1.000000,-1.000000,-1.000000,-1.000000,-1.000000,-1.000000,0.999544,-1.000000,0.999547,-1.000000,0.999550,-1.000000,-1.000000,-1.000000,-1.000000,0.999558,-1.000000,-1.000000,-1.000000,0.999564,-1.000000,0.999567,-1.000000,-1.000000,-1.000000,0.999573,0.999575,0.999576,-1.000000,-1.000000,-1.000000,-1.000000,-1.000000,-1.000000,0.999587,0.999589,-1.000000,-1.000000,-1.000000,-1.000000,-1.000000,0.999598,-1.000000,-1.000000,-1.000000,-1.000000,0.999606,-1.000000,-1.000000,-1.000000,-1.000000,-1.000000,0.999615,-1.000000,-1.000000,0.999619,0.999621,-1.000000,-1.000000,-1.000000,-1.000000,-1.000000,0.999630,-1.000000,-1.000000,-1.000000,0.999636,-1.000000,-1.000000,0.999641,-1.000000,0.999644,0.999646,0.999647,-1.000000,-1.000000,0.999652,-1.000000,0.999655,-1.000000,0.970231,-1.000000,0.999661,-1.000000,0.999664,-1.000000,0.999667,-1.000000,-1.000000,-1.000000,0.999673,-1.000000,-1.000000,-1.000000,-1.000000,-1.000000,0.999683,-1.000000,0.999686,0.999687,0.999689,0.999690,-1.000000,-1.000000,-1.000000,-1.000000,-1.000000,-1.000000,-1.000000,-1.000000,0.999704,0.999706,-1.000000,-1.000000,-1.000000,-1.000000,-1.000000,-1.000000,-1.000000,-1.000000,0.999720,0.999721,-1.000000,0.999724,0.999726,-1.000000,0.999729,-1.000000,-1.000000,-1.000000,-1.000000,0.999737,-1.000000,0.999740,0.999741,-1.000000,-1.000000,-1.000000,-1.000000,0.999749,-1.000000,0.999752,0.999753,0.999755,-1.000000,-1.000000,-1.000000,0.999761,-1.000000,-1.000000,0.999766,-1.000000,0.999769,0.999770,-1.000000,-1.000000,0.999775,-1.000000,-1.000000,0.999780,0.999781,-1.000000,0.999784,0.999786,0.999787,-1.000000,0.999790,0.999792,0.999794,0.999795,0.999797,0.999798,-1.000000,-1.000000,-1.000000,-1.000000,-1.000000,-1.000000,-1.000000,-1.000000,-1.000000,0.999814,-1.000000,-1.000000,-1.000000,0.999820,-1.000000,0.999823,-1.000000,0.999826,-1.000000,0.999829,0.999831,0.999832,0.999834,-1.000000,-1.000000,-1.000000,-1.000000,-1.000000,0.999843,0.999844,-1.000000,-1.000000,0.999849,-1.000000,-1.000000,-1.000000,-1.000000,-1.000000,-1.000000,-1.000000,0.999861,0.999863,-1.000000,-1.000000,0.999867,0.999869,0.999871,-1.000000,-1.000000,-1.000000,0.999877,-1.000000,0.999880,-1.000000,-1.000000,0.999884,-1.000000,0.999888,-1.000000,0.999891,-1.000000,-1.000000,0.999895,0.999897,-1.000000,-1.000000,-1.000000,-1.000000,-1.000000,0.999906,-1.000000,-1.000000,0.999911,0.999912,0.999914,0.999915,-1.000000,-1.000000,0.999920,0.999921,0.999923,-1.000000,0.999926,0.999928,0.999929,-1.000000,-1.000000,-1.000000,0.999935,-1.000000,-1.000000,-1.000000,0.999941,0.999943,0.999945,0.999946,0.999948,-1.000000,-1.000000,-1.000000,-1.000000,0.999955,0.999957,0.999958,-1.000000,0.999961,-1.000000,-1.000000,0.999966,-1.000000,0.999969,0.999971,-1.000000,-1.000000,-1.000000,-1.000000,0.999978,0.999980,-1.000000,0.999983,0.999985,0.999986,-1.000000,-1.000000,0.999991,-1.000000,
-1.000000,-1.000000,-1.000000,-1.000000,0.999382,0.999384,0.999385,0.999387,-1.000000,0.999390,-1.000000,0.999393,-1.000000,0.999396,-1.000000,0.999399,0.999401,-1.000000,-1.000000,0.999405,-1.000000,0.999408,0.999410,0.999411,-1.000000,-1.000000,-1.000000,-1.000000,-1.000000,-1.000000,0.999422,0.999424,0.999425,-1.000000,0.999428,-1.000000,-1.000000,-1.000000,0.999435,0.999436,-1.000000,0.999439,-1.000000,-1.000000,-1.000000,-1.000000,0.999447,0.999448,-1.000000,0.970029,-1.000000,-1.000000,0.999456,0.999458,0.999459,-1.000000,-1.000000,-1.000000,-1.000000,-1.000000,-1.000000,0.999470,-1.000000,0.999473,-1.000000,-1.000000,0.999478,-1.000000,-1.000000,-1.000000,-1.000000,-1.000000,0.999487,-1.000000,-1.000000,-1.000000,-1.000000,-1.000000,-1.000000,0.999498,-1.000000,-1.000000,0.999502,0.999504,-1.000000,-1.000000,0.999509,-1.000000,-1.000000,0.999513,-1.000000,-1.000000,-1.000000,0.999519,0.999521,0.999522,-1.000000,-1.000000,0.999527,0.999529,0.999530,-1.000000,0.999533,-1.000000,-1.000000,-1.000000,-1.000000,0.999541,-1.000000,-1.000000,0.999545,-1.000000,-1.000000,-1.000000,0.999552,0.999553,-1.000000,-1.000000,0.999558,0.999559,0.999561,-1.000000,-1.000000,-1.000000,-1.000000,0.999569,0.999570,-1.000000,-1.000000,-1.000000,0.999576,0.999578,0.999579,-1.000000,-1.000000,0.999584,0.999586,-1.000000,0.999589,0.999590,0.999592,-1.000000,-1.000000,0.999596,-1.000000,0.999599,-1.000000,-1.000000,0.999604,-1.000000,-1.000000,-1.000000,-1.000000,-1.000000,-1.000000,-1.000000,-1.000000,-1.000000,-1.000000,-1.000000,-1.000000,-1.000000,0.999626,0.999627,-1.000000,0.999630,-1.000000,-1.000000,0.999635,-1.000000,0.999638,-1.000000,-1.000000,0.999643,0.999644,0.999646,-1.000000,-1.000000,-1.000000,0.999652,-1.000000,0.999655,-1.000000,-1.000000,-1.000000,-1.000000,-1.000000,-1.000000,-1.000000,0.999667,0.999669,-1.000000,-1.000000,0.999673,0.999675,-1.000000,-1.000000,-1.000000,0.999681,-1.000000,-1.000000,0.999686,-1.000000,-1.000000,-1.000000,-1.000000,0.999693,-1.000000,0.999696,-1.000000,-1.000000,-1.000000,0.999703,-1.000000,-1.000000,0.999707,-1.000000,-1.000000,0.999712,-1.000000,-1.000000,0.999716,-1.000000,-1.000000,-1.000000,0.999723,0.999724,0.999726,0.999727,-1.000000,0.970301,0.970303,0.999733,-1.000000,0.999737,-1.000000,0.999740,0.999741,-1.000000,0.999744,0.999746,-1.000000,-1.000000,0.999750,-1.000000,-1.000000,0.999755,-1.000000,0.999758,-1.000000,-1.000000,0.999763,-1.000000,-1.000000,0.999767,-1.000000,-1.000000,-1.000000,0.999773,0.999775,-1.000000,-1.000000,0.999780,-1.000000,-1.000000,-1.000000,-1.000000,0.999787,-1.000000,-1.000000,-1.000000,0.999794,-1.000000,0.999797,-1.000000,-1.000000,0.999801,0.999803,-1.000000,-1.000000,-1.000000,-1.000000,-1.000000,0.999812,-1.000000,0.999815,-1.000000,-1.000000,0.999820,0.999821,0.999823,-1.000000,0.999826,-1.000000,-1.000000,-1.000000,-1.000000,0.999834,0.999835,-1.000000,0.999838,0.999840,0.999841,-1.000000,0.999844,-1.000000,0.999847,-1.000000,0.999851,0.999852,-1.000000,0.999855,-1.000000,-1.000000,0.999860,-1.000000,0.999863,0.999864,-1.000000,-1.000000,-1.000000,0.999871,-1.000000,-1.000000,0.999875,-1.000000,-1.000000,-1.000000,0.999881,-1.000000,-1.000000,-1.000000,0.999888,0.999889,0.999891,0.999892,0.999894,-1.000000,0.999897,-1.000000,0.999900,0.999901,0.999903,-1.000000,-1.000000,-1.000000,0.999909,-1.000000,0.999912,-1.000000,-1.000000,0.999917,-1.000000,0.999920,0.999921,-1.000000,0.999924,0.999926,-1.000000,-1.000000,-1.000000,-1.000000,0.999934,0.999935,-1.000000,-1.000000,-1.000000,0.999941,0.999943,0.999945,-1.000000,-1.000000,-1.000000,0.999951,-1.000000,-1.000000,0.999955,-1.000000,0.999958,-1.000000,-1.000000,0.999963,-1.000000,-1.000000,0.999968,-1.000000,-1.000000,-1.000000,-1.000000,-1.000000,-1.000000,-1.000000,0.970544,0.999982,-1.000000,-1.000000,-1.000000,-1.000000,0.999989,-1.000000,
0.999375,0.999376,-1.000000,-1.000000,-1.000000,-1.000000,0.555251,-1.000000,-1.000000,-1.000000,-1.000000,0.953215,0.953216,-1.000000,-1.000000,-1.000000,-1.000000,-1.000000,-1.000000,0.738416,-1.000000,-1.000000,-1.000000,-1.000000,0.275445,-1.000000,-1.000000,0.669987,-1.000000,-1.000000,0.738429,-1.000000,0.999424,0.970004,0.999427,-1.000000,-1.000000,-1.000000,0.749817,-1.000000,0.806590,-1.000000,-1.000000,-1.000000,-1.000000,0.601275,-1.000000,0.206173,-1.000000,-1.000000,-1.000000,-1.000000,-1.000000,-1.000000,-1.000000,-1.000000,-1.000000,-1.000000,-1.000000,0.635693,-1.000000,0.532263,0.986947,0.462941,0.555309,-1.000000,0.999476,0.692879,-1.000000,0.241440,-1.000000,0.970061,-1.000000,-1.000000,-1.000000,0.999490,-1.000000,-1.000000,-1.000000,0.806641,0.635716,-1.000000,0.999501,-1.000000,-1.000000,-1.000000,-1.000000,-1.000000,0.497664,-1.000000,-1.000000,0.210613,-1.000000,0.806659,-1.000000,0.206204,0.601328,0.999524,-1.000000,0.999527,-1.000000,-1.000000,-1.000000,0.772631,-1.000000,-1.000000,-1.000000,-1.000000,-1.000000,-1.000000,-1.000000,0.605649,-1.000000,-1.000000,-1.000000,0.851963,0.532317,0.738535,-1.000000,-1.000000,-1.000000,0.999561,0.999562,-1.000000,-1.000000,-1.000000,-1.000000,-1.000000,0.999572,-1.000000,0.999575,-1.000000,-1.000000,-1.000000,-1.000000,-1.000000,0.806714,-1.000000,-1.000000,-1.000000,-1.000000,-1.000000,0.999593,-1.000000,-1.000000,-1.000000,0.999599,-1.000000,0.999602,0.878833,-1.000000,-1.000000,0.555397,-1.000000,-1.000000,0.852017,-1.000000,-1.000000,0.885897,-1.000000,0.623474,0.806747,-1.000000,0.772706,0.953441,-1.000000,-1.000000,-1.000000,-1.000000,0.455797,-1.000000,-1.000000,0.704412,-1.000000,0.999643,-1.000000,-1.000000,-1.000000,0.999649,-1.000000,-1.000000,-1.000000,-1.000000,-1.000000,-1.000000,0.885934,-1.000000,-1.000000,-1.000000,-1.000000,-1.000000,-1.000000,0.999670,-1.000000,-1.000000,0.520859,-1.000000,-1.000000,0.451478,0.555444,0.999683,-1.000000,0.999686,-1.000000,-1.000000,0.601443,-1.000000,-1.000000,0.885966,-1.000000,0.999698,0.532410,-1.000000,-1.000000,-1.000000,-1.000000,-1.000000,-1.000000,-1.000000,-1.000000,-1.000000,0.953525,0.601461,-1.000000,-1.000000,0.970292,-1.000000,-1.000000,0.946513,-1.000000,0.970300,-1.000000,-1.000000,0.525222,0.999735,-1.000000,-1.000000,0.628724,-1.000000,0.999743,0.738683,-1.000000,0.999747,0.601483,-1.000000,-1.000000,-1.000000,-1.000000,0.970327,-1.000000,0.999760,-1.000000,-1.000000,-1.000000,-1.000000,-1.000000,0.674533,0.657725,0.999772,-1.000000,-1.000000,-1.000000,-1.000000,-1.000000,0.999781,0.987256,-1.000000,0.999786,0.351270,-1.000000,0.421090,-1.000000,-1.000000,-1.000000,0.999797,-1.000000,0.999800,-1.000000,0.999803,-1.000000,-1.000000,-1.000000,-1.000000,-1.000000,-1.000000,-1.000000,-1.000000,-1.000000,-1.000000,-1.000000,0.999821,-1.000000,-1.000000,-1.000000,0.999827,-1.000000,0.999831,-1.000000,0.999834,-1.000000,-1.000000,-1.000000,-1.000000,-1.000000,-1.000000,0.999844,-1.000000,-1.000000,0.416768,-1.000000,0.316280,-1.000000,-1.000000,0.999857,-1.000000,0.999860,-1.000000,-1.000000,-1.000000,-1.000000,0.497881,0.738781,-1.000000,-1.000000,0.999874,0.999875,-1.000000,-1.000000,-1.000000,0.970448,-1.000000,-1.000000,-1.000000,-1.000000,0.840948,-1.000000,-1.000000,-1.000000,-1.000000,0.346952,-1.000000,0.953703,-1.000000,0.482730,-1.000000,-1.000000,-1.000000,-1.000000,0.555592,-1.000000,-1.000000,-1.000000,-1.000000,-1.000000,-1.000000,0.241636,-1.000000,-1.000000,0.999926,0.463207,-1.000000,-1.000000,-1.000000,0.601609,-1.000000,-1.000000,0.999938,-1.000000,-1.000000,-1.000000,-1.000000,0.924227,0.463219,0.636035,-1.000000,-1.000000,0.999954,0.486372,-1.000000,-1.000000,0.987431,-1.000000,0.761613,0.886210,0.841015,-1.000000,-1.000000,0.886215,-1.000000,-1.000000,-1.000000,-1.000000,0.970543,0.957993,0.999982,-1.000000,0.999985,-1.000000,0.555642,-1.000000,
0.999373,-1.000000,-1.000000,-1.000000,-1.000000,-1.000000,-1.000000,0.999384,-1.000000,-1.000000,-1.000000,-1.000000,-1.000000,-1.000000,-1.000000,-1.000000,-1.000000,-1.000000,0.999401,-1.000000,-1.000000,-1.000000,-1.000000,0.999408,0.999410,0.999411,-1.000000,0.999415,0.999416,-1.000000,0.999419,-1.000000,-1.000000,0.999424,-1.000000,-1.000000,0.999428,0.999430,-1.000000,-1.000000,-1.000000,-1.000000,-1.000000,0.999439,0.999441,-1.000000,0.999444,0.999445,0.999447,-1.000000,-1.000000,0.999452,-1.000000,-1.000000,0.999456,-1.000000,-1.000000,-1.000000,-1.000000,0.999464,0.999465,-1.000000,0.999468,-1.000000,0.999472,0.999473,-1.000000,0.999476,0.999478,0.999479,0.999481,0.999482,0.999484,-1.000000,-1.000000,-1.000000,0.999490,0.999492,0.999493,-1.000000,-1.000000,-1.000000,0.999499,-1.000000,-1.000000,-1.000000,-1.000000,0.999507,0.999509,-1.000000,-1.000000,0.999513,-1.000000,-1.000000,0.999518,0.999519,-1.000000,-1.000000,-1.000000,0.999525,0.999527,-1.000000,-1.000000,-1.000000,-1.000000,-1.000000,-1.000000,-1.000000,-1.000000,0.999541,-1.000000,-1.000000,-1.000000,-1.000000,-1.000000,0.999550,0.999552,0.999553,-1.000000,0.999556,-1.000000,0.999559,-1.000000,0.999562,0.999564,-1.000000,0.999567,0.999569,0.999570,-1.000000,-1.000000,0.999575,-1.000000,0.999578,-1.000000,-1.000000,-1.000000,-1.000000,0.999586,0.999587,-1.000000,-1.000000,0.999592,-1.000000,-1.000000,-1.000000,-1.000000,-1.000000,-1.000000,0.999602,-1.000000,-1.000000,-1.000000,-1.000000,-1.000000,-1.000000,-1.000000,-1.000000,-1.000000,-1.000000,-1.000000,-1.000000,0.999623,-1.000000,-1.000000,0.999627,0.999629,-1.000000,0.999632,-1.000000,0.999635,-1.000000,-1.000000,-1.000000,-1.000000,0.999643,0.999644,0.999646,0.999647,-1.000000,-1.000000,-1.000000,0.999653,0.999655,-1.000000,0.999658,-1.000000,-1.000000,-1.000000,-1.000000,-1.000000,-1.000000,-1.000000,0.999670,-1.000000,0.999673,-1.000000,-1.000000,0.999678,-1.000000,-1.000000,0.999683,-1.000000,0.999686,0.999687,-1.000000,-1.000000,-1.000000,-1.000000,0.999695,0.999696,0.999698,-1.000000,-1.000000,0.999703,-1.000000,-1.000000,-1.000000,0.999709,-1.000000,-1.000000,-1.000000,-1.000000,-1.000000,0.999718,0.999720,-1.000000,0.999723,0.999724,-1.000000,0.999727,-1.000000,0.999730,-1.000000,-1.000000,0.999735,0.999737,-1.000000,0.999740,-1.000000,0.999743,-1.000000,0.999746,-1.000000,-1.000000,-1.000000,-1.000000,0.999753,0.999755,-1.000000,-1.000000,-1.000000,-1.000000,0.999763,0.999764,0.999766,0.999767,-1.000000,-1.000000,-1.000000,-1.000000,-1.000000,-1.000000,-1.000000,0.999780,-1.000000,-1.000000,-1.000000,-1.000000,-1.000000,-1.000000,0.999790,-1.000000,-1.000000,0.999795,-1.000000,-1.000000,-1.000000,-1.000000,-1.000000,-1.000000,-1.000000,-1.000000,-1.000000,0.999810,-1.000000,-1.000000,-1.000000,-1.000000,0.999818,-1.000000,-1.000000,-1.000000,0.999824,0.999826,-1.000000,0.999829,0.999831,-1.000000,-1.000000,0.999835,-1.000000,-1.000000,-1.000000,0.999841,-1.000000,-1.000000,-1.000000,0.999847,-1.000000,-1.000000,0.999852,-1.000000,0.999855,-1.000000,-1.000000,0.999860,0.999861,0.999863,0.999864,-1.000000,-1.000000,-1.000000,-1.000000,0.999872,0.999874,-1.000000,-1.000000,-1.000000,-1.000000,-1.000000,-1.000000,-1.000000,-1.000000,-1.000000,-1.000000,0.999891,-1.000000,0.999894,0.999895,-1.000000,-1.000000,-1.000000,-1.000000,-1.000000,-1.000000,-1.000000,0.999908,-1.000000,-1.000000,-1.000000,-1.000000,-1.000000,0.999917,-1.000000,0.999920,0.999921,-1.000000,-1.000000,0.999926,-1.000000,0.999929,0.999931,-1.000000,-1.000000,-1.000000,-1.000000,0.999938,-1.000000,-1.000000,-1.000000,-1.000000,-1.000000,-1.000000,-1.000000,-1.000000,0.999952,0.999954,0.999955,-1.000000,-1.000000,-1.000000,-1.000000,-1.000000,-1.000000,-1.000000,-1.000000,-1.000000,-1.000000,-1.000000,-1.000000,-1.000000,-1.000000,-1.000000,-1.000000,-1.000000,-1.000000,0.999985,0.999986,-1.000000,
-1.000000,0.999373,-1.000000,0.999376,-1.000000,0.999379,0.999381,0.999382,-1.000000,-1.000000,0.999387,0.999388,0.999390,0.999391,0.999393,0.999395,0.999396,0.999398,-1.000000,0.999401,0.999402,-1.000000,-1.000000,-1.000000,0.999408,-1.000000,-1.000000,0.999413,-1.000000,-1.000000,-1.000000,-1.000000,0.999421,-1.000000,-1.000000,0.999425,-1.000000,-1.000000,-1.000000,-1.000000,-1.000000,-1.000000,0.999436,0.999438,-1.000000,0.999441,-1.000000,0.999444,-1.000000,-1.000000,0.999448,0.999450,-1.000000,0.999453,0.999455,-1.000000,-1.000000,0.999459,-1.000000,0.999462,0.999464,0.999465,-1.000000,-1.000000,-1.000000,-1.000000,-1.000000,0.999475,-1.000000,-1.000000,0.999479,-1.000000,0.999482,-1.000000,0.999485,-1.000000,0.999488,0.999490,-1.000000,0.999493,0.999495,0.999496,-1.000000,0.999499,-1.000000,0.999502,-1.000000,-1.000000,-1.000000,-1.000000,-1.000000,0.999512,0.999513,-1.000000,-1.000000,0.999518,-1.000000,0.999521,-1.000000,-1.000000,-1.000000,0.999527,-1.000000,-1.000000,-1.000000,-1.000000,-1.000000,-1.000000,0.999538,-1.000000,0.999541,-1.000000,0.999544,-1.000000,-1.000000,0.999549,0.999550,-1.000000,-1.000000,-1.000000,-1.000000,-1.000000,-1.000000,0.999561,-1.000000,-1.000000,-1.000000,-1.000000,0.999569,-1.000000,-1.000000,0.999573,0.999575,0.999576,-1.000000,-1.000000,0.999581,-1.000000,-1.000000,-1.000000,-1.000000,0.999589,0.999590,0.999592,0.999593,0.999595,0.999596,0.999598,-1.000000,-1.000000,0.999602,-1.000000,-1.000000,0.999607,-1.000000,0.999610,0.999612,0.999613,-1.000000,-1.000000,0.999618,-1.000000,-1.000000,0.999623,0.999624,-1.000000,-1.000000,-1.000000,0.999630,-1.000000,0.999633,0.999635,-1.000000,-1.000000,-1.000000,0.999641,-1.000000,0.999644,-1.000000,-1.000000,-1.000000,0.999650,-1.000000,0.999653,0.999655,0.999656,-1.000000,-1.000000,-1.000000,0.999663,0.999664,-1.000000,0.999667,0.999669,0.999670,-1.000000,-1.000000,-1.000000,-1.000000,-1.000000,-1.000000,-1.000000,-1.000000,-1.000000,-1.000000,-1.000000,-1.000000,-1.000000,-1.000000,-1.000000,-1.000000,0.999696,-1.000000,-1.000000,-1.000000,0.999703,-1.000000,-1.000000,-1.000000,0.999709,-1.000000,0.999712,-1.000000,-1.000000,0.999716,0.999718,0.999720,-1.000000,-1.000000,0.999724,0.999726,-1.000000,0.999729,0.999730,-1.000000,-1.000000,0.999735,-1.000000,0.999738,-1.000000,-1.000000,-1.000000,-1.000000,-1.000000,-1.000000,0.999749,-1.000000,-1.000000,0.999753,-1.000000,-1.000000,0.999758,0.999760,0.999761,-1.000000,-1.000000,0.999766,-1.000000,-1.000000,0.999770,-1.000000,-1.000000,-1.000000,0.999777,0.999778,0.999780,-1.000000,0.999783,0.999784,0.999786,-1.000000,0.999789,0.999790,0.999792,-1.000000,0.999795,-1.000000,-1.000000,-1.000000,0.999801,-1.000000,-1.000000,-1.000000,0.999807,0.999809,-1.000000,-1.000000,-1.000000,-1.000000,-1.000000,0.999818,0.999820,0.999821,-1.000000,-1.000000,-1.000000,0.999827,-1.000000,0.999831,-1.000000,-1.000000,-1.000000,-1.000000,-1.000000,0.999840,-1.000000,0.999843,0.999844,-1.000000,0.999847,0.999849,0.999851,0.999852,-1.000000,0.999855,0.999857,0.999858,-1.000000,-1.000000,-1.000000,0.999864,0.999866,-1.000000,0.999869,0.999871,0.999872,0.999874,-1.000000,-1.000000,-1.000000,-1.000000,-1.000000,-1.000000,-1.000000,0.999886,-1.000000,-1.000000,-1.000000,0.999892,0.999894,0.999895,0.999897,0.999898,-1.000000,-1.000000,-1.000000,-1.000000,-1.000000,-1.000000,0.999909,-1.000000,0.999912,-1.000000,-1.000000,-1.000000,0.999918,0.999920,-1.000000,-1.000000,-1.000000,-1.000000,-1.000000,-1.000000,0.999931,-1.000000,0.999934,0.999935,-1.000000,-1.000000,0.999940,-1.000000,0.999943,-1.000000,0.999946,-1.000000,-1.000000,0.999951,-1.000000,0.999954,0.999955,0.999957,0.999958,-1.000000,-1.000000,0.999963,0.999965,-1.000000,-1.000000,-1.000000,0.999971,-1.000000,-1.000000,-1.000000,0.999977,0.999978,-1.000000,0.999982,0.999983,-1.000000,0.999986,
-1.000000,-1.000000,0.280279,-1.000000,-1.000000,0.927688,-1.000000,-1.000000,-1.000000,-1.000000,0.999385,0.555253,-1.000000,-1.000000,-1.000000,-1.000000,0.708503,0.486037,-1.000000,-1.000000,-1.000000,0.772525,0.999404,-1.000000,0.462903,0.999408,-1.000000,-1.000000,-1.000000,-1.000000,-1.000000,-1.000000,-1.000000,0.377686,0.601260,0.738432,-1.000000,0.999427,-1.000000,0.999430,-1.000000,-1.000000,-1.000000,-1.000000,0.999438,0.738444,-1.000000,-1.000000,-1.000000,-1.000000,0.999447,-1.000000,0.999450,-1.000000,-1.000000,-1.000000,0.999456,-1.000000,0.311705,0.999461,-1.000000,-1.000000,-1.000000,-1.000000,-1.000000,0.999470,-1.000000,-1.000000,0.999475,0.999476,0.999478,-1.000000,0.381690,-1.000000,0.999484,0.999485,-1.000000,-1.000000,-1.000000,-1.000000,-1.000000,0.635714,-1.000000,-1.000000,0.999499,-1.000000,-1.000000,-1.000000,-1.000000,0.999507,-1.000000,-1.000000,-1.000000,-1.000000,-1.000000,-1.000000,-1.000000,-1.000000,-1.000000,-1.000000,-1.000000,-1.000000,-1.000000,-1.000000,-1.000000,-1.000000,-1.000000,0.999535,-1.000000,-1.000000,-1.000000,-1.000000,0.999542,-1.000000,-1.000000,-1.000000,-1.000000,-1.000000,0.806687,-1.000000,-1.000000,-1.000000,-1.000000,-1.000000,0.999561,-1.000000,-1.000000,-1.000000,-1.000000,0.999569,-1.000000,-1.000000,-1.000000,0.416616,0.532332,-1.000000,0.532334,-1.000000,0.885865,0.742826,-1.000000,0.738560,-1.000000,0.885872,0.784034,-1.000000,-1.000000,-1.000000,-1.000000,0.860400,-1.000000,-1.000000,0.999604,-1.000000,-1.000000,-1.000000,-1.000000,-1.000000,-1.000000,0.589133,0.818073,-1.000000,-1.000000,-1.000000,-1.000000,0.999624,-1.000000,0.999627,0.999629,-1.000000,-1.000000,0.874627,-1.000000,-1.000000,-1.000000,-1.000000,0.999641,-1.000000,-1.000000,0.999646,-1.000000,-1.000000,0.908470,-1.000000,-1.000000,0.532381,0.999656,-1.000000,0.999659,0.818111,0.715834,0.670169,-1.000000,0.532389,-1.000000,-1.000000,0.999672,-1.000000,0.953487,-1.000000,-1.000000,-1.000000,-1.000000,-1.000000,-1.000000,0.999686,0.999687,-1.000000,-1.000000,0.750023,0.670190,-1.000000,-1.000000,-1.000000,-1.000000,-1.000000,0.999703,-1.000000,0.310223,0.874693,0.999709,-1.000000,-1.000000,0.999713,-1.000000,-1.000000,-1.000000,-1.000000,-1.000000,-1.000000,-1.000000,-1.000000,-1.000000,-1.000000,-1.000000,-1.000000,-1.000000,-1.000000,-1.000000,-1.000000,0.635887,0.241556,-1.000000,-1.000000,-1.000000,-1.000000,0.999749,0.999750,-1.000000,-1.000000,-1.000000,-1.000000,-1.000000,-1.000000,0.999761,0.999763,-1.000000,-1.000000,-1.000000,-1.000000,0.999770,0.999772,-1.000000,-1.000000,0.590015,-1.000000,-1.000000,0.999781,-1.000000,-1.000000,0.999786,0.999787,0.999789,-1.000000,-1.000000,0.999794,-1.000000,0.999797,-1.000000,0.953607,0.704535,-1.000000,-1.000000,0.999806,-1.000000,-1.000000,0.999810,-1.000000,-1.000000,0.999815,-1.000000,-1.000000,0.999820,-1.000000,0.999823,0.999824,-1.000000,0.999827,0.942397,-1.000000,-1.000000,0.999834,-1.000000,-1.000000,0.463155,0.311891,-1.000000,-1.000000,-1.000000,-1.000000,0.999847,-1.000000,-1.000000,0.999852,0.999854,-1.000000,-1.000000,0.942424,-1.000000,0.485054,-1.000000,0.485383,-1.000000,0.624514,0.999869,-1.000000,-1.000000,-1.000000,0.999875,0.999877,-1.000000,0.999880,-1.000000,0.999883,-1.000000,0.845188,-1.000000,-1.000000,0.999891,-1.000000,-1.000000,0.346952,-1.000000,-1.000000,-1.000000,-1.000000,-1.000000,-1.000000,0.999906,-1.000000,0.999909,0.999911,0.999912,-1.000000,0.555595,-1.000000,-1.000000,0.999920,0.999921,-1.000000,-1.000000,-1.000000,-1.000000,0.976186,0.999931,-1.000000,-1.000000,0.999935,-1.000000,0.999938,-1.000000,-1.000000,-1.000000,0.416821,-1.000000,-1.000000,0.999949,-1.000000,-1.000000,-1.000000,-1.000000,-1.000000,-1.000000,0.999960,-1.000000,-1.000000,-1.000000,-1.000000,-1.000000,-1.000000,0.953771,-1.000000,-1.000000,0.554714,-1.000000,0.999978,0.999980,-1.000000,0.999983,0.999985,
-1.000000,-1.000000,0.999371,0.999373,-1.000000,0.999376,0.999378,0.999379,0.999381,-1.000000,0.999384,-1.000000,-1.000000,-1.000000,-1.000000,-1.000000,-1.000000,0.999395,0.999396,-1.000000,-1.000000,-1.000000,-1.000000,-1.000000,0.999405,0.999407,-1.000000,-1.000000,-1.000000,-1.000000,-1.000000,0.999416,-1.000000,0.999419,-1.000000,-1.000000,0.999424,0.999425,-1.000000,-1.000000,-1.000000,-1.000000,-1.000000,0.999435,0.999436,0.999438,-1.000000,-1.000000,-1.000000,0.999444,-1.000000,-1.000000,0.999448,-1.000000,-1.000000,0.999453,-1.000000,-1.000000,0.999458,0.999459,-1.000000,0.999462,-1.000000,-1.000000,-1.000000,-1.000000,0.999470,-1.000000,-1.000000,0.999475,0.999476,0.999478,-1.000000,-1.000000,-1.000000,-1.000000,-1.000000,-1.000000,-1.000000,0.999490,-1.000000,-1.000000,-1.000000,0.999496,0.999498,-1.000000,-1.000000,0.999502,-1.000000,0.999505,-1.000000,-1.000000,0.999510,0.999512,0.999513,0.999515,0.999516,0.999518,0.999519,0.999521,-1.000000,-1.000000,-1.000000,0.999527,-1.000000,-1.000000,-1.000000,0.999533,-1.000000,-1.000000,-1.000000,-1.000000,-1.000000,0.999542,0.999544,-1.000000,-1.000000,-1.000000,0.999550,-1.000000,0.999553,-1.000000,-1.000000,-1.000000,0.999559,-1.000000,-1.000000,-1.000000,0.999566,-1.000000,-1.000000,0.999570,0.999572,-1.000000,0.999575,0.999576,-1.000000,-1.000000,-1.000000,-1.000000,-1.000000,-1.000000,-1.000000,-1.000000,-1.000000,0.999592,0.999593,-1.000000,0.999596,-1.000000,-1.000000,-1.000000,-1.000000,0.999604,-1.000000,-1.000000,0.999609,-1.000000,-1.000000,-1.000000,0.999615,-1.000000,-1.000000,0.999619,-1.000000,0.999623,-1.000000,0.999626,-1.000000,0.999629,-1.000000,-1.000000,0.999633,0.999635,-1.000000,0.999638,-1.000000,-1.000000,0.999643,-1.000000,0.999646,0.999647,-1.000000,-1.000000,-1.000000,0.999653,-1.000000,0.999656,-1.000000,-1.000000,-1.000000,0.999663,0.999664,-1.000000,-1.000000,-1.000000,0.999670,0.999672,0.999673,-1.000000,0.999676,-1.000000,0.999680,0.999681,0.999683,-1.000000,-1.000000,-1.000000,-1.000000,0.999690,0.999692,0.999693,-1.000000,-1.000000,0.999698,-1.000000,0.999701,-1.000000,-1.000000,-1.000000,0.999707,-1.000000,-1.000000,-1.000000,-1.000000,-1.000000,0.999716,-1.000000,0.999720,-1.000000,-1.000000,0.999724,-1.000000,-1.000000,-1.000000,0.999730,-1.000000,-1.000000,-1.000000,-1.000000,-1.000000,-1.000000,-1.000000,-1.000000,-1.000000,-1.000000,0.999747,-1.000000,-1.000000,-1.000000,-1.000000,0.999755,0.999757,-1.000000,0.999760,-1.000000,-1.000000,-1.000000,-1.000000,-1.000000,-1.000000,-1.000000,0.999772,-1.000000,-1.000000,0.999777,-1.000000,0.999780,-1.000000,0.999783,0.999784,0.999786,0.999787,-1.000000,-1.000000,-1.000000,-1.000000,0.999795,-1.000000,-1.000000,-1.000000,0.999801,-1.000000,-1.000000,-1.000000,-1.000000,-1.000000,-1.000000,-1.000000,0.999814,-1.000000,0.999817,0.999818,0.999820,0.999821,-1.000000,-1.000000,-1.000000,-1.000000,-1.000000,0.999831,0.999832,-1.000000,0.999835,0.999837,-1.000000,0.999840,0.999841,-1.000000,-1.000000,0.999846,0.999847,0.999849,-1.000000,0.999852,-1.000000,-1.000000,0.999857,-1.000000,0.999860,-1.000000,-1.000000,-1.000000,-1.000000,-1.000000,-1.000000,0.999871,-1.000000,-1.000000,0.999875,0.999877,0.999878,-1.000000,-1.000000,-1.000000,0.999884,-1.000000,-1.000000,0.999889,0.999891,-1.000000,-1.000000,0.999895,0.999897,-1.000000,-1.000000,-1.000000,-1.000000,-1.000000,0.999906,-1.000000,-1.000000,-1.000000,-1.000000,-1.000000,-1.000000,0.999917,-1.000000,0.999920,-1.000000,-1.000000,-1.000000,0.999926,-1.000000,-1.000000,-1.000000,-1.000000,-1.000000,-1.000000,0.999937,-1.000000,-1.000000,0.970507,0.999943,-1.000000,-1.000000,0.999948,-1.000000,-1.000000,-1.000000,0.999954,0.999955,-1.000000,-1.000000,-1.000000,0.999961,-1.000000,-1.000000,-1.000000,0.999968,-1.000000,-1.000000,-1.000000,-1.000000,-1.000000,-1.000000,-1.000000,-1.000000,-1.000000,-1.000000,
-1.000000,-1.000000,-1.000000,0.999371,0.999373,0.999375,-1.000000,0.999378,0.999379,-1.000000,-1.000000,-1.000000,0.999385,-1.000000,0.999388,-1.000000,-1.000000,0.999393,-1.000000,-1.000000,-1.000000,-1.000000,-1.000000,-1.000000,-1.000000,0.999405,-1.000000,0.999408,-1.000000,-1.000000,-1.000000,0.999415,-1.000000,-1.000000,0.999419,0.999421,0.999422,0.999424,-1.000000,0.999427,0.999428,-1.000000,-1.000000,-1.000000,-1.000000,-1.000000,-1.000000,-1.000000,-1.000000,0.999442,-1.000000,0.999445,-1.000000,-1.000000,0.999450,-1.000000,0.999453,-1.000000,-1.000000,-1.000000,-1.000000,-1.000000,-1.000000,0.999464,-1.000000,0.999467,-1.000000,0.999470,-1.000000,-1.000000,-1.000000,-1.000000,-1.000000,0.999479,-1.000000,0.999482,-1.000000,0.999485,0.999487,-1.000000,-1.000000,-1.000000,-1.000000,-1.000000,0.999496,0.999498,0.999499,-1.000000,0.999502,0.999504,0.999505,-1.000000,-1.000000,0.999510,-1.000000,-1.000000,0.999515,-1.000000,-1.000000,0.999519,-1.000000,-1.000000,-1.000000,-1.000000,-1.000000,-1.000000,0.999530,-1.000000,0.999533,0.999535,0.999536,-1.000000,0.999539,0.999541,-1.000000,-1.000000,-1.000000,0.999547,-1.000000,-1.000000,-1.000000,0.999553,-1.000000,0.999556,0.999558,-1.000000,-1.000000,-1.000000,-1.000000,-1.000000,0.999567,-1.000000,-1.000000,-1.000000,0.999573,0.999575,0.999576,-1.000000,-1.000000,-1.000000,0.999582,0.999584,-1.000000,0.999587,-1.000000,-1.000000,0.999592,0.999593,-1.000000,0.999596,0.999598,0.999599,-1.000000,-1.000000,-1.000000,0.999606,-1.000000,-1.000000,0.999610,-1.000000,0.999613,-1.000000,-1.000000,0.999618,-1.000000,-1.000000,-1.000000,0.999624,-1.000000,-1.000000,-1.000000,-1.000000,0.999632,-1.000000,0.999635,-1.000000,-1.000000,-1.000000,0.999641,-1.000000,-1.000000,-1.000000,0.999647,-1.000000,-1.000000,0.999652,0.999653,0.999655,-1.000000,-1.000000,-1.000000,0.999661,0.999663,0.999664,0.999666,0.999667,-1.000000,0.999670,-1.000000,0.999673,-1.000000,-1.000000,-1.000000,0.999680,-1.000000,0.999683,0.999684,-1.000000,-1.000000,-1.000000,-1.000000,-1.000000,-1.000000,0.999695,0.999696,0.999698,0.999700,0.999701,-1.000000,-1.000000,-1.000000,-1.000000,0.999709,-1.000000,0.999712,-1.000000,0.999715,0.999716,-1.000000,-1.000000,0.999721,-1.000000,-1.000000,0.999726,0.999727,-1.000000,-1.000000,-1.000000,-1.000000,-1.000000,-1.000000,-1.000000,0.999740,-1.000000,-1.000000,-1.000000,-1.000000,-1.000000,-1.000000,0.999750,-1.000000,-1.000000,0.999755,-1.000000,-1.000000,-1.000000,-1.000000,0.999763,-1.000000,-1.000000,-1.000000,0.999769,-1.000000,-1.000000,-1.000000,-1.000000,-1.000000,0.999778,-1.000000,-1.000000,-1.000000,-1.000000,-1.000000,-1.000000,0.999789,-1.000000,-1.000000,0.999794,0.999795,0.999797,-1.000000,0.999800,-1.000000,0.999803,0.999804,0.999806,-1.000000,0.999809,-1.000000,-1.000000,-1.000000,-1.000000,-1.000000,0.999818,-1.000000,-1.000000,0.999823,-1.000000,0.999826,0.999827,0.999829,-1.000000,0.999832,-1.000000,-1.000000,0.999837,-1.000000,-1.000000,-1.000000,0.999843,-1.000000,-1.000000,-1.000000,-1.000000,-1.000000,0.999852,-1.000000,-1.000000,0.999857,0.999858,-1.000000,0.999861,-1.000000,-1.000000,-1.000000,-1.000000,-1.000000,-1.000000,0.970439,-1.000000,0.999875,-1.000000,-1.000000,0.999880,-1.000000,-1.000000,-1.000000,-1.000000,-1.000000,-1.000000,0.999891,-1.000000,-1.000000,-1.000000,-1.000000,-1.000000,0.999900,0.999901,-1.000000,-1.000000,-1.000000,0.999908,-1.000000,-1.000000,-1.000000,-1.000000,-1.000000,0.999917,-1.000000,-1.000000,-1.000000,-1.000000,-1.000000,-1.000000,0.999928,-1.000000,-1.000000,-1.000000,-1.000000,-1.000000,-1.000000,0.999938,0.999940,0.999941,0.999943,0.999945,-1.000000,-1.000000,0.999949,-1.000000,-1.000000,0.999954,-1.000000,-1.000000,0.999958,0.999960,0.999961,-1.000000,0.999965,0.999966,0.999968,-1.000000,-1.000000,0.999972,0.999974,0.999975,-1.000000,0.999978,-1.000000,-1.000000,
-1.000000,-1.000000,0.999368,-1.000000,-1.000000,-1.000000,-1.000000,-1.000000,-1.000000,0.999379,0.999381,-1.000000,-1.000000,0.999385,-1.000000,-1.000000,-1.000000,0.999391,-1.000000,0.999395,-1.000000,-1.000000,-1.000000,-1.000000,-1.000000,-1.000000,-1.000000,-1.000000,-1.000000,0.999410,-1.000000,-1.000000,-1.000000,-1.000000,0.999418,0.999419,0.999421,0.999422,-1.000000,-1.000000,-1.000000,-1.000000,-1.000000,-1.000000,-1.000000,0.999435,0.999436,-1.000000,-1.000000,0.999441,-1.000000,0.999444,-1.000000,0.999447,-1.000000,-1.000000,-1.000000,-1.000000,-1.000000,-1.000000,0.999458,-1.000000,-1.000000,0.999462,0.999464,0.795277,-1.000000,0.999468,-1.000000,-1.000000,0.999473,-1.000000,0.999476,-1.000000,-1.000000,-1.000000,0.999482,-1.000000,0.999485,-1.000000,0.806634,-1.000000,0.999492,-1.000000,-1.000000,-1.000000,-1.000000,-1.000000,-1.000000,0.999502,0.999504,0.999505,-1.000000,0.999509,-1.000000,-1.000000,-1.000000,-1.000000,0.999516,0.999518,0.970096,-1.000000,0.999522,-1.000000,-1.000000,-1.000000,0.999529,-1.000000,-1.000000,-1.000000,-1.000000,0.999536,-1.000000,-1.000000,0.999541,-1.000000,-1.000000,-1.000000,-1.000000,-1.000000,0.999550,-1.000000,0.999553,-1.000000,-1.000000,0.999558,-1.000000,-1.000000,-1.000000,-1.000000,-1.000000,-1.000000,0.999569,-1.000000,-1.000000,-1.000000,-1.000000,-1.000000,-1.000000,0.999579,-1.000000,-1.000000,0.999584,-1.000000,-1.000000,-1.000000,0.999590,-1.000000,-1.000000,-1.000000,-1.000000,-1.000000,0.999599,-1.000000,-1.000000,0.999604,-1.000000,-1.000000,-1.000000,-1.000000,-1.000000,-1.000000,-1.000000,-1.000000,0.999618,0.999619,-1.000000,-1.000000,0.999624,-1.000000,0.999627,-1.000000,-1.000000,-1.000000,-1.000000,-1.000000,-1.000000,0.999638,0.999639,-1.000000,-1.000000,-1.000000,-1.000000,0.999647,0.999649,-1.000000,0.999652,-1.000000,-1.000000,0.999656,0.999658,-1.000000,0.999661,-1.000000,-1.000000,-1.000000,0.999667,-1.000000,-1.000000,-1.000000,-1.000000,-1.000000,-1.000000,0.999678,0.999680,0.999681,0.999683,0.999684,-1.000000,-1.000000,0.999689,-1.000000,-1.000000,-1.000000,0.999695,0.999696,-1.000000,-1.000000,-1.000000,-1.000000,0.999704,0.999706,0.999707,-1.000000,-1.000000,-1.000000,0.999713,-1.000000,-1.000000,-1.000000,0.999720,0.999721,0.999723,-1.000000,-1.000000,0.970298,-1.000000,0.999730,-1.000000,-1.000000,0.999735,-1.000000,-1.000000,0.999740,-1.000000,-1.000000,0.999744,0.999746,-1.000000,0.999749,0.999750,-1.000000,-1.000000,-1.000000,-1.000000,-1.000000,-1.000000,-1.000000,-1.000000,-1.000000,0.999766,0.999767,-1.000000,0.999770,0.999772,-1.000000,0.999775,0.999777,0.999778,-1.000000,0.999781,-1.000000,-1.000000,-1.000000,-1.000000,-1.000000,-1.000000,-1.000000,-1.000000,-1.000000,0.999797,0.999798,-1.000000,-1.000000,-1.000000,0.999804,-1.000000,-1.000000,-1.000000,-1.000000,0.999812,-1.000000,0.999815,-1.000000,-1.000000,-1.000000,-1.000000,0.863502,-1.000000,-1.000000,0.999827,-1.000000,0.999831,-1.000000,-1.000000,-1.000000,0.999837,-1.000000,0.999840,-1.000000,-1.000000,0.999844,0.999846,-1.000000,0.999849,0.881795,-1.000000,0.999854,0.999855,0.999857,0.999858,-1.000000,-1.000000,0.999863,0.999864,-1.000000,-1.000000,0.999869,-1.000000,-1.000000,-1.000000,-1.000000,0.999877,0.999878,-1.000000,-1.000000,-1.000000,-1.000000,0.999886,0.999888,0.999889,-1.000000,-1.000000,0.999894,-1.000000,-1.000000,-1.000000,0.999900,0.999901,-1.000000,-1.000000,0.999906,-1.000000,-1.000000,-1.000000,0.999912,-1.000000,0.908714,-1.000000,-1.000000,-1.000000,-1.000000,0.999923,-1.000000,0.999926,-1.000000,0.999929,0.999931,0.999932,-1.000000,-1.000000,-1.000000,-1.000000,0.999940,0.999941,0.999943,0.999945,0.999946,-1.000000,-1.000000,-1.000000,-1.000000,0.999954,0.999955,0.999957,-1.000000,0.999960,-1.000000,0.999963,0.999965,-1.000000,-1.000000,0.999969,-1.000000,-1.000000,-1.000000,-1.000000,-1.000000,0.999978,-1.000000,
0.999364,-1.000000,-1.000000,-1.000000,0.999370,0.999371,0.999373,-1.000000,-1.000000,-1.000000,-1.000000,0.999381,-1.000000,-1.000000,-1.000000,0.999387,-1.000000,0.999390,0.999391,0.999393,-1.000000,-1.000000,0.999398,-1.000000,-1.000000,-1.000000,-1.000000,-1.000000,-1.000000,0.999408,-1.000000,-1.000000,-1.000000,-1.000000,-1.000000,-1.000000,-1.000000,-1.000000,-1.000000,-1.000000,-1.000000,-1.000000,-1.000000,-1.000000,-1.000000,-1.000000,-1.000000,-1.000000,-1.000000,0.999439,-1.000000,0.999442,0.999444,0.999445,0.999447,0.999448,-1.000000,-1.000000,0.999453,-1.000000,-1.000000,-1.000000,-1.000000,0.999461,-1.000000,-1.000000,0.999465,0.999467,0.999468,-1.000000,-1.000000,0.999473,-1.000000,-1.000000,-1.000000,0.999479,-1.000000,-1.000000,-1.000000,-1.000000,0.999487,-1.000000,0.999490,-1.000000,-1.000000,-1.000000,-1.000000,-1.000000,-1.000000,-1.000000,-1.000000,-1.000000,-1.000000,-1.000000,-1.000000,-1.000000,-1.000000,0.999513,0.999515,0.999516,0.999518,0.999519,-1.000000,0.999522,-1.000000,-1.000000,0.999527,-1.000000,-1.000000,-1.000000,0.999533,-1.000000,0.999536,-1.000000,0.999539,0.999541,-1.000000,-1.000000,0.999545,-1.000000,-1.000000,0.999550,-1.000000,-1.000000,-1.000000,-1.000000,-1.000000,-1.000000,0.999561,0.999562,0.999564,-1.000000,-1.000000,0.999569,-1.000000,0.999572,-1.000000,0.999575,-1.000000,0.999578,-1.000000,0.999581,0.999582,-1.000000,0.999586,0.999587,0.999589,0.999590,0.999592,-1.000000,0.999595,0.999596,-1.000000,-1.000000,-1.000000,-1.000000,-1.000000,-1.000000,-1.000000,0.999609,-1.000000,-1.000000,-1.000000,0.999615,-1.000000,-1.000000,-1.000000,0.999621,0.999623,0.999624,-1.000000,0.999627,-1.000000,0.999630,0.999632,0.999633,-1.000000,-1.000000,-1.000000,-1.000000,0.999641,-1.000000,0.999644,0.999646,-1.000000,0.999649,-1.000000,-1.000000,-1.000000,-1.000000,0.999656,0.999658,-1.000000,0.999661,-1.000000,-1.000000,0.999666,-1.000000,0.999669,-1.000000,-1.000000,0.999673,-1.000000,0.999676,0.999678,-1.000000,-1.000000,-1.000000,0.999684,-1.000000,-1.000000,-1.000000,-1.000000,-1.000000,-1.000000,-1.000000,-1.000000,-1.000000,-1.000000,0.999701,-1.000000,0.999704,-1.000000,0.999707,-1.000000,-1.000000,-1.000000,-1.000000,-1.000000,-1.000000,-1.000000,0.999720,0.999721,-1.000000,-1.000000,-1.000000,-1.000000,0.999729,-1.000000,0.999732,-1.000000,0.999735,-1.000000,-1.000000,-1.000000,-1.000000,0.999743,0.999744,-1.000000,0.999747,-1.000000,-1.000000,0.999752,0.999753,0.999755,-1.000000,0.999758,-1.000000,-1.000000,-1.000000,-1.000000,0.999766,-1.000000,0.999769,0.999770,-1.000000,-1.000000,0.999775,-1.000000,-1.000000,-1.000000,-1.000000,0.999783,0.999784,-1.000000,-1.000000,-1.000000,-1.000000,0.999792,0.999794,0.999795,-1.000000,0.999798,-1.000000,-1.000000,0.999803,-1.000000,-1.000000,-1.000000,-1.000000,-1.000000,0.999812,0.999814,0.999815,-1.000000,-1.000000,-1.000000,-1.000000,-1.000000,-1.000000,0.999826,0.999827,-1.000000,-1.000000,-1.000000,0.999834,0.999835,-1.000000,0.999838,-1.000000,0.999841,0.999843,-1.000000,0.999846,0.999847,0.999849,-1.000000,0.999852,-1.000000,0.999855,-1.000000,-1.000000,0.999860,0.999861,0.999863,-1.000000,-1.000000,0.999867,-1.000000,-1.000000,0.999872,-1.000000,-1.000000,-1.000000,0.999878,-1.000000,0.999881,-1.000000,-1.000000,-1.000000,-1.000000,-1.000000,0.999891,-1.000000,0.999894,-1.000000,0.999897,0.999898,-1.000000,0.999901,-1.000000,-1.000000,0.999906,-1.000000,0.999909,-1.000000,-1.000000,0.999914,0.999915,0.999917,0.999918,0.999920,-1.000000,-1.000000,0.999924,0.999926,-1.000000,-1.000000,0.999931,0.999932,0.999934,-1.000000,0.999937,-1.000000,-1.000000,-1.000000,0.999943,-1.000000,0.999946,-1.000000,0.999949,-1.000000,-1.000000,-1.000000,-1.000000,-1.000000,0.999958,-1.000000,0.999961,-1.000000,-1.000000,-1.000000,0.970532,-1.000000,-1.000000,-1.000000,0.999974,-1.000000,-1.000000,-1.000000,
0.999362,0.874386,-1.000000,-1.000000,0.749766,-1.000000,-1.000000,0.566752,-1.000000,-1.000000,0.999378,0.381141,-1.000000,-1.000000,0.851817,0.532211,0.497589,-1.000000,-1.000000,-1.000000,-1.000000,-1.000000,-1.000000,0.919495,-1.000000,0.999401,-1.000000,-1.000000,0.851835,0.402002,-1.000000,-1.000000,-1.000000,-1.000000,-1.000000,-1.000000,-1.000000,0.749806,0.206162,-1.000000,0.817910,0.851853,-1.000000,-1.000000,-1.000000,-1.000000,0.999433,-1.000000,-1.000000,0.792418,-1.000000,-1.000000,-1.000000,-1.000000,-1.000000,-1.000000,0.999448,0.658577,-1.000000,-1.000000,-1.000000,-1.000000,-1.000000,-1.000000,-1.000000,-1.000000,-1.000000,0.555304,-1.000000,-1.000000,-1.000000,-1.000000,-1.000000,0.999475,-1.000000,-1.000000,0.999479,-1.000000,-1.000000,-1.000000,-1.000000,-1.000000,-1.000000,0.241444,-1.000000,-1.000000,-1.000000,-1.000000,-1.000000,-1.000000,0.999501,-1.000000,0.170868,-1.000000,-1.000000,0.601319,0.953329,-1.000000,-1.000000,0.999515,-1.000000,0.829312,0.806660,-1.000000,-1.000000,0.874529,0.999525,-1.000000,-1.000000,0.701477,-1.000000,0.953351,0.999535,-1.000000,-1.000000,-1.000000,0.704338,-1.000000,-1.000000,-1.000000,-1.000000,0.999549,-1.000000,0.975816,-1.000000,-1.000000,-1.000000,-1.000000,-1.000000,-1.000000,0.999562,-1.000000,0.987041,-1.000000,0.635766,-1.000000,-1.000000,-1.000000,-1.000000,0.589880,0.497705,-1.000000,-1.000000,-1.000000,-1.000000,-1.000000,0.999587,0.999589,-1.000000,0.940686,-1.000000,-1.000000,-1.000000,0.999598,0.999599,0.999601,-1.000000,-1.000000,0.497722,-1.000000,-1.000000,-1.000000,0.999612,-1.000000,-1.000000,-1.000000,-1.000000,-1.000000,-1.000000,0.215069,0.999624,0.975888,-1.000000,0.975891,-1.000000,0.999632,0.999633,-1.000000,0.999636,-1.000000,-1.000000,0.999641,0.206256,0.486186,-1.000000,-1.000000,-1.000000,-1.000000,-1.000000,-1.000000,-1.000000,-1.000000,-1.000000,0.874650,-1.000000,-1.000000,0.999664,-1.000000,0.658734,0.589942,0.999670,-1.000000,-1.000000,-1.000000,0.520860,-1.000000,0.589950,0.624384,0.386161,-1.000000,0.999686,0.381799,-1.000000,0.999690,-1.000000,-1.000000,-1.000000,0.451487,0.999698,-1.000000,-1.000000,-1.000000,-1.000000,-1.000000,0.999707,-1.000000,-1.000000,-1.000000,0.463082,0.658769,-1.000000,-1.000000,0.772782,-1.000000,-1.000000,-1.000000,0.416699,-1.000000,0.772790,-1.000000,-1.000000,-1.000000,0.999735,-1.000000,-1.000000,-1.000000,0.999741,0.999743,-1.000000,0.704493,0.999747,0.940835,-1.000000,-1.000000,0.704499,0.555492,-1.000000,0.999758,-1.000000,0.999761,-1.000000,-1.000000,-1.000000,0.999767,0.414645,0.999770,-1.000000,0.999773,-1.000000,-1.000000,-1.000000,-1.000000,0.520925,-1.000000,0.999784,0.999786,-1.000000,-1.000000,-1.000000,-1.000000,0.999794,0.999795,-1.000000,0.738725,0.999800,-1.000000,-1.000000,-1.000000,-1.000000,-1.000000,-1.000000,-1.000000,-1.000000,-1.000000,-1.000000,-1.000000,0.919887,-1.000000,-1.000000,0.999823,0.999824,-1.000000,-1.000000,-1.000000,-1.000000,-1.000000,-1.000000,0.693147,-1.000000,-1.000000,0.999840,-1.000000,-1.000000,-1.000000,-1.000000,-1.000000,0.999849,0.601552,-1.000000,0.999854,-1.000000,0.171011,-1.000000,-1.000000,-1.000000,-1.000000,0.999864,-1.000000,-1.000000,-1.000000,-1.000000,0.995751,-1.000000,0.772908,-1.000000,-1.000000,-1.000000,-1.000000,-1.000000,-1.000000,0.999886,0.886140,-1.000000,-1.000000,-1.000000,-1.000000,-1.000000,0.346952,-1.000000,0.555585,-1.000000,-1.000000,0.999904,-1.000000,-1.000000,-1.000000,0.999911,0.840968,0.497909,-1.000000,0.738819,0.567110,-1.000000,0.840976,-1.000000,0.999924,-1.000000,-1.000000,-1.000000,-1.000000,0.999932,0.999934,-1.000000,-1.000000,0.999938,0.999940,0.999941,0.999943,-1.000000,0.807018,-1.000000,-1.000000,0.281228,-1.000000,-1.000000,0.241651,-1.000000,-1.000000,-1.000000,0.953762,-1.000000,0.999965,-1.000000,0.999968,0.999969,-1.000000,0.999972,0.693250,0.738864,0.999977,
-1.000000,-1.000000,0.999364,-1.000000,-1.000000,0.999368,-1.000000,0.999371,-1.000000,0.999375,-1.000000,-1.000000,0.999379,0.999381,-1.000000,0.999384,-1.000000,-1.000000,0.999388,-1.000000,0.999391,0.999393,0.999395,-1.000000,-1.000000,-1.000000,0.999401,-1.000000,0.999404,-1.000000,0.999407,-1.000000,0.999410,-1.000000,-1.000000,0.999415,-1.000000,0.999418,-1.000000,0.999421,-1.000000,0.999424,-1.000000,0.999427,-1.000000,0.999430,-1.000000,-1.000000,-1.000000,-1.000000,-1.000000,0.999439,-1.000000,-1.000000,-1.000000,0.999445,0.999447,-1.000000,-1.000000,-1.000000,0.999453,-1.000000,-1.000000,-1.000000,-1.000000,-1.000000,0.999462,0.999464,-1.000000,-1.000000,-1.000000,-1.000000,0.999472,0.999473,-1.000000,-1.000000,-1.000000,-1.000000,-1.000000,-1.000000,-1.000000,-1.000000,-1.000000,0.999488,0.999490,-1.000000,-1.000000,-1.000000,0.999496,-1.000000,-1.000000,-1.000000,-1.000000,-1.000000,-1.000000,-1.000000,-1.000000,0.999510,-1.000000,-1.000000,-1.000000,0.999516,0.999518,0.999519,-1.000000,-1.000000,0.999524,-1.000000,-1.000000,0.999529,-1.000000,0.999532,-1.000000,0.999535,-1.000000,0.999538,0.999539,-1.000000,0.999542,-1.000000,-1.000000,-1.000000,-1.000000,-1.000000,-1.000000,-1.000000,-1.000000,0.999556,-1.000000,-1.000000,-1.000000,-1.000000,-1.000000,-1.000000,0.999567,-1.000000,-1.000000,-1.000000,-1.000000,-1.000000,-1.000000,-1.000000,-1.000000,-1.000000,-1.000000,-1.000000,-1.000000,-1.000000,-1.000000,0.999590,-1.000000,0.999593,-1.000000,0.999596,-1.000000,-1.000000,0.999601,-1.000000,-1.000000,0.999606,0.999607,-1.000000,0.999610,0.999612,0.999613,-1.000000,0.999616,0.999618,0.999619,0.999621,-1.000000,0.999624,-1.000000,0.999627,-1.000000,0.999630,0.999632,-1.000000,-1.000000,0.999636,-1.000000,-1.000000,-1.000000,0.999643,0.999644,-1.000000,-1.000000,-1.000000,0.999650,-1.000000,0.999653,0.999655,-1.000000,-1.000000,-1.000000,0.999661,0.999663,0.999664,-1.000000,-1.000000,-1.000000,0.999670,-1.000000,-1.000000,-1.000000,0.999676,-1.000000,0.999680,0.999681,0.999683,0.999684,-1.000000,-1.000000,0.999689,0.999690,-1.000000,0.999693,0.999695,0.999696,-1.000000,0.999700,-1.000000,-1.000000,-1.000000,-1.000000,-1.000000,0.999709,-1.000000,0.999712,-1.000000,0.999715,-1.000000,0.999718,0.999720,-1.000000,0.999723,-1.000000,0.999726,0.999727,0.999729,0.999730,-1.000000,0.999733,-1.000000,-1.000000,0.999738,-1.000000,-1.000000,-1.000000,-1.000000,-1.000000,0.999747,0.999749,-1.000000,-1.000000,-1.000000,-1.000000,-1.000000,0.999758,-1.000000,-1.000000,-1.000000,0.999764,-1.000000,-1.000000,0.999769,-1.000000,-1.000000,0.999773,0.999775,0.999777,0.999778,0.999780,0.999781,-1.000000,-1.000000,-1.000000,-1.000000,-1.000000,-1.000000,-1.000000,0.999794,0.999795,-1.000000,0.999798,-1.000000,-1.000000,-1.000000,-1.000000,0.999806,0.999807,0.999809,-1.000000,0.999812,-1.000000,0.999815,0.999817,0.999818,0.999820,-1.000000,-1.000000,0.999824,0.999826,0.999827,-1.000000,0.999831,0.999832,-1.000000,-1.000000,0.999837,0.999838,0.999840,-1.000000,-1.000000,0.999844,-1.000000,-1.000000,0.999849,-1.000000,0.999852,0.999854,0.999855,-1.000000,0.999858,-1.000000,0.999861,-1.000000,-1.000000,-1.000000,-1.000000,-1.000000,-1.000000,-1.000000,0.999874,0.999875,0.999877,0.999878,-1.000000,-1.000000,-1.000000,-1.000000,0.999886,0.999888,-1.000000,0.999891,-1.000000,-1.000000,-1.000000,-1.000000,-1.000000,0.999900,0.999901,-1.000000,-1.000000,-1.000000,0.999908,-1.000000,-1.000000,-1.000000,0.999914,-1.000000,-1.000000,0.999918,0.999920,-1.000000,-1.000000,-1.000000,-1.000000,-1.000000,-1.000000,-1.000000,-1.000000,-1.000000,0.999935,-1.000000,0.999938,0.999940,-1.000000,-1.000000,-1.000000,0.999946,0.999948,0.999949,0.999951,-1.000000,0.999954,0.999955,-1.000000,0.999958,-1.000000,0.999961,-1.000000,0.999965,-1.000000,0.999968,0.999969,-1.000000,-1.000000,-1.000000,-1.000000,
-1.000000,0.999361,-1.000000,-1.000000,-1.000000,0.999367,-1.000000,-1.000000,-1.000000,0.999373,-1.000000,-1.000000,0.999378,0.999379,0.999381,0.999382,-1.000000,0.999385,0.999387,-1.000000,-1.000000,-1.000000,-1.000000,-1.000000,-1.000000,-1.000000,-1.000000,-1.000000,-1.000000,-1.000000,-1.000000,-1.000000,-1.000000,0.999410,0.999411,0.999413,-1.000000,-1.000000,-1.000000,-1.000000,0.999421,-1.000000,-1.000000,-1.000000,0.999427,-1.000000,0.999430,0.999432,0.999433,-1.000000,0.999436,0.999438,-1.000000,-1.000000,-1.000000,-1.000000,0.999445,-1.000000,0.999448,0.999450,-1.000000,-1.000000,-1.000000,0.999456,0.999458,0.999459,-1.000000,-1.000000,0.999464,-1.000000,0.999467,-1.000000,-1.000000,0.999472,0.999473,0.999475,0.999476,0.999478,-1.000000,-1.000000,-1.000000,0.999484,0.999485,-1.000000,-1.000000,0.999490,-1.000000,0.999493,-1.000000,0.999496,0.999498,0.999499,-1.000000,0.999502,-1.000000,-1.000000,0.999507,0.999509,0.999510,-1.000000,0.999513,-1.000000,-1.000000,0.999518,0.999519,-1.000000,0.999522,-1.000000,0.999525,0.999527,-1.000000,0.999530,0.999532,-1.000000,-1.000000,0.999536,-1.000000,-1.000000,0.999541,-1.000000,-1.000000,-1.000000,-1.000000,-1.000000,0.999550,-1.000000,0.999553,-1.000000,0.999556,-1.000000,-1.000000,-1.000000,0.999562,0.999564,-1.000000,-1.000000,0.999569,-1.000000,-1.000000,0.999573,-1.000000,0.999576,-1.000000,0.999579,0.999581,-1.000000,-1.000000,0.999586,-1.000000,0.999589,-1.000000,0.999592,0.999593,-1.000000,0.999596,0.999598,-1.000000,-1.000000,0.999602,-1.000000,-1.000000,-1.000000,-1.000000,-1.000000,0.999612,-1.000000,-1.000000,0.999616,0.999618,0.999619,-1.000000,-1.000000,-1.000000,-1.000000,0.999627,-1.000000,0.999630,-1.000000,-1.000000,0.999635,-1.000000,0.999638,-1.000000,0.999641,-1.000000,-1.000000,-1.000000,0.999647,-1.000000,-1.000000,-1.000000,-1.000000,-1.000000,0.999656,0.999658,0.999659,-1.000000,-1.000000,0.999664,0.999666,0.999667,0.999669,0.999670,0.999672,-1.000000,0.999675,-1.000000,0.999678,-1.000000,0.999681,-1.000000,-1.000000,0.999686,0.999687,-1.000000,-1.000000,0.999692,-1.000000,-1.000000,-1.000000,0.999698,0.999700,-1.000000,0.999703,-1.000000,-1.000000,-1.000000,-1.000000,-1.000000,-1.000000,0.999713,0.999715,0.999716,0.999718,0.999720,-1.000000,0.999723,0.999724,0.999726,-1.000000,-1.000000,-1.000000,-1.000000,0.999733,0.999735,-1.000000,-1.000000,-1.000000,-1.000000,0.999743,-1.000000,0.999746,-1.000000,0.999749,-1.000000,0.999752,0.999753,0.999755,0.999757,0.999758,-1.000000,-1.000000,-1.000000,-1.000000,0.999766,0.999767,-1.000000,-1.000000,-1.000000,-1.000000,-1.000000,-1.000000,-1.000000,-1.000000,0.999781,-1.000000,-1.000000,-1.000000,-1.000000,0.999789,-1.000000,0.999792,-1.000000,0.999795,-1.000000,-1.000000,-1.000000,-1.000000,-1.000000,-1.000000,-1.000000,-1.000000,0.999809,-1.000000,-1.000000,-1.000000,-1.000000,-1.000000,0.999818,-1.000000,0.999821,0.999823,0.999824,0.999826,0.999827,0.999829,-1.000000,-1.000000,-1.000000,0.999835,0.999837,0.999838,-1.000000,-1.000000,0.999843,-1.000000,-1.000000,0.999847,-1.000000,-1.000000,-1.000000,-1.000000,-1.000000,-1.000000,-1.000000,-1.000000,-1.000000,-1.000000,0.999864,0.999866,0.999867,-1.000000,-1.000000,-1.000000,0.999874,-1.000000,0.999877,-1.000000,-1.000000,-1.000000,-1.000000,0.999884,0.999886,0.999888,0.999889,-1.000000,-1.000000,0.999894,-1.000000,-1.000000,0.999898,-1.000000,-1.000000,0.999903,-1.000000,-1.000000,0.999908,-1.000000,0.999911,-1.000000,0.999914,-1.000000,0.999917,-1.000000,-1.000000,-1.000000,-1.000000,-1.000000,0.999926,-1.000000,-1.000000,-1.000000,0.999932,0.999934,-1.000000,-1.000000,-1.000000,-1.000000,0.999941,-1.000000,-1.000000,-1.000000,-1.000000,0.999949,-1.000000,-1.000000,-1.000000,0.999955,-1.000000,0.999958,0.999960,-1.000000,0.999963,-1.000000,-1.000000,0.999968,0.999969,-1.000000,0.999972,-1.000000,
-1.000000,-1.000000,0.999361,-1.000000,0.999364,-1.000000,-1.000000,0.999368,-1.000000,-1.000000,-1.000000,0.999375,0.999376,-1.000000,-1.000000,0.999381,-1.000000,-1.000000,-1.000000,0.999387,0.999388,0.999390,0.999391,-1.000000,-1.000000,-1.000000,-1.000000,0.999399,-1.000000,0.999402,-1.000000,-1.000000,0.999407,0.999408,0.999410,0.999411,0.999413,-1.000000,-1.000000,0.999418,-1.000000,-1.000000,0.999422,-1.000000,-1.000000,-1.000000,-1.000000,0.999430,-1.000000,-1.000000,-1.000000,-1.000000,-1.000000,-1.000000,0.999441,0.999442,-1.000000,0.999445,-1.000000,0.999448,-1.000000,-1.000000,0.999453,-1.000000,0.999456,-1.000000,0.999459,-1.000000,-1.000000,0.999464,-1.000000,-1.000000,0.999468,0.999470,0.999472,-1.000000,0.999475,-1.000000,-1.000000,-1.000000,-1.000000,-1.000000,-1.000000,0.999485,-1.000000,0.999488,-1.000000,-1.000000,-1.000000,-1.000000,0.999496,0.999498,0.999499,-1.000000,-1.000000,-1.000000,0.999505,-1.000000,-1.000000,-1.000000,0.999512,-1.000000,-1.000000,-1.000000,-1.000000,0.999519,-1.000000,0.999522,0.999524,-1.000000,0.999527,0.999529,0.999530,0.999532,-1.000000,0.999535,-1.000000,0.999538,0.999539,0.999541,0.999542,-1.000000,-1.000000,-1.000000,-1.000000,-1.000000,-1.000000,0.999553,0.999555,-1.000000,0.999558,-1.000000,-1.000000,0.999562,-1.000000,-1.000000,-1.000000,0.999569,-1.000000,0.999572,-1.000000,-1.000000,0.999576,0.999578,-1.000000,-1.000000,0.999582,0.999584,-1.000000,-1.000000,-1.000000,-1.000000,0.999592,-1.000000,-1.000000,-1.000000,0.999598,0.999599,-1.000000,-1.000000,0.999604,0.999606,0.999607,-1.000000,-1.000000,-1.000000,-1.000000,0.999615,-1.000000,0.999618,0.999619,-1.000000,-1.000000,0.999624,0.999626,-1.000000,0.999629,-1.000000,0.999632,-1.000000,-1.000000,-1.000000,-1.000000,0.999639,0.999641,0.999643,-1.000000,-1.000000,0.999647,-1.000000,0.999650,-1.000000,-1.000000,-1.000000,-1.000000,0.999658,0.999659,-1.000000,-1.000000,0.999664,0.999666,-1.000000,0.999669,-1.000000,-1.000000,-1.000000,-1.000000,-1.000000,-1.000000,0.999680,-1.000000,0.999683,-1.000000,-1.000000,-1.000000,0.999689,0.999690,0.999692,0.999693,-1.000000,0.999696,0.999698,-1.000000,0.999701,-1.000000,0.999704,-1.000000,0.999707,0.999709,-1.000000,0.999712,-1.000000,-1.000000,-1.000000,-1.000000,-1.000000,-1.000000,0.999723,0.999724,0.999726,-1.000000,0.999729,0.999730,-1.000000,0.999733,0.999735,0.999737,-1.000000,0.999740,0.999741,0.999743,-1.000000,-1.000000,-1.000000,0.999749,-1.000000,0.999752,-1.000000,-1.000000,-1.000000,0.999758,-1.000000,-1.000000,0.999763,0.999764,0.999766,-1.000000,-1.000000,-1.000000,-1.000000,-1.000000,-1.000000,-1.000000,0.999778,-1.000000,0.999781,0.999783,0.999784,-1.000000,-1.000000,-1.000000,0.999790,0.999792,-1.000000,0.999795,0.999797,-1.000000,-1.000000,0.999801,-1.000000,0.999804,-1.000000,-1.000000,-1.000000,0.999810,-1.000000,-1.000000,0.999815,0.999817,-1.000000,0.999820,0.999821,-1.000000,0.999824,-1.000000,-1.000000,0.999829,0.999831,-1.000000,0.999834,-1.000000,-1.000000,-1.000000,-1.000000,-1.000000,0.999843,-1.000000,0.999846,0.999847,0.999849,0.999851,-1.000000,0.999854,-1.000000,0.999857,-1.000000,-1.000000,-1.000000,0.999863,-1.000000,-1.000000,0.999867,0.999869,-1.000000,-1.000000,-1.000000,0.999875,-1.000000,0.999878,-1.000000,0.999881,-1.000000,-1.000000,-1.000000,-1.000000,0.999889,0.999891,-1.000000,-1.000000,-1.000000,-1.000000,-1.000000,0.999900,0.999901,0.999903,-1.000000,-1.000000,-1.000000,-1.000000,0.999911,-1.000000,-1.000000,0.999915,-1.000000,0.999918,0.999920,0.999921,-1.000000,-1.000000,-1.000000,-1.000000,0.999929,-1.000000,-1.000000,-1.000000,-1.000000,0.999937,-1.000000,0.999940,0.999941,0.999943,-1.000000,0.999946,-1.000000,-1.000000,-1.000000,-1.000000,-1.000000,-1.000000,-1.000000,-1.000000,-1.000000,0.999961,-1.000000,-1.000000,-1.000000,-1.000000,0.999969,-1.000000,-1.000000,
0.999356,-1.000000,0.999359,0.999361,-1.000000,-1.000000,0.999365,0.999367,-1.000000,0.999370,0.999371,0.999373,0.999375,0.999376,-1.000000,-1.000000,-1.000000,-1.000000,0.999384,0.999385,-1.000000,0.999388,0.999390,-1.000000,-1.000000,0.999395,-1.000000,-1.000000,-1.000000,0.999401,-1.000000,0.999404,-1.000000,0.999407,-1.000000,-1.000000,0.999411,0.999413,-1.000000,0.999416,-1.000000,-1.000000,0.999421,-1.000000,-1.000000,-1.000000,0.999427,0.999428,-1.000000,-1.000000,-1.000000,-1.000000,0.999436,-1.000000,0.999439,0.999441,0.999442,0.999444,0.999445,-1.000000,-1.000000,0.999450,-1.000000,-1.000000,-1.000000,-1.000000,-1.000000,0.999459,-1.000000,-1.000000,-1.000000,-1.000000,-1.000000,0.999468,-1.000000,-1.000000,-1.000000,0.999475,-1.000000,-1.000000,0.999479,0.999481,-1.000000,-1.000000,0.999485,0.999487,0.999488,0.999490,-1.000000,-1.000000,-1.000000,0.999496,0.999498,-1.000000,0.999501,-1.000000,-1.000000,0.999505,0.999507,0.999509,-1.000000,-1.000000,-1.000000,-1.000000,0.999516,-1.000000,0.999519,0.999521,0.999522,0.999524,-1.000000,-1.000000,0.999529,-1.000000,0.999532,0.999533,0.999535,-1.000000,-1.000000,-1.000000,-1.000000,-1.000000,0.999544,-1.000000,0.999547,-1.000000,-1.000000,0.999552,0.999553,-1.000000,-1.000000,0.999558,-1.000000,-1.000000,0.999562,0.999564,-1.000000,-1.000000,-1.000000,-1.000000,-1.000000,-1.000000,-1.000000,0.999576,0.999578,-1.000000,-1.000000,-1.000000,-1.000000,-1.000000,-1.000000,0.999589,0.999590,-1.000000,-1.000000,-1.000000,0.999596,-1.000000,-1.000000,-1.000000,-1.000000,0.999604,-1.000000,-1.000000,0.999609,0.999610,0.999612,-1.000000,-1.000000,0.999616,-1.000000,-1.000000,-1.000000,0.999623,0.999624,0.999626,-1.000000,0.999629,0.999630,-1.000000,-1.000000,0.999635,-1.000000,0.999638,-1.000000,0.999641,-1.000000,0.999644,0.999646,0.999647,-1.000000,0.999650,-1.000000,-1.000000,-1.000000,-1.000000,0.999658,-1.000000,0.999661,0.999663,0.999664,0.999666,-1.000000,-1.000000,-1.000000,0.999672,-1.000000,-1.000000,0.999676,0.999678,-1.000000,0.999681,-1.000000,-1.000000,-1.000000,-1.000000,-1.000000,-1.000000,0.999692,0.999693,-1.000000,0.999696,-1.000000,-1.000000,-1.000000,-1.000000,0.999704,-1.000000,-1.000000,0.999709,0.999710,-1.000000,-1.000000,0.999715,-1.000000,-1.000000,0.999720,-1.000000,0.999723,-1.000000,-1.000000,-1.000000,0.999729,-1.000000,-1.000000,-1.000000,-1.000000,-1.000000,-1.000000,0.999740,0.999741,0.999743,-1.000000,0.999746,0.999747,-1.000000,0.999750,-1.000000,-1.000000,-1.000000,-1.000000,-1.000000,-1.000000,-1.000000,0.999763,-1.000000,-1.000000,-1.000000,-1.000000,-1.000000,-1.000000,-1.000000,-1.000000,-1.000000,0.999778,-1.000000,-1.000000,0.999783,-1.000000,0.999786,-1.000000,0.999789,-1.000000,-1.000000,-1.000000,0.999795,0.999797,0.999798,0.999800,0.999801,0.999803,0.999804,-1.000000,-1.000000,0.999809,0.999810,-1.000000,-1.000000,-1.000000,-1.000000,0.999818,-1.000000,0.999821,-1.000000,-1.000000,-1.000000,-1.000000,-1.000000,0.999831,-1.000000,-1.000000,-1.000000,0.999837,-1.000000,-1.000000,0.999841,-1.000000,0.999844,-1.000000,-1.000000,0.999849,-1.000000,-1.000000,-1.000000,0.999855,-1.000000,-1.000000,0.999860,0.999861,-1.000000,0.999864,0.999866,0.999867,-1.000000,-1.000000,0.999872,-1.000000,-1.000000,-1.000000,0.999878,-1.000000,0.999881,0.999883,-1.000000,-1.000000,-1.000000,0.999889,0.999891,0.999892,0.999894,0.999895,-1.000000,0.999898,-1.000000,0.999901,-1.000000,-1.000000,-1.000000,-1.000000,0.999909,-1.000000,0.999912,-1.000000,-1.000000,-1.000000,0.999918,-1.000000,-1.000000,-1.000000,0.999924,-1.000000,-1.000000,-1.000000,-1.000000,-1.000000,0.999934,0.999935,0.999937,-1.000000,0.999940,0.999941,-1.000000,-1.000000,0.999946,-1.000000,0.999949,-1.000000,-1.000000,0.999954,-1.000000,0.999957,-1.000000,0.999960,-1.000000,0.999963,-1.000000,-1.000000,-1.000000,0.999969,0.999971,
-1.000000,-1.000000,-1.000000,0.999359,0.999361,-1.000000,-1.000000,0.999365,-1.000000,0.969948,-1.000000,0.999371,0.999373,0.999375,-1.000000,0.999378,-1.000000,0.999381,0.999382,-1.000000,-1.000000,-1.000000,-1.000000,-1.000000,-1.000000,0.999393,0.999395,-1.000000,-1.000000,-1.000000,-1.000000,-1.000000,-1.000000,-1.000000,0.999407,0.999408,0.999410,-1.000000,-1.000000,-1.000000,-1.000000,-1.000000,-1.000000,-1.000000,-1.000000,-1.000000,-1.000000,-1.000000,-1.000000,0.970008,0.970010,0.999433,-1.000000,-1.000000,0.999438,0.999439,-1.000000,-1.000000,-1.000000,-1.000000,0.999447,-1.000000,-1.000000,0.999452,0.999453,0.999455,-1.000000,-1.000000,0.999459,0.970038,-1.000000,-1.000000,-1.000000,0.999467,0.999468,-1.000000,0.999472,-1.000000,-1.000000,-1.000000,-1.000000,-1.000000,0.999481,-1.000000,-1.000000,0.999485,-1.000000,-1.000000,0.999490,-1.000000,-1.000000,-1.000000,-1.000000,-1.000000,0.999499,-1.000000,-1.000000,-1.000000,-1.000000,0.999507,-1.000000,-1.000000,-1.000000,-1.000000,0.999515,-1.000000,-1.000000,0.999519,-1.000000,-1.000000,0.970100,-1.000000,-1.000000,0.999529,-1.000000,-1.000000,0.999533,0.999535,0.999536,-1.000000,0.999539,-1.000000,0.999542,0.999544,-1.000000,-1.000000,0.999549,-1.000000,0.999552,-1.000000,0.970130,0.999556,-1.000000,-1.000000,0.999561,-1.000000,-1.000000,0.999566,0.999567,0.999569,0.999570,-1.000000,-1.000000,0.999575,0.999576,-1.000000,-1.000000,0.999581,0.999582,0.999584,-1.000000,-1.000000,-1.000000,0.999590,0.999592,0.999593,-1.000000,-1.000000,0.999598,-1.000000,0.999601,-1.000000,-1.000000,-1.000000,-1.000000,-1.000000,-1.000000,0.999612,0.999613,0.999615,-1.000000,0.999618,0.999619,0.999621,-1.000000,0.999624,-1.000000,-1.000000,-1.000000,-1.000000,-1.000000,-1.000000,-1.000000,-1.000000,-1.000000,-1.000000,-1.000000,-1.000000,0.999644,0.999646,0.970220,-1.000000,-1.000000,0.999652,-1.000000,-1.000000,0.999656,-1.000000,0.999659,0.999661,0.999663,0.999664,-1.000000,0.999667,0.999669,0.999670,-1.000000,-1.000000,-1.000000,-1.000000,0.970250,-1.000000,0.999681,-1.000000,0.999684,-1.000000,-1.000000,0.999689,0.999690,-1.000000,-1.000000,-1.000000,-1.000000,-1.000000,-1.000000,-1.000000,0.999703,0.999704,-1.000000,-1.000000,-1.000000,-1.000000,0.999712,0.999713,0.999715,-1.000000,-1.000000,0.999720,0.999721,-1.000000,0.999724,-1.000000,-1.000000,-1.000000,-1.000000,-1.000000,0.999733,-1.000000,0.999737,-1.000000,-1.000000,-1.000000,-1.000000,-1.000000,-1.000000,-1.000000,-1.000000,0.999750,0.999752,0.999753,-1.000000,-1.000000,-1.000000,0.999760,0.999761,-1.000000,0.999764,0.999766,-1.000000,-1.000000,-1.000000,-1.000000,0.999773,-1.000000,0.999777,0.999778,-1.000000,0.999781,0.999783,-1.000000,0.999786,0.999787,-1.000000,-1.000000,0.999792,0.999794,-1.000000,0.999797,-1.000000,-1.000000,-1.000000,-1.000000,-1.000000,-1.000000,0.999807,0.999809,-1.000000,0.999812,-1.000000,-1.000000,-1.000000,-1.000000,0.999820,-1.000000,0.999823,-1.000000,-1.000000,-1.000000,0.999829,0.999831,0.999832,0.970402,-1.000000,0.999837,-1.000000,-1.000000,-1.000000,0.999843,-1.000000,0.999846,0.999847,-1.000000,0.999851,-1.000000,-1.000000,-1.000000,0.999857,0.999858,-1.000000,-1.000000,-1.000000,0.970432,-1.000000,-1.000000,-1.000000,0.999871,-1.000000,-1.000000,-1.000000,-1.000000,-1.000000,-1.000000,-1.000000,0.999883,-1.000000,-1.000000,-1.000000,-1.000000,-1.000000,-1.000000,0.999894,-1.000000,-1.000000,-1.000000,0.999900,-1.000000,0.999903,-1.000000,-1.000000,-1.000000,-1.000000,0.999911,-1.000000,-1.000000,-1.000000,-1.000000,-1.000000,-1.000000,-1.000000,-1.000000,-1.000000,0.999926,0.970493,0.999929,0.999931,-1.000000,0.999934,-1.000000,0.999937,0.999938,-1.000000,-1.000000,-1.000000,-1.000000,0.999946,-1.000000,-1.000000,-1.000000,-1.000000,0.999954,0.999955,0.999957,-1.000000,-1.000000,0.999961,-1.000000,0.999965,-1.000000,0.795693,-1.000000,
-1.000000,-1.000000,-1.000000,-1.000000,-1.000000,0.999361,-1.000000,-1.000000,0.999365,-1.000000,-1.000000,-1.000000,-1.000000,0.999373,-1.000000,0.999376,0.999378,-1.000000,-1.000000,-1.000000,0.999384,-1.000000,-1.000000,0.999388,0.999390,0.999391,-1.000000,-1.000000,0.999396,-1.000000,-1.000000,0.999401,0.999402,-1.000000,-1.000000,-1.000000,0.999408,-1.000000,-1.000000,-1.000000,-1.000000,-1.000000,-1.000000,-1.000000,-1.000000,0.999422,-1.000000,-1.000000,-1.000000,-1.000000,0.999430,0.999432,-1.000000,-1.000000,-1.000000,0.999438,-1.000000,-1.000000,-1.000000,0.999444,0.999445,-1.000000,-1.000000,0.999450,-1.000000,-1.000000,-1.000000,-1.000000,-1.000000,-1.000000,-1.000000,-1.000000,0.999464,-1.000000,-1.000000,0.999468,-1.000000,-1.000000,-1.000000,0.999475,0.999476,-1.000000,-1.000000,0.999481,0.999482,0.999484,0.999485,0.999487,0.999488,-1.000000,-1.000000,-1.000000,0.999495,-1.000000,0.999498,-1.000000,0.999501,0.999502,-1.000000,-1.000000,-1.000000,0.999509,-1.000000,-1.000000,0.999513,0.999515,0.999516,0.999518,-1.000000,-1.000000,-1.000000,-1.000000,0.999525,-1.000000,0.999529,-1.000000,0.999532,-1.000000,-1.000000,-1.000000,0.999538,0.999539,0.999541,-1.000000,0.999544,0.999545,0.999547,0.999549,-1.000000,-1.000000,0.999553,0.999555,-1.000000,0.999558,0.999559,0.999561,-1.000000,-1.000000,-1.000000,-1.000000,0.999569,-1.000000,0.999572,-1.000000,-1.000000,-1.000000,-1.000000,-1.000000,0.999581,0.999582,0.999584,-1.000000,-1.000000,-1.000000,-1.000000,-1.000000,-1.000000,-1.000000,-1.000000,-1.000000,-1.000000,-1.000000,-1.000000,-1.000000,0.999606,-1.000000,0.999609,-1.000000,0.999612,0.999613,-1.000000,-1.000000,0.999618,0.999619,-1.000000,-1.000000,0.999624,0.999626,0.999627,-1.000000,-1.000000,-1.000000,-1.000000,0.999635,0.999636,0.999638,-1.000000,0.999641,0.999643,-1.000000,0.999646,-1.000000,-1.000000,-1.000000,-1.000000,-1.000000,-1.000000,0.999656,0.999658,-1.000000,0.999661,0.999663,0.999664,-1.000000,-1.000000,0.999669,-1.000000,0.999672,-1.000000,-1.000000,0.999676,-1.000000,0.999680,-1.000000,0.999683,-1.000000,0.999686,-1.000000,-1.000000,-1.000000,-1.000000,0.999693,-1.000000,-1.000000,0.999698,-1.000000,-1.000000,-1.000000,0.999704,-1.000000,-1.000000,-1.000000,0.999710,0.999712,0.999713,-1.000000,0.999716,-1.000000,0.999720,0.999721,0.999723,-1.000000,-1.000000,0.999727,-1.000000,0.999730,-1.000000,0.999733,0.999735,-1.000000,0.999738,-1.000000,-1.000000,-1.000000,-1.000000,-1.000000,0.999747,0.999749,-1.000000,-1.000000,-1.000000,-1.000000,-1.000000,-1.000000,-1.000000,-1.000000,-1.000000,0.999764,0.999766,0.999767,-1.000000,-1.000000,0.999772,-1.000000,0.999775,-1.000000,0.999778,0.999780,-1.000000,-1.000000,-1.000000,0.999786,0.999787,-1.000000,-1.000000,0.999792,0.999794,0.999795,-1.000000,0.999798,0.999800,0.999801,0.999803,0.999804,0.999806,-1.000000,-1.000000,0.999810,-1.000000,0.999814,-1.000000,-1.000000,-1.000000,-1.000000,-1.000000,0.999823,-1.000000,-1.000000,-1.000000,-1.000000,-1.000000,0.999832,-1.000000,-1.000000,0.999837,0.999838,-1.000000,0.999841,0.999843,-1.000000,0.999846,-1.000000,0.999849,-1.000000,-1.000000,-1.000000,0.999855,-1.000000,0.999858,0.999860,-1.000000,-1.000000,0.999864,0.999866,0.999867,-1.000000,-1.000000,-1.000000,0.999874,-1.000000,-1.000000,0.999878,-1.000000,-1.000000,-1.000000,-1.000000,-1.000000,-1.000000,0.999889,0.999891,-1.000000,-1.000000,0.999895,-1.000000,-1.000000,-1.000000,-1.000000,0.999903,0.999904,0.999906,-1.000000,0.999909,-1.000000,0.999912,-1.000000,0.999915,-1.000000,-1.000000,0.999920,0.999921,-1.000000,0.999924,-1.000000,0.999928,0.999929,-1.000000,-1.000000,-1.000000,-1.000000,-1.000000,-1.000000,0.999940,-1.000000,-1.000000,-1.000000,0.999946,-1.000000,-1.000000,0.999951,-1.000000,-1.000000,0.999955,-1.000000,-1.000000,0.999960,-1.000000,0.999963,-1.000000,0.999966,-1.000000,
-1.000000,0.999353,-1.000000,-1.000000,0.999358,0.999359,0.999361,-1.000000,-1.000000,-1.000000,-1.000000,-1.000000,0.999370,0.999371,0.999373,0.999375,0.999376,-1.000000,-1.000000,-1.000000,0.999382,0.999384,0.999385,-1.000000,0.999388,-1.000000,-1.000000,-1.000000,0.999395,-1.000000,-1.000000,0.999399,-1.000000,0.999402,-1.000000,0.999405,-1.000000,0.999408,0.999410,0.999411,0.999413,0.999415,-1.000000,-1.000000,-1.000000,-1.000000,-1.000000,-1.000000,0.999425,-1.000000,-1.000000,-1.000000,0.999432,0.999433,-1.000000,-1.000000,-1.000000,-1.000000,0.999441,0.999442,0.999444,0.999445,0.999447,-1.000000,-1.000000,0.999452,0.999453,0.999455,-1.000000,-1.000000,0.999459,0.999461,-1.000000,0.999464,0.999465,-1.000000,0.999468,0.999470,0.999472,-1.000000,-1.000000,0.999476,-1.000000,0.999479,-1.000000,0.999482,-1.000000,-1.000000,-1.000000,-1.000000,-1.000000,0.999492,0.999493,-1.000000,0.999496,-1.000000,-1.000000,-1.000000,-1.000000,-1.000000,0.999505,0.999507,-1.000000,0.999510,-1.000000,-1.000000,-1.000000,0.999516,0.999518,-1.000000,-1.000000,0.999522,0.999524,0.999525,-1.000000,0.999529,-1.000000,-1.000000,-1.000000,-1.000000,-1.000000,-1.000000,-1.000000,0.999541,0.999542,-1.000000,-1.000000,0.999547,-1.000000,-1.000000,-1.000000,-1.000000,0.999555,0.999556,-1.000000,0.999559,-1.000000,-1.000000,-1.000000,0.999566,-1.000000,-1.000000,-1.000000,0.999572,0.999573,-1.000000,0.999576,-1.000000,-1.000000,-1.000000,-1.000000,-1.000000,-1.000000,-1.000000,-1.000000,-1.000000,-1.000000,0.999593,0.999595,-1.000000,-1.000000,-1.000000,0.999601,-1.000000,0.999604,-1.000000,0.999607,-1.000000,-1.000000,-1.000000,-1.000000,-1.000000,-1.000000,0.999618,-1.000000,0.999621,0.999623,0.999624,-1.000000,-1.000000,-1.000000,0.999630,0.999632,0.999633,-1.000000,0.999636,-1.000000,-1.000000,-1.000000,0.999643,-1.000000,0.999646,0.999647,-1.000000,0.999650,-1.000000,-1.000000,-1.000000,-1.000000,-1.000000,-1.000000,0.999661,0.999663,-1.000000,-1.000000,0.999667,0.999669,-1.000000,-1.000000,-1.000000,-1.000000,-1.000000,-1.000000,0.999680,-1.000000,-1.000000,0.999684,-1.000000,0.999687,0.999689,-1.000000,-1.000000,-1.000000,0.999695,-1.000000,0.999698,-1.000000,0.999701,-1.000000,-1.000000,-1.000000,-1.000000,-1.000000,-1.000000,-1.000000,-1.000000,0.999715,0.999716,-1.000000,0.999720,-1.000000,-1.000000,-1.000000,-1.000000,0.999727,-1.000000,-1.000000,-1.000000,-1.000000,0.999735,-1.000000,-1.000000,-1.000000,0.999741,-1.000000,0.999744,-1.000000,-1.000000,-1.000000,-1.000000,0.999752,0.999753,-1.000000,-1.000000,-1.000000,-1.000000,-1.000000,-1.000000,0.999764,-1.000000,-1.000000,-1.000000,-1.000000,-1.000000,-1.000000,0.999775,-1.000000,0.999778,0.999780,0.999781,0.999783,-1.000000,-1.000000,-1.000000,0.999789,-1.000000,0.999792,-1.000000,-1.000000,-1.000000,-1.000000,-1.000000,-1.000000,0.999803,0.999804,-1.000000,0.999807,-1.000000,-1.000000,0.999812,-1.000000,-1.000000,-1.000000,0.999818,-1.000000,-1.000000,-1.000000,-1.000000,-1.000000,-1.000000,-1.000000,-1.000000,-1.000000,-1.000000,-1.000000,0.999837,0.999838,-1.000000,0.999841,0.999843,0.999844,0.999846,-1.000000,0.999849,-1.000000,0.999852,0.999854,0.999855,0.999857,-1.000000,-1.000000,-1.000000,0.999863,-1.000000,-1.000000,0.999867,0.999869,-1.000000,-1.000000,0.999874,0.999875,0.999877,0.999878,0.999880,0.999881,-1.000000,0.999884,-1.000000,0.999888,-1.000000,0.999891,0.999892,0.999894,-1.000000,-1.000000,0.999898,-1.000000,0.999901,-1.000000,0.999904,0.999906,-1.000000,-1.000000,-1.000000,0.999912,0.999914,0.999915,-1.000000,-1.000000,0.999920,0.999921,-1.000000,-1.000000,-1.000000,0.999928,0.999929,-1.000000,-1.000000,0.999934,-1.000000,-1.000000,-1.000000,0.999940,0.999941,0.999943,-1.000000,0.999946,0.999948,-1.000000,-1.000000,0.999952,-1.000000,-1.000000,-1.000000,-1.000000,-1.000000,-1.000000,0.999963,-1.000000,-1.000000,
-1.000000,0.999351,-1.000000,-1.000000,0.999356,0.999358,-1.000000,-1.000000,-1.000000,0.969944,-1.000000,-1.000000,-1.000000,-1.000000,0.999371,0.999373,0.999375,-1.000000,0.999378,0.999379,-1.000000,-1.000000,-1.000000,0.999385,0.999387,-1.000000,0.999390,0.999391,-1.000000,0.969974,-1.000000,-1.000000,-1.000000,0.999401,-1.000000,-1.000000,-1.000000,0.999407,-1.000000,-1.000000,-1.000000,0.999413,-1.000000,-1.000000,-1.000000,-1.000000,-1.000000,-1.000000,-1.000000,0.970004,0.970005,0.970007,0.970008,-1.000000,-1.000000,-1.000000,-1.000000,0.999438,-1.000000,0.999441,-1.000000,-1.000000,0.999445,0.999447,0.999448,0.999450,-1.000000,-1.000000,-1.000000,0.970034,-1.000000,-1.000000,-1.000000,-1.000000,-1.000000,0.999465,-1.000000,0.999468,0.999470,-1.000000,-1.000000,-1.000000,0.999476,0.999478,-1.000000,-1.000000,0.999482,0.999484,0.999485,0.999487,-1.000000,0.970067,-1.000000,0.999493,-1.000000,0.999496,-1.000000,0.999499,0.999501,0.999502,-1.000000,0.999505,0.999507,-1.000000,-1.000000,-1.000000,0.999513,-1.000000,-1.000000,-1.000000,-1.000000,0.970097,-1.000000,-1.000000,-1.000000,0.999527,0.999529,-1.000000,-1.000000,-1.000000,-1.000000,0.999536,-1.000000,-1.000000,-1.000000,0.999542,0.999544,-1.000000,-1.000000,-1.000000,0.974332,-1.000000,0.999553,0.999555,-1.000000,-1.000000,-1.000000,-1.000000,0.999562,0.999564,-1.000000,-1.000000,-1.000000,0.999570,0.999572,0.999573,-1.000000,0.999576,-1.000000,-1.000000,0.999581,-1.000000,-1.000000,-1.000000,-1.000000,-1.000000,0.999590,0.999592,-1.000000,-1.000000,0.999596,-1.000000,-1.000000,0.999601,-1.000000,-1.000000,-1.000000,-1.000000,-1.000000,-1.000000,-1.000000,-1.000000,-1.000000,0.999616,-1.000000,0.999619,-1.000000,-1.000000,-1.000000,-1.000000,0.999627,0.999629,-1.000000,0.999632,-1.000000,-1.000000,-1.000000,0.999638,0.999639,-1.000000,-1.000000,-1.000000,0.999646,-1.000000,-1.000000,-1.000000,0.999652,-1.000000,-1.000000,0.999656,0.999658,0.999659,-1.000000,-1.000000,-1.000000,-1.000000,-1.000000,-1.000000,-1.000000,-1.000000,0.970246,-1.000000,-1.000000,-1.000000,0.999680,-1.000000,0.999683,-1.000000,0.999686,-1.000000,0.999689,-1.000000,-1.000000,0.999693,-1.000000,0.999696,0.999698,0.999700,0.999701,-1.000000,-1.000000,-1.000000,-1.000000,-1.000000,-1.000000,-1.000000,-1.000000,0.999715,-1.000000,-1.000000,-1.000000,0.999721,-1.000000,-1.000000,-1.000000,-1.000000,-1.000000,-1.000000,0.999732,0.970304,-1.000000,0.970307,-1.000000,-1.000000,-1.000000,-1.000000,0.999744,-1.000000,0.999747,-1.000000,0.999750,0.999752,-1.000000,-1.000000,-1.000000,-1.000000,0.999760,-1.000000,-1.000000,0.970334,0.970336,-1.000000,-1.000000,-1.000000,-1.000000,0.999773,-1.000000,-1.000000,-1.000000,-1.000000,-1.000000,-1.000000,0.999784,-1.000000,-1.000000,-1.000000,-1.000000,0.999792,-1.000000,0.999795,0.999797,0.970367,0.999800,0.999801,-1.000000,0.999804,-1.000000,-1.000000,0.999809,0.999810,0.999812,-1.000000,0.999815,-1.000000,-1.000000,0.999820,0.999821,-1.000000,0.999824,0.970394,-1.000000,-1.000000,0.999831,-1.000000,-1.000000,0.999835,-1.000000,-1.000000,-1.000000,-1.000000,-1.000000,-1.000000,-1.000000,-1.000000,-1.000000,-1.000000,0.999852,0.999854,-1.000000,-1.000000,-1.000000,-1.000000,-1.000000,0.999863,-1.000000,0.999866,-1.000000,-1.000000,0.999871,-1.000000,-1.000000,-1.000000,0.999877,-1.000000,-1.000000,0.999881,0.999883,-1.000000,-1.000000,-1.000000,-1.000000,0.999891,0.970459,-1.000000,-1.000000,0.999897,-1.000000,-1.000000,-1.000000,0.999903,-1.000000,-1.000000,-1.000000,-1.000000,-1.000000,0.999912,-1.000000,0.999915,-1.000000,-1.000000,-1.000000,-1.000000,-1.000000,-1.000000,-1.000000,-1.000000,0.999929,0.999931,-1.000000,-1.000000,0.999935,-1.000000,-1.000000,-1.000000,-1.000000,0.999943,-1.000000,-1.000000,-1.000000,-1.000000,-1.000000,0.999952,0.970519,-1.000000,0.999957,-1.000000,-1.000000,0.999961,0.999963,0.999965,
-1.000000,-1.000000,-1.000000,0.999353,-1.000000,-1.000000,0.999358,-1.000000,-1.000000,-1.000000,-1.000000,0.999365,-1.000000,-1.000000,-1.000000,-1.000000,-1.000000,-1.000000,-1.000000,0.999378,0.999379,0.999381,-1.000000,-1.000000,-1.000000,-1.000000,-1.000000,-1.000000,-1.000000,0.999393,-1.000000,0.999396,-1.000000,-1.000000,-1.000000,0.999402,-1.000000,-1.000000,-1.000000,-1.000000,0.999410,-1.000000,-1.000000,0.999415,-1.000000,0.999418,-1.000000,-1.000000,0.999422,-1.000000,-1.000000,-1.000000,-1.000000,0.999430,-1.000000,-1.000000,-1.000000,-1.000000,-1.000000,0.999439,-1.000000,0.999442,-1.000000,0.999445,0.999447,0.999448,-1.000000,0.999452,0.999453,0.999455,-1.000000,-1.000000,-1.000000,-1.000000,-1.000000,0.999464,0.999465,-1.000000,0.999468,-1.000000,-1.000000,-1.000000,-1.000000,-1.000000,0.999478,0.999479,-1.000000,0.999482,-1.000000,0.999485,-1.000000,0.999488,-1.000000,0.999492,-1.000000,-1.000000,-1.000000,-1.000000,-1.000000,0.999501,-1.000000,-1.000000,-1.000000,0.999507,-1.000000,0.999510,-1.000000,-1.000000,0.999515,-1.000000,-1.000000,0.999519,-1.000000,-1.000000,0.999524,0.999525,-1.000000,-1.000000,-1.000000,0.999532,0.999533,-1.000000,-1.000000,-1.000000,0.999539,-1.000000,-1.000000,0.999544,-1.000000,-1.000000,0.999549,-1.000000,-1.000000,-1.000000,-1.000000,0.999556,0.999558,-1.000000,0.999561,-1.000000,0.999564,-1.000000,-1.000000,0.999569,0.999570,0.999572,-1.000000,-1.000000,0.999576,-1.000000,-1.000000,-1.000000,-1.000000,-1.000000,0.999586,-1.000000,0.999589,0.999590,-1.000000,-1.000000,-1.000000,-1.000000,-1.000000,-1.000000,0.999601,-1.000000,0.999604,-1.000000,-1.000000,-1.000000,-1.000000,-1.000000,-1.000000,0.999615,-1.000000,-1.000000,0.999619,-1.000000,-1.000000,-1.000000,-1.000000,-1.000000,-1.000000,-1.000000,0.999632,-1.000000,-1.000000,-1.000000,0.999638,-1.000000,-1.000000,0.999643,0.999644,-1.000000,0.999647,0.999649,-1.000000,0.999652,0.999653,-1.000000,0.999656,-1.000000,-1.000000,0.999661,0.999663,-1.000000,-1.000000,-1.000000,-1.000000,-1.000000,0.999672,-1.000000,0.999675,0.999676,-1.000000,0.999680,-1.000000,-1.000000,0.999684,0.999686,0.999687,-1.000000,-1.000000,-1.000000,0.999693,-1.000000,-1.000000,-1.000000,-1.000000,0.999701,-1.000000,-1.000000,-1.000000,0.999707,-1.000000,0.999710,-1.000000,0.999713,-1.000000,-1.000000,-1.000000,-1.000000,0.999721,-1.000000,-1.000000,0.999726,-1.000000,0.999729,0.999730,0.999732,0.999733,-1.000000,-1.000000,-1.000000,-1.000000,0.999741,0.999743,-1.000000,-1.000000,-1.000000,0.999749,0.999750,-1.000000,-1.000000,-1.000000,0.999757,0.999758,-1.000000,-1.000000,-1.000000,0.999764,-1.000000,-1.000000,-1.000000,-1.000000,-1.000000,-1.000000,-1.000000,-1.000000,0.999778,-1.000000,0.999781,0.999783,-1.000000,-1.000000,-1.000000,-1.000000,-1.000000,-1.000000,-1.000000,-1.000000,-1.000000,-1.000000,-1.000000,0.999801,-1.000000,-1.000000,-1.000000,-1.000000,-1.000000,-1.000000,-1.000000,-1.000000,-1.000000,-1.000000,-1.000000,0.999820,-1.000000,-1.000000,0.999824,0.999826,-1.000000,-1.000000,0.999831,0.999832,0.999834,0.999835,0.999837,0.999838,-1.000000,-1.000000,-1.000000,-1.000000,-1.000000,-1.000000,-1.000000,0.999851,0.999852,-1.000000,-1.000000,-1.000000,-1.000000,0.999860,0.999861,-1.000000,-1.000000,0.999866,0.999867,-1.000000,-1.000000,-1.000000,-1.000000,-1.000000,-1.000000,0.999878,-1.000000,-1.000000,-1.000000,-1.000000,-1.000000,0.999888,-1.000000,0.999891,0.999892,0.999894,0.999895,0.999897,-1.000000,-1.000000,0.999901,0.999903,0.658906,-1.000000,-1.000000,-1.000000,-1.000000,-1.000000,-1.000000,0.999915,-1.000000,-1.000000,0.999920,-1.000000,0.999923,-1.000000,0.999926,-1.000000,-1.000000,-1.000000,-1.000000,0.743101,-1.000000,0.999937,-1.000000,0.999940,-1.000000,0.999943,-1.000000,0.999946,-1.000000,-1.000000,-1.000000,-1.000000,-1.000000,0.999955,0.999957,-1.000000,-1.000000,0.999961,0.999963,
-1.000000,0.999348,-1.000000,-1.000000,-1.000000,-1.000000,0.999356,0.999358,-1.000000,-1.000000,-1.000000,0.999364,0.999365,0.999367,-1.000000,-1.000000,0.999371,0.999373,0.999375,0.999376,0.874398,0.999379,-1.000000,-1.000000,-1.000000,0.999385,0.999387,0.999388,-1.000000,0.999391,0.999393,-1.000000,-1.000000,0.999398,-1.000000,-1.000000,0.999402,-1.000000,0.999405,0.999407,0.999408,-1.000000,-1.000000,-1.000000,0.999415,-1.000000,0.999418,-1.000000,0.999421,0.999422,-1.000000,-1.000000,-1.000000,-1.000000,-1.000000,0.999432,0.999433,0.999435,0.999436,0.999438,0.999439,0.999441,0.999442,0.999444,-1.000000,0.999447,-1.000000,-1.000000,0.999452,0.999453,0.999455,-1.000000,0.999458,-1.000000,-1.000000,-1.000000,-1.000000,0.999465,-1.000000,-1.000000,0.999470,-1.000000,-1.000000,0.999475,-1.000000,-1.000000,-1.000000,0.999481,-1.000000,-1.000000,-1.000000,-1.000000,0.999488,0.999490,-1.000000,-1.000000,-1.000000,-1.000000,-1.000000,-1.000000,0.999501,-1.000000,-1.000000,-1.000000,0.999507,-1.000000,0.999510,-1.000000,-1.000000,0.999515,-1.000000,0.999518,-1.000000,-1.000000,-1.000000,0.999524,-1.000000,0.999527,-1.000000,0.999530,0.999532,-1.000000,-1.000000,-1.000000,-1.000000,-1.000000,-1.000000,-1.000000,-1.000000,0.999545,0.999547,-1.000000,-1.000000,0.999552,-1.000000,-1.000000,-1.000000,-1.000000,-1.000000,-1.000000,-1.000000,-1.000000,-1.000000,-1.000000,0.999569,-1.000000,0.999572,0.999573,0.999575,0.999576,-1.000000,-1.000000,-1.000000,0.999582,0.999584,0.999586,0.999587,-1.000000,-1.000000,-1.000000,-1.000000,0.999595,-1.000000,0.999598,0.999599,-1.000000,0.999602,-1.000000,-1.000000,0.999607,0.999609,0.999610,-1.000000,-1.000000,-1.000000,0.999616,-1.000000,-1.000000,-1.000000,-1.000000,0.999624,0.999626,-1.000000,0.999629,-1.000000,-1.000000,-1.000000,-1.000000,0.999636,-1.000000,-1.000000,0.999641,-1.000000,-1.000000,-1.000000,0.999647,-1.000000,0.999650,-1.000000,-1.000000,-1.000000,-1.000000,0.999658,-1.000000,-1.000000,-1.000000,-1.000000,-1.000000,-1.000000,0.999669,-1.000000,0.999672,-1.000000,0.999675,-1.000000,0.999678,-1.000000,0.999681,-1.000000,-1.000000,-1.000000,-1.000000,0.999689,-1.000000,-1.000000,-1.000000,-1.000000,-1.000000,0.999698,-1.000000,-1.000000,-1.000000,-1.000000,-1.000000,-1.000000,-1.000000,-1.000000,0.999712,-1.000000,-1.000000,-1.000000,-1.000000,0.999720,0.999721,-1.000000,-1.000000,-1.000000,0.999727,-1.000000,-1.000000,0.999732,0.999733,-1.000000,-1.000000,-1.000000,0.999740,-1.000000,-1.000000,-1.000000,-1.000000,-1.000000,-1.000000,0.999750,0.999752,-1.000000,-1.000000,-1.000000,-1.000000,0.999760,-1.000000,0.999763,-1.000000,0.999766,-1.000000,0.999769,-1.000000,0.999772,0.999773,0.999775,-1.000000,0.999778,-1.000000,-1.000000,0.999783,0.999784,-1.000000,0.999787,-1.000000,-1.000000,0.999792,0.999794,0.999795,0.999797,0.999798,-1.000000,-1.000000,-1.000000,-1.000000,-1.000000,0.999807,0.999809,0.999810,0.999812,0.999814,0.999815,-1.000000,-1.000000,-1.000000,0.999821,-1.000000,-1.000000,-1.000000,0.999827,-1.000000,-1.000000,0.999832,-1.000000,0.999835,-1.000000,0.999838,-1.000000,-1.000000,-1.000000,-1.000000,-1.000000,0.999847,-1.000000,0.999851,-1.000000,-1.000000,-1.000000,0.999857,0.999858,0.999860,-1.000000,-1.000000,-1.000000,0.999866,0.999867,0.999869,-1.000000,-1.000000,0.999874,-1.000000,-1.000000,0.999878,-1.000000,-1.000000,0.999883,0.999884,-1.000000,0.999888,-1.000000,-1.000000,-1.000000,0.999894,0.999895,0.999897,0.999898,-1.000000,0.999901,0.999903,-1.000000,-1.000000,0.999908,-1.000000,-1.000000,-1.000000,0.999914,-1.000000,0.999917,0.999918,-1.000000,0.999921,-1.000000,-1.000000,0.999926,0.999928,0.999929,-1.000000,0.999932,-1.000000,0.999935,0.999937,-1.000000,0.999940,0.999941,-1.000000,-1.000000,-1.000000,-1.000000,0.999949,-1.000000,-1.000000,-1.000000,-1.000000,-1.000000,-1.000000,0.999960,-1.000000,
0.999345,0.692781,0.669938,-1.000000,-1.000000,-1.000000,-1.000000,0.738379,-1.000000,-1.000000,0.999361,0.635620,-1.000000,0.806531,-1.000000,-1.000000,-1.000000,0.863103,-1.000000,-1.000000,0.999376,-1.000000,-1.000000,-1.000000,-1.000000,-1.000000,0.999385,0.941977,-1.000000,-1.000000,0.999391,0.999393,-1.000000,-1.000000,0.999398,-1.000000,-1.000000,-1.000000,0.999404,-1.000000,0.999407,-1.000000,0.999410,-1.000000,-1.000000,-1.000000,-1.000000,-1.000000,0.999419,0.999421,0.999422,-1.000000,-1.000000,-1.000000,0.999428,-1.000000,0.999432,-1.000000,0.999435,0.999436,0.999438,-1.000000,0.624216,0.999442,0.999444,-1.000000,0.999447,-1.000000,0.999450,-1.000000,0.999453,0.999455,0.999456,-1.000000,-1.000000,-1.000000,0.999462,0.999464,0.999465,-1.000000,0.999468,-1.000000,-1.000000,-1.000000,-1.000000,0.553834,-1.000000,-1.000000,0.999481,-1.000000,0.999484,-1.000000,-1.000000,-1.000000,0.999490,-1.000000,0.999493,-1.000000,-1.000000,0.999498,-1.000000,0.999501,-1.000000,-1.000000,-1.000000,-1.000000,0.999509,-1.000000,-1.000000,-1.000000,-1.000000,0.999516,-1.000000,-1.000000,-1.000000,-1.000000,-1.000000,-1.000000,-1.000000,0.999529,-1.000000,0.532303,-1.000000,-1.000000,0.999536,0.999538,-1.000000,-1.000000,0.999542,0.999544,-1.000000,-1.000000,-1.000000,-1.000000,-1.000000,0.999553,0.999555,-1.000000,-1.000000,0.999559,0.999561,0.635762,-1.000000,0.738543,-1.000000,-1.000000,-1.000000,-1.000000,-1.000000,-1.000000,-1.000000,-1.000000,0.999579,-1.000000,-1.000000,-1.000000,0.999586,-1.000000,0.999589,-1.000000,-1.000000,-1.000000,-1.000000,-1.000000,-1.000000,-1.000000,0.999601,0.999602,-1.000000,-1.000000,-1.000000,-1.000000,0.999610,-1.000000,0.999613,-1.000000,-1.000000,0.999618,-1.000000,-1.000000,0.999623,-1.000000,-1.000000,-1.000000,-1.000000,-1.000000,0.999632,-1.000000,0.999635,0.999636,0.999638,-1.000000,0.999641,0.999643,0.999644,-1.000000,-1.000000,-1.000000,0.999650,0.897203,0.999653,0.999655,-1.000000,-1.000000,0.999659,-1.000000,-1.000000,-1.000000,0.999666,0.999667,-1.000000,-1.000000,-1.000000,-1.000000,0.999675,-1.000000,-1.000000,-1.000000,0.428284,-1.000000,0.999684,-1.000000,-1.000000,-1.000000,0.999690,0.999692,-1.000000,0.999695,-1.000000,0.999698,0.999700,0.999701,-1.000000,-1.000000,-1.000000,-1.000000,-1.000000,0.999710,-1.000000,-1.000000,-1.000000,-1.000000,-1.000000,-1.000000,-1.000000,0.999723,0.999724,0.999726,0.999727,0.999729,-1.000000,0.999732,-1.000000,-1.000000,0.999737,-1.000000,-1.000000,-1.000000,0.381829,-1.000000,0.999746,-1.000000,0.999749,-1.000000,-1.000000,-1.000000,-1.000000,0.999757,-1.000000,-1.000000,0.999761,-1.000000,-1.000000,0.999766,0.999767,-1.000000,-1.000000,0.999772,-1.000000,-1.000000,-1.000000,0.999778,-1.000000,0.999781,-1.000000,0.999784,-1.000000,0.999787,0.999789,-1.000000,-1.000000,-1.000000,-1.000000,-1.000000,-1.000000,0.486279,0.840872,-1.000000,-1.000000,-1.000000,0.999807,0.999809,0.999810,0.999812,-1.000000,-1.000000,-1.000000,-1.000000,-1.000000,-1.000000,0.999823,-1.000000,-1.000000,-1.000000,-1.000000,-1.000000,-1.000000,-1.000000,0.761510,0.738756,0.999838,0.999840,-1.000000,0.999843,-1.000000,-1.000000,-1.000000,0.999849,-1.000000,-1.000000,-1.000000,-1.000000,-1.000000,0.999858,-1.000000,0.999861,-1.000000,-1.000000,-1.000000,-1.000000,-1.000000,0.999871,0.999872,-1.000000,0.999875,-1.000000,-1.000000,-1.000000,-1.000000,0.999883,-1.000000,-1.000000,-1.000000,-1.000000,0.999891,-1.000000,-1.000000,0.840954,-1.000000,0.999898,-1.000000,0.999901,0.999903,0.999904,-1.000000,-1.000000,-1.000000,-1.000000,0.999912,-1.000000,-1.000000,0.999917,-1.000000,-1.000000,-1.000000,-1.000000,0.999924,0.807001,0.738827,0.999929,-1.000000,0.999932,0.999934,0.999935,-1.000000,0.999938,0.999940,-1.000000,-1.000000,-1.000000,-1.000000,-1.000000,-1.000000,0.999951,-1.000000,-1.000000,0.999955,0.658944,-1.000000,-1.000000,
