minWeight=-1.000000, maxWeight=1.000000
0.494697,0.010898,0.532211,-1.000000,-1.000000,-1.000000,-0.362326,-1.000000,-1.000000,-1.000000,-1.000000,-1.000000,0.999401,-1.000000,0.953147,-1.000000,-0.050217,-1.000000,0.217916,0.144285,-1.000000,-1.000000,-1.000000,-0.146082,0.108827,-1.000000,-0.197239,0.728469,0.754076,-1.000000,-1.000000,-1.000000,0.894104,-1.000000,0.809342,-1.000000,-1.000000,-1.000000,0.501954,0.749825,-1.000000,0.336515,0.349638,0.556732,0.965820,-1.000000,-1.000000,-1.000000,-1.000000,0.868745,0.999459,0.970038,-1.000000,0.758289,-1.000000,-1.000000,-1.000000,-0.120549,-0.146069,-1.000000,-1.000000,-1.000000,-1.000000,0.191476,0.422369,-1.000000,-1.000000,-1.000000,-1.000000,-1.000000,0.999490,-1.000000,0.698515,-1.000000,-1.000000,-1.000000,-1.000000,0.877330,-1.000000,0.523636,-1.000000,0.690047,-1.000000,-0.042721,0.970088,-1.000000,-1.000000,-1.000000,0.458625,-1.000000,-1.000000,-0.107041,0.940622,0.345305,-1.000000,0.091107,0.949136,-1.000000,-1.000000,-1.000000,-1.000000,0.638608,-1.000000,-1.000000,0.758433,-1.000000,-1.000000,-1.000000,0.822182,0.833584,-1.000000,0.894215,-1.000000,-1.000000,-1.000000,-1.000000,-1.000000,-0.077080,0.117754,0.885849,-1.000000,0.856216,-0.330362,-1.000000,-1.000000,0.512140,-1.000000,-1.000000,-1.000000,0.817962,-1.000000,-1.000000,-1.000000,-1.000000,-1.000000,-1.000000,-1.000000,-1.000000,0.016918,0.519367,0.651450,-0.173103,-0.167084,-0.099527,-0.036722,-1.000000,-0.090539,-1.000000,0.940704,0.834971,-1.000000,-1.000000,-1.000000,-1.000000,0.193006,0.999621,-1.000000,0.449997,-1.000000,0.728627,-1.000000,-1.000000,0.784067,-1.000000,-1.000000,0.720089,-1.000000,-1.000000,0.877375,0.885838,-1.000000,-1.000000,-1.000000,0.687298,0.631527,0.342453,-1.000000,-1.000000,-1.000000,0.015450,0.690079,-0.262119,-1.000000,0.728656,0.513639,-1.000000,-0.206228,-1.000000,-1.000000,0.928112,0.569826,-1.000000,0.940768,-1.000000,-1.000000,-0.277252,-1.000000,-0.257575,0.432639,0.668758,-1.000000,-1.000000,-0.257574,-1.000000,-1.000000,-1.000000,-1.000000,0.860490,-1.000000,0.923921,-1.000000,0.999707,0.970280,-1.000000,-1.000000,0.027367,0.144404,-1.000000,-0.293913,-1.000000,0.999721,-1.000000,-1.000000,-1.000000,-0.295427,-1.000000,-1.000000,0.923947,0.970304,0.784070,-1.000000,-1.000000,0.940826,0.911289,-1.000000,-1.000000,0.999746,-0.003875,-1.000000,-0.298455,-1.000000,-0.198671,0.445725,0.604358,0.999758,0.518027,-1.000000,-1.000000,-1.000000,0.852070,-1.000000,0.940854,0.949285,0.813875,-1.000000,-1.000000,0.483374,-1.000000,0.226891,0.094160,0.894424,-1.000000,0.066003,0.479042,-0.340963,0.098605,-1.000000,-1.000000,-1.000000,-1.000000,-1.000000,-1.000000,0.970370,-1.000000,-0.039648,-1.000000,0.999807,-1.000000,-1.000000,-0.150493,0.175415,-1.000000,-1.000000,-1.000000,0.999820,-1.000000,-1.000000,0.902916,0.970394,-1.000000,-1.000000,0.940913,0.949344,0.940916,0.911376,-1.000000,-1.000000,-1.000000,0.467499,-1.000000,-1.000000,-1.000000,-1.000000,-1.000000,-1.000000,-1.000000,0.919839,0.919841,0.932503,0.839427,-1.000000,-1.000000,0.940943,-1.000000,-1.000000,-1.000000,-1.000000,-0.194123,0.754432,-0.262076,-1.000000,-1.000000,-1.000000,-1.000000,0.813968,-1.000000,-1.000000,0.378912,0.970454,-1.000000,-1.000000,0.690253,0.911430,-1.000000,-1.000000,-0.195624,-1.000000,0.664624,-1.000000,0.886155,-1.000000,-1.000000,0.643167,0.278281,-1.000000,-1.000000,-1.000000,-0.088957,-1.000000,0.591466,0.711675,-1.000000,-1.000000,-1.000000,0.744519,-1.000000,0.915688,0.037844,-1.000000,-1.000000,0.432780,0.660361,-1.000000,-1.000000,-1.000000,-1.000000,0.822601,-1.000000,0.584384,0.365842,-1.000000,-1.000000,0.999955,-1.000000,-0.115922,-1.000000,-0.082956,-1.000000,-1.000000,0.463230,0.999968,0.788601,0.754510,-1.000000,0.476260,-0.325734,-1.000000,-1.000000,0.784271,-1.000000,-1.000000,0.495063,-1.000000,-1.000000,-1.000000,-1.000000,0.999992,-1.000000,-1.000000,-1.000000,
-1.000000,-0.036788,0.830532,-1.000000,-1.000000,-1.000000,-1.000000,-1.000000,-1.000000,0.860219,0.969975,-1.000000,0.642723,0.822056,-1.000000,-1.000000,-1.000000,-1.000000,-1.000000,0.402003,0.754065,0.578278,-1.000000,0.282440,-1.000000,-1.000000,-1.000000,-0.236467,-1.000000,0.749730,0.548000,0.940531,0.911002,0.940534,0.970011,0.535042,-1.000000,-1.000000,0.096996,-1.000000,0.104397,-0.003970,-1.000000,-1.000000,-1.000000,-1.000000,-1.000000,0.003394,0.321843,-1.000000,0.953198,0.872980,-1.000000,-1.000000,-1.000000,-1.000000,-1.000000,-1.000000,0.970047,0.999472,0.042147,-0.093570,-1.000000,-1.000000,0.915270,-1.000000,-1.000000,-1.000000,-1.000000,-1.000000,0.898383,-1.000000,0.779614,0.736982,-1.000000,-1.000000,-1.000000,-1.000000,-1.000000,0.999502,-1.000000,-0.114541,-1.000000,0.940607,0.974293,-1.000000,-1.000000,-1.000000,-1.000000,0.944830,-1.000000,-1.000000,-1.000000,0.504810,-1.000000,-1.000000,-1.000000,-1.000000,-1.000000,0.999533,-1.000000,-0.272738,-1.000000,0.974322,-1.000000,-1.000000,-1.000000,-1.000000,0.940644,0.919555,-1.000000,0.911114,-1.000000,-1.000000,-1.000000,-1.000000,-1.000000,0.940657,0.999562,-1.000000,-1.000000,-1.000000,-1.000000,0.949094,-1.000000,0.986969,0.409273,-1.000000,-1.000000,0.970154,0.940676,0.911143,-1.000000,-1.000000,-1.000000,-1.000000,-1.000000,-1.000000,0.936472,0.965961,-1.000000,-1.000000,-1.000000,0.949123,0.775446,-1.000000,0.999606,-1.000000,-1.000000,0.970184,0.940705,0.813741,0.961771,0.465838,-1.000000,-1.000000,-1.000000,0.999623,0.961780,0.796747,-1.000000,-1.000000,0.999630,-1.000000,0.851954,0.999635,-1.000000,-1.000000,0.970213,0.970214,-1.000000,-1.000000,0.873146,-1.000000,-1.000000,-1.000000,0.982843,0.847732,0.987050,-1.000000,-1.000000,-1.000000,0.949181,-1.000000,0.974444,0.999666,0.999667,-1.000000,-1.000000,-1.000000,0.749927,-1.000000,0.932333,-1.000000,0.987074,-1.000000,-1.000000,0.987079,-1.000000,0.257665,-1.000000,-1.000000,0.902795,0.999693,0.999695,-1.000000,0.961852,-1.000000,-1.000000,0.873197,0.784045,0.919702,-1.000000,0.999709,-1.000000,-1.000000,-1.000000,-1.000000,0.970288,0.551149,-1.000000,-1.000000,0.999723,0.987118,-1.000000,-1.000000,0.991326,-1.000000,0.830830,-1.000000,0.953465,0.978721,-1.000000,-1.000000,-1.000000,0.999743,-1.000000,-1.000000,0.568436,-1.000000,-1.000000,0.970322,-1.000000,0.999755,0.999757,-1.000000,-1.000000,-1.000000,-1.000000,0.775577,-1.000000,0.999767,-1.000000,-1.000000,-1.000000,-1.000000,-1.000000,-1.000000,0.830870,-1.000000,-1.000000,-1.000000,-1.000000,0.953513,-1.000000,-1.000000,-1.000000,-1.000000,0.625814,0.767081,-1.000000,-1.000000,-1.000000,-1.000000,0.860579,-1.000000,-1.000000,-1.000000,-1.000000,-1.000000,-1.000000,0.476165,-1.000000,-1.000000,-1.000000,-1.000000,-1.000000,-1.000000,-1.000000,-1.000000,0.873308,0.970397,-1.000000,-1.000000,-1.000000,-1.000000,-1.000000,-1.000000,0.591412,-1.000000,-1.000000,-0.014275,-1.000000,-1.000000,-1.000000,-1.000000,-1.000000,-1.000000,-1.000000,-1.000000,0.932504,0.970427,0.999861,-1.000000,-1.000000,-1.000000,0.724541,0.694518,-1.000000,-1.000000,0.797033,-1.000000,-1.000000,-1.000000,-1.000000,-1.000000,-1.000000,0.894516,0.915647,0.830963,0.839453,-1.000000,0.894523,0.788458,-1.000000,0.953620,-1.000000,0.966257,0.852189,-1.000000,-0.252993,-1.000000,-1.000000,0.621594,-1.000000,-1.000000,-1.000000,0.681702,0.919898,-1.000000,0.847964,0.830993,0.911457,0.852209,0.911460,-1.000000,0.970495,-1.000000,-1.000000,-1.000000,-1.000000,-0.316629,0.835252,-1.000000,-1.000000,-1.000000,-1.000000,0.539690,0.924148,0.801269,-1.000000,-1.000000,0.941030,-1.000000,0.941033,-1.000000,-1.000000,0.345527,-1.000000,-1.000000,0.144502,0.251927,0.070516,-1.000000,-1.000000,-1.000000,0.999975,-1.000000,0.962123,-1.000000,-1.000000,0.991578,0.919961,0.860741,-1.000000,0.999989,-1.000000,-1.000000,0.111999,-1.000000,
0.999379,-1.000000,-0.014418,0.906817,-1.000000,-1.000000,-1.000000,-1.000000,-1.000000,-1.000000,-1.000000,-1.000000,-1.000000,-1.000000,-1.000000,-1.000000,-1.000000,-1.000000,-1.000000,0.435381,-1.000000,-1.000000,-0.207793,-1.000000,-1.000000,-1.000000,-1.000000,-1.000000,-1.000000,-1.000000,-1.000000,-1.000000,-1.000000,-1.000000,-1.000000,-1.000000,-1.000000,-1.000000,-1.000000,-1.000000,-1.000000,-1.000000,-1.000000,-1.000000,-1.000000,-1.000000,-1.000000,-1.000000,-1.000000,-1.000000,-1.000000,0.999458,-1.000000,-1.000000,-1.000000,-1.000000,-1.000000,-1.000000,-1.000000,-1.000000,-1.000000,0.573924,-1.000000,-1.000000,0.779603,0.868764,0.978470,0.953222,-1.000000,0.999485,0.999487,0.999488,0.999490,0.999492,0.999493,0.999495,-1.000000,0.999498,0.978488,0.957451,0.999502,0.775366,-1.000000,0.911073,-1.000000,0.805155,0.923741,0.898405,0.999515,0.999516,-1.000000,0.999519,-1.000000,-1.000000,0.999524,0.999525,0.999527,-1.000000,-1.000000,0.970108,0.949058,0.932199,0.949061,0.638526,0.919547,-1.000000,-1.000000,0.999544,0.982738,0.982740,0.944860,0.982743,0.974334,0.999553,0.999555,0.999556,-1.000000,-1.000000,-1.000000,0.940658,0.999564,0.826442,0.923793,-1.000000,0.999570,-1.000000,0.999573,0.999575,-1.000000,-1.000000,-1.000000,-1.000000,0.978570,0.999584,0.999586,-1.000000,0.999589,0.999590,-1.000000,-1.000000,-1.000000,-1.000000,0.894256,0.999599,0.999601,-1.000000,0.999604,0.978593,-1.000000,0.940702,0.991208,-1.000000,0.995413,-1.000000,0.999616,-1.000000,-1.000000,0.999621,0.894278,-1.000000,-1.000000,0.944935,-1.000000,-1.000000,-1.000000,0.999633,-1.000000,-1.000000,-1.000000,-1.000000,0.655773,-1.000000,-1.000000,-1.000000,0.999647,0.999649,0.999650,-1.000000,-1.000000,-1.000000,-1.000000,0.953391,-1.000000,-1.000000,0.999663,-1.000000,-1.000000,-1.000000,-1.000000,-1.000000,-1.000000,-1.000000,-1.000000,-1.000000,0.982869,0.999680,0.999681,-1.000000,0.898561,-1.000000,-1.000000,0.651516,0.890111,0.944996,-1.000000,-1.000000,-1.000000,0.923915,-1.000000,0.999701,-1.000000,-1.000000,0.999706,-1.000000,0.999709,-1.000000,-1.000000,-1.000000,-1.000000,-1.000000,-1.000000,-1.000000,-1.000000,-1.000000,-1.000000,-1.000000,-1.000000,-1.000000,0.987124,-1.000000,0.961886,0.999735,0.999737,-1.000000,0.999740,0.898613,-1.000000,-1.000000,-1.000000,-1.000000,0.805355,-1.000000,-1.000000,0.856298,-1.000000,-1.000000,0.999758,-1.000000,0.813866,-1.000000,-1.000000,0.999766,0.999767,0.999769,-1.000000,0.923984,0.987167,-1.000000,-1.000000,-1.000000,-1.000000,-1.000000,-1.000000,-1.000000,0.949300,-1.000000,0.894429,0.805389,-1.000000,-1.000000,0.999795,0.999797,0.999798,0.953527,0.940885,-1.000000,0.953531,-1.000000,-1.000000,-1.000000,0.877527,-1.000000,-1.000000,-1.000000,-1.000000,-1.000000,-1.000000,-1.000000,-1.000000,0.999824,-1.000000,-1.000000,-1.000000,-1.000000,-1.000000,-1.000000,0.898699,-1.000000,-1.000000,-1.000000,0.847896,-1.000000,-1.000000,-1.000000,-1.000000,-1.000000,-1.000000,-1.000000,-1.000000,-1.000000,0.999857,-1.000000,-1.000000,0.999861,0.970430,0.932510,-1.000000,-1.000000,-1.000000,-1.000000,0.970439,-1.000000,0.970442,0.970444,-1.000000,0.873355,-1.000000,-1.000000,0.949394,-1.000000,0.999888,0.999889,-1.000000,-1.000000,-1.000000,0.974670,-1.000000,-1.000000,-1.000000,-1.000000,-1.000000,0.881843,-1.000000,0.970474,-1.000000,0.928334,0.911448,-1.000000,0.999915,0.999917,-1.000000,0.978901,-1.000000,0.953645,-1.000000,-1.000000,-1.000000,0.265021,-1.000000,-1.000000,-1.000000,0.970501,-1.000000,-1.000000,0.999940,-1.000000,0.999943,-1.000000,0.999946,-1.000000,-1.000000,0.978931,0.928373,0.886119,-1.000000,0.911489,-1.000000,0.016951,0.322093,0.582956,0.941040,0.941041,0.970532,0.999969,-1.000000,0.999972,-1.000000,-1.000000,0.999977,-1.000000,0.999980,-1.000000,-1.000000,0.881915,0.839537,-1.000000,0.826804,-1.000000,-1.000000,0.999994,
-1.000000,0.745509,-1.000000,0.940487,0.961548,-1.000000,0.999387,0.999388,-1.000000,-1.000000,0.969972,0.990994,0.974182,-1.000000,-1.000000,0.999401,0.999402,-1.000000,0.999405,0.999407,0.999408,0.999410,0.919428,-1.000000,-1.000000,0.999416,-1.000000,-1.000000,0.864478,0.953164,-1.000000,0.999425,0.999427,-1.000000,-1.000000,-1.000000,-1.000000,0.999435,0.999436,-1.000000,0.999439,-1.000000,0.999442,-1.000000,-1.000000,0.999447,0.999448,0.999450,0.927904,0.902576,0.991054,0.999456,-1.000000,-1.000000,0.970038,-1.000000,0.999464,-1.000000,-1.000000,-1.000000,-1.000000,0.999472,0.970050,0.974259,0.999476,-1.000000,-1.000000,0.982674,0.961643,-1.000000,0.919496,-1.000000,0.999488,-1.000000,-1.000000,-1.000000,0.999495,-1.000000,-1.000000,0.999499,0.974284,0.851840,-1.000000,-1.000000,0.999507,-1.000000,-1.000000,-1.000000,0.978502,0.889952,-1.000000,0.986914,-1.000000,-1.000000,-1.000000,-1.000000,-1.000000,-1.000000,0.999529,-1.000000,0.860340,-1.000000,-1.000000,-1.000000,-1.000000,-1.000000,-1.000000,-1.000000,0.999544,0.999545,0.970123,-1.000000,-1.000000,-1.000000,-1.000000,-1.000000,-1.000000,-1.000000,-1.000000,-1.000000,-1.000000,0.919570,-1.000000,0.940663,-1.000000,-1.000000,-1.000000,0.999573,0.932237,0.970151,0.949101,-1.000000,-1.000000,-1.000000,-1.000000,-1.000000,-1.000000,-1.000000,-1.000000,-1.000000,-1.000000,-1.000000,-1.000000,0.940692,-1.000000,0.999601,-1.000000,-1.000000,0.999606,-1.000000,0.970183,-1.000000,-1.000000,-1.000000,-1.000000,-1.000000,-1.000000,-1.000000,-1.000000,-1.000000,-1.000000,-1.000000,-1.000000,-1.000000,0.881597,0.982823,-1.000000,0.982826,0.999636,0.999638,0.957584,0.894295,-1.000000,-1.000000,-1.000000,-1.000000,-1.000000,-1.000000,-1.000000,-1.000000,0.999655,0.970229,0.970231,-1.000000,0.881624,-1.000000,0.953396,-1.000000,0.961822,-1.000000,-1.000000,-1.000000,0.835024,-1.000000,-1.000000,-1.000000,0.970252,-1.000000,-1.000000,-1.000000,0.999686,0.999687,0.999689,0.949209,-1.000000,-1.000000,0.957638,-1.000000,0.999698,0.999700,-1.000000,-1.000000,0.873198,0.928142,0.999707,-1.000000,-1.000000,-1.000000,-1.000000,-1.000000,-1.000000,-1.000000,-1.000000,-1.000000,-1.000000,0.940812,0.991323,-1.000000,0.898602,-1.000000,-1.000000,0.928168,0.898608,0.822342,0.982928,0.999740,0.999741,-1.000000,-1.000000,-1.000000,-1.000000,-1.000000,-1.000000,-1.000000,-1.000000,-1.000000,-1.000000,-1.000000,-1.000000,-1.000000,-1.000000,-1.000000,-1.000000,-1.000000,0.949284,0.953499,0.999772,0.999773,0.999775,-1.000000,-1.000000,0.999780,0.999781,-1.000000,-1.000000,-1.000000,-1.000000,-1.000000,-1.000000,-1.000000,-1.000000,0.945095,-1.000000,0.957737,0.999800,-1.000000,-1.000000,-1.000000,0.999806,-1.000000,-1.000000,0.999810,-1.000000,0.999814,-1.000000,-1.000000,-1.000000,-1.000000,-1.000000,-1.000000,-1.000000,0.792658,-1.000000,0.987222,0.999831,0.915597,0.978816,0.974611,-1.000000,-1.000000,-1.000000,0.999841,0.911383,0.999844,-1.000000,-1.000000,-1.000000,-1.000000,-1.000000,-1.000000,-1.000000,-1.000000,0.949369,0.957797,0.999861,0.978845,-1.000000,-1.000000,0.983055,-1.000000,0.970438,-1.000000,-1.000000,-1.000000,0.999877,-1.000000,0.936743,-1.000000,0.801214,0.911422,-1.000000,0.983075,-1.000000,0.999891,-1.000000,-1.000000,0.978877,0.999897,-1.000000,-1.000000,0.970468,-1.000000,-1.000000,0.999906,0.999908,-1.000000,0.999911,0.835230,0.915673,0.890315,-1.000000,-1.000000,0.957855,0.999921,0.999923,-1.000000,0.999926,0.978909,0.835244,-1.000000,-1.000000,0.999934,0.999935,0.999937,-1.000000,-1.000000,-1.000000,0.999943,0.957878,0.991542,0.999948,-1.000000,0.999951,-1.000000,-1.000000,0.949462,0.957890,0.890354,-1.000000,-1.000000,-1.000000,-1.000000,0.970531,0.999968,0.999969,0.999971,-1.000000,0.999974,-1.000000,-1.000000,0.999978,0.999980,0.999982,0.999983,0.915738,-1.000000,-1.000000,-1.000000,0.932629,-1.000000,
0.969956,0.473013,-1.000000,-1.000000,0.872911,0.754043,0.129509,0.000480,-1.000000,0.313132,-1.000000,-0.138579,-1.000000,0.608416,-1.000000,0.728450,0.042122,-0.325834,-1.000000,0.175248,0.957360,0.694254,0.817898,0.380198,-1.000000,0.999415,-1.000000,-0.119063,-1.000000,-1.000000,0.523585,0.343796,0.948955,-0.018876,0.000493,-1.000000,-1.000000,-0.325829,0.068846,0.340886,-1.000000,0.432499,-0.253088,-1.000000,-1.000000,-1.000000,-0.020361,0.051047,0.250227,0.169373,-1.000000,-1.000000,0.902579,0.881442,-0.179156,-1.000000,-1.000000,-1.000000,-1.000000,-0.253082,-1.000000,0.415106,-1.000000,0.478855,-1.000000,-1.000000,0.319017,-1.000000,-1.000000,-1.000000,-1.000000,-1.000000,0.889927,-1.000000,-1.000000,-1.000000,-1.000000,-0.020346,-0.344053,0.604182,-0.189688,-1.000000,0.599880,0.608490,-1.000000,-0.298500,0.108860,-1.000000,-1.000000,0.664341,0.247323,-1.000000,0.940616,-0.038239,0.426744,-0.047196,-1.000000,-0.209276,0.539505,0.015408,0.771127,0.166458,0.380263,-1.000000,-0.194199,-0.221343,-1.000000,0.890056,-1.000000,0.139908,0.999545,-1.000000,-1.000000,-1.000000,0.400628,0.457198,0.741299,-1.000000,0.720028,0.436917,0.397726,-0.198714,-1.000000,-1.000000,-1.000000,0.728501,0.223862,-1.000000,-1.000000,-1.000000,0.999576,0.856144,0.999579,-1.000000,-1.000000,0.526570,0.741404,-1.000000,0.436933,0.397742,0.999592,-1.000000,-1.000000,0.042188,-0.149043,-0.083056,-1.000000,-1.000000,0.826475,-1.000000,0.970181,-1.000000,-1.000000,-1.000000,-1.000000,-1.000000,-1.000000,-1.000000,-0.194180,-1.000000,-1.000000,-1.000000,0.788318,0.245906,0.970202,0.375949,-1.000000,-1.000000,-0.265150,-1.000000,0.957583,-1.000000,-1.000000,0.216547,0.222425,0.582662,-1.000000,-1.000000,-0.153539,0.175349,-1.000000,0.762786,-1.000000,-1.000000,-1.000000,-1.000000,-1.000000,-1.000000,-1.000000,0.561191,0.961823,-1.000000,-1.000000,0.413767,0.270848,-1.000000,-1.000000,-1.000000,0.502100,-1.000000,-1.000000,0.157673,-1.000000,-1.000000,-1.000000,-1.000000,0.181258,-1.000000,-0.192656,-1.000000,-1.000000,-1.000000,0.974482,-1.000000,-1.000000,0.582785,-1.000000,-1.000000,0.668775,-1.000000,-1.000000,0.698765,-0.216777,-1.000000,-0.221304,0.999723,-0.051619,-0.201692,0.970298,-1.000000,0.999730,0.275268,-0.012819,-1.000000,0.604345,-1.000000,0.999740,0.634456,-0.262102,0.068954,0.852133,-1.000000,-1.000000,0.690228,-1.000000,-1.000000,0.384745,-1.000000,-0.215259,0.733002,-1.000000,0.836596,-1.000000,-0.348570,0.745816,-1.000000,-1.000000,-1.000000,0.784183,0.852159,-1.000000,-1.000000,-0.024733,-1.000000,-1.000000,-0.198664,-1.000000,0.522372,-1.000000,-1.000000,-1.000000,0.165089,-1.000000,-0.065049,-1.000000,-1.000000,0.970370,0.484835,-0.126465,-1.000000,-1.000000,0.175413,-1.000000,0.707395,-1.000000,0.046718,-1.000000,-1.000000,0.043749,0.919809,0.579988,-1.000000,0.784145,-1.000000,-1.000000,-1.000000,-0.353123,0.668864,0.206338,-1.000000,0.991435,0.660289,0.284104,-1.000000,0.019974,-1.000000,-0.042621,-1.000000,0.983039,0.949363,-1.000000,0.623072,-1.000000,-1.000000,0.077891,-1.000000,0.970430,0.445788,-1.000000,-1.000000,-1.000000,0.471858,-1.000000,-1.000000,0.999875,-1.000000,-1.000000,-1.000000,0.780013,0.355692,-1.000000,-1.000000,0.970454,0.014037,-0.006809,0.638859,0.182814,-1.000000,0.544063,-1.000000,0.647374,0.541185,0.762986,-1.000000,-1.000000,-1.000000,0.656048,-1.000000,0.890312,-1.000000,0.970481,0.506577,-1.000000,-1.000000,-0.048573,-1.000000,0.999924,0.253375,-1.000000,-1.000000,-1.000000,-1.000000,0.502255,0.371743,0.822512,-1.000000,-1.000000,0.818268,0.915700,0.970510,-1.000000,-1.000000,0.647409,0.045279,-1.000000,-1.000000,0.428438,-1.000000,0.042310,-0.252982,-1.000000,0.767297,-1.000000,-1.000000,0.082376,-1.000000,-1.000000,-1.000000,0.941049,-1.000000,-1.000000,-0.002312,0.608816,0.571467,-1.000000,-1.000000,0.617346,-1.000000,0.831131,-1.000000,
0.969954,0.248727,-1.000000,-1.000000,0.969960,0.974168,0.944703,-1.000000,-1.000000,-1.000000,-1.000000,0.264858,0.651303,-1.000000,-1.000000,-1.000000,-1.000000,-1.000000,-1.000000,-1.000000,-1.000000,-1.000000,-1.000000,-1.000000,0.999411,0.999413,-1.000000,0.413542,0.163380,-1.000000,-0.041339,-1.000000,-1.000000,-1.000000,-1.000000,-1.000000,-1.000000,-1.000000,-1.000000,-1.000000,0.151673,-1.000000,-1.000000,-1.000000,-1.000000,0.999444,0.970023,0.872969,-1.000000,-1.000000,-1.000000,-1.000000,-1.000000,-1.000000,-1.000000,-1.000000,-1.000000,-1.000000,-1.000000,0.936351,-1.000000,0.999468,0.999470,0.999472,0.999473,-1.000000,0.974260,0.919489,-1.000000,0.796626,-1.000000,0.796629,-1.000000,-1.000000,-1.000000,0.911057,-1.000000,0.911060,-1.000000,0.970073,-1.000000,-1.000000,0.961661,-1.000000,-1.000000,0.944819,0.949033,0.889946,0.889948,0.796652,-1.000000,0.796654,-1.000000,0.822156,0.851855,0.881498,0.911087,0.911089,-1.000000,0.970103,-1.000000,-1.000000,-1.000000,0.970109,0.970111,0.915323,-1.000000,-1.000000,-1.000000,0.826423,0.830669,0.796680,0.796681,0.851880,0.949075,0.915337,0.974335,0.999555,-1.000000,0.999558,-1.000000,0.999561,0.999562,-1.000000,0.911127,-1.000000,0.911130,-1.000000,0.856139,-1.000000,0.940670,-1.000000,0.915361,-1.000000,-1.000000,0.915365,0.999584,-1.000000,0.999587,0.999589,-1.000000,-1.000000,0.986989,-1.000000,-1.000000,-1.000000,0.911159,-1.000000,0.792473,0.826475,-1.000000,-1.000000,0.915390,-1.000000,-1.000000,-1.000000,-1.000000,-1.000000,-1.000000,-1.000000,-1.000000,-1.000000,-1.000000,-1.000000,0.915407,-1.000000,-1.000000,-1.000000,-1.000000,0.944942,0.754163,0.796757,-1.000000,-1.000000,-1.000000,-1.000000,-1.000000,-1.000000,-1.000000,-1.000000,-1.000000,-1.000000,-1.000000,-1.000000,-1.000000,0.911214,-1.000000,0.949182,-1.000000,-1.000000,-0.032311,0.754189,-1.000000,-1.000000,-1.000000,-1.000000,-1.000000,-1.000000,-1.000000,-1.000000,0.868945,-1.000000,-1.000000,-1.000000,-1.000000,0.881651,-1.000000,0.919690,0.970267,-1.000000,0.647229,0.784041,-1.000000,0.923919,-1.000000,-1.000000,-1.000000,-1.000000,0.932365,-1.000000,-1.000000,-1.000000,-1.000000,-1.000000,-1.000000,0.974500,0.945026,-1.000000,0.919720,-1.000000,0.737167,0.767028,-1.000000,0.923948,0.953465,-1.000000,-1.000000,0.970310,0.940828,0.970313,0.288449,-1.000000,0.999747,0.911297,0.940837,0.911299,-1.000000,0.856300,0.890171,0.801110,0.741460,-1.000000,-1.000000,-1.000000,-1.000000,-1.000000,0.970339,0.970340,0.894414,0.949288,0.978759,-1.000000,0.911324,0.852082,0.881733,0.911328,0.940869,0.856327,0.919778,-1.000000,0.741484,-1.000000,-1.000000,-1.000000,0.911341,-1.000000,0.940883,0.911345,0.940886,0.999804,-1.000000,0.911351,0.999809,-1.000000,0.945111,0.881762,-1.000000,-1.000000,-1.000000,-1.000000,0.919809,-1.000000,0.957763,-1.000000,0.915593,-1.000000,0.945128,-1.000000,0.970402,-1.000000,-1.000000,0.970406,-1.000000,-1.000000,-1.000000,0.945141,-1.000000,-1.000000,0.949360,-1.000000,0.894487,0.957791,-1.000000,0.919842,-1.000000,0.962008,-1.000000,0.999863,-1.000000,-1.000000,0.928294,0.805455,-1.000000,-1.000000,0.974649,0.945171,-1.000000,-1.000000,-1.000000,0.919865,-1.000000,-1.000000,-1.000000,-1.000000,0.999889,-1.000000,-1.000000,0.999894,-1.000000,0.999897,-1.000000,-1.000000,-1.000000,0.924107,-1.000000,-1.000000,-1.000000,-1.000000,-1.000000,-1.000000,-1.000000,-1.000000,-1.000000,-1.000000,-1.000000,-1.000000,-1.000000,-1.000000,0.873396,0.970493,-1.000000,-1.000000,0.919912,-1.000000,-1.000000,-1.000000,0.970504,-1.000000,0.911475,-1.000000,-1.000000,0.843746,-1.000000,-1.000000,-1.000000,-1.000000,-1.000000,-1.000000,0.999957,-1.000000,0.461778,0.126774,-1.000000,0.911496,0.970531,-1.000000,-1.000000,0.886135,-1.000000,-1.000000,-1.000000,-1.000000,-1.000000,-1.000000,-1.000000,-1.000000,-1.000000,-1.000000,-1.000000,-1.000000,
0.822033,-1.000000,-1.000000,-1.000000,-1.000000,-1.000000,-1.000000,0.314590,0.872914,-1.000000,-1.000000,-1.000000,-0.253098,0.117689,-1.000000,-1.000000,-1.000000,-1.000000,0.698527,-1.000000,-1.000000,-1.000000,-1.000000,0.919505,0.999410,0.974197,-1.000000,0.161988,0.625632,-1.000000,0.178200,-1.000000,0.999422,0.484608,-1.000000,-0.176154,0.885726,0.800917,-1.000000,-0.271244,-1.000000,-1.000000,-1.000000,0.086631,0.809428,-0.036770,0.254623,0.324841,0.860266,-0.167121,0.940552,0.470164,-1.000000,-1.000000,0.275140,-1.000000,-1.000000,0.061439,0.082195,0.410747,0.480296,-1.000000,0.906895,-0.086085,0.982665,0.717114,0.223820,0.358396,0.204716,-0.123547,0.238505,0.229698,0.970061,-1.000000,-1.000000,0.864538,0.766916,0.890011,0.737063,-1.000000,-1.000000,-0.234940,0.830711,-0.135548,-1.000000,-0.185169,-1.000000,0.612794,0.940607,-1.000000,-1.000000,0.275166,-1.000000,-1.000000,0.766938,0.758415,-1.000000,-1.000000,-0.334928,0.868886,0.944839,-1.000000,-1.000000,-0.063629,-1.000000,0.095551,-1.000000,-1.000000,-1.000000,0.830747,-1.000000,-1.000000,-1.000000,-1.000000,-1.000000,0.402080,0.523666,0.737110,-0.032260,0.406441,0.999558,0.898528,-1.000000,0.682950,0.500585,-1.000000,0.464444,0.327822,0.970145,-1.000000,-0.128024,0.367186,-1.000000,0.441276,-1.000000,0.162055,0.970157,-1.000000,0.406457,0.148782,0.179742,-1.000000,0.724328,0.434036,-1.000000,-1.000000,-0.207752,-1.000000,-1.000000,0.999602,-1.000000,-0.072580,0.999607,0.100019,-1.000000,-1.000000,-1.000000,0.061493,-1.000000,-1.000000,-1.000000,-0.180624,0.471712,-1.000000,-1.000000,0.415193,0.597095,-0.162565,0.970205,-0.036713,0.080775,-1.000000,-1.000000,-0.239443,-0.056125,0.999643,0.987039,0.358484,0.245915,-1.000000,-1.000000,-1.000000,0.519403,0.558305,-1.000000,0.621501,-1.000000,-1.000000,-1.000000,-1.000000,-1.000000,-1.000000,-1.000000,0.343921,-0.087526,0.284025,0.153243,-1.000000,0.608609,-1.000000,0.868944,0.622952,-1.000000,0.957709,0.513653,-1.000000,-1.000000,-0.023268,-1.000000,0.584214,-0.008360,0.405066,-1.000000,-0.250010,-0.290884,-1.000000,-1.000000,-0.176088,0.471763,-1.000000,-0.262109,-1.000000,-1.000000,-1.000000,0.915491,0.949237,-1.000000,-0.002393,0.582797,-1.000000,-1.000000,-1.000000,0.999730,-1.000000,-1.000000,0.169488,0.519455,-1.000000,0.724442,-1.000000,0.949259,-1.000000,0.279668,-1.000000,0.148845,-1.000000,-1.000000,0.006551,0.970325,-1.000000,0.945059,-1.000000,-1.000000,0.526683,0.813949,0.711637,0.999767,-1.000000,-0.121972,-1.000000,-0.234882,-1.000000,-1.000000,-1.000000,0.911325,-0.225819,-0.253018,-1.000000,-0.144488,-1.000000,-1.000000,0.595769,0.945092,-1.000000,0.492058,-1.000000,-1.000000,-1.000000,-1.000000,-0.126465,-1.000000,-1.000000,-1.000000,-1.000000,0.779955,-1.000000,-1.000000,-1.000000,-1.000000,-0.060558,-1.000000,-1.000000,-1.000000,0.257728,0.011040,-1.000000,0.856365,0.489189,-1.000000,-1.000000,0.877549,-1.000000,-1.000000,-1.000000,0.932488,0.259202,-1.000000,-1.000000,0.410958,-0.189608,-0.350077,0.431282,-1.000000,0.703149,-1.000000,-1.000000,0.898802,0.775737,0.741623,0.928371,-1.000000,-1.000000,-1.000000,-1.000000,0.788521,0.792697,-1.000000,-1.000000,0.999878,-1.000000,-0.213723,-1.000000,-1.000000,-1.000000,-1.000000,-1.000000,0.974665,-1.000000,0.869213,0.506564,-0.108440,-0.198639,-1.000000,-1.000000,-1.000000,-1.000000,-1.000000,0.358619,-1.000000,-1.000000,0.999912,-1.000000,-1.000000,0.634580,-1.000000,0.219606,0.188716,-1.000000,-1.000000,0.450171,-1.000000,0.341135,0.536880,-1.000000,-1.000000,-1.000000,-1.000000,0.232835,-1.000000,-1.000000,-1.000000,-1.000000,-1.000000,-1.000000,0.241648,-1.000000,0.999952,0.458879,0.839591,-1.000000,-0.153463,-0.157973,-1.000000,-0.298416,-1.000000,-1.000000,-1.000000,-1.000000,-0.230309,-1.000000,-1.000000,-1.000000,0.941052,0.015554,0.237258,-1.000000,-1.000000,0.259267,0.480607,-1.000000,
-1.000000,0.749770,-1.000000,0.999376,-1.000000,0.999379,0.999381,0.885603,-1.000000,0.809300,0.805052,0.906741,0.969969,0.982586,0.932066,0.882875,0.022802,0.024289,-1.000000,0.724180,-0.141580,-1.000000,-1.000000,-1.000000,0.999408,0.936298,-1.000000,0.872939,-1.000000,-1.000000,0.944735,0.995219,0.999421,-1.000000,-1.000000,-1.000000,-1.000000,-1.000000,0.991029,-1.000000,-1.000000,-1.000000,0.999436,0.940540,-1.000000,-1.000000,-1.000000,0.940546,-1.000000,-1.000000,0.970026,0.974234,-1.000000,0.991052,-1.000000,-1.000000,-1.000000,-1.000000,-1.000000,0.110322,0.033230,-0.265184,-1.000000,-1.000000,-1.000000,-1.000000,-1.000000,-1.000000,-1.000000,-1.000000,0.915270,-1.000000,0.949010,-1.000000,-1.000000,-1.000000,-1.000000,-1.000000,-1.000000,-1.000000,0.543805,0.302955,-1.000000,0.856156,-1.000000,-1.000000,-1.000000,-1.000000,0.970084,-1.000000,-1.000000,0.957461,0.902631,-1.000000,-1.000000,-1.000000,-1.000000,-1.000000,-1.000000,-1.000000,-1.000000,0.885734,0.999529,-1.000000,-1.000000,-1.000000,-1.000000,-1.000000,0.970114,-1.000000,0.999541,0.999542,0.813683,-1.000000,-1.000000,-1.000000,-1.000000,-1.000000,-1.000000,-1.000000,-1.000000,-1.000000,-1.000000,0.999561,-1.000000,-1.000000,-1.000000,-1.000000,0.999569,-1.000000,0.999572,0.919578,0.982767,-1.000000,-1.000000,-1.000000,-1.000000,-1.000000,-1.000000,-1.000000,-1.000000,0.999589,0.999590,0.834954,0.817973,0.788212,-1.000000,0.978585,-1.000000,0.999601,0.970177,-1.000000,-1.000000,-1.000000,-1.000000,-1.000000,-1.000000,-0.271209,0.940708,-1.000000,0.711525,-1.000000,-1.000000,0.771202,0.796745,-1.000000,-1.000000,-1.000000,0.999630,0.970205,0.813758,0.999635,-1.000000,-1.000000,-1.000000,0.830752,-1.000000,0.295632,-1.000000,-1.000000,-1.000000,0.052601,-1.000000,0.801023,0.915433,0.999656,-1.000000,-1.000000,-1.000000,0.970235,0.565423,0.982857,-1.000000,0.779758,-1.000000,-1.000000,-1.000000,0.894326,-1.000000,-0.086028,-1.000000,-1.000000,-1.000000,-1.000000,-1.000000,-1.000000,-1.000000,-1.000000,-1.000000,-1.000000,-1.000000,0.999696,-1.000000,-1.000000,-1.000000,0.923919,-1.000000,-1.000000,-1.000000,0.786968,-1.000000,0.945015,-1.000000,0.999715,0.953447,0.890136,0.974498,-1.000000,-1.000000,0.999724,0.999726,-1.000000,0.999729,-1.000000,-1.000000,-1.000000,0.928169,-1.000000,0.961890,-1.000000,0.413804,-1.000000,0.999744,-1.000000,0.957688,0.957690,-1.000000,-1.000000,0.907077,-1.000000,-1.000000,0.898629,0.923973,0.928194,-1.000000,-1.000000,0.987160,0.982957,0.999769,0.999770,-1.000000,-1.000000,-1.000000,0.999777,0.999778,0.999780,-1.000000,-1.000000,0.966145,0.999786,0.999787,0.995588,-1.000000,-1.000000,-1.000000,0.999795,-1.000000,-1.000000,-1.000000,0.974578,-1.000000,-1.000000,-1.000000,0.999807,0.999809,-1.000000,-1.000000,-1.000000,0.728692,-1.000000,0.970387,0.999820,0.999821,-1.000000,-1.000000,-1.000000,0.999827,-1.000000,0.999831,-1.000000,0.966193,-1.000000,-1.000000,-1.000000,-1.000000,-1.000000,-1.000000,0.754329,-1.000000,0.826683,0.999849,0.999851,0.999852,-1.000000,0.999855,0.999857,0.962007,-1.000000,-1.000000,-1.000000,0.792771,-1.000000,-1.000000,-1.000000,-1.000000,-1.000000,-1.000000,-1.000000,0.762884,0.711642,-1.000000,-1.000000,0.999883,-1.000000,0.999886,-1.000000,-1.000000,-1.000000,0.974667,0.974668,0.771504,-0.254507,0.843704,-1.000000,-1.000000,-1.000000,-1.000000,-1.000000,-1.000000,0.694548,-1.000000,0.966269,0.999914,-1.000000,0.999917,0.999918,0.978901,-1.000000,-1.000000,0.999924,0.051210,-1.000000,-1.000000,0.083845,-1.000000,-1.000000,0.970501,-1.000000,-1.000000,-1.000000,-1.000000,0.999943,-1.000000,0.999946,-1.000000,-1.000000,0.974724,-1.000000,0.999954,0.999955,0.617408,0.188731,-1.000000,-1.000000,-1.000000,-1.000000,-1.000000,-1.000000,-1.000000,-1.000000,-1.000000,-1.000000,-1.000000,0.999977,0.957911,-1.000000,0.999982,0.999983,-1.000000,0.999986,
0.995170,-1.000000,0.289736,-1.000000,0.915174,-1.000000,-1.000000,-1.000000,-1.000000,-1.000000,0.851737,-1.000000,-1.000000,-1.000000,0.999391,0.999393,0.999395,0.999396,-1.000000,0.999399,-1.000000,0.089580,0.999404,-1.000000,-1.000000,0.915204,-1.000000,-1.000000,-1.000000,-1.000000,-1.000000,-1.000000,0.999419,0.999421,0.970001,0.970002,-1.000000,0.999427,-1.000000,0.999430,-1.000000,-1.000000,-1.000000,-1.000000,0.830578,0.970017,-1.000000,-1.000000,-1.000000,-1.000000,0.999447,-1.000000,0.999450,0.999452,0.970031,-1.000000,0.999456,-1.000000,0.999459,0.999461,-1.000000,-1.000000,-1.000000,-1.000000,-1.000000,0.970047,-1.000000,-1.000000,0.999475,0.999476,0.999478,-1.000000,0.999481,0.999482,0.944798,0.970063,-1.000000,-1.000000,-1.000000,-1.000000,-1.000000,-1.000000,0.940595,-1.000000,0.970076,-1.000000,-1.000000,0.999504,-1.000000,0.999507,0.970085,-1.000000,-1.000000,-1.000000,-1.000000,-1.000000,-1.000000,-1.000000,0.970097,0.999522,-1.000000,-1.000000,-1.000000,0.999529,0.970106,-1.000000,0.999533,0.999535,-1.000000,-1.000000,-1.000000,-1.000000,-1.000000,-1.000000,-1.000000,-1.000000,-1.000000,-1.000000,-1.000000,-1.000000,-1.000000,-1.000000,-1.000000,-1.000000,0.970136,-1.000000,0.999564,-1.000000,-1.000000,0.999569,-1.000000,-1.000000,-1.000000,-1.000000,-1.000000,-1.000000,-1.000000,-1.000000,-1.000000,-1.000000,-1.000000,0.999587,-1.000000,0.999590,0.970166,-1.000000,-1.000000,-1.000000,-1.000000,0.999599,-1.000000,-1.000000,0.982796,-1.000000,-1.000000,-1.000000,-1.000000,-1.000000,-1.000000,-1.000000,0.999616,-1.000000,-1.000000,-1.000000,-1.000000,0.970198,0.970199,0.970201,0.999629,-1.000000,0.999632,0.999633,0.944942,-1.000000,-1.000000,-1.000000,0.999641,-1.000000,-1.000000,-1.000000,-1.000000,-1.000000,0.999650,0.999652,-1.000000,0.970228,0.970229,-1.000000,0.970232,0.970234,0.970235,0.970237,0.970238,0.970240,-1.000000,-1.000000,0.999672,-1.000000,0.928113,-1.000000,-1.000000,-1.000000,0.999681,0.999683,-1.000000,0.949204,0.970259,-1.000000,-1.000000,0.911244,0.835041,-1.000000,-1.000000,0.970270,-1.000000,-1.000000,0.999703,-1.000000,0.928142,0.384719,0.999709,-1.000000,-1.000000,-1.000000,-1.000000,-1.000000,-1.000000,-1.000000,-1.000000,-1.000000,-1.000000,-1.000000,-1.000000,0.945031,0.999730,0.999732,-1.000000,-1.000000,-1.000000,-1.000000,-0.017289,-1.000000,-1.000000,-1.000000,-1.000000,-1.000000,-1.000000,-1.000000,-1.000000,-1.000000,-1.000000,-1.000000,-1.000000,-1.000000,0.974539,0.999763,-1.000000,-1.000000,-1.000000,-1.000000,0.999770,0.945073,-1.000000,-1.000000,-1.000000,-1.000000,-1.000000,-1.000000,-1.000000,-1.000000,0.681606,0.788370,0.970358,-1.000000,-1.000000,0.999794,0.999795,0.999797,-1.000000,0.999800,0.978785,-1.000000,-1.000000,0.995605,-1.000000,-1.000000,-1.000000,-1.000000,-1.000000,-1.000000,-1.000000,-1.000000,0.970388,-1.000000,0.974599,0.999824,-1.000000,0.999827,0.999829,0.999831,-1.000000,0.961983,0.999835,0.999837,0.940920,0.940921,-1.000000,-1.000000,0.999844,-1.000000,0.826683,-1.000000,-1.000000,0.974628,0.974629,-1.000000,-1.000000,0.999858,-1.000000,0.999861,-1.000000,0.995663,0.999866,0.999867,0.999869,-1.000000,0.974647,-1.000000,0.940955,0.940957,-1.000000,0.945175,-1.000000,0.974658,0.999884,0.999886,-1.000000,-1.000000,0.999891,0.999892,-1.000000,0.999895,0.974671,-1.000000,-1.000000,0.999901,-1.000000,-1.000000,0.999906,-1.000000,0.970475,0.970477,0.970478,-1.000000,0.999915,-1.000000,0.999918,0.999920,0.999921,-1.000000,0.999924,-1.000000,-1.000000,0.999929,0.970496,-1.000000,-1.000000,0.999935,-1.000000,0.999938,-1.000000,-1.000000,-1.000000,0.999945,-1.000000,-1.000000,0.999949,-1.000000,-1.000000,-1.000000,-1.000000,-1.000000,-1.000000,0.970525,-1.000000,0.999963,-1.000000,-1.000000,-1.000000,-1.000000,0.970535,-1.000000,-1.000000,0.999975,-1.000000,0.999978,0.915734,-1.000000,0.999983,0.349913,
0.999368,0.073271,0.940477,0.444057,-1.000000,0.216432,-1.000000,-1.000000,-1.000000,-1.000000,0.974170,-1.000000,-1.000000,-1.000000,-1.000000,-1.000000,0.885613,-1.000000,0.483063,-0.140079,-0.221373,-1.000000,-1.000000,-0.092091,0.944723,0.974192,0.999408,-1.000000,-1.000000,-1.000000,-1.000000,-1.000000,-1.000000,-1.000000,-1.000000,-1.000000,0.999424,0.999425,-1.000000,-1.000000,-1.000000,-1.000000,-1.000000,0.877270,0.974221,0.999438,-1.000000,-1.000000,-1.000000,-1.000000,-1.000000,-1.000000,-1.000000,-1.000000,-1.000000,0.999453,-1.000000,0.970034,0.940559,0.999459,-1.000000,-0.038256,-1.000000,-1.000000,-1.000000,-1.000000,0.999470,-1.000000,-1.000000,-1.000000,-1.000000,-1.000000,-1.000000,-1.000000,0.999482,-1.000000,0.970063,0.970064,-1.000000,0.999490,-1.000000,-0.164102,-1.000000,-1.000000,0.999498,-1.000000,-1.000000,0.906845,-1.000000,-1.000000,-1.000000,-1.000000,-1.000000,0.970088,0.944826,0.970091,0.970093,0.970094,0.953258,0.970097,0.970099,0.074808,-1.000000,0.999527,-1.000000,-1.000000,-1.000000,0.961692,-1.000000,-1.000000,-1.000000,-1.000000,-1.000000,0.944854,0.999544,-1.000000,-1.000000,-1.000000,0.970126,-1.000000,0.999553,-1.000000,0.999556,-1.000000,0.999559,-1.000000,-1.000000,-1.000000,0.953302,0.915351,-1.000000,0.999570,0.999572,-1.000000,0.999575,0.970151,-1.000000,0.970154,-1.000000,-1.000000,0.055547,-1.000000,-1.000000,-1.000000,-1.000000,0.944901,0.970168,-1.000000,0.970171,0.999598,-1.000000,0.999601,0.974384,0.999604,0.999606,-1.000000,0.953343,-1.000000,0.970186,-1.000000,0.478939,-1.000000,-1.000000,0.940712,0.970195,0.970196,-1.000000,0.987021,-1.000000,0.898511,-1.000000,0.974412,0.974414,0.974415,-1.000000,0.843478,-1.000000,-1.000000,0.923863,-1.000000,0.340992,-0.231888,-1.000000,-1.000000,-1.000000,0.970226,0.970228,0.999656,-1.000000,0.999659,-1.000000,0.974442,0.999664,-1.000000,0.999667,-1.000000,-1.000000,-1.000000,-1.000000,-1.000000,0.999676,-1.000000,0.970252,0.970253,0.970255,-1.000000,-1.000000,-1.000000,-1.000000,0.974469,0.999692,0.999693,-1.000000,-1.000000,-1.000000,-1.000000,-1.000000,-1.000000,-1.000000,-1.000000,-1.000000,-1.000000,-1.000000,0.970283,-1.000000,-1.000000,0.999716,-1.000000,0.999720,-1.000000,-1.000000,0.999724,-1.000000,-1.000000,-1.000000,-1.000000,-1.000000,-1.000000,-0.357704,-1.000000,-1.000000,-1.000000,0.915513,-1.000000,-1.000000,-1.000000,-1.000000,0.978733,-1.000000,-1.000000,-1.000000,-1.000000,0.999757,0.970328,0.970330,-1.000000,0.970333,-1.000000,-1.000000,-1.000000,-1.000000,-1.000000,0.999772,-1.000000,-1.000000,0.974554,0.999778,0.999780,-1.000000,0.999783,0.999784,0.999786,0.970357,-1.000000,-1.000000,-1.000000,-1.000000,0.402213,-1.000000,-1.000000,-1.000000,0.970370,0.978786,-1.000000,-1.000000,-1.000000,-1.000000,0.974587,-1.000000,0.970382,-1.000000,0.970385,0.970387,0.877535,-1.000000,-1.000000,-1.000000,-1.000000,0.945125,-1.000000,0.370148,0.970400,-1.000000,0.970403,0.970405,-1.000000,0.970408,0.970409,0.970411,-1.000000,0.970414,0.970415,0.974625,-1.000000,0.978835,-1.000000,-1.000000,0.022953,0.037819,-0.295402,-1.000000,-1.000000,0.999864,-1.000000,-1.000000,-1.000000,0.970438,-1.000000,-1.000000,0.970442,0.999877,-1.000000,-1.000000,0.999881,-1.000000,-0.063529,-1.000000,-1.000000,0.970456,0.163654,-1.000000,-1.000000,0.839459,0.999897,0.999898,-1.000000,-1.000000,-1.000000,-1.000000,-1.000000,-1.000000,-1.000000,-1.000000,-1.000000,-1.000000,-1.000000,-1.000000,-0.182061,-1.000000,-1.000000,-1.000000,-1.000000,0.999926,0.928350,-1.000000,-1.000000,-1.000000,-1.000000,-1.000000,-1.000000,-1.000000,-1.000000,0.741603,0.962088,-1.000000,0.919925,0.526799,-1.000000,-1.000000,-1.000000,0.194618,0.425536,-1.000000,-1.000000,-1.000000,0.999961,-1.000000,-1.000000,-1.000000,-1.000000,-1.000000,-1.000000,-1.000000,-1.000000,0.999975,-1.000000,-1.000000,-0.191085,-1.000000,-0.234838,
-1.000000,-1.000000,-1.000000,0.792363,0.375813,0.536527,-1.000000,0.245794,0.999379,-1.000000,-1.000000,0.117686,0.817877,-1.000000,0.506252,-1.000000,-1.000000,0.432473,-1.000000,-1.000000,-1.000000,-0.162620,-1.000000,-1.000000,0.974189,0.999405,0.122129,0.113260,-1.000000,-1.000000,-1.000000,0.638521,-1.000000,-1.000000,0.402008,0.104389,0.432490,0.037674,-1.000000,0.436842,0.932099,-1.000000,-1.000000,-0.289419,-1.000000,-1.000000,-0.284873,-1.000000,0.911012,0.393302,-1.000000,0.148726,-1.000000,-1.000000,0.741298,0.099961,0.970031,-1.000000,-1.000000,0.139875,0.135446,-1.000000,-0.221359,0.410747,-1.000000,0.771157,-1.000000,0.019852,-0.275779,-0.216830,-1.000000,-1.000000,-1.000000,0.170858,-1.000000,0.999482,-1.000000,0.501981,0.122159,-0.189691,-1.000000,-0.194209,-1.000000,-1.000000,-0.042725,0.257579,0.339459,-1.000000,0.999502,0.045127,-1.000000,-1.000000,-1.000000,0.235582,-1.000000,0.010940,0.978503,-1.000000,-1.000000,0.928047,-1.000000,-1.000000,-1.000000,-0.284856,0.995327,-1.000000,0.595592,-1.000000,0.151711,-0.268197,0.339478,-1.000000,0.999539,0.239999,-1.000000,-1.000000,-0.158074,0.758437,-1.000000,-1.000000,-1.000000,0.471671,-1.000000,0.625730,-0.141541,-1.000000,-1.000000,-1.000000,-1.000000,-1.000000,0.513578,-1.000000,-1.000000,-0.168596,0.187099,0.091123,0.970151,0.139921,-1.000000,-0.122021,0.724320,0.367190,-1.000000,0.323452,-1.000000,-1.000000,0.279595,0.375929,-1.000000,0.826550,0.953333,0.215059,0.915383,-1.000000,-1.000000,0.371569,-1.000000,-0.198704,0.471704,-0.234916,0.999613,-1.000000,-0.198702,0.345352,-1.000000,-1.000000,-0.207747,0.077807,-1.000000,-1.000000,-1.000000,-0.081550,-0.078557,-1.000000,0.574113,-1.000000,-1.000000,0.108909,0.749982,-1.000000,-1.000000,-0.293926,0.104473,-1.000000,0.711468,0.578437,0.728648,0.042208,-1.000000,-1.000000,-1.000000,0.698723,0.715753,-0.240949,0.098560,0.113356,-0.230373,0.826613,-1.000000,0.754274,-1.000000,-1.000000,-1.000000,0.279637,-1.000000,0.767071,0.113363,-1.000000,-1.000000,-1.000000,-1.000000,-1.000000,-0.132497,0.313281,0.191566,0.698751,0.999700,0.210692,0.206282,-1.000000,0.100054,-0.325781,0.375990,-1.000000,0.856262,-1.000000,0.241544,0.822406,-1.000000,0.091176,0.345405,-1.000000,-1.000000,0.405081,0.284050,-1.000000,-0.325777,-1.000000,-1.000000,-0.126482,-1.000000,-1.000000,0.336663,-0.293908,-1.000000,-1.000000,-1.000000,-0.162536,0.999749,0.515135,-1.000000,-1.000000,0.552612,-1.000000,-1.000000,-1.000000,0.822363,0.796941,-1.000000,-0.121973,-1.000000,0.724465,-0.198667,-1.000000,0.970343,-1.000000,-1.000000,0.432690,-1.000000,-1.000000,-1.000000,-1.000000,0.869037,-1.000000,0.419638,-1.000000,-1.000000,0.104527,0.541117,0.336692,-1.000000,0.376038,-0.158012,0.630201,0.415291,0.670273,-1.000000,0.728768,-1.000000,-1.000000,-1.000000,-1.000000,-1.000000,0.487736,-0.362256,-1.000000,0.869070,-0.090479,0.698848,0.886086,0.974605,-1.000000,0.767191,-1.000000,-1.000000,0.497862,-1.000000,-1.000000,-1.000000,0.463158,-1.000000,-1.000000,-1.000000,-1.000000,-1.000000,0.341096,-0.266620,-1.000000,0.502208,0.724534,-1.000000,0.545481,-1.000000,-1.000000,-1.000000,-1.000000,-1.000000,-1.000000,0.999872,-1.000000,0.548370,-1.000000,-1.000000,0.218119,-1.000000,-1.000000,0.999884,-1.000000,-1.000000,-1.000000,0.476210,-0.121940,-0.198640,-1.000000,-1.000000,-0.162500,0.502234,0.476217,-0.185076,-1.000000,0.822486,-0.118935,-1.000000,-1.000000,0.046751,-1.000000,-1.000000,0.758733,-1.000000,-1.000000,-1.000000,-1.000000,-1.000000,-1.000000,0.724587,-1.000000,-0.194110,-1.000000,-1.000000,-1.000000,-1.000000,0.231367,0.073472,0.656071,0.358637,0.941021,-1.000000,-1.000000,0.046763,0.171049,-0.162487,0.788588,-1.000000,-0.198625,0.999958,0.463226,0.046767,-1.000000,0.437147,0.487825,0.431347,-0.078463,-1.000000,0.457441,0.288558,0.788606,-1.000000,0.724627,-1.000000,-1.000000,
-1.000000,-1.000000,0.672810,-0.189718,-1.000000,-1.000000,-1.000000,-1.000000,-1.000000,-1.000000,0.151651,-1.000000,-1.000000,0.969965,-1.000000,-1.000000,-1.000000,0.915188,-1.000000,0.999395,-0.198752,0.386008,-1.000000,-0.275792,-1.000000,0.889851,-1.000000,-1.000000,-1.000000,-1.000000,-1.000000,-1.000000,-1.000000,0.969995,0.894092,0.957372,0.969999,0.936310,-1.000000,0.999425,-1.000000,-1.000000,-0.307615,-1.000000,-1.000000,0.970013,0.919451,-1.000000,-1.000000,0.940543,-1.000000,0.999444,-1.000000,0.970025,-1.000000,0.940552,-1.000000,-1.000000,0.999455,-1.000000,0.543782,-1.000000,-1.000000,0.970040,0.970041,0.970043,-1.000000,0.999468,-1.000000,-1.000000,0.961634,-1.000000,0.970053,-1.000000,0.970057,0.940581,0.927932,-1.000000,0.885697,-1.000000,0.248778,-1.000000,0.999492,-1.000000,0.864624,-1.000000,-1.000000,-1.000000,-1.000000,-1.000000,0.970081,0.970082,0.970084,0.970085,-1.000000,-1.000000,-1.000000,0.953253,-1.000000,-1.000000,0.940617,-1.000000,0.927970,-1.000000,-1.000000,-1.000000,0.999529,-1.000000,-1.000000,-1.000000,-1.000000,0.999536,-1.000000,-1.000000,0.940638,0.940639,-1.000000,-1.000000,-1.000000,-1.000000,-0.083069,-1.000000,0.129573,-1.000000,-1.000000,0.999558,-1.000000,-1.000000,-1.000000,-1.000000,-1.000000,-1.000000,0.999569,0.970145,0.940667,-1.000000,-1.000000,-1.000000,-1.000000,-1.000000,-1.000000,-1.000000,0.999584,-1.000000,-1.000000,-1.000000,-1.000000,-1.000000,-1.000000,0.754130,-1.000000,-1.000000,0.970174,-1.000000,-1.000000,0.987000,-1.000000,-1.000000,-1.000000,-1.000000,-1.000000,-1.000000,-0.330354,-1.000000,0.405022,-0.248515,-1.000000,-1.000000,-1.000000,-1.000000,0.970201,-1.000000,-1.000000,-1.000000,-1.000000,-1.000000,-1.000000,0.818091,-0.256072,-1.000000,-1.000000,-1.000000,-1.000000,0.522284,0.008007,-1.000000,-1.000000,-1.000000,-1.000000,0.970229,0.999658,-1.000000,0.970234,-1.000000,0.890087,-1.000000,0.552556,-1.000000,0.902775,-1.000000,0.999673,-1.000000,-0.357713,-0.033715,-0.149022,-1.000000,-1.000000,0.999684,-1.000000,0.970259,0.970261,-1.000000,-1.000000,-1.000000,0.999695,0.999696,-1.000000,-1.000000,-1.000000,-1.000000,0.784126,0.578473,0.707234,-1.000000,0.289896,-1.000000,-1.000000,-1.000000,-1.000000,-1.000000,0.999720,0.999721,0.999723,-1.000000,-1.000000,0.999727,-1.000000,0.999730,0.771291,-1.000000,0.784151,-1.000000,-1.000000,0.326447,-1.000000,-1.000000,0.974522,0.970316,-1.000000,0.970319,0.999750,-1.000000,-1.000000,-1.000000,0.974534,-1.000000,-1.000000,-1.000000,-1.000000,0.381840,0.690240,-1.000000,-1.000000,-1.000000,0.923984,-1.000000,0.978759,0.970346,0.970348,-1.000000,0.970351,-1.000000,-1.000000,-1.000000,-1.000000,-1.000000,-1.000000,0.762897,-1.000000,-1.000000,0.788459,0.213674,-1.000000,-1.000000,-1.000000,0.860581,-1.000000,-1.000000,0.970378,0.970379,0.970381,-1.000000,-1.000000,-1.000000,-1.000000,-0.000873,-1.000000,0.201920,-1.000000,0.316267,0.915593,-1.000000,0.711605,-1.000000,-1.000000,0.999835,0.999837,-1.000000,0.970408,-1.000000,-1.000000,-1.000000,-1.000000,-1.000000,-1.000000,-0.230335,-0.359207,0.125255,0.750071,0.424030,0.999858,0.758606,-1.000000,0.902952,0.928291,-1.000000,-1.000000,0.970436,-1.000000,-1.000000,-1.000000,-1.000000,-1.000000,-1.000000,-1.000000,-0.213723,-1.000000,-1.000000,0.320679,0.924173,0.999889,-1.000000,0.830967,0.949403,-1.000000,-1.000000,-1.000000,0.970466,0.970468,-1.000000,-1.000000,-1.000000,-1.000000,-1.000000,-0.154978,0.064563,-1.000000,0.125278,-1.000000,-1.000000,0.999920,-1.000000,0.919904,0.928347,0.970492,0.970493,0.970495,0.970496,0.970498,-1.000000,-1.000000,-1.000000,-1.000000,-1.000000,0.999941,0.894570,-1.000000,0.328010,-1.000000,-1.000000,0.999951,0.941028,0.911486,0.831022,0.852237,-1.000000,0.970525,-1.000000,0.999963,0.999965,0.945257,-1.000000,-1.000000,-1.000000,-1.000000,0.313418,0.061618,-1.000000,0.911509,-1.000000,
0.990964,-1.000000,-1.000000,-1.000000,0.948902,-1.000000,-1.000000,-1.000000,-1.000000,-1.000000,-1.000000,0.940486,-1.000000,-1.000000,-1.000000,0.999387,-1.000000,0.872918,0.365634,0.969972,0.999395,-1.000000,0.999398,0.145756,-1.000000,-1.000000,0.552303,-1.000000,0.999407,0.969987,-1.000000,-1.000000,-1.000000,0.923650,-1.000000,-1.000000,-1.000000,0.851768,-1.000000,0.919439,-1.000000,0.559595,-1.000000,0.911002,0.970010,-1.000000,-1.000000,-1.000000,-1.000000,-1.000000,-1.000000,-1.000000,0.953185,0.830584,0.894118,0.877202,-1.000000,-1.000000,0.936339,-1.000000,-1.000000,-1.000000,-1.000000,0.940562,0.192940,-1.000000,-1.000000,-1.000000,0.970046,-1.000000,-1.000000,0.982667,-1.000000,0.999476,-1.000000,0.889920,0.999481,-1.000000,-1.000000,-1.000000,0.999487,-1.000000,-1.000000,0.407858,-1.000000,-1.000000,-1.000000,-1.000000,-1.000000,-1.000000,-1.000000,-1.000000,0.999505,-1.000000,-1.000000,-1.000000,-1.000000,0.970090,0.970091,0.970093,0.949044,0.718574,-1.000000,-1.000000,-1.000000,-1.000000,0.834898,-1.000000,-1.000000,-1.000000,0.940630,-1.000000,0.919544,-1.000000,0.889974,0.885747,-1.000000,-1.000000,0.970121,-1.000000,-1.000000,0.167939,-1.000000,-1.000000,-1.000000,-1.000000,-1.000000,-1.000000,0.961719,0.940658,0.898452,0.923791,-1.000000,0.860373,-1.000000,0.936451,-1.000000,0.940670,-1.000000,0.999578,-1.000000,-1.000000,-1.000000,-1.000000,0.080758,0.932249,0.940683,0.923814,0.970166,0.940687,0.843441,0.775441,-1.000000,-1.000000,-1.000000,-1.000000,-1.000000,-1.000000,0.949129,0.999609,-1.000000,-1.000000,-1.000000,-1.000000,0.690047,-1.000000,-1.000000,0.957567,0.923845,0.800998,-1.000000,0.672918,-1.000000,-1.000000,-1.000000,-1.000000,-1.000000,-1.000000,-1.000000,-1.000000,0.851961,-1.000000,-1.000000,0.830756,-1.000000,0.940740,-1.000000,-1.000000,0.940745,-1.000000,0.732840,-1.000000,-1.000000,0.970234,-1.000000,-1.000000,0.940756,-1.000000,0.999669,-1.000000,-1.000000,0.881636,-1.000000,0.749929,0.940768,0.940769,-1.000000,-1.000000,0.928122,0.970258,-1.000000,-1.000000,0.651517,-1.000000,-1.000000,0.940784,0.940785,-1.000000,-1.000000,0.535211,-1.000000,0.919700,-1.000000,0.317586,-1.000000,-1.000000,0.970283,-1.000000,-1.000000,-1.000000,-1.000000,0.321974,0.868979,-1.000000,-1.000000,-1.000000,-1.000000,0.999729,0.999730,0.431214,-1.000000,0.982925,-1.000000,0.732904,-1.000000,-1.000000,0.856289,-1.000000,-1.000000,0.749986,-1.000000,-1.000000,0.720097,0.830849,0.940841,-1.000000,0.999758,-1.000000,-1.000000,-1.000000,-1.000000,0.945067,0.970337,0.928201,0.970340,0.949287,-1.000000,-1.000000,-1.000000,-1.000000,0.966140,-1.000000,0.928214,0.864800,0.894427,-1.000000,0.999789,-1.000000,-1.000000,-1.000000,0.999795,-1.000000,0.970367,-1.000000,0.970370,0.885983,0.762825,0.805402,-1.000000,-1.000000,-1.000000,0.940895,0.940897,0.894453,0.970385,-1.000000,-1.000000,-1.000000,-1.000000,-1.000000,0.970394,0.940910,-1.000000,0.970399,-1.000000,0.949346,0.890242,0.894473,0.970406,-1.000000,0.940923,0.940924,-1.000000,0.890252,0.949359,-1.000000,-1.000000,-1.000000,-1.000000,-1.000000,-1.000000,-1.000000,0.940940,0.940942,0.940943,-1.000000,-1.000000,0.911406,0.911408,-1.000000,0.940952,-1.000000,0.890279,-1.000000,-1.000000,-1.000000,-1.000000,-1.000000,-1.000000,-1.000000,-1.000000,-1.000000,0.970457,-1.000000,0.978875,0.999895,0.928321,0.898757,-1.000000,0.940980,-1.000000,0.608683,0.805486,-1.000000,-1.000000,-1.000000,-1.000000,-0.130940,-1.000000,0.269495,0.999918,0.999920,-1.000000,-1.000000,0.941002,0.999926,-1.000000,-1.000000,0.843732,0.886100,-1.000000,-1.000000,-1.000000,-1.000000,-1.000000,-1.000000,-1.000000,-1.000000,0.071991,-1.000000,0.999949,-1.000000,-1.000000,-1.000000,0.999955,-1.000000,0.898812,-1.000000,-1.000000,-1.000000,-1.000000,-1.000000,-1.000000,-1.000000,-1.000000,-1.000000,0.932613,-1.000000,-1.000000,-1.000000,
0.702695,0.388898,0.999365,-1.000000,0.788106,-1.000000,-0.189717,0.436811,-1.000000,-1.000000,0.999378,0.135415,-1.000000,0.068827,0.788119,0.462890,0.497589,-1.000000,-1.000000,-1.000000,-1.000000,-1.000000,-0.362325,0.599808,-1.000000,0.969980,0.999402,-1.000000,0.894161,0.358360,-1.000000,0.086621,-1.000000,-0.158106,0.834801,-1.000000,-1.000000,0.728466,0.068841,-1.000000,0.754075,0.889951,0.894100,-1.000000,0.144292,-1.000000,0.608441,-1.000000,-1.000000,0.677146,-1.000000,-1.000000,-1.000000,-0.117556,-1.000000,-0.225891,0.788172,-0.047218,0.851795,-0.257622,-1.000000,-1.000000,-1.000000,-1.000000,-0.086087,-0.189697,-1.000000,0.245834,-1.000000,-1.000000,-1.000000,-1.000000,-1.000000,0.830690,-1.000000,-1.000000,0.792452,-0.047209,-1.000000,-1.000000,0.108851,-1.000000,-1.000000,0.206191,-0.045712,-1.000000,-1.000000,-1.000000,-1.000000,-1.000000,0.995301,-1.000000,0.006472,-0.325816,-1.000000,0.449930,0.762670,-1.000000,0.999513,0.805239,-1.000000,0.131037,0.449937,-1.000000,-0.257608,0.618541,0.970102,-1.000000,-1.000000,-0.141548,-1.000000,0.608510,0.690067,-1.000000,-1.000000,-1.000000,0.336563,-1.000000,-1.000000,-0.266681,-1.000000,0.707195,0.860357,0.419506,-1.000000,0.788179,0.256140,-1.000000,-0.266679,-0.002444,0.999562,-1.000000,0.591309,-0.171606,0.687238,-1.000000,-1.000000,-1.000000,-1.000000,0.104447,0.471685,-1.000000,-1.000000,-0.257596,-0.321247,-0.176116,0.949110,0.762733,-1.000000,0.500602,-1.000000,-1.000000,-1.000000,0.397746,0.817978,0.894339,-1.000000,-1.000000,0.428242,-1.000000,-0.230386,0.215063,0.970186,-0.117512,-1.000000,-1.000000,0.057042,-1.000000,-1.000000,-0.114510,0.885822,0.098545,-1.000000,0.785483,-1.000000,0.999632,0.784068,-0.081549,0.873138,-1.000000,-1.000000,0.801093,0.250314,0.108910,-0.189655,-1.000000,0.999649,-1.000000,-1.000000,-1.000000,-1.000000,-0.137011,-0.262119,0.717257,-1.000000,0.184191,0.856300,-1.000000,0.175355,0.010990,0.970243,-1.000000,0.970246,-1.000000,0.117796,-1.000000,0.201860,-0.069568,0.104486,-1.000000,0.999686,-0.141508,0.100048,0.873266,-1.000000,-1.000000,-1.000000,0.113367,0.999698,-1.000000,0.100053,-1.000000,-0.045650,-1.000000,0.415237,0.999709,-1.000000,-0.023262,0.484782,0.073393,-1.000000,-1.000000,0.423953,-0.095001,-1.000000,-1.000000,0.108941,-0.194156,0.437013,-1.000000,-0.234891,-1.000000,0.945037,-1.000000,-1.000000,-1.000000,0.690222,0.681656,-1.000000,0.327910,0.999747,0.886015,-1.000000,-1.000000,0.510807,0.162125,-0.253023,0.380382,-1.000000,0.767134,-0.262098,-1.000000,-1.000000,0.767139,0.091194,0.801201,-1.000000,0.745820,-1.000000,-1.000000,-1.000000,-1.000000,0.232766,-1.000000,0.919775,0.902881,-1.000000,-0.293899,-1.000000,0.077867,0.784199,0.754371,-1.000000,0.419643,0.698828,0.250385,-1.000000,-0.216758,-0.253013,-1.000000,-1.000000,-0.006834,-1.000000,-1.000000,-1.000000,0.068980,0.715954,-1.000000,0.915587,0.839477,0.970393,-1.000000,-0.112957,-1.000000,-0.230339,-1.000000,-1.000000,0.117856,-1.000000,-0.253007,0.405144,-1.000000,-0.009804,-1.000000,0.999846,-1.000000,0.519525,0.244539,-0.234866,0.822522,-1.000000,0.046732,-1.000000,-1.000000,-0.112948,0.999863,0.489209,-1.000000,-0.362248,-1.000000,-1.000000,0.569956,-1.000000,0.349857,-1.000000,0.351317,-0.041118,-1.000000,-1.000000,-1.000000,0.792789,0.698894,-1.000000,-1.000000,-1.000000,0.011062,-1.000000,-0.141456,-1.000000,0.351328,-1.000000,-1.000000,0.957920,-0.212209,-1.000000,-1.000000,0.826818,0.371730,0.428415,-1.000000,0.397919,0.636013,-1.000000,0.406641,-1.000000,0.758739,-1.000000,-1.000000,-1.000000,-1.000000,0.999932,0.383385,-1.000000,-1.000000,0.945311,0.974714,0.386299,0.582943,-1.000000,0.636033,-1.000000,-1.000000,0.140066,-1.000000,-1.000000,0.042309,-1.000000,-1.000000,-1.000000,0.835353,-1.000000,0.128253,-1.000000,0.745974,0.826787,-0.289317,0.822623,0.104593,0.467578,0.784350,
0.885584,-1.000000,0.742652,-1.000000,-1.000000,-1.000000,-1.000000,0.855963,-1.000000,0.927831,-1.000000,0.999378,0.999379,0.999381,-1.000000,0.969963,-1.000000,-1.000000,0.999388,-1.000000,0.762494,0.675685,0.719821,-1.000000,-1.000000,0.999399,0.999401,-1.000000,0.894079,-1.000000,-1.000000,-1.000000,0.999410,-1.000000,-1.000000,0.999415,0.910989,0.999418,0.999419,0.923656,-1.000000,0.991023,-1.000000,0.944744,-1.000000,0.999430,-1.000000,0.932104,-1.000000,-1.000000,-1.000000,-1.000000,-1.000000,0.970020,-1.000000,0.986843,0.970025,0.999448,-1.000000,-1.000000,0.974237,-1.000000,-1.000000,-1.000000,-1.000000,-1.000000,0.999462,0.999464,-1.000000,-1.000000,-1.000000,-1.000000,-1.000000,0.940573,-1.000000,-1.000000,-1.000000,-1.000000,-1.000000,0.999482,0.940584,0.999485,0.664322,0.758309,0.986887,-1.000000,-1.000000,-1.000000,0.860309,-1.000000,-1.000000,-1.000000,0.915291,-1.000000,-1.000000,-1.000000,-1.000000,0.940609,-1.000000,0.999513,-1.000000,0.754067,0.715642,0.719917,-1.000000,-1.000000,0.970100,-1.000000,-1.000000,-1.000000,-1.000000,-1.000000,-1.000000,0.999535,-1.000000,0.961697,0.919547,-1.000000,0.999542,-1.000000,0.949070,-1.000000,-1.000000,-1.000000,-1.000000,-1.000000,0.944866,0.940652,-1.000000,0.970135,-1.000000,-1.000000,-1.000000,-1.000000,0.970142,-1.000000,-1.000000,-1.000000,-1.000000,-1.000000,-1.000000,0.999578,-1.000000,-1.000000,-1.000000,-1.000000,-1.000000,-1.000000,-1.000000,-1.000000,-1.000000,0.758393,0.982787,0.919600,-1.000000,-1.000000,0.923824,0.898487,-1.000000,0.373025,0.970181,-1.000000,0.999610,0.999612,0.970187,-1.000000,0.999616,0.999618,0.999619,-1.000000,-1.000000,0.894279,-1.000000,0.940720,-1.000000,0.936507,0.919633,-1.000000,-1.000000,0.999636,-1.000000,-1.000000,-1.000000,0.999643,0.999644,-1.000000,-1.000000,-1.000000,0.999650,-1.000000,-1.000000,0.932313,0.970229,-1.000000,-1.000000,0.978647,0.932320,0.949184,0.999666,-1.000000,0.940759,0.999670,-1.000000,0.999673,-1.000000,0.970249,-1.000000,0.970252,0.970253,0.970255,0.970256,-1.000000,-1.000000,0.970261,0.999690,0.999692,0.974472,0.890115,0.978682,-1.000000,0.999700,-1.000000,-1.000000,-1.000000,-1.000000,-1.000000,0.970280,0.970282,0.970283,-1.000000,0.970286,-1.000000,0.970289,0.999720,0.999721,0.999723,-1.000000,0.953456,0.945030,0.999729,0.970301,-1.000000,0.999733,-1.000000,0.928171,0.974516,0.999740,-1.000000,-1.000000,-1.000000,-1.000000,0.970318,0.945050,-1.000000,0.999752,-1.000000,-1.000000,-1.000000,0.999758,-1.000000,0.999761,-1.000000,0.999764,-1.000000,-1.000000,0.826616,-1.000000,-1.000000,0.907095,0.923987,0.945077,0.945078,0.999780,0.999781,-1.000000,-1.000000,-1.000000,-1.000000,-1.000000,-1.000000,0.999792,0.999794,0.974572,-1.000000,0.911342,-1.000000,-1.000000,-1.000000,0.830892,0.830893,0.843625,0.911352,-1.000000,0.999812,-1.000000,0.856352,0.949330,0.945117,0.999820,-1.000000,-1.000000,0.999824,0.974602,0.940910,-1.000000,0.886008,-1.000000,-1.000000,-1.000000,0.869082,0.940920,0.970408,0.999841,-1.000000,0.999844,-1.000000,-1.000000,0.974625,-1.000000,0.932498,0.999854,0.830936,-1.000000,0.999858,-1.000000,0.991458,-1.000000,-1.000000,-1.000000,-1.000000,-1.000000,-1.000000,-1.000000,0.999874,0.999875,0.856406,0.999878,-1.000000,-1.000000,-1.000000,-1.000000,0.999886,0.999888,-1.000000,0.999891,-1.000000,-1.000000,-1.000000,-1.000000,-1.000000,0.881839,0.970468,-1.000000,-1.000000,-1.000000,0.924111,-1.000000,0.999911,0.999912,0.924117,0.919897,0.711671,0.771442,0.978901,-1.000000,-1.000000,-1.000000,-1.000000,-1.000000,-1.000000,-1.000000,-1.000000,-1.000000,0.999935,-1.000000,0.890336,0.983127,0.999941,0.924144,-1.000000,-1.000000,-1.000000,-1.000000,0.469011,-1.000000,0.330850,0.101542,-1.000000,0.915714,-1.000000,0.911493,-1.000000,0.999965,-1.000000,0.983154,0.919947,-1.000000,-1.000000,-1.000000,-1.000000,
0.969939,0.999361,0.272168,-1.000000,0.915164,0.965740,0.999368,-1.000000,-1.000000,0.999373,-1.000000,0.944695,0.999378,0.702708,0.948913,0.864444,-1.000000,0.999385,0.910962,-1.000000,-1.000000,-1.000000,-1.000000,0.990994,-1.000000,-1.000000,0.999399,-1.000000,-1.000000,-1.000000,-1.000000,0.999407,-1.000000,0.999410,0.999411,-1.000000,-1.000000,-1.000000,-1.000000,-1.000000,0.974286,-1.000000,0.999424,-1.000000,0.948957,-1.000000,0.944747,0.970010,0.999433,0.999435,0.944753,0.940540,0.999439,0.999441,-1.000000,-1.000000,0.999445,-1.000000,0.940550,0.940552,0.913917,-1.000000,-1.000000,0.948985,0.788099,0.326225,0.745492,0.940563,0.999464,-1.000000,0.792361,0.927919,-1.000000,0.944786,0.999473,0.822119,0.999476,0.999478,0.999479,-1.000000,-1.000000,0.970061,0.817881,0.651452,-1.000000,0.573936,-1.000000,-1.000000,-1.000000,-1.000000,-1.000000,-1.000000,0.999501,-1.000000,0.999504,-1.000000,0.999507,0.999509,0.999510,-1.000000,0.762592,-1.000000,0.978505,0.851853,0.749805,-1.000000,0.999522,-1.000000,0.999525,0.762603,0.919537,0.911094,-1.000000,-1.000000,-1.000000,0.953274,0.999538,-1.000000,0.970117,0.999542,0.434008,-1.000000,-1.000000,-1.000000,0.894212,-1.000000,0.919560,0.999555,0.936437,-1.000000,0.851890,0.999561,0.999562,-1.000000,-1.000000,0.978555,0.999569,0.999570,-1.000000,0.978561,-1.000000,0.999576,-1.000000,0.822208,0.352539,-1.000000,0.737053,0.940680,-1.000000,0.974370,-1.000000,0.999592,0.999593,-1.000000,-1.000000,0.953333,-1.000000,-1.000000,0.834963,-1.000000,0.999606,-1.000000,0.873113,-1.000000,0.591258,0.999613,0.885813,0.999616,0.940711,0.999619,0.999621,-1.000000,-1.000000,-1.000000,0.999627,0.999629,0.681491,-1.000000,-1.000000,0.999635,-1.000000,0.978624,0.860435,0.737098,0.361312,-1.000000,0.999646,0.970220,-1.000000,-1.000000,0.978638,0.999653,-1.000000,-1.000000,0.928097,0.758446,-1.000000,-1.000000,0.843501,0.999666,0.970240,0.940759,0.707206,0.304418,-1.000000,0.999675,-1.000000,0.999678,0.999680,0.974460,0.999683,0.999684,0.987080,0.970259,-1.000000,-1.000000,0.651518,0.915468,0.970267,-1.000000,0.999698,0.894348,0.801062,0.694393,0.728606,-1.000000,0.970279,-1.000000,-1.000000,-1.000000,0.957656,0.932369,0.987111,0.999718,0.999720,-1.000000,0.522249,0.634362,0.940813,-1.000000,-1.000000,-1.000000,-1.000000,0.548197,-1.000000,-1.000000,0.970309,0.999740,0.999741,0.987137,0.999744,0.792592,0.767042,0.999749,0.885936,0.970322,0.741455,0.957696,0.936626,0.999758,-0.072537,-1.000000,0.970333,-1.000000,0.805369,0.604284,-1.000000,0.982960,-1.000000,-1.000000,-1.000000,-1.000000,-1.000000,-1.000000,0.999781,-1.000000,0.940869,-1.000000,0.999787,0.999789,-1.000000,0.970361,-1.000000,0.335149,0.957736,0.999798,-1.000000,-1.000000,-1.000000,0.864818,-1.000000,0.860583,0.634422,-1.000000,0.949325,0.792648,-1.000000,-1.000000,0.945117,0.535368,0.919809,0.915588,0.911366,0.873307,0.999827,0.945127,0.987224,-1.000000,0.978816,0.999835,0.999837,0.830921,-1.000000,-1.000000,0.999843,-1.000000,-1.000000,0.999847,0.978832,-1.000000,-1.000000,-1.000000,0.936719,-1.000000,-1.000000,0.894494,-1.000000,-1.000000,0.999864,0.962014,0.839435,-1.000000,-1.000000,-1.000000,0.999874,-1.000000,0.970444,-1.000000,-1.000000,-1.000000,0.767232,0.949394,0.928311,0.890290,0.999889,0.999891,-1.000000,0.999894,-1.000000,-1.000000,0.894529,-1.000000,0.999901,0.999903,-1.000000,0.999906,0.999908,0.999909,0.911446,0.970478,0.999914,-1.000000,0.983104,-1.000000,-1.000000,-1.000000,-1.000000,-1.000000,0.999926,-1.000000,-1.000000,-1.000000,0.999932,0.999934,0.970501,-1.000000,-1.000000,0.966296,0.970507,-1.000000,0.352808,-1.000000,-1.000000,0.999949,-1.000000,-1.000000,-1.000000,0.999955,0.999957,0.999958,0.970525,-1.000000,0.928383,-1.000000,-1.000000,0.970532,0.941044,-1.000000,0.999972,0.473366,
-1.000000,-1.000000,0.999361,0.999362,0.999364,-1.000000,0.999367,0.982564,0.999370,-1.000000,-1.000000,0.999375,0.999376,-1.000000,-1.000000,0.999381,-1.000000,-1.000000,-1.000000,-1.000000,0.915185,0.944789,0.969971,0.999393,0.999395,-1.000000,-1.000000,0.999399,-1.000000,0.999402,-1.000000,-1.000000,0.999407,0.999408,0.999410,0.999411,0.999413,-1.000000,-1.000000,0.999418,-1.000000,-1.000000,0.923657,0.957377,0.932096,-1.000000,-1.000000,0.970008,-1.000000,0.999433,0.999435,-1.000000,-1.000000,-1.000000,0.999441,0.999442,-1.000000,0.999445,-1.000000,0.970026,-1.000000,-1.000000,0.999453,-1.000000,0.999456,-1.000000,0.970037,0.999461,0.999462,0.999464,-1.000000,-1.000000,0.999468,0.999470,0.999472,-1.000000,0.970052,-1.000000,-1.000000,-1.000000,-1.000000,-1.000000,-1.000000,0.999485,-1.000000,0.694232,-1.000000,-1.000000,-1.000000,0.999495,0.999496,0.889937,0.932166,0.999501,0.999502,-1.000000,0.970082,-1.000000,-1.000000,-1.000000,0.906854,-1.000000,-1.000000,0.923745,-1.000000,0.664264,-1.000000,0.999522,-1.000000,-1.000000,-1.000000,0.906870,0.999530,0.982725,-1.000000,0.970111,0.970112,0.970114,0.906880,-1.000000,0.766877,-1.000000,-1.000000,-1.000000,-1.000000,-1.000000,-1.000000,-1.000000,-1.000000,-1.000000,-1.000000,-1.000000,-1.000000,0.982755,0.999564,-1.000000,-1.000000,0.970144,-1.000000,-1.000000,0.940668,-1.000000,-1.000000,-1.000000,-1.000000,-1.000000,-1.000000,-1.000000,-1.000000,-1.000000,-1.000000,-1.000000,0.999592,-1.000000,-1.000000,-1.000000,0.970172,0.970174,-1.000000,-1.000000,-1.000000,-1.000000,-1.000000,-1.000000,-1.000000,-1.000000,-1.000000,-1.000000,-1.000000,-1.000000,-1.000000,-1.000000,-1.000000,0.970198,0.906959,-1.000000,0.970202,-1.000000,0.881598,-1.000000,-1.000000,-1.000000,-1.000000,-1.000000,-1.000000,-1.000000,-1.000000,-1.000000,-1.000000,-1.000000,0.999650,-1.000000,-1.000000,-1.000000,-1.000000,0.970231,0.970232,-1.000000,-1.000000,-1.000000,-1.000000,-1.000000,-1.000000,-1.000000,-1.000000,-1.000000,-1.000000,-1.000000,0.999678,0.999680,-1.000000,0.970255,-1.000000,-1.000000,-1.000000,0.970261,0.970262,-1.000000,-1.000000,-1.000000,0.911248,0.915473,-1.000000,0.970273,-1.000000,0.999704,-1.000000,0.999707,0.999709,0.970282,0.970283,0.970285,0.911265,-1.000000,-1.000000,-1.000000,0.970292,0.961875,0.890142,0.949243,-1.000000,0.999729,0.970301,-1.000000,0.940821,0.970306,0.970307,-1.000000,0.970310,0.970312,0.970313,-1.000000,-1.000000,-1.000000,0.970319,-1.000000,-1.000000,-1.000000,0.974533,-1.000000,0.999758,0.999760,-1.000000,0.970333,0.970334,0.970336,0.970337,0.970339,-1.000000,0.970342,0.999773,-1.000000,-1.000000,0.970348,-1.000000,0.970351,0.970352,0.999784,-1.000000,-1.000000,-1.000000,0.970360,0.999792,-1.000000,0.999795,0.999797,0.999798,-1.000000,0.999801,-1.000000,0.999804,-1.000000,0.999807,-1.000000,0.970379,-1.000000,-1.000000,0.999815,0.999817,-1.000000,0.978803,0.999821,-1.000000,0.999824,-1.000000,0.999827,0.999829,0.999831,-1.000000,0.999834,0.999835,-1.000000,0.970406,-1.000000,0.970409,0.999843,-1.000000,0.999846,0.999847,0.999849,0.999851,0.999852,0.999854,-1.000000,0.999857,-1.000000,-1.000000,-1.000000,0.999863,-1.000000,-1.000000,0.999867,0.970436,0.957807,0.940952,-1.000000,0.999875,-1.000000,0.999878,-1.000000,0.999881,-1.000000,-1.000000,-1.000000,-1.000000,0.999889,0.999891,-1.000000,-1.000000,-1.000000,-1.000000,-1.000000,-1.000000,0.953624,0.970469,-1.000000,-1.000000,-1.000000,-1.000000,0.970477,-1.000000,-1.000000,0.999915,-1.000000,0.999918,0.999920,0.999921,-1.000000,-1.000000,-1.000000,-1.000000,0.999929,-1.000000,-1.000000,0.999934,-1.000000,0.941014,0.941015,0.974714,0.999941,0.999943,-1.000000,0.999946,-1.000000,-1.000000,-1.000000,-1.000000,-1.000000,-1.000000,-1.000000,-1.000000,-1.000000,-1.000000,-1.000000,-1.000000,-1.000000,-1.000000,0.377583,0.974744,-1.000000,
0.830508,-0.171655,0.974146,-0.050231,-1.000000,-1.000000,-1.000000,-1.000000,-1.000000,-1.000000,0.910948,-1.000000,-1.000000,-1.000000,-1.000000,-1.000000,-1.000000,-1.000000,0.881375,0.953129,-1.000000,-1.000000,-1.000000,-1.000000,-1.000000,0.070230,-1.000000,-1.000000,-1.000000,0.822056,-1.000000,0.724101,-1.000000,-1.000000,-1.000000,-1.000000,-1.000000,0.741188,-1.000000,-1.000000,-1.000000,-1.000000,0.999421,-1.000000,-1.000000,-1.000000,0.864483,0.885645,-1.000000,-1.000000,0.911005,0.881421,0.902560,-1.000000,0.991039,0.999441,0.999442,0.944760,0.944761,-1.000000,-1.000000,-0.063653,-1.000000,-1.000000,-1.000000,-1.000000,-1.000000,0.999459,-1.000000,-1.000000,-1.000000,-1.000000,0.999467,0.999468,-1.000000,-1.000000,-1.000000,0.999475,-1.000000,-1.000000,0.076274,-1.000000,0.813631,-1.000000,0.944800,0.949014,0.999488,0.999490,-1.000000,-1.000000,-1.000000,-1.000000,0.999498,-1.000000,0.999501,-1.000000,-1.000000,0.982699,0.944820,-1.000000,-1.000000,-1.000000,-1.000000,-1.000000,0.970093,-1.000000,0.991118,0.999521,-1.000000,-1.000000,-1.000000,-1.000000,-1.000000,-1.000000,0.953269,0.999533,0.999535,-1.000000,-1.000000,-1.000000,-1.000000,0.490460,0.885749,-1.000000,0.999547,-1.000000,-1.000000,0.999552,0.949078,-1.000000,-1.000000,-1.000000,-1.000000,0.999561,0.995362,0.999564,0.999566,0.999567,-1.000000,-1.000000,-1.000000,0.999573,-1.000000,0.978564,0.999578,-1.000000,-1.000000,-1.000000,0.999584,-1.000000,-1.000000,-1.000000,0.940685,-1.000000,-1.000000,-1.000000,0.999596,-1.000000,-1.000000,-1.000000,-1.000000,-1.000000,-1.000000,-1.000000,0.999609,0.999610,0.999612,-1.000000,-1.000000,0.856178,-1.000000,-1.000000,-1.000000,0.999623,0.999624,0.999626,-1.000000,0.999629,0.999630,-1.000000,-1.000000,-1.000000,-1.000000,0.999638,-1.000000,0.999641,-1.000000,0.949165,0.949166,0.843486,-1.000000,0.991248,-1.000000,-1.000000,0.999655,-1.000000,0.999658,-1.000000,0.349748,0.703004,0.970237,0.822282,-1.000000,-1.000000,-1.000000,0.999672,-1.000000,0.982866,0.987071,0.928116,0.907009,0.936555,-1.000000,-1.000000,0.999686,-1.000000,-1.000000,-1.000000,0.919689,-1.000000,-1.000000,0.240068,-1.000000,-1.000000,-1.000000,0.890122,0.970276,-1.000000,0.987102,0.999709,0.907037,-1.000000,-1.000000,0.970286,-1.000000,-1.000000,0.617161,-1.000000,-1.000000,-1.000000,-1.000000,-1.000000,0.999729,-1.000000,-1.000000,-1.000000,-1.000000,-1.000000,0.999738,0.961892,0.898613,0.949259,-1.000000,0.999746,0.749986,-1.000000,0.496283,-1.000000,0.999753,-1.000000,-1.000000,-1.000000,-1.000000,-1.000000,-1.000000,-1.000000,0.999766,-1.000000,-1.000000,-1.000000,-1.000000,0.970343,-1.000000,-1.000000,0.869030,0.805380,-1.000000,-1.000000,-1.000000,-1.000000,-1.000000,-1.000000,-1.000000,-1.000000,-1.000000,-1.000000,0.999797,0.999798,0.999800,0.966161,0.970372,0.999804,-1.000000,-1.000000,0.915575,0.970379,-1.000000,-1.000000,-1.000000,-1.000000,0.999818,-1.000000,-1.000000,-1.000000,-1.000000,-1.000000,-1.000000,-1.000000,0.987224,-1.000000,-1.000000,-1.000000,0.894473,-1.000000,-1.000000,0.924049,0.847897,0.728715,-1.000000,-1.000000,-1.000000,-1.000000,-1.000000,-1.000000,-1.000000,-1.000000,-1.000000,0.983048,0.987254,-1.000000,0.864871,0.826699,0.805454,-1.000000,-1.000000,0.970439,0.894506,-1.000000,-1.000000,0.574193,-1.000000,-1.000000,-1.000000,-1.000000,-1.000000,-1.000000,0.999889,0.987283,0.953615,0.902980,0.805477,-1.000000,0.864901,-1.000000,0.999901,0.970469,-1.000000,-1.000000,-1.000000,-0.108437,-1.000000,-1.000000,0.518040,-1.000000,-1.000000,-1.000000,-1.000000,-1.000000,-1.000000,0.962071,-1.000000,-1.000000,0.919910,-1.000000,-1.000000,0.999934,0.999935,-1.000000,0.970504,0.999940,-1.000000,-1.000000,-1.000000,-1.000000,-1.000000,-1.000000,-1.000000,-1.000000,0.928375,-1.000000,0.957890,-1.000000,0.941035,-1.000000,0.970528,0.999965,-1.000000,0.983154,-1.000000,0.970535,
-1.000000,-1.000000,-1.000000,0.206136,0.592607,-1.000000,0.483127,0.948898,-1.000000,-1.000000,-1.000000,0.444057,0.652801,0.088089,-1.000000,-1.000000,-1.000000,-1.000000,0.077722,0.346691,-1.000000,-0.122071,-1.000000,-1.000000,-1.000000,0.969972,0.999395,-1.000000,-1.000000,-1.000000,-1.000000,-1.000000,0.999404,0.999405,0.999407,0.724186,0.776790,-1.000000,-1.000000,-1.000000,0.974201,0.335042,-1.000000,-1.000000,-1.000000,-1.000000,0.953167,-1.000000,0.999428,0.970008,0.970010,0.970011,-1.000000,-1.000000,0.970016,0.999439,-1.000000,-1.000000,-1.000000,-1.000000,0.999447,-1.000000,-1.000000,0.911022,0.944769,0.872976,0.923689,-1.000000,0.970037,0.970038,-1.000000,-1.000000,-1.000000,0.970044,0.970046,-1.000000,0.940572,0.970050,-1.000000,-1.000000,-1.000000,-1.000000,0.999481,-1.000000,-1.000000,-1.000000,-1.000000,-1.000000,0.970067,-1.000000,0.999493,-1.000000,-1.000000,0.999498,0.970076,0.970078,-1.000000,-1.000000,0.970082,0.407867,-1.000000,-1.000000,-1.000000,-1.000000,0.927963,-1.000000,-1.000000,-1.000000,-1.000000,-1.000000,0.999524,0.999525,-1.000000,0.970105,-1.000000,-1.000000,0.881509,0.940632,0.999536,0.478893,0.847633,-1.000000,-1.000000,-1.000000,-1.000000,-1.000000,-1.000000,-1.000000,0.974334,-1.000000,0.970130,0.822189,-1.000000,-1.000000,0.752762,-1.000000,-1.000000,0.970141,0.970142,0.999569,0.040694,-1.000000,-1.000000,-1.000000,0.970151,-1.000000,-1.000000,0.877321,0.970157,0.970159,-1.000000,-1.000000,-1.000000,-1.000000,-1.000000,0.549629,-1.000000,0.970171,0.970172,0.999599,0.813731,-1.000000,-1.000000,-1.000000,-1.000000,-1.000000,-1.000000,0.847696,0.999613,0.970189,-1.000000,-1.000000,-1.000000,-1.000000,-1.000000,-0.045758,-1.000000,0.970201,-1.000000,0.999630,-1.000000,-1.000000,0.970208,-1.000000,0.999638,0.885836,-1.000000,0.754168,0.247297,0.422378,-0.153625,-1.000000,-1.000000,-1.000000,-1.000000,-1.000000,-1.000000,-1.000000,0.999659,0.999661,0.999663,0.970237,0.970238,0.999667,0.940759,0.860463,-1.000000,-1.000000,-1.000000,-1.000000,0.279636,-1.000000,0.444151,-1.000000,-0.131084,-1.000000,0.970259,0.970261,0.999690,-1.000000,0.846434,-1.000000,-1.000000,-1.000000,-1.000000,-1.000000,0.856254,-1.000000,-1.000000,-1.000000,-1.000000,-1.000000,0.431120,-1.000000,-1.000000,-1.000000,-1.000000,0.999720,0.999721,-1.000000,0.999724,-1.000000,0.940815,0.940816,0.999730,-1.000000,-1.000000,-1.000000,0.894382,-1.000000,-1.000000,-1.000000,-0.204704,-1.000000,-1.000000,-1.000000,-1.000000,0.999750,0.999752,0.982943,-1.000000,-1.000000,0.940844,0.940845,0.999761,0.970333,-1.000000,-1.000000,-1.000000,-1.000000,-1.000000,0.307474,-1.000000,0.664532,0.970346,0.970348,0.999780,0.999781,0.974560,-1.000000,0.999786,0.999787,-1.000000,-1.000000,0.957731,0.919783,-1.000000,0.775685,-1.000000,-1.000000,0.083798,-1.000000,-1.000000,-1.000000,0.957746,0.970378,0.999810,0.999812,-1.000000,-1.000000,-1.000000,-1.000000,0.999820,-1.000000,0.983011,-1.000000,-1.000000,-1.000000,0.940911,0.262128,0.915597,0.919821,-1.000000,0.999837,0.970406,-1.000000,0.999841,0.945140,0.945141,0.999846,0.999847,-1.000000,0.999851,-1.000000,-1.000000,0.940936,0.970424,-1.000000,-1.000000,-1.000000,-1.000000,0.970432,-1.000000,-1.000000,-1.000000,0.970438,0.949383,-1.000000,-1.000000,0.079380,0.351317,0.728823,-1.000000,0.999883,-1.000000,-1.000000,-1.000000,-1.000000,-1.000000,-1.000000,0.999894,-1.000000,-1.000000,-1.000000,0.970466,-1.000000,0.843708,0.945199,-1.000000,0.259232,-1.000000,0.932554,0.999912,0.999914,-1.000000,0.999917,-1.000000,-1.000000,0.999921,-1.000000,-1.000000,0.970492,0.999928,0.970495,0.903014,0.999932,0.801256,-1.000000,0.919917,0.999938,-1.000000,0.620265,0.681723,-1.000000,0.941022,-1.000000,-1.000000,-1.000000,-1.000000,-1.000000,0.970520,0.970522,-1.000000,0.548343,0.860719,-1.000000,0.613028,-1.000000,0.024476,-1.000000,
-1.000000,-1.000000,-1.000000,-0.158120,-1.000000,0.532195,-1.000000,-0.293979,0.532198,-1.000000,-1.000000,-1.000000,-0.298526,0.397624,-1.000000,0.783857,0.605534,-1.000000,-1.000000,-1.000000,0.037660,-1.000000,-1.000000,0.754047,0.175242,0.999391,-1.000000,-1.000000,0.371459,-0.257633,-1.000000,0.467240,0.410713,-1.000000,-1.000000,-0.126566,0.241407,-1.000000,-1.000000,-1.000000,-1.000000,-1.000000,-1.000000,-1.000000,0.108827,0.467253,-1.000000,-0.293967,-1.000000,-1.000000,0.986827,0.553843,-1.000000,-0.248553,-1.000000,0.113271,-1.000000,-1.000000,-0.225892,0.104398,0.436852,-0.189700,-1.000000,0.104400,-1.000000,-1.000000,-1.000000,-0.262160,-1.000000,-1.000000,0.923693,-0.357749,0.556742,-1.000000,-1.000000,0.995269,-1.000000,-0.189694,-1.000000,0.428168,0.042148,-0.325821,-1.000000,-0.020350,0.604171,-1.000000,0.885697,0.365684,0.452816,-1.000000,-1.000000,-1.000000,0.036212,-0.222861,0.999498,-0.096558,0.574025,0.406412,-1.000000,-1.000000,0.974290,0.055521,0.940609,-1.000000,-0.173123,-0.286373,-0.111539,-1.000000,-1.000000,-1.000000,-1.000000,-1.000000,0.608504,-0.313667,0.291273,-1.000000,0.728553,-0.253069,-1.000000,-0.158076,0.375900,-0.047191,0.244401,-1.000000,0.465878,0.932210,0.961706,0.107395,-1.000000,-1.000000,-0.141542,-0.119027,-1.000000,0.054053,0.889992,0.517903,-0.298490,-0.293941,-1.000000,-1.000000,0.758454,-1.000000,0.974353,-0.312141,-0.128024,-1.000000,-1.000000,-0.225863,0.217990,0.156157,0.890015,-1.000000,-1.000000,-0.222842,-1.000000,-1.000000,-1.000000,-1.000000,0.999596,-1.000000,-1.000000,-1.000000,0.082246,-1.000000,0.231220,-1.000000,0.999609,-1.000000,0.762752,0.642957,-1.000000,-0.253052,0.715800,0.040711,-1.000000,0.885820,-0.038208,0.371580,0.068913,-1.000000,-0.230382,-0.126509,-1.000000,-0.020303,0.574114,0.257643,-0.149032,0.139946,0.467383,-1.000000,0.999646,-0.348590,-1.000000,-1.000000,-1.000000,-0.173090,-1.000000,0.758524,0.974438,-1.000000,0.915438,0.358492,0.175354,-0.216788,-0.357715,-0.042674,-1.000000,0.371604,-1.000000,0.051125,0.822372,-1.000000,0.496322,-1.000000,0.978668,-1.000000,-0.118993,-1.000000,-1.000000,-1.000000,-1.000000,-0.024759,0.681539,-1.000000,0.288427,0.999700,-1.000000,-1.000000,-0.006868,-1.000000,-1.000000,-1.000000,0.405073,-0.177592,-0.047140,-1.000000,0.634438,-1.000000,0.999720,0.720154,0.432659,-0.126485,-1.000000,0.135549,-0.047136,-0.118982,-1.000000,0.835156,0.126687,-1.000000,0.702979,-1.000000,-1.000000,-1.000000,-1.000000,-1.000000,0.569874,0.135557,-1.000000,-1.000000,-0.198671,-1.000000,-1.000000,-1.000000,0.073408,-0.293904,-1.000000,0.179815,0.601494,0.567011,-1.000000,-1.000000,0.300164,-1.000000,0.270894,-1.000000,0.319165,0.441391,-1.000000,-1.000000,0.046707,0.690255,0.073418,-1.000000,-1.000000,0.279689,0.750022,0.733029,-1.000000,0.703106,0.253318,-0.331841,0.461687,0.483390,0.999806,-1.000000,-1.000000,0.073426,-1.000000,0.406582,-1.000000,-1.000000,-1.000000,-1.000000,-1.000000,0.410945,-1.000000,-1.000000,-1.000000,-1.000000,-1.000000,0.422565,-1.000000,-1.000000,0.426921,0.638821,-1.000000,0.532499,0.915607,-1.000000,0.135595,-1.000000,0.822518,-1.000000,-1.000000,-1.000000,0.999855,-1.000000,0.509428,0.284113,-0.173041,-1.000000,0.218112,-0.177556,0.999867,-1.000000,-1.000000,-1.000000,0.720271,-0.126446,-1.000000,0.463179,-1.000000,-1.000000,-1.000000,-1.000000,-1.000000,-1.000000,-0.051571,-0.209196,-1.000000,-1.000000,0.544062,-1.000000,-1.000000,-1.000000,-1.000000,0.822564,0.940983,0.788549,-0.230323,0.246033,-1.000000,0.720301,-1.000000,0.241633,-1.000000,-1.000000,0.284141,0.349881,-1.000000,0.513800,-1.000000,0.310472,0.886097,-1.000000,0.259243,-1.000000,0.037845,-1.000000,-1.000000,0.536886,-1.000000,-1.000000,-0.230315,0.860786,-1.000000,-1.000000,0.082370,-1.000000,-1.000000,0.156305,-0.213707,-1.000000,0.073479,-0.225781,0.135640,-0.162484,0.957899,-1.000000,
-1.000000,0.318956,-1.000000,-1.000000,0.578159,-1.000000,0.488905,-1.000000,-1.000000,-1.000000,-1.000000,0.969948,0.969950,0.953116,0.986771,0.728350,0.864438,-1.000000,-1.000000,-1.000000,0.783781,-1.000000,0.387456,-1.000000,0.089575,0.974176,-1.000000,-1.000000,0.969974,-1.000000,-1.000000,0.969978,-1.000000,0.969981,-1.000000,0.969984,-1.000000,0.999408,0.999410,0.999411,-0.170138,-1.000000,-1.000000,-1.000000,0.999419,-1.000000,-1.000000,-1.000000,0.970004,0.970005,-1.000000,-1.000000,0.970010,0.970011,-1.000000,0.970014,-1.000000,0.970017,0.999441,0.999442,0.927896,-1.000000,-1.000000,-1.000000,0.999450,0.944767,0.999453,0.970032,-1.000000,0.970035,0.970037,0.970038,-1.000000,0.970041,0.970043,-1.000000,0.970046,0.970047,0.999472,0.999473,-1.000000,-1.000000,0.429620,0.944794,-1.000000,0.999482,-1.000000,0.970063,-1.000000,0.970066,-1.000000,0.999492,0.999493,-1.000000,0.949023,-1.000000,-1.000000,0.873017,-1.000000,-1.000000,0.711357,0.080730,0.974292,0.978499,-1.000000,-1.000000,-1.000000,0.970093,0.970094,0.970096,-1.000000,0.404887,-1.000000,-1.000000,-1.000000,-1.000000,-1.000000,-1.000000,-1.000000,-1.000000,-1.000000,-1.000000,-1.000000,0.999541,0.999542,-1.000000,-1.000000,0.970123,0.970124,-1.000000,0.513487,-1.000000,-1.000000,-1.000000,-1.000000,-1.000000,-1.000000,-1.000000,-1.000000,-1.000000,-1.000000,0.974350,-1.000000,0.999572,0.999573,-1.000000,0.970151,-1.000000,-1.000000,0.999581,-1.000000,-1.000000,0.978573,-1.000000,-1.000000,-1.000000,-1.000000,-1.000000,-1.000000,-1.000000,0.970172,-1.000000,0.999601,-1.000000,0.999604,-1.000000,0.970181,-1.000000,-1.000000,-1.000000,-1.000000,-1.000000,-1.000000,0.970192,-1.000000,0.970195,0.034769,-1.000000,-1.000000,-1.000000,-1.000000,0.949151,0.961787,0.932292,-1.000000,0.970210,-1.000000,-1.000000,0.970214,0.970216,-1.000000,0.970219,0.970220,-1.000000,0.970223,0.999652,-1.000000,-1.000000,-1.000000,-1.000000,-1.000000,0.974441,0.928102,-1.000000,-1.000000,0.970240,0.970241,-1.000000,-1.000000,0.970246,-1.000000,-1.000000,-1.000000,0.970252,-1.000000,-1.000000,0.970256,-1.000000,0.690181,-1.000000,-1.000000,-1.000000,-1.000000,0.885886,0.685824,0.919694,0.970271,0.999701,-1.000000,-1.000000,-1.000000,-1.000000,-1.000000,0.970282,-1.000000,-1.000000,0.970286,0.957659,-1.000000,0.660202,-1.000000,-1.000000,-1.000000,-1.000000,-1.000000,-1.000000,-1.000000,-1.000000,-1.000000,0.961887,0.999737,-1.000000,0.999740,0.999741,-1.000000,0.970315,-1.000000,0.830843,-1.000000,-1.000000,0.383206,-1.000000,-1.000000,-1.000000,-1.000000,-1.000000,-1.000000,-1.000000,0.698720,0.539657,-1.000000,-1.000000,0.999770,-1.000000,-1.000000,0.999775,-1.000000,0.894420,0.970349,0.999781,-0.207711,-1.000000,-1.000000,-1.000000,-1.000000,-1.000000,-1.000000,-1.000000,-1.000000,-1.000000,-1.000000,0.999800,-1.000000,0.999803,0.999804,-1.000000,0.949321,-1.000000,-1.000000,0.999812,0.737233,-1.000000,-1.000000,0.999818,-1.000000,-1.000000,-1.000000,-1.000000,-1.000000,-1.000000,-1.000000,-1.000000,-1.000000,-1.000000,-1.000000,0.999837,0.940920,0.953565,0.970409,0.999843,-1.000000,0.924053,-1.000000,0.999849,-1.000000,0.970420,0.970421,0.745804,0.869100,-1.000000,-1.000000,-1.000000,0.999863,-1.000000,-1.000000,0.953592,0.949380,-1.000000,-1.000000,0.999874,0.999875,0.999877,0.970445,0.974655,0.999881,0.999883,0.970451,-1.000000,0.970454,-1.000000,0.970457,0.970459,0.970460,0.970462,-1.000000,0.970465,-1.000000,0.970468,0.999903,0.999904,0.874870,-1.000000,-1.000000,-1.000000,0.999912,0.999914,0.999915,-1.000000,-1.000000,0.970486,0.970487,-1.000000,-1.000000,-1.000000,0.970493,0.970495,0.999931,-1.000000,0.999934,0.924217,-1.000000,0.903021,0.999940,0.999941,0.999943,-1.000000,0.999946,0.999948,-1.000000,-1.000000,0.999952,-1.000000,-1.000000,0.970522,-1.000000,-1.000000,0.999961,0.970528,-1.000000,0.039341,
-1.000000,0.575363,0.999353,-0.149103,0.953181,0.612691,-1.000000,-1.000000,-1.000000,0.056870,0.944685,-1.000000,-1.000000,-1.000000,0.681381,0.647079,0.320427,0.082165,0.885599,0.609838,-0.194235,-1.000000,-0.253099,0.927922,0.501921,0.957343,0.847503,0.352525,-1.000000,0.999395,-1.000000,-1.000000,-1.000000,0.095502,0.969981,-1.000000,0.070318,0.113259,-1.000000,-1.000000,-1.000000,0.214978,-1.000000,-1.000000,0.175253,-1.000000,-1.000000,-1.000000,-1.000000,0.953167,0.885644,0.875854,0.082184,-1.000000,-1.000000,-1.000000,-0.104066,0.766873,-1.000000,0.157575,-1.000000,-1.000000,0.051046,-0.011418,0.668582,0.762622,-1.000000,-1.000000,-1.000000,0.970034,-1.000000,0.131015,-1.000000,-1.000000,0.889906,0.948994,-1.000000,0.200299,0.588372,-1.000000,-1.000000,-1.000000,0.834854,0.805208,-1.000000,-1.000000,0.677179,-1.000000,0.970063,0.970064,-1.000000,0.444124,-1.000000,-0.065135,-0.316708,0.058484,-1.000000,0.404957,0.999501,-0.038244,-1.000000,0.974289,0.758405,-1.000000,-1.000000,-1.000000,0.999513,-1.000000,-1.000000,0.856172,-1.000000,-0.158080,-1.000000,-1.000000,0.889962,-0.236445,0.461526,-0.126535,-1.000000,-0.185162,-1.000000,0.864661,-1.000000,-1.000000,-1.000000,0.830668,0.030284,-1.000000,0.034743,-1.000000,0.940647,-1.000000,0.190035,-0.084565,-0.042707,-1.000000,-1.000000,-1.000000,0.957510,0.532324,-0.316695,-1.000000,-1.000000,0.595620,0.074824,-0.230394,0.915358,0.107406,-1.000000,0.999579,0.928025,-1.000000,-1.000000,-1.000000,-1.000000,0.170903,0.502045,0.605681,-1.000000,-1.000000,0.601379,-1.000000,0.822225,0.294232,-1.000000,-1.000000,-1.000000,-1.000000,-1.000000,-1.000000,0.898495,-1.000000,-1.000000,0.275215,-1.000000,0.999619,-1.000000,-1.000000,-1.000000,-1.000000,0.601400,0.754238,-1.000000,0.856272,-1.000000,-1.000000,-1.000000,-0.069580,-0.110008,-1.000000,0.999643,-1.000000,0.107431,-1.000000,0.999649,-1.000000,0.147331,-1.000000,-1.000000,0.107435,0.970231,0.381785,-1.000000,0.010988,-1.000000,-1.000000,-1.000000,-1.000000,-1.000000,-1.000000,0.999673,-1.000000,-1.000000,-0.299985,0.556882,-1.000000,0.284029,-1.000000,0.668674,-1.000000,0.796880,-1.000000,-1.000000,0.215099,-1.000000,0.945001,0.911250,-1.000000,-1.000000,0.999703,0.999704,-1.000000,-1.000000,-1.000000,-1.000000,-1.000000,-1.000000,0.822404,-0.262108,-0.225833,-1.000000,0.301602,0.907048,-1.000000,-1.000000,-1.000000,-1.000000,-1.000000,0.582802,0.999733,-1.000000,0.367270,-1.000000,-1.000000,-1.000000,-1.000000,0.113385,-1.000000,0.881702,-1.000000,0.046696,0.539648,-1.000000,-0.225825,-1.000000,-1.000000,0.885944,-1.000000,-1.000000,0.071927,0.703000,-1.000000,-1.000000,-1.000000,-1.000000,0.970343,-1.000000,-1.000000,-0.185105,-1.000000,-1.000000,-1.000000,0.999784,-1.000000,-1.000000,-1.000000,-1.000000,0.700249,-1.000000,-1.000000,0.999797,0.568469,0.705960,0.839458,-1.000000,0.215147,-1.000000,-1.000000,0.970378,0.999810,0.949325,-1.000000,0.108974,-1.000000,-1.000000,0.362944,0.945119,-1.000000,0.458803,0.327950,0.552659,0.664571,0.999831,-1.000000,0.999834,0.419664,-1.000000,-1.000000,-1.000000,-1.000000,-1.000000,-1.000000,0.953571,-1.000000,-1.000000,-1.000000,0.394977,0.657439,-1.000000,-1.000000,-1.000000,-1.000000,-1.000000,0.999863,-1.000000,0.454482,-1.000000,0.184276,0.974646,-1.000000,-1.000000,-1.000000,0.055647,-1.000000,-1.000000,0.634555,0.978865,-1.000000,-1.000000,-1.000000,-1.000000,0.767158,-0.050076,-1.000000,-1.000000,0.215187,-0.280240,0.184289,-0.121938,0.441462,0.086799,-0.225793,0.962054,-1.000000,-0.257530,0.113448,0.034866,0.441469,-1.000000,-1.000000,0.852205,-1.000000,-1.000000,-1.000000,-1.000000,-1.000000,0.970495,0.493585,-1.000000,-1.000000,0.733139,-1.000000,-1.000000,-0.153468,-1.000000,0.595872,-1.000000,-1.000000,-1.000000,-1.000000,0.865028,0.698861,0.588698,-1.000000,0.970522,-1.000000,-0.011258,0.349901,0.506605,0.042312,
0.940455,-1.000000,0.037650,-0.071156,-1.000000,-1.000000,0.058436,-1.000000,-1.000000,-1.000000,-1.000000,0.742654,-1.000000,-1.000000,-1.000000,-0.234967,0.702703,-0.339513,-1.000000,0.732704,0.536530,0.436815,-0.176164,-1.000000,0.860211,-1.000000,-1.000000,-1.000000,-1.000000,-0.131072,-1.000000,0.417968,-1.000000,-1.000000,-1.000000,-1.000000,-1.000000,-1.000000,-1.000000,-0.321278,0.999410,-1.000000,-1.000000,0.745456,-1.000000,-1.000000,-1.000000,-1.000000,-1.000000,-1.000000,-1.000000,-1.000000,-1.000000,0.691416,-1.000000,-1.000000,-1.000000,-1.000000,-1.000000,0.086631,-1.000000,0.999442,0.970022,0.911016,0.783834,0.500432,-1.000000,0.860270,-1.000000,0.800857,-1.000000,-1.000000,-1.000000,-1.000000,-1.000000,0.915255,0.940566,-1.000000,0.999468,-1.000000,-1.000000,-1.000000,-1.000000,-1.000000,0.334989,0.800878,-1.000000,0.889923,-1.000000,0.885697,-1.000000,0.970066,-1.000000,0.970069,-1.000000,-1.000000,-1.000000,-1.000000,-1.000000,0.970078,-1.000000,0.999504,-1.000000,0.932173,0.915297,0.932176,-1.000000,-1.000000,0.970091,-1.000000,0.953256,0.970096,-1.000000,-1.000000,0.970100,0.970102,0.970103,-1.000000,-1.000000,0.999532,0.970109,-1.000000,-1.000000,0.847632,0.953277,-1.000000,-1.000000,0.999544,0.999545,-1.000000,0.999549,-1.000000,-1.000000,-1.000000,-1.000000,0.970132,0.915343,-1.000000,0.999561,0.999562,0.999564,-1.000000,-1.000000,0.915353,0.970145,0.982764,-1.000000,0.999575,0.999576,-1.000000,-1.000000,-1.000000,0.970157,-1.000000,0.970160,-1.000000,0.970163,0.999590,-1.000000,-1.000000,-1.000000,-1.000000,-1.000000,-1.000000,0.999601,-1.000000,0.944913,-1.000000,-1.000000,-1.000000,0.612784,-1.000000,0.898497,0.894271,-1.000000,-1.000000,0.999619,-1.000000,0.999623,-1.000000,-1.000000,0.970201,-1.000000,0.999630,0.999632,-1.000000,0.919636,-1.000000,-1.000000,-1.000000,-1.000000,-1.000000,0.928084,-1.000000,0.970220,0.970222,-1.000000,0.999652,0.999653,-1.000000,0.999656,0.970231,0.970232,0.970234,0.970235,-1.000000,-1.000000,-1.000000,-1.000000,-1.000000,-1.000000,-1.000000,0.961829,0.864704,-1.000000,0.970252,-1.000000,-1.000000,0.999684,0.163571,0.999687,0.970261,0.970262,-1.000000,0.999693,-1.000000,-1.000000,-1.000000,-1.000000,-1.000000,-1.000000,-1.000000,-1.000000,0.843538,-1.000000,0.970282,-1.000000,0.999713,-1.000000,-1.000000,-1.000000,0.999720,0.999721,-1.000000,-1.000000,-1.000000,-1.000000,-1.000000,-1.000000,-1.000000,-1.000000,-1.000000,-1.000000,-1.000000,-1.000000,0.970312,0.999743,-1.000000,-1.000000,-1.000000,0.999749,0.907074,-1.000000,-1.000000,0.982945,-1.000000,-1.000000,-1.000000,-1.000000,-1.000000,0.999764,0.949281,-1.000000,0.961920,-1.000000,0.970342,-1.000000,-1.000000,-1.000000,-1.000000,-1.000000,0.597198,0.213668,-1.000000,-1.000000,-1.000000,-1.000000,-1.000000,-1.000000,-1.000000,-1.000000,-1.000000,0.999798,-1.000000,0.970370,-1.000000,0.999804,0.982995,-1.000000,-1.000000,-1.000000,-1.000000,-1.000000,-1.000000,-1.000000,-1.000000,-1.000000,-1.000000,-1.000000,0.999824,0.911368,0.999827,-1.000000,0.970399,0.932480,0.974610,-1.000000,0.289956,0.247468,0.106024,0.915605,-1.000000,0.123773,-1.000000,-1.000000,-1.000000,-1.000000,-1.000000,0.945150,-1.000000,0.999857,0.999858,0.970427,0.932507,-1.000000,-1.000000,0.822452,0.651644,0.492102,-1.000000,-1.000000,-1.000000,-1.000000,-1.000000,0.754356,-1.000000,-1.000000,-1.000000,0.999884,-1.000000,-1.000000,-1.000000,0.852179,0.911429,0.877601,0.886067,0.801226,0.620235,-1.000000,0.362987,0.801231,0.403726,-1.000000,0.464643,-1.000000,-1.000000,0.970478,-1.000000,0.999915,-1.000000,-1.000000,0.970486,-1.000000,0.881860,-1.000000,0.999926,-1.000000,-1.000000,-1.000000,-1.000000,0.411006,-1.000000,0.480577,-1.000000,0.886107,-1.000000,0.999943,-1.000000,0.999946,-1.000000,-1.000000,-1.000000,0.919931,-1.000000,0.839511,0.860715,0.392126,-1.000000,-1.000000,0.103109,
-1.000000,0.635610,-1.000000,-1.000000,-1.000000,-1.000000,0.999356,0.999358,-1.000000,-1.000000,-1.000000,0.940470,0.910942,0.694141,-1.000000,-1.000000,-1.000000,-1.000000,-1.000000,0.217901,0.397627,0.320429,-1.000000,-1.000000,-1.000000,-1.000000,0.999387,-1.000000,-1.000000,0.944710,0.969972,-1.000000,-1.000000,0.885617,-1.000000,-1.000000,-1.000000,-1.000000,0.906756,-0.321278,0.746954,-1.000000,-1.000000,-1.000000,-1.000000,-1.000000,0.948948,0.894093,0.906770,0.970001,-1.000000,-1.000000,0.919442,-1.000000,-1.000000,-1.000000,-1.000000,-1.000000,-1.000000,-1.000000,0.166421,0.999441,0.970020,-1.000000,-1.000000,0.788090,-1.000000,-1.000000,0.919465,0.970031,0.970032,-1.000000,0.800860,-1.000000,-1.000000,-1.000000,-1.000000,-1.000000,-1.000000,-1.000000,0.820780,-1.000000,-1.000000,0.856053,-1.000000,-1.000000,0.978469,0.491785,-1.000000,-1.000000,-1.000000,0.860301,0.868772,0.953229,-1.000000,-1.000000,-1.000000,-1.000000,-1.000000,-1.000000,0.877249,-1.000000,-1.000000,0.999505,0.565320,-1.000000,-1.000000,-1.000000,-1.000000,0.949041,-1.000000,0.830646,0.860329,0.822158,0.970099,0.936406,-1.000000,0.915314,-1.000000,-1.000000,0.999532,0.999533,-1.000000,-1.000000,-1.000000,-1.000000,-1.000000,-1.000000,-1.000000,0.919552,0.864590,-1.000000,-1.000000,0.822185,-1.000000,-1.000000,-1.000000,-1.000000,-1.000000,-1.000000,0.999562,0.999564,-1.000000,-1.000000,0.999569,-1.000000,-1.000000,0.860377,0.826450,0.856143,0.864617,0.830699,-1.000000,0.944892,0.915367,0.999586,0.999587,-1.000000,-1.000000,-1.000000,0.999593,0.999595,-1.000000,0.974379,0.944908,-1.000000,0.851927,-1.000000,-1.000000,0.864643,0.957555,0.856172,-1.000000,-1.000000,0.970189,0.932276,0.999618,-1.000000,0.999621,0.999623,0.999624,0.940718,-1.000000,0.974409,0.944937,-1.000000,0.911190,-1.000000,0.860433,0.839236,-1.000000,0.834996,-1.000000,-1.000000,-1.000000,0.911203,-1.000000,0.999650,-1.000000,-1.000000,0.919654,-1.000000,0.940749,0.940750,-1.000000,-1.000000,-1.000000,-1.000000,-1.000000,0.672949,-1.000000,0.873169,-1.000000,-1.000000,-1.000000,0.911231,-1.000000,0.999681,-1.000000,-1.000000,-1.000000,-1.000000,0.949207,-1.000000,-1.000000,-1.000000,-1.000000,-1.000000,-1.000000,-1.000000,-1.000000,-1.000000,-1.000000,-1.000000,-1.000000,0.881667,-1.000000,0.999712,-1.000000,-1.000000,-1.000000,-1.000000,-1.000000,0.792571,0.999723,-1.000000,-1.000000,-1.000000,-1.000000,-1.000000,0.953462,0.932387,-1.000000,-1.000000,-1.000000,0.911288,0.999741,-1.000000,-1.000000,-1.000000,-1.000000,-1.000000,0.982940,0.856297,-1.000000,-1.000000,-1.000000,-1.000000,-1.000000,0.953490,0.970333,-1.000000,0.813870,-1.000000,-1.000000,-1.000000,0.999772,0.999773,0.953503,-1.000000,0.080826,0.520924,-1.000000,-1.000000,-1.000000,-1.000000,0.278139,-1.000000,-1.000000,0.945092,0.924004,0.953522,0.885977,0.978782,-1.000000,-1.000000,-1.000000,-1.000000,-1.000000,-1.000000,0.970378,0.915577,0.999812,-1.000000,0.737234,-1.000000,-1.000000,-1.000000,-1.000000,0.970391,0.915590,-1.000000,0.919815,-1.000000,-1.000000,0.953558,-1.000000,0.999835,-1.000000,-1.000000,0.703138,-1.000000,-1.000000,-1.000000,-1.000000,-1.000000,-1.000000,-1.000000,-1.000000,-1.000000,0.826690,0.919842,0.869101,0.987252,-1.000000,-1.000000,-1.000000,-1.000000,-1.000000,-1.000000,-1.000000,-1.000000,0.999874,-1.000000,-1.000000,0.911416,-1.000000,-1.000000,0.915644,0.919868,-1.000000,0.826717,-1.000000,-1.000000,-1.000000,0.999894,-1.000000,-1.000000,0.999898,-1.000000,0.284132,0.911439,-1.000000,-1.000000,0.945202,-1.000000,-1.000000,0.856438,0.826740,-1.000000,0.886086,0.919900,0.949428,0.970487,0.941000,-1.000000,-1.000000,-0.094945,-0.097941,-1.000000,0.351344,0.082364,0.999935,0.999937,-1.000000,-1.000000,0.978922,-1.000000,0.856466,-1.000000,-1.000000,0.522390,-1.000000,-1.000000,-1.000000,-1.000000,-1.000000,-1.000000,0.999960,-1.000000,
0.982541,0.144260,0.501897,-1.000000,-1.000000,-1.000000,-1.000000,0.432452,-1.000000,-1.000000,0.775330,0.454191,-1.000000,0.532198,-1.000000,-1.000000,-0.234967,0.077718,-1.000000,0.068825,0.999376,-1.000000,-0.162625,-0.162625,-0.266714,0.999384,0.678535,0.401991,-1.000000,-0.176162,-0.146089,0.719901,-1.000000,-1.000000,0.432476,-1.000000,0.940505,-1.000000,0.336494,-0.330391,0.783882,0.006441,0.749799,-1.000000,-1.000000,-1.000000,-1.000000,-0.050214,0.384566,0.586903,0.927876,-1.000000,-1.000000,-1.000000,0.432493,-0.321274,0.010913,-0.330386,0.629943,0.694274,0.999438,0.068847,0.037680,0.073296,0.660002,-1.000000,0.179684,-1.000000,0.982644,-1.000000,0.010920,0.380221,0.068853,-0.257621,-1.000000,0.974245,0.940563,0.672880,0.698576,-1.000000,0.690018,-0.330379,-1.000000,0.135451,0.949003,0.122155,-1.000000,-1.000000,0.314637,-1.000000,0.010930,-1.000000,-1.000000,-1.000000,0.436878,-1.000000,0.599873,-1.000000,-0.262152,0.397692,-1.000000,0.961741,-0.230409,-0.194207,-1.000000,-1.000000,0.698608,-0.150567,-1.000000,-0.164097,-0.015868,0.314655,-1.000000,0.104426,-1.000000,-0.289402,-1.000000,-1.000000,-1.000000,0.445596,-1.000000,0.428200,-1.000000,-1.000000,0.860344,0.999538,-1.000000,0.059983,0.548156,0.006485,-1.000000,-1.000000,-1.000000,-1.000000,-0.284851,0.244406,0.402082,-1.000000,-0.293943,0.104440,0.999561,0.406444,-1.000000,0.432570,-1.000000,-1.000000,-1.000000,0.055542,-1.000000,-1.000000,-1.000000,-1.000000,0.275197,-1.000000,-1.000000,-0.298486,0.953321,-0.221333,0.762733,-0.262133,-1.000000,-1.000000,-1.000000,-0.293935,0.940692,-1.000000,0.664405,0.539553,-0.122015,-1.000000,-1.000000,-1.000000,0.970184,-1.000000,0.046649,-1.000000,-1.000000,0.432600,-0.253051,-0.126512,0.851945,-0.289383,-1.000000,0.037742,0.153224,-1.000000,0.371583,-1.000000,0.690061,0.015443,0.091146,-0.275746,0.148803,0.336614,-0.015828,-1.000000,-1.000000,-0.262121,0.741455,0.210671,0.902759,0.970228,-0.153537,-1.000000,0.999659,-1.000000,-1.000000,-1.000000,-0.024767,0.608602,-1.000000,-0.280283,-1.000000,-0.176096,0.310349,0.139960,-0.234903,-0.298468,0.402151,-1.000000,0.999684,-1.000000,-1.000000,-0.230369,0.410872,0.999692,-1.000000,-0.141507,-1.000000,0.384714,0.483328,0.165052,-1.000000,-1.000000,0.055588,-1.000000,0.999709,0.822400,-1.000000,-1.000000,-0.198680,-1.000000,-1.000000,0.100060,-1.000000,0.341031,0.724430,0.151787,0.762845,0.036290,-1.000000,0.592857,-1.000000,-1.000000,0.715891,-1.000000,-1.000000,-1.000000,0.139985,-1.000000,0.894390,-0.289360,0.037783,-1.000000,-0.234887,-1.000000,-1.000000,0.151800,-1.000000,-1.000000,0.042244,-1.000000,-1.000000,0.552619,0.715915,-1.000000,-1.000000,0.248905,-1.000000,-1.000000,-1.000000,0.694531,-1.000000,0.497829,-1.000000,0.668827,-0.325767,0.543993,0.437047,-1.000000,-1.000000,-0.158014,-1.000000,-0.006839,-0.112965,0.073422,0.437054,0.206324,-1.000000,0.135579,0.885987,0.077873,0.660268,0.432710,-1.000000,-0.325762,-1.000000,-1.000000,-1.000000,-1.000000,0.306037,-1.000000,-1.000000,-0.275709,0.117854,-1.000000,-1.000000,-1.000000,0.171003,0.397876,0.367323,0.376059,-1.000000,0.630229,-1.000000,-1.000000,-1.000000,0.835256,-1.000000,-1.000000,-1.000000,-1.000000,0.970424,0.389164,-0.056062,0.630242,-1.000000,-1.000000,-1.000000,-1.000000,0.978851,0.410971,0.694601,-1.000000,0.822541,-0.298432,-1.000000,-1.000000,0.999881,0.428398,0.945180,-1.000000,-1.000000,-1.000000,0.314838,-1.000000,-1.000000,0.406627,-1.000000,0.919961,-1.000000,0.728840,0.349872,0.042292,0.940984,-1.000000,-1.000000,-0.266609,0.046751,0.126756,-1.000000,0.835314,-1.000000,-1.000000,-1.000000,-1.000000,0.458862,0.367369,0.406644,0.754477,0.932572,0.707487,0.698929,0.104579,-1.000000,0.073471,0.135631,-1.000000,-1.000000,-1.000000,-1.000000,-1.000000,-1.000000,0.402298,-0.257521,0.073477,0.915711,0.175473,-1.000000,-1.000000,
0.969924,-1.000000,-1.000000,-1.000000,-1.000000,0.467211,0.462871,-1.000000,0.139835,-1.000000,-1.000000,0.397618,-1.000000,0.104368,-1.000000,0.728425,-1.000000,0.501910,-1.000000,-1.000000,-1.000000,-1.000000,-1.000000,-1.000000,0.436815,0.999382,0.999384,-1.000000,-0.298523,0.175241,-1.000000,-1.000000,0.532216,-1.000000,-1.000000,-1.000000,0.783876,-0.230430,0.754058,-1.000000,0.135425,0.135425,-1.000000,-0.248558,-1.000000,-1.000000,-1.000000,-1.000000,0.042128,-0.162615,-1.000000,0.285370,-0.158104,0.432491,0.402013,0.788156,-1.000000,-1.000000,-1.000000,-1.000000,0.432497,-0.158100,-0.194221,-1.000000,-1.000000,-0.325827,0.999445,-1.000000,-1.000000,0.436855,-0.216835,-1.000000,-1.000000,-1.000000,0.911028,-1.000000,-1.000000,0.771154,-1.000000,0.082197,-1.000000,0.175274,0.999470,-1.000000,-1.000000,0.073308,-1.000000,-1.000000,-1.000000,0.452811,0.851822,0.999484,-1.000000,-1.000000,-1.000000,-1.000000,-1.000000,0.402049,-1.000000,-1.000000,0.911065,0.064419,-1.000000,-0.114542,0.283945,0.470196,0.978496,0.160551,-0.325816,-1.000000,-1.000000,-0.032272,-1.000000,-1.000000,0.940617,0.724273,-1.000000,0.432547,0.817996,0.758421,-1.000000,-1.000000,0.779647,-1.000000,-1.000000,0.999536,0.019874,-1.000000,-1.000000,0.608516,-1.000000,-0.135537,-1.000000,-1.000000,0.217977,0.257604,0.384637,-1.000000,-1.000000,-1.000000,-0.262139,-1.000000,-0.074088,-1.000000,-1.000000,-1.000000,-1.000000,0.073341,0.758457,-1.000000,-1.000000,0.999576,-0.321248,0.253218,-1.000000,-1.000000,-1.000000,0.086684,-0.015845,-1.000000,-1.000000,-0.289389,-1.000000,-0.158062,0.210648,-1.000000,0.634356,-1.000000,-1.000000,-1.000000,-1.000000,-0.108517,-1.000000,0.384668,0.612867,-1.000000,0.668704,0.569788,0.881586,-0.158056,0.532360,0.148795,-1.000000,-1.000000,-1.000000,-1.000000,-1.000000,-1.000000,-1.000000,0.758507,-1.000000,-1.000000,-1.000000,0.754248,-1.000000,-0.141519,-1.000000,0.578434,0.210670,-1.000000,-1.000000,0.828013,0.974435,0.476071,-1.000000,-0.126502,0.724381,0.754265,-1.000000,-1.000000,-1.000000,0.860542,-0.020292,-1.000000,0.361412,0.323495,-1.000000,-1.000000,0.982870,0.016945,0.402152,-1.000000,-1.000000,0.822381,-1.000000,-1.000000,-1.000000,0.758554,-1.000000,0.822389,-1.000000,-1.000000,0.077835,-1.000000,0.940793,-0.109990,0.144401,-0.158034,-0.198681,0.184211,-0.266648,-0.221305,-1.000000,0.497790,0.139976,-1.000000,-0.225832,-1.000000,-1.000000,-1.000000,-1.000000,-1.000000,-0.230360,-1.000000,0.483349,-1.000000,0.068952,-1.000000,-1.000000,-1.000000,0.822429,-1.000000,-1.000000,-1.000000,-1.000000,0.104511,0.970324,0.175391,-1.000000,-1.000000,-1.000000,-1.000000,-1.000000,0.063028,-1.000000,0.907089,0.970339,-1.000000,-1.000000,-1.000000,-0.262096,-0.230350,0.724391,-0.020259,-0.262095,0.046707,0.367295,-1.000000,-0.298448,-0.221289,-1.000000,-1.000000,-1.000000,0.487722,-1.000000,0.210734,-0.121964,-1.000000,-1.000000,0.179831,0.890216,-1.000000,-0.325763,0.796981,-1.000000,-0.257549,-1.000000,0.210742,0.463143,0.206332,-1.000000,0.326488,0.422560,-1.000000,-1.000000,-1.000000,-0.189612,0.432721,-1.000000,0.737331,-1.000000,-1.000000,-1.000000,0.345466,-1.000000,-1.000000,-1.000000,-1.000000,-1.000000,-1.000000,0.999852,-0.331832,-1.000000,-1.000000,-1.000000,0.852233,-0.157997,0.117866,0.999864,0.852238,0.822534,0.724542,0.822537,0.471859,0.248951,0.784266,0.962024,-1.000000,0.117873,0.780013,0.999883,0.767234,-1.000000,0.864972,0.775679,0.536855,0.797049,-0.189598,0.788540,0.371722,-1.000000,-0.162500,-1.000000,-0.252994,-0.262070,-1.000000,-1.000000,0.073461,0.073462,-0.082969,0.924117,-0.073989,-1.000000,-1.000000,-1.000000,0.999921,-1.000000,0.698922,0.999926,-1.000000,-0.221259,0.140058,-1.000000,-0.252987,-1.000000,-0.262064,0.966294,-1.000000,0.792834,0.196085,-0.056037,0.638897,0.754492,0.171049,-1.000000,-1.000000,0.536895,-1.000000,-1.000000,-1.000000,
