minWeight=-1.000000, maxWeight=1.000000
0.337942,0.197322,0.497588,-0.357761,-1.000000,-1.000000,0.969971,-1.000000,-0.228922,-1.000000,-1.000000,-1.000000,0.969980,-1.000000,0.540867,-1.000000,-0.126566,-0.230429,0.462905,0.113261,-1.000000,-1.000000,-1.000000,-0.092088,-0.011426,-1.000000,0.999422,0.999424,0.999425,-1.000000,-1.000000,-1.000000,-1.000000,-1.000000,-1.000000,0.484615,-1.000000,-1.000000,0.605577,0.856106,-1.000000,0.497624,0.257556,0.251692,0.999450,-1.000000,-1.000000,-1.000000,0.999456,0.999458,0.423808,-1.000000,-1.000000,0.999464,-1.000000,-1.000000,-1.000000,0.475961,-0.110052,-0.153582,-1.000000,-1.000000,-1.000000,0.004975,0.163489,-1.000000,-1.000000,-1.000000,-1.000000,-1.000000,0.974274,-1.000000,-1.000000,-1.000000,-1.000000,0.247315,0.944813,0.198842,-1.000000,-0.021834,-1.000000,0.690047,-1.000000,0.059973,0.758328,-1.000000,-1.000000,-1.000000,-1.000000,-1.000000,0.460074,0.999522,0.999524,0.536623,-1.000000,0.197383,0.919538,-1.000000,-1.000000,-1.000000,-1.000000,0.745634,-1.000000,-1.000000,0.999542,-1.000000,-1.000000,-1.000000,0.775402,-1.000000,-1.000000,0.781164,0.538082,-1.000000,-1.000000,-1.000000,-1.000000,-0.284849,0.019882,0.702930,-1.000000,0.668670,-0.325805,-1.000000,-1.000000,-1.000000,-1.000000,-1.000000,-1.000000,-1.000000,-1.000000,-1.000000,-1.000000,-1.000000,-1.000000,-1.000000,-1.000000,-1.000000,-1.000000,0.156162,0.817977,-0.047174,-1.000000,-1.000000,0.114812,-1.000000,-1.000000,0.999609,0.999610,0.751381,-1.000000,0.160594,0.741347,0.806743,0.153221,0.556844,-1.000000,0.129600,-1.000000,0.608574,-1.000000,-1.000000,0.574111,-1.000000,-1.000000,0.953370,-1.000000,-1.000000,0.999641,0.999643,0.999644,0.999646,-1.000000,0.915427,0.999650,0.210671,-1.000000,-1.000000,-1.000000,0.019913,0.885854,-0.248507,-1.000000,0.660162,0.339543,-1.000000,0.742893,-1.000000,-1.000000,0.999673,0.949194,-1.000000,0.601434,0.991357,-1.000000,-0.101003,-1.000000,-0.153530,0.358505,0.839361,-1.000000,-1.000000,-0.389700,-1.000000,-1.000000,-1.000000,-1.000000,0.966064,-1.000000,0.999704,-1.000000,0.902809,0.885898,-1.000000,-1.000000,0.120767,0.028854,-1.000000,-0.339455,-1.000000,0.999721,-1.000000,-1.000000,-1.000000,-1.000000,-0.362271,-1.000000,0.945034,0.970304,0.999735,-1.000000,-1.000000,0.860524,-1.000000,-1.000000,-0.094994,0.999746,0.323531,-1.000000,-0.230356,-1.000000,-0.257561,0.376015,0.251832,0.999758,0.587131,-1.000000,-1.000000,-1.000000,-1.000000,-1.000000,-0.020262,0.923983,0.129657,-1.000000,-1.000000,0.513708,-1.000000,0.319166,0.410922,0.999783,-1.000000,-1.000000,0.370209,-0.263606,0.134096,-1.000000,-1.000000,-1.000000,-1.000000,-1.000000,-1.000000,0.864815,-1.000000,0.402218,-1.000000,0.999807,-1.000000,-1.000000,0.011036,0.140013,-0.257549,-1.000000,-1.000000,0.999820,-1.000000,-1.000000,0.691711,-1.000000,-0.038148,-1.000000,0.128202,0.966191,0.713115,0.730213,-1.000000,-1.000000,-1.000000,0.471841,-1.000000,-1.000000,-1.000000,-0.375958,-0.263594,0.165112,-1.000000,-0.082985,-1.000000,0.970424,-1.000000,-1.000000,-1.000000,0.924069,-1.000000,-1.000000,-1.000000,-1.000000,-0.112946,0.664603,-0.357681,-1.000000,-1.000000,-1.000000,-0.195628,0.970448,-1.000000,-1.000000,0.057135,-1.000000,-1.000000,-1.000000,0.924097,0.843700,-1.000000,-1.000000,0.325066,-1.000000,0.634569,-1.000000,0.750191,-1.000000,-1.000000,0.604463,0.578609,-1.000000,-1.000000,-1.000000,0.138576,-1.000000,-0.234852,0.513716,-1.000000,-1.000000,-1.000000,-0.082965,-0.167006,0.919911,-0.141447,-1.000000,-1.000000,0.502257,0.754485,-1.000000,-1.000000,-1.000000,-1.000000,0.154826,-1.000000,0.755915,0.839587,0.006615,-1.000000,0.974729,-1.000000,0.027447,-1.000000,0.122339,-1.000000,-1.000000,0.467573,0.894592,0.728893,0.999971,-1.000000,0.415385,-0.157970,-1.000000,-1.000000,0.999980,-1.000000,0.934108,0.987376,-1.000000,-1.000000,-1.000000,-1.000000,0.852268,-0.189575,-1.000000,-1.000000,
-1.000000,-1.000000,0.999384,-0.284883,-1.000000,-1.000000,0.616933,-1.000000,-1.000000,0.957348,0.999396,-1.000000,0.872926,0.612639,-1.000000,-1.000000,-1.000000,-1.000000,0.999408,0.441180,0.634223,0.526463,-1.000000,0.313145,-1.000000,-1.000000,-1.000000,0.898322,-1.000000,0.881413,0.860248,0.800835,0.856014,0.860252,0.919448,0.585476,-1.000000,-1.000000,-0.353188,-1.000000,0.175263,0.217931,-1.000000,-1.000000,-1.000000,-1.000000,-1.000000,0.970031,0.304313,-1.000000,0.800860,0.872980,-1.000000,-1.000000,-1.000000,-1.000000,-1.000000,-1.000000,0.911039,0.062926,0.219413,0.345279,-1.000000,-1.000000,-1.000000,-1.000000,-1.000000,-1.000000,-1.000000,-1.000000,0.864538,-1.000000,0.779614,0.758313,-1.000000,-1.000000,-1.000000,-1.000000,-1.000000,0.335085,-1.000000,0.042158,-1.000000,0.418030,-1.000000,-1.000000,-1.000000,0.940613,0.851852,0.860328,-1.000000,-1.000000,-1.000000,-1.000000,-1.000000,-1.000000,-1.000000,-1.000000,-1.000000,0.105910,-1.000000,0.192971,-1.000000,-0.090557,-1.000000,-1.000000,-1.000000,-1.000000,0.851879,0.889983,-1.000000,0.898440,-1.000000,-1.000000,-1.000000,-1.000000,-1.000000,0.110359,-0.120525,-1.000000,0.345326,-1.000000,-1.000000,0.365727,-1.000000,-1.000000,0.535131,-1.000000,-1.000000,0.974361,0.919585,0.957530,-1.000000,-1.000000,-1.000000,-1.000000,-1.000000,0.288377,-1.000000,0.125156,0.034760,-1.000000,-0.331876,0.381753,0.758400,-1.000000,-1.000000,-1.000000,-1.000000,0.944918,0.894268,0.928055,0.932275,-1.000000,-1.000000,-1.000000,-1.000000,0.999623,-1.000000,0.561164,0.349730,0.232699,0.894285,-1.000000,-1.000000,0.881601,-1.000000,-1.000000,0.856198,0.915420,-1.000000,-1.000000,0.961801,-1.000000,0.138472,-1.000000,-1.000000,0.957598,0.860449,-1.000000,0.193022,-1.000000,0.602858,-1.000000,0.928103,0.384697,0.982858,-1.000000,-1.000000,-1.000000,0.928112,-1.000000,0.999676,-1.000000,0.234106,-1.000000,-1.000000,0.493436,-0.307568,0.768495,-1.000000,-0.162550,0.999692,0.064487,0.517904,-1.000000,-1.000000,-1.000000,0.873196,0.839292,0.932359,0.907033,-1.000000,0.080802,-1.000000,-1.000000,-1.000000,-1.000000,0.809578,0.051139,-1.000000,-1.000000,0.203349,0.928159,-1.000000,-1.000000,-1.000000,-1.000000,0.835074,-1.000000,0.839320,0.822342,-1.000000,-1.000000,-1.000000,-1.000000,-1.000000,-1.000000,-0.155018,-1.000000,-1.000000,0.345420,-1.000000,0.610097,0.203363,-1.000000,0.410910,-1.000000,-1.000000,0.877485,-1.000000,0.792610,-1.000000,-1.000000,-1.000000,-1.000000,-1.000000,-1.000000,0.907099,-0.051602,-1.000000,-1.000000,-1.000000,0.218078,-1.000000,-1.000000,-1.000000,-1.000000,0.902888,0.970364,-1.000000,-1.000000,-1.000000,-1.000000,-1.000000,-1.000000,-0.100970,-1.000000,-1.000000,-1.000000,-1.000000,0.244523,0.999815,-1.000000,0.030375,-1.000000,-1.000000,-1.000000,-1.000000,-1.000000,0.953553,0.890237,-1.000000,-1.000000,-1.000000,-1.000000,-1.000000,-1.000000,0.839411,-1.000000,-1.000000,0.030383,0.181321,-1.000000,0.925543,-1.000000,-1.000000,-1.000000,-1.000000,-1.000000,0.987251,0.890265,0.792687,-1.000000,-1.000000,-1.000000,0.999867,0.970436,-1.000000,0.361515,0.792778,-1.000000,-1.000000,0.057132,-1.000000,-1.000000,-1.000000,0.890287,0.818221,0.881828,0.881829,-1.000000,0.655954,0.945188,0.940974,0.940976,-1.000000,0.970466,-1.000000,-1.000000,-0.257531,-1.000000,-1.000000,0.119362,-1.000000,-1.000000,-1.000000,0.750119,0.924120,-1.000000,0.826745,0.869157,-1.000000,0.890323,0.974700,-1.000000,-1.000000,-1.000000,-1.000000,-1.000000,-1.000000,-0.243915,0.911472,-1.000000,-1.000000,-1.000000,-1.000000,0.881881,0.999948,0.953670,-1.000000,-1.000000,0.513736,-1.000000,0.941033,-1.000000,-1.000000,-0.365278,0.898816,-1.000000,0.144502,0.513827,0.150408,-1.000000,-1.000000,-1.000000,0.945266,-1.000000,0.999978,-1.000000,-1.000000,0.694603,0.826800,0.919963,-1.000000,0.919966,-1.000000,-1.000000,0.240201,-1.000000,
-1.000000,-1.000000,0.291120,0.800798,-1.000000,-1.000000,-0.077214,-1.000000,-1.000000,-1.000000,-1.000000,-1.000000,-1.000000,-1.000000,-1.000000,-1.000000,-1.000000,-1.000000,-1.000000,0.233986,-1.000000,-1.000000,-1.000000,-1.000000,-1.000000,-1.000000,-1.000000,-1.000000,-1.000000,-1.000000,-1.000000,-1.000000,-1.000000,-1.000000,-1.000000,-1.000000,-1.000000,-1.000000,-1.000000,-1.000000,-1.000000,-1.000000,-1.000000,-1.000000,-1.000000,-1.000000,-1.000000,-1.000000,-1.000000,-1.000000,-1.000000,0.974242,-1.000000,-1.000000,-1.000000,-1.000000,0.889907,-1.000000,-1.000000,-1.000000,-1.000000,0.586856,-1.000000,-1.000000,0.940578,0.839099,0.860296,0.877233,-1.000000,0.919496,0.999487,0.999488,0.999490,0.978481,0.957443,0.953234,-1.000000,0.911065,0.885709,0.894167,0.999502,0.136855,-1.000000,0.851844,-1.000000,0.745531,0.813656,0.728458,0.788146,0.894181,-1.000000,0.982712,-1.000000,-1.000000,0.800915,0.800916,0.856099,-1.000000,-1.000000,0.923760,0.999533,0.843389,0.902652,0.788165,0.822174,-1.000000,-1.000000,0.860351,0.898435,0.817934,0.843401,0.970126,0.944863,0.936434,0.796688,0.826435,-1.000000,-1.000000,-1.000000,0.856130,0.970139,0.940661,0.877309,-1.000000,0.957518,-1.000000,0.911134,0.970150,-1.000000,-1.000000,-1.000000,-1.000000,0.970157,0.911144,0.881557,-1.000000,0.999589,0.953326,-1.000000,-1.000000,-1.000000,-1.000000,0.885798,0.940693,0.970175,-1.000000,0.970178,0.970180,-1.000000,0.999609,0.999610,-1.000000,0.813741,-1.000000,0.851939,-1.000000,-1.000000,0.999621,0.919624,-1.000000,-1.000000,0.940720,-1.000000,-1.000000,-1.000000,0.970207,-1.000000,-1.000000,-1.000000,-1.000000,0.630006,-1.000000,-1.000000,-1.000000,0.851966,0.961804,0.974430,-1.000000,-1.000000,-1.000000,-1.000000,0.982849,-1.000000,-1.000000,0.999663,-1.000000,-1.000000,-1.000000,-1.000000,0.796784,-1.000000,-1.000000,-1.000000,-1.000000,0.822292,0.999680,-1.000000,-1.000000,-1.000000,-1.000000,-1.000000,-1.000000,0.957633,0.944996,0.999693,-1.000000,-1.000000,-1.000000,-1.000000,0.843533,-1.000000,-1.000000,0.818068,-1.000000,0.953439,0.999710,-1.000000,-1.000000,-1.000000,-1.000000,-1.000000,-1.000000,-1.000000,-1.000000,-1.000000,-1.000000,-1.000000,0.987123,0.907055,-1.000000,0.864755,0.915507,0.945039,-1.000000,0.915511,0.843568,-1.000000,-1.000000,-1.000000,-1.000000,0.974527,-1.000000,-1.000000,-1.000000,-1.000000,0.999757,0.999758,-1.000000,-1.000000,-1.000000,-1.000000,0.856309,0.919759,0.949284,-1.000000,0.902868,0.940859,0.911321,-1.000000,-1.000000,-1.000000,-1.000000,-1.000000,-1.000000,0.945086,-1.000000,-1.000000,0.902885,-1.000000,-1.000000,-1.000000,0.885977,0.970367,0.890210,0.894441,-1.000000,0.999804,-1.000000,-1.000000,-1.000000,0.999810,-1.000000,-1.000000,-1.000000,-1.000000,-1.000000,-1.000000,-1.000000,-1.000000,0.978807,-1.000000,-1.000000,-1.000000,-1.000000,-1.000000,-1.000000,0.999835,0.999837,-1.000000,-1.000000,0.974617,-1.000000,-1.000000,-1.000000,-1.000000,-1.000000,-1.000000,-1.000000,-1.000000,-1.000000,0.886032,-1.000000,-1.000000,0.924068,0.860632,0.970432,-1.000000,-1.000000,-1.000000,-1.000000,0.940952,-1.000000,0.940955,0.940957,-1.000000,-1.000000,-1.000000,-1.000000,0.856413,-1.000000,0.970454,0.940968,-1.000000,-1.000000,-1.000000,0.945190,-1.000000,0.643078,-1.000000,-1.000000,-1.000000,0.978886,-1.000000,0.940986,-1.000000,-1.000000,0.830985,-1.000000,0.949424,0.978898,-1.000000,0.894549,-1.000000,0.928346,-1.000000,-1.000000,-1.000000,0.847973,-1.000000,-1.000000,0.978915,0.974709,-1.000000,-1.000000,0.945233,-1.000000,0.924144,-1.000000,0.936805,0.999948,-1.000000,0.818276,0.775730,0.574243,-1.000000,0.999957,-1.000000,-1.000000,-1.000000,0.864958,0.941040,0.911497,0.970532,0.941044,-1.000000,0.941047,-1.000000,-1.000000,0.974750,-1.000000,0.941054,-1.000000,-1.000000,0.894607,0.941060,-1.000000,-1.000000,-1.000000,-1.000000,-1.000000,
-1.000000,0.965752,-1.000000,0.694153,-1.000000,-1.000000,-1.000000,-1.000000,-1.000000,-1.000000,-1.000000,-1.000000,0.889845,-1.000000,-1.000000,0.999401,0.999402,-1.000000,0.999405,0.999407,0.999408,0.999410,-1.000000,-1.000000,-1.000000,0.961579,-1.000000,-1.000000,-1.000000,-1.000000,-1.000000,0.826323,0.919442,-1.000000,-1.000000,-1.000000,-1.000000,-1.000000,0.999436,-1.000000,0.999439,-1.000000,0.978432,-1.000000,-1.000000,0.898345,0.944764,-1.000000,-1.000000,0.711317,0.894125,0.860274,-1.000000,-1.000000,-1.000000,-1.000000,-1.000000,-1.000000,-1.000000,-1.000000,-1.000000,0.999472,0.999473,0.986872,0.877227,-1.000000,-1.000000,-1.000000,-1.000000,-1.000000,0.999485,-1.000000,0.953228,-1.000000,-1.000000,-1.000000,-1.000000,-1.000000,-1.000000,0.885709,0.999501,0.999502,-1.000000,-1.000000,-1.000000,-1.000000,-1.000000,-1.000000,-1.000000,0.970091,-1.000000,0.970094,-1.000000,-1.000000,-1.000000,-1.000000,-1.000000,-1.000000,0.915315,-1.000000,0.999532,0.999533,-1.000000,-1.000000,-1.000000,-1.000000,-1.000000,-1.000000,0.970120,0.970121,0.970123,0.919555,-1.000000,-1.000000,-1.000000,-1.000000,-1.000000,0.915343,-1.000000,-1.000000,-1.000000,-1.000000,-1.000000,-1.000000,-1.000000,-1.000000,-1.000000,0.898460,0.940670,0.940671,0.940673,-1.000000,-1.000000,-1.000000,-1.000000,-1.000000,-1.000000,0.970163,-1.000000,-1.000000,-1.000000,-1.000000,-1.000000,-1.000000,-1.000000,-1.000000,-1.000000,-1.000000,0.970180,-1.000000,0.881577,-1.000000,-1.000000,-1.000000,-1.000000,-1.000000,-1.000000,-1.000000,0.999621,-1.000000,-1.000000,-1.000000,-1.000000,-1.000000,0.999630,0.970205,-1.000000,0.940727,0.970210,0.999638,0.970213,0.999641,-1.000000,-1.000000,-1.000000,0.805269,-1.000000,-1.000000,0.999652,-1.000000,-1.000000,-1.000000,0.999658,-1.000000,0.970234,-1.000000,0.915441,-1.000000,0.999667,-1.000000,-1.000000,-1.000000,-1.000000,-1.000000,-1.000000,-1.000000,0.999680,-1.000000,0.961837,-1.000000,0.999686,0.999687,0.999689,0.999690,0.970264,-1.000000,0.940784,-1.000000,0.877426,0.970271,-1.000000,-1.000000,0.940793,0.940794,0.868967,-1.000000,-1.000000,-1.000000,-1.000000,-1.000000,-1.000000,-1.000000,0.999720,0.970292,-1.000000,0.940812,0.970297,-1.000000,0.945031,-1.000000,-1.000000,0.949250,0.940822,0.940823,0.885925,0.809598,0.999741,-1.000000,-1.000000,-1.000000,-1.000000,0.974527,-1.000000,0.999752,0.999753,0.999755,-1.000000,0.970328,-1.000000,0.970331,0.970333,0.970334,0.940851,-1.000000,0.847833,0.788356,0.999772,0.987167,0.885958,-1.000000,-1.000000,0.974557,0.999781,-1.000000,0.999784,0.999786,0.999787,-1.000000,-1.000000,0.999792,0.970363,0.970364,-1.000000,0.999798,0.750027,-1.000000,-1.000000,-1.000000,-1.000000,-1.000000,-1.000000,0.881759,-1.000000,0.987207,0.999815,-1.000000,-1.000000,-1.000000,-1.000000,-1.000000,-1.000000,0.970394,0.970396,-1.000000,0.898695,0.999832,0.999834,0.983024,-1.000000,-1.000000,-1.000000,-1.000000,0.387618,-1.000000,-1.000000,-1.000000,0.898712,-1.000000,0.873330,-1.000000,-1.000000,-1.000000,0.970426,0.864867,0.898723,0.860632,-1.000000,-1.000000,-1.000000,-1.000000,0.080859,-1.000000,-1.000000,-1.000000,0.902964,-1.000000,0.864884,-1.000000,0.869123,0.902971,-1.000000,0.970454,-1.000000,0.852179,-1.000000,-1.000000,0.974670,0.970463,-1.000000,-1.000000,-1.000000,-1.000000,-1.000000,-1.000000,-1.000000,-1.000000,0.945205,0.839473,0.775699,0.873387,-1.000000,-1.000000,0.999920,0.924124,0.941000,-1.000000,0.974700,-1.000000,0.886097,-1.000000,-1.000000,-1.000000,-1.000000,-1.000000,-1.000000,-1.000000,0.864939,-1.000000,0.894571,0.945238,0.970513,-1.000000,0.945243,-1.000000,-1.000000,0.945247,0.970522,0.970523,-1.000000,-1.000000,-1.000000,-1.000000,0.919944,-1.000000,-1.000000,-1.000000,-1.000000,-1.000000,-1.000000,-1.000000,0.856496,-1.000000,-1.000000,0.999983,0.999985,0.957918,-1.000000,-1.000000,0.864983,-1.000000,
-1.000000,0.122118,-1.000000,-1.000000,0.990982,0.728438,0.040632,0.031718,-1.000000,0.491813,-1.000000,0.257531,-1.000000,0.991076,-1.000000,0.800892,0.108820,-0.230430,-1.000000,0.068836,0.965779,0.822144,0.762590,0.506267,-1.000000,0.948945,-1.000000,-0.300033,0.999419,-1.000000,0.506273,0.634232,0.428141,-0.113062,0.857506,-1.000000,-1.000000,-0.257626,0.214988,0.375846,-1.000000,0.605576,-0.257625,-1.000000,-1.000000,-0.225891,0.162001,0.254625,0.153154,0.261955,-1.000000,-1.000000,0.612677,0.949066,0.462933,-1.000000,-1.000000,-1.000000,-1.000000,-0.117550,-1.000000,0.506302,-1.000000,0.698582,-1.000000,-1.000000,0.471626,-1.000000,-1.000000,-1.000000,-1.000000,-1.000000,0.715700,-1.000000,-1.000000,-1.000000,-1.000000,-0.078595,-0.248541,0.702879,-0.225880,-1.000000,0.513538,0.805230,-1.000000,-0.212297,-0.006929,-1.000000,0.141372,0.685769,0.225307,-1.000000,0.974301,0.046617,0.928049,0.381712,0.061461,0.420943,0.685779,-0.011392,0.999530,0.019872,0.283959,-1.000000,-0.225872,-0.389723,-1.000000,0.860429,-1.000000,0.135478,0.923773,-1.000000,-1.000000,-1.000000,0.745645,0.720025,0.970130,-1.000000,0.936518,0.921052,0.436918,-0.289395,-1.000000,-1.000000,-1.000000,0.940664,-0.204743,-1.000000,-1.000000,-1.000000,0.856143,0.279589,0.877320,-1.000000,-1.000000,0.843512,0.617150,-1.000000,0.687253,0.410817,0.944901,-1.000000,-1.000000,0.407916,0.061487,0.060004,-1.000000,-1.000000,0.978591,-1.000000,0.999607,-1.000000,-1.000000,0.012459,-1.000000,-1.000000,-1.000000,-1.000000,-0.194180,-1.000000,-1.000000,-1.000000,0.999626,0.307403,0.999629,0.332231,-1.000000,-1.000000,-0.188151,-1.000000,0.978624,-1.000000,-1.000000,0.591361,0.151755,0.974426,-1.000000,-1.000000,-0.081545,0.250318,-1.000000,0.591369,-1.000000,-1.000000,-1.000000,-1.000000,-1.000000,-1.000000,-1.000000,0.452919,0.940759,-1.000000,-1.000000,0.400694,0.262057,-1.000000,-1.000000,-1.000000,0.515092,-1.000000,-1.000000,0.113363,-1.000000,-1.000000,-1.000000,-1.000000,0.923991,-1.000000,0.222448,-1.000000,-1.000000,-1.000000,0.911254,-1.000000,-1.000000,0.643023,-1.000000,-0.353143,0.556903,-1.000000,-1.000000,0.792648,-0.248495,-1.000000,0.123726,0.907048,0.581360,0.584234,0.999727,-1.000000,-0.210739,0.049659,0.134074,-1.000000,0.479012,-1.000000,0.911288,0.664507,-1.000000,0.126691,0.924040,-1.000000,-1.000000,0.664514,-1.000000,-1.000000,0.823854,-1.000000,0.410909,0.256232,-1.000000,0.160653,-1.000000,-1.000000,0.365830,-1.000000,-1.000000,-1.000000,0.919845,0.890268,-1.000000,-1.000000,0.046706,-1.000000,-1.000000,-0.248481,-1.000000,0.792707,-1.000000,-1.000000,-1.000000,0.432699,-1.000000,-0.359216,-1.000000,0.945099,0.894441,0.415290,-0.253014,-1.000000,-1.000000,0.144441,-1.000000,0.638802,-1.000000,0.140014,-1.000000,-1.000000,0.574236,0.999821,0.235721,-1.000000,0.953552,-1.000000,-1.000000,-1.000000,-0.353123,0.664575,0.215160,-1.000000,0.970406,0.715970,0.454468,-1.000000,0.697435,-1.000000,0.019975,-1.000000,0.940932,0.999852,-1.000000,0.371700,-1.000000,-1.000000,-0.051579,-1.000000,0.945159,0.371705,-1.000000,-1.000000,-1.000000,0.314828,-1.000000,-1.000000,0.890279,-1.000000,-1.000000,-1.000000,0.758704,0.268014,-1.000000,-1.000000,0.991484,0.760132,-0.015752,0.518109,0.160705,-1.000000,0.608759,-1.000000,0.630188,0.571414,0.737384,-1.000000,-1.000000,-1.000000,0.932632,-1.000000,0.999912,-1.000000,0.945209,0.345504,-1.000000,0.134146,0.143008,-1.000000,0.928347,0.147439,-1.000000,-1.000000,-1.000000,-1.000000,0.471896,0.389205,-1.000000,-1.000000,-1.000000,0.698935,0.484919,0.716051,-1.000000,-1.000000,0.999949,0.358641,-1.000000,-1.000000,0.235779,-1.000000,0.210802,-0.298416,-1.000000,0.758770,-1.000000,-1.000000,0.037856,-1.000000,-1.000000,-1.000000,-1.000000,-1.000000,-1.000000,0.002156,0.634624,0.549879,-1.000000,-1.000000,0.966341,-1.000000,0.890462,-1.000000,
0.374276,0.480243,-1.000000,-1.000000,-0.050225,-1.000000,-0.182185,-1.000000,-1.000000,-1.000000,-1.000000,-1.000000,-1.000000,-1.000000,-1.000000,-1.000000,-1.000000,-1.000000,-1.000000,-1.000000,-1.000000,-1.000000,-1.000000,-1.000000,0.702732,0.783806,-1.000000,0.579717,0.317444,-1.000000,-1.000000,-1.000000,-1.000000,-1.000000,-1.000000,-1.000000,-1.000000,-1.000000,-1.000000,-1.000000,0.018354,-1.000000,-1.000000,-1.000000,-1.000000,0.522074,-1.000000,0.881432,-1.000000,-1.000000,-1.000000,-1.000000,-1.000000,-1.000000,-1.000000,-1.000000,-1.000000,-1.000000,-1.000000,0.961627,-1.000000,0.999468,0.999470,0.970049,0.944788,-1.000000,0.970053,0.944792,-1.000000,0.796626,-1.000000,0.796629,-1.000000,-1.000000,-1.000000,0.915280,-1.000000,0.999493,-1.000000,0.970073,-1.000000,-1.000000,0.834875,-1.000000,-1.000000,0.919515,0.919517,0.889946,0.800903,0.741265,-1.000000,0.779633,-1.000000,0.856091,0.974302,0.970097,0.999522,0.999524,-1.000000,0.970103,-1.000000,-1.000000,-1.000000,0.647112,0.758346,0.851869,-1.000000,-1.000000,-1.000000,0.830668,0.809434,0.779658,0.817934,0.864591,0.953287,0.999552,0.999553,0.970130,-1.000000,0.970133,-1.000000,0.894222,0.860367,-1.000000,0.719953,-1.000000,0.860373,-1.000000,0.885774,-1.000000,0.771164,-1.000000,0.965945,-1.000000,-1.000000,0.999582,0.999584,-1.000000,0.834950,0.999589,-1.000000,-1.000000,0.868866,-1.000000,-1.000000,-1.000000,0.843445,-1.000000,0.864639,0.847689,-1.000000,-1.000000,0.868879,-1.000000,-1.000000,-1.000000,-1.000000,-1.000000,-1.000000,-1.000000,-1.000000,-1.000000,-1.000000,-1.000000,0.775466,-1.000000,-1.000000,-1.000000,-1.000000,0.970208,0.932295,0.474532,-1.000000,-1.000000,-1.000000,-1.000000,-1.000000,-1.000000,-1.000000,-1.000000,-1.000000,-1.000000,-1.000000,-1.000000,-1.000000,0.919659,0.932318,0.919661,-1.000000,-1.000000,0.830775,0.779758,0.775501,-1.000000,-1.000000,-1.000000,-1.000000,-1.000000,-1.000000,-1.000000,0.378804,-1.000000,0.422400,0.681533,-1.000000,0.894340,-1.000000,0.898570,0.940784,-1.000000,0.724329,0.690109,-1.000000,0.835049,-1.000000,-1.000000,0.868967,-1.000000,0.809573,-1.000000,-1.000000,0.822324,0.970288,-1.000000,-1.000000,0.974500,0.856271,-1.000000,0.970297,-1.000000,-1.000000,0.809590,-1.000000,0.868990,0.890152,-1.000000,-1.000000,0.970310,0.873231,0.928177,0.999744,-1.000000,0.970318,0.949265,0.919743,0.940838,-1.000000,0.569797,0.894400,0.690153,0.873248,-1.000000,-1.000000,-1.000000,-1.000000,-1.000000,0.940854,0.839351,0.835109,0.720113,0.999775,-1.000000,0.999778,0.915548,0.953509,0.496302,0.945084,0.860564,0.881738,-1.000000,0.835125,-1.000000,-1.000000,-1.000000,0.915564,-1.000000,0.608611,0.634416,0.940886,0.940888,-1.000000,0.999807,0.999809,-1.000000,0.999812,0.919802,-1.000000,-1.000000,-1.000000,-1.000000,0.826661,-1.000000,0.970393,-1.000000,0.796914,-1.000000,0.690207,-1.000000,0.940916,-1.000000,-1.000000,0.999838,-1.000000,-1.000000,-1.000000,0.999844,-1.000000,-1.000000,0.953574,-1.000000,0.898715,0.970421,-1.000000,0.974632,0.919844,0.724454,-1.000000,0.608654,-1.000000,-1.000000,0.919852,0.999869,-1.000000,-1.000000,0.999874,0.999875,-1.000000,-1.000000,-1.000000,0.869122,-1.000000,-1.000000,-1.000000,-1.000000,-1.000000,-1.000000,-1.000000,0.750102,-1.000000,0.999897,-1.000000,0.651667,-1.000000,0.999903,-1.000000,-1.000000,0.999908,-1.000000,0.830983,-1.000000,0.835231,-1.000000,-1.000000,-1.000000,-1.000000,-1.000000,-1.000000,-1.000000,-1.000000,-1.000000,-1.000000,-1.000000,0.915690,-1.000000,0.797004,-1.000000,0.999938,-1.000000,0.797009,-1.000000,-1.000000,0.945238,-1.000000,-1.000000,-1.000000,-1.000000,-1.000000,-1.000000,0.957890,-1.000000,0.565699,-1.000000,-1.000000,-1.000000,0.856485,-1.000000,-1.000000,0.818293,-1.000000,-1.000000,-1.000000,-1.000000,-1.000000,-1.000000,-1.000000,-1.000000,-1.000000,-1.000000,-1.000000,-1.000000,
0.999373,-1.000000,-1.000000,-1.000000,-1.000000,-1.000000,-1.000000,0.669964,0.999385,-1.000000,-1.000000,-1.000000,-0.072640,-0.033800,-1.000000,-1.000000,-1.000000,-1.000000,0.771104,-1.000000,-1.000000,-1.000000,-1.000000,0.749798,0.792314,0.936300,-1.000000,0.130997,0.873022,-1.000000,-0.003978,-1.000000,0.348085,0.393292,-1.000000,-0.253090,0.856093,0.834895,-1.000000,-0.108563,-1.000000,-1.000000,0.079223,0.206170,0.817924,0.083670,0.399116,0.077744,0.999447,-1.000000,0.051048,0.003478,-0.230419,-1.000000,0.375857,-1.000000,-1.000000,-0.180661,0.042143,0.345274,0.406391,-1.000000,0.885681,-0.018863,0.902593,0.562503,0.006463,-0.017370,0.319017,-0.377540,-0.357746,-0.104054,0.940584,-1.000000,-1.000000,-1.000000,0.970067,0.881553,0.724251,-1.000000,-1.000000,-0.036753,0.766923,0.110336,-1.000000,-0.198728,-0.353177,0.839204,0.885717,-1.000000,-1.000000,-0.035256,-1.000000,-1.000000,0.413681,0.779717,-1.000000,-1.000000,-0.027793,0.766944,0.999527,-1.000000,-0.072601,0.016897,0.800922,0.170881,-1.000000,-1.000000,-1.000000,0.630017,-1.000000,-1.000000,-1.000000,-1.000000,-0.167097,0.462987,0.665799,0.940730,-0.113028,0.584121,0.999558,0.715755,-1.000000,0.640057,0.970139,-1.000000,0.192984,0.204754,0.991169,-1.000000,-0.386669,0.292757,-1.000000,0.327826,-1.000000,0.201818,0.999582,-1.000000,0.806716,0.148782,0.219463,-1.000000,0.707228,0.250291,0.940689,-1.000000,-0.230388,-1.000000,-1.000000,0.378844,0.923827,-1.000000,-1.000000,-0.186650,-1.000000,-1.000000,-1.000000,0.190060,-1.000000,-1.000000,-1.000000,0.021388,0.489063,-1.000000,-1.000000,0.627212,0.489067,-0.140021,0.932291,-1.000000,-0.138518,-1.000000,-1.000000,-1.000000,-0.213776,0.957587,0.894298,0.916912,0.460148,-1.000000,-1.000000,-1.000000,0.785503,0.648711,-1.000000,0.673022,-1.000000,-1.000000,-1.000000,-1.000000,-1.000000,-1.000000,-1.000000,0.378880,-0.322750,0.738628,0.316193,-1.000000,0.932415,-1.000000,0.970253,0.721549,-1.000000,0.881727,0.898564,-1.000000,-1.000000,0.457278,0.978679,0.887376,0.450039,0.999698,-1.000000,0.095612,-0.363798,-1.000000,-1.000000,0.097094,0.579912,-1.000000,0.132589,-1.000000,-0.000906,-1.000000,0.957660,0.999720,-1.000000,0.512232,0.999724,-1.000000,-1.000000,-1.000000,0.991328,-1.000000,-1.000000,0.345412,0.713041,-1.000000,0.966182,-1.000000,0.885929,-1.000000,0.640187,-1.000000,0.100070,-1.000000,-1.000000,0.206303,0.999755,-1.000000,0.940844,-1.000000,-1.000000,0.886027,0.733005,0.894489,0.970337,-1.000000,-0.171558,-1.000000,0.021438,-1.000000,-1.000000,-1.000000,0.970349,-0.005354,-0.216763,-1.000000,-0.207710,-1.000000,-1.000000,0.548316,0.940876,-1.000000,0.957814,-1.000000,-1.000000,-1.000000,-1.000000,-0.085993,-1.000000,-1.000000,-1.000000,-1.000000,0.673134,-1.000000,-1.000000,-1.000000,-1.000000,-0.114459,-1.000000,-1.000000,-1.000000,0.222503,0.060082,-1.000000,0.999829,0.683149,-1.000000,-1.000000,0.788410,-1.000000,-1.000000,-1.000000,0.999841,0.447225,-1.000000,-1.000000,0.437080,-0.312091,-0.327275,0.513755,-1.000000,0.664590,-1.000000,-1.000000,0.999860,0.940942,0.970430,0.771479,-1.000000,-1.000000,-1.000000,-1.000000,0.775746,0.564203,-1.000000,-0.023212,0.707364,-1.000000,-0.123443,-1.000000,-1.000000,-1.000000,-1.000000,-1.000000,0.940970,-1.000000,0.970460,0.428405,-0.180560,-0.018731,-1.000000,-1.000000,-1.000000,-1.000000,-1.000000,0.562787,-1.000000,-1.000000,0.999912,-1.000000,-1.000000,0.487795,-1.000000,0.193132,0.429870,-1.000000,-1.000000,0.288535,-1.000000,0.549845,0.674652,-1.000000,-1.000000,-1.000000,-1.000000,0.355720,-1.000000,-1.000000,-1.000000,-1.000000,-1.000000,-1.000000,0.338227,-1.000000,0.999952,0.891840,0.949462,-1.000000,-0.050056,-0.262059,-1.000000,-0.280227,-1.000000,-1.000000,-1.000000,-0.266597,-0.302964,-1.000000,-1.000000,-1.000000,0.715994,0.171061,0.624593,-1.000000,-1.000000,0.412486,0.445858,-1.000000,
-1.000000,0.313124,-1.000000,0.999376,-1.000000,0.919398,0.999381,0.965755,-1.000000,0.877146,0.999387,0.999388,-1.000000,-1.000000,-1.000000,-1.000000,-1.000000,-1.000000,-1.000000,0.409260,0.254604,-1.000000,-1.000000,-1.000000,0.923644,0.923646,-1.000000,0.915208,-1.000000,-1.000000,0.969996,0.999419,0.961583,-1.000000,-1.000000,-1.000000,-1.000000,-1.000000,-1.000000,-1.000000,-1.000000,-1.000000,0.999436,0.970016,-1.000000,-1.000000,-1.000000,0.999444,-1.000000,-1.000000,0.999448,0.999450,-1.000000,0.868741,0.847559,-1.000000,-1.000000,-1.000000,-1.000000,-1.000000,0.201768,0.882939,-1.000000,-1.000000,-1.000000,-1.000000,-1.000000,-1.000000,-1.000000,-1.000000,0.965849,-1.000000,0.974266,-1.000000,-1.000000,-1.000000,-1.000000,-1.000000,-1.000000,-1.000000,0.685755,-1.000000,-1.000000,-1.000000,-1.000000,-1.000000,-1.000000,-1.000000,-1.000000,-1.000000,-1.000000,0.906854,0.978502,-1.000000,-1.000000,-1.000000,-1.000000,-1.000000,-1.000000,-1.000000,-1.000000,-0.194201,0.970105,-1.000000,-1.000000,-1.000000,-1.000000,-1.000000,0.629934,-1.000000,0.940638,0.847636,0.999544,-1.000000,-1.000000,-1.000000,-1.000000,-1.000000,-1.000000,-1.000000,-1.000000,-1.000000,-1.000000,0.898449,-1.000000,-1.000000,-1.000000,-1.000000,0.906906,-1.000000,0.906909,0.999573,0.999575,-1.000000,-1.000000,-1.000000,-1.000000,-1.000000,-1.000000,-1.000000,-1.000000,0.240020,0.591244,0.435403,0.604165,0.944904,0.999596,-1.000000,-1.000000,0.999601,0.999602,-1.000000,-1.000000,-1.000000,-1.000000,-1.000000,-1.000000,-1.000000,0.864650,-1.000000,-1.000000,-1.000000,-1.000000,0.711447,0.788236,-1.000000,0.999627,-1.000000,0.932289,0.999632,0.999633,0.999635,-1.000000,-1.000000,-1.000000,0.940733,-1.000000,-1.000000,-1.000000,-1.000000,-1.000000,-1.000000,-1.000000,0.625716,0.851973,0.953389,-1.000000,-1.000000,-1.000000,0.999663,0.991262,0.999666,-1.000000,-1.000000,0.890093,-1.000000,-1.000000,-1.000000,0.864704,-1.000000,-1.000000,-1.000000,-1.000000,-1.000000,-1.000000,-1.000000,-1.000000,-1.000000,-1.000000,-1.000000,-1.000000,0.999696,-1.000000,-1.000000,-1.000000,0.923919,-1.000000,-1.000000,-1.000000,0.714445,-1.000000,0.999712,-1.000000,0.949232,0.885905,0.754228,0.792570,-1.000000,-1.000000,0.902824,0.999726,-1.000000,0.928164,-1.000000,-1.000000,-1.000000,0.902834,-1.000000,0.999738,-1.000000,0.518015,-1.000000,0.999744,-1.000000,0.856293,0.745720,-1.000000,-1.000000,0.936623,-1.000000,-1.000000,0.702995,0.673015,0.728650,-1.000000,-1.000000,0.966127,0.839348,0.911315,0.974548,-1.000000,-1.000000,-1.000000,0.999777,0.767067,0.822379,-1.000000,-1.000000,-1.000000,0.957725,0.999787,0.949303,-1.000000,0.839370,-1.000000,0.847856,-1.000000,-1.000000,-1.000000,0.999801,-1.000000,-1.000000,-1.000000,0.999807,0.949322,-1.000000,-1.000000,-1.000000,-1.000000,-1.000000,0.957757,0.881767,0.999821,-1.000000,0.690202,0.792658,0.805420,-1.000000,0.974607,-1.000000,0.999834,-1.000000,-1.000000,-1.000000,-1.000000,-1.000000,-1.000000,-1.000000,-1.000000,0.612947,0.924056,0.978833,0.966211,-1.000000,0.707347,0.750072,0.835183,-1.000000,-1.000000,-1.000000,0.911403,0.320669,-1.000000,0.999869,0.970438,-1.000000,0.970441,-1.000000,0.754354,0.548290,-1.000000,-1.000000,0.999883,-1.000000,0.779936,-1.000000,-1.000000,-1.000000,0.999892,0.999894,0.940974,0.581475,0.999898,-1.000000,-1.000000,-1.000000,-1.000000,-1.000000,-1.000000,0.651674,-1.000000,0.974686,0.999914,-1.000000,0.999917,0.813999,0.987312,-1.000000,-1.000000,0.894633,0.148915,-1.000000,-1.000000,0.999931,-1.000000,0.999934,0.919915,-1.000000,-1.000000,0.818266,-1.000000,0.974717,-1.000000,0.877648,-1.000000,-1.000000,0.953672,-1.000000,0.999954,0.999955,0.843836,0.386308,-1.000000,-1.000000,0.999963,0.999965,-1.000000,0.999968,-1.000000,0.999971,-1.000000,-1.000000,-1.000000,0.911507,0.848016,-1.000000,0.983168,0.978963,-1.000000,0.644654,
0.839005,-1.000000,-1.000000,-1.000000,0.999376,-1.000000,-1.000000,-1.000000,-1.000000,-1.000000,0.762489,-1.000000,-1.000000,-1.000000,0.999391,0.999393,0.999395,0.999396,-1.000000,0.999399,-1.000000,-1.000000,-1.000000,-1.000000,0.847518,0.944726,-1.000000,-1.000000,-1.000000,-1.000000,-1.000000,-1.000000,0.974204,0.974206,0.970001,0.974209,-1.000000,0.999427,-1.000000,0.999430,-1.000000,-1.000000,-1.000000,-1.000000,0.805094,0.953181,-1.000000,-1.000000,-1.000000,-1.000000,0.970025,-1.000000,0.974234,0.974236,0.974237,-1.000000,0.999456,-1.000000,0.999459,0.999461,-1.000000,-1.000000,-1.000000,-1.000000,-1.000000,0.970047,-1.000000,-1.000000,0.999475,0.978466,0.978467,-1.000000,0.999481,0.999482,0.940584,0.911053,-1.000000,-1.000000,-1.000000,-1.000000,-1.000000,-1.000000,0.873013,-1.000000,0.970076,-1.000000,-1.000000,0.999504,-1.000000,0.978496,0.944822,-1.000000,-1.000000,0.621319,-1.000000,-1.000000,-1.000000,-1.000000,0.978509,0.940620,-1.000000,-1.000000,-1.000000,0.940626,0.970106,-1.000000,0.999533,0.999535,-1.000000,-1.000000,-1.000000,-1.000000,-1.000000,-1.000000,-1.000000,-1.000000,-1.000000,-1.000000,-1.000000,-1.000000,-1.000000,-1.000000,-1.000000,-1.000000,0.999561,-1.000000,0.999564,-1.000000,0.978555,0.766898,-1.000000,-1.000000,-1.000000,-1.000000,-1.000000,-1.000000,-1.000000,-1.000000,-1.000000,-1.000000,-1.000000,0.999587,-1.000000,0.999590,0.999592,-1.000000,-1.000000,-1.000000,-1.000000,0.911159,-1.000000,-1.000000,-1.000000,-1.000000,-1.000000,-1.000000,-1.000000,-1.000000,-1.000000,-1.000000,0.999616,0.999618,-1.000000,-1.000000,-1.000000,0.944932,0.949147,0.978614,0.949150,-1.000000,0.970205,0.970207,0.944942,-1.000000,-1.000000,0.999639,-1.000000,-1.000000,-1.000000,-1.000000,-1.000000,-1.000000,0.999650,0.970225,-1.000000,0.915433,0.911211,-1.000000,0.911214,0.944967,0.978649,0.944970,0.915443,0.940758,-1.000000,-1.000000,0.970244,-1.000000,0.915451,-1.000000,-1.000000,-1.000000,0.953413,0.805299,-1.000000,0.911238,0.911240,-1.000000,-1.000000,0.944996,0.999693,-1.000000,-1.000000,0.915473,-1.000000,-1.000000,0.970274,-1.000000,-1.000000,-1.000000,0.894356,-1.000000,-1.000000,0.522243,-1.000000,-1.000000,-1.000000,-1.000000,-1.000000,-1.000000,-1.000000,-1.000000,-1.000000,0.945031,0.915503,0.881688,-1.000000,-1.000000,-1.000000,-1.000000,-1.000000,0.949257,-1.000000,-1.000000,-1.000000,-1.000000,-1.000000,0.970321,-1.000000,-1.000000,-1.000000,-1.000000,-1.000000,-1.000000,0.847826,0.911309,-1.000000,-1.000000,-1.000000,-1.000000,0.885954,0.915541,-1.000000,-1.000000,-1.000000,-1.000000,-1.000000,-1.000000,-1.000000,-1.000000,0.961936,0.970357,0.974566,-1.000000,0.928223,0.957733,0.940879,0.970366,-1.000000,0.999800,0.974578,-1.000000,-1.000000,0.999806,-1.000000,-1.000000,-1.000000,-1.000000,-1.000000,-1.000000,-1.000000,-1.000000,0.999820,-1.000000,0.987216,0.911366,-1.000000,0.970396,0.970397,0.999831,-1.000000,0.924042,0.970403,0.999837,0.843652,0.638740,-1.000000,-1.000000,-1.000000,-1.000000,0.911388,-1.000000,-1.000000,0.999852,0.945150,-1.000000,-1.000000,0.970426,-1.000000,0.999861,-1.000000,0.907179,0.911405,0.987260,0.999869,-1.000000,0.970439,-1.000000,0.940955,0.864882,-1.000000,0.881821,-1.000000,0.945178,0.945180,0.940965,-1.000000,-1.000000,0.999891,0.999892,-1.000000,0.928320,0.953620,-1.000000,-1.000000,0.974676,-1.000000,-1.000000,0.978887,-1.000000,0.999909,0.999911,0.978894,-1.000000,0.999915,-1.000000,0.999918,0.999920,0.999921,-1.000000,0.970490,-1.000000,-1.000000,0.995728,0.974705,-1.000000,-1.000000,0.999935,-1.000000,0.999938,-1.000000,-1.000000,-1.000000,0.970510,-1.000000,-1.000000,0.999949,-1.000000,-1.000000,-1.000000,-1.000000,-1.000000,-1.000000,0.949467,-1.000000,0.999963,-1.000000,0.999966,-1.000000,-1.000000,0.999971,0.970537,-1.000000,0.970540,-1.000000,0.999978,0.962124,-1.000000,0.999983,0.999985,
0.910945,0.490356,0.999371,-0.303075,-1.000000,-0.230436,-1.000000,-1.000000,-1.000000,-1.000000,-1.000000,-1.000000,-1.000000,-1.000000,0.999390,-1.000000,0.974179,0.999395,0.978387,0.953221,-0.330392,-1.000000,-1.000000,-0.327353,-1.000000,0.999407,0.999408,-1.000000,-1.000000,-1.000000,-1.000000,-1.000000,-1.000000,-1.000000,-1.000000,-1.000000,0.999424,0.999425,-1.000000,-1.000000,-1.000000,-1.000000,-1.000000,0.944751,0.953178,0.999438,-1.000000,-1.000000,-1.000000,0.999444,-1.000000,0.932117,0.978438,-1.000000,-1.000000,0.923686,-1.000000,-1.000000,0.889900,-1.000000,-1.000000,0.999462,-1.000000,0.999465,-1.000000,-1.000000,0.940571,-1.000000,-1.000000,0.982668,0.936361,0.999478,-1.000000,-1.000000,0.940582,-1.000000,-1.000000,-1.000000,-1.000000,-1.000000,-1.000000,0.940592,-1.000000,0.999496,0.970075,-1.000000,-1.000000,0.961662,-1.000000,0.999505,-1.000000,-1.000000,0.961670,0.949038,0.868794,0.771115,0.944829,0.860328,-1.000000,-1.000000,0.940620,0.999524,0.911090,0.970103,-1.000000,-1.000000,-1.000000,0.999533,-1.000000,-1.000000,-1.000000,-1.000000,-1.000000,0.881518,0.737022,-1.000000,-1.000000,-1.000000,0.792430,-1.000000,0.856122,-1.000000,0.847648,-1.000000,0.940655,-1.000000,-1.000000,-1.000000,0.999566,0.961725,-1.000000,0.999570,0.999572,-1.000000,0.940670,0.999576,-1.000000,0.999579,-1.000000,-1.000000,-1.000000,-1.000000,-1.000000,-1.000000,-1.000000,0.944901,0.999593,-1.000000,0.999596,-1.000000,-1.000000,0.915383,0.999602,0.999604,0.999606,-1.000000,0.999609,-1.000000,0.470259,-1.000000,0.242967,-1.000000,-1.000000,0.999619,0.944929,0.974403,-1.000000,0.999626,-1.000000,-1.000000,-1.000000,0.982823,0.953367,0.999635,-1.000000,0.999638,-1.000000,-1.000000,0.923863,-1.000000,0.107431,-0.110006,-1.000000,-1.000000,-1.000000,0.999653,0.999655,0.999656,-1.000000,-1.000000,-1.000000,0.987057,0.999664,-1.000000,0.999667,-1.000000,0.923889,-1.000000,-1.000000,-1.000000,0.911230,-1.000000,0.999680,0.999681,0.999683,-1.000000,-1.000000,-1.000000,-1.000000,0.999690,0.852006,0.991291,0.999695,-1.000000,0.999698,-1.000000,0.894349,-1.000000,-1.000000,-1.000000,-0.322743,-1.000000,-1.000000,0.995511,-1.000000,-1.000000,0.999716,-1.000000,0.999720,-1.000000,-1.000000,0.999724,-1.000000,-1.000000,-1.000000,0.999730,-1.000000,-1.000000,0.999735,-1.000000,-1.000000,-1.000000,-1.000000,-1.000000,0.999744,-1.000000,0.999747,0.999749,-1.000000,-1.000000,-1.000000,0.999755,0.999757,-1.000000,0.999760,-1.000000,0.999763,-1.000000,-1.000000,-1.000000,-1.000000,-1.000000,0.970342,-1.000000,-1.000000,0.987170,0.961929,0.711567,-1.000000,0.919773,0.999784,0.999786,0.999787,-1.000000,-1.000000,-1.000000,-1.000000,0.970364,-1.000000,-1.000000,-0.085994,0.116364,0.784126,-1.000000,-1.000000,-1.000000,-1.000000,-1.000000,-1.000000,0.970382,0.999815,0.999817,-1.000000,-1.000000,-1.000000,-1.000000,0.307499,-1.000000,0.282634,-1.000000,0.915595,-1.000000,-1.000000,-1.000000,-1.000000,-1.000000,-1.000000,-1.000000,0.552587,-1.000000,0.999846,0.999847,0.999849,-1.000000,-1.000000,-1.000000,-1.000000,0.284111,-1.000000,-1.000000,-1.000000,-1.000000,0.999864,-1.000000,-1.000000,-1.000000,-1.000000,-1.000000,-1.000000,0.999875,0.999877,0.999878,-1.000000,-1.000000,-1.000000,-1.000000,-1.000000,-1.000000,0.907201,-1.000000,-1.000000,-0.385095,-1.000000,-1.000000,-1.000000,-1.000000,-1.000000,-1.000000,-1.000000,0.999906,-1.000000,-1.000000,-1.000000,-1.000000,-1.000000,-1.000000,-1.000000,-1.000000,-1.000000,-1.000000,-1.000000,-1.000000,0.796996,-1.000000,-1.000000,-1.000000,-1.000000,-1.000000,-1.000000,0.860698,0.890336,-1.000000,0.924143,-1.000000,-1.000000,-1.000000,-1.000000,-1.000000,-1.000000,-1.000000,0.518147,-1.000000,-1.000000,-1.000000,-1.000000,-1.000000,-1.000000,-1.000000,-1.000000,0.703153,-1.000000,-1.000000,-1.000000,-1.000000,-1.000000,-1.000000,-1.000000,-1.000000,-1.000000,-0.139932,
-1.000000,-1.000000,-1.000000,0.343769,-0.057696,0.375814,-1.000000,-1.000000,0.940484,-1.000000,-1.000000,-1.000000,-1.000000,-1.000000,-1.000000,-1.000000,-1.000000,0.209090,-1.000000,-1.000000,-1.000000,-0.262171,-1.000000,-1.000000,-1.000000,0.948936,-1.000000,-1.000000,-1.000000,-1.000000,-1.000000,0.872940,-1.000000,-1.000000,-1.000000,-1.000000,-1.000000,-1.000000,-1.000000,0.999427,0.999428,-1.000000,-1.000000,-1.000000,-1.000000,-1.000000,-1.000000,-1.000000,0.877195,0.830582,-1.000000,0.970023,-1.000000,-1.000000,0.999450,-1.000000,0.796603,-1.000000,-1.000000,-1.000000,-1.000000,-1.000000,-1.000000,-1.000000,-1.000000,-1.000000,-1.000000,0.809371,0.999472,0.999473,-1.000000,-1.000000,0.970055,0.999479,-1.000000,-1.000000,-1.000000,-1.000000,-1.000000,-1.000000,-1.000000,-1.000000,-1.000000,-1.000000,-1.000000,-1.000000,0.847598,-1.000000,0.961662,0.999504,0.999505,0.944820,0.970085,0.999510,-1.000000,0.999513,-1.000000,-1.000000,-1.000000,-1.000000,-1.000000,-1.000000,-1.000000,-1.000000,0.999527,-1.000000,0.953268,-1.000000,0.999533,0.999535,0.830662,-1.000000,0.672854,0.944852,-1.000000,-1.000000,-1.000000,0.906887,-1.000000,-1.000000,-1.000000,-1.000000,-1.000000,0.999556,0.999558,-1.000000,0.944871,-1.000000,-1.000000,-1.000000,-1.000000,-1.000000,-1.000000,0.928016,0.940668,0.940670,0.944886,-1.000000,-1.000000,-1.000000,-1.000000,-1.000000,-1.000000,0.999587,0.982781,-1.000000,0.868864,0.974375,-1.000000,-1.000000,0.185553,0.711429,0.906936,-1.000000,-1.000000,0.974387,-1.000000,0.919611,0.766932,-1.000000,0.970187,-1.000000,0.999616,0.995417,-1.000000,-1.000000,0.923845,0.851946,0.851948,-1.000000,-1.000000,0.978617,0.940724,-1.000000,0.944942,-1.000000,-1.000000,0.885836,0.771217,-1.000000,-1.000000,-1.000000,0.949167,0.999649,0.999650,0.894305,0.890078,0.826519,-1.000000,-1.000000,-1.000000,0.928100,0.944968,0.944970,0.944971,0.944973,-1.000000,0.932327,-1.000000,0.999673,-1.000000,-1.000000,-1.000000,0.999680,-1.000000,0.788284,0.940774,-1.000000,-1.000000,-1.000000,-1.000000,-1.000000,0.944998,0.944999,0.974476,0.957641,0.569761,0.894349,0.915477,-1.000000,0.999706,0.970279,0.999709,-1.000000,0.911262,0.911264,0.999715,0.999716,-1.000000,0.999720,0.999721,-1.000000,-1.000000,0.974504,0.999727,-1.000000,-1.000000,-1.000000,-1.000000,0.970306,-1.000000,-1.000000,0.945042,0.894386,-1.000000,-1.000000,-1.000000,0.999747,0.999749,0.999750,-1.000000,-1.000000,0.940841,-1.000000,-1.000000,-1.000000,-1.000000,0.856306,-1.000000,0.940851,-1.000000,0.852073,0.953499,-1.000000,0.915543,-1.000000,-1.000000,0.919769,-1.000000,-1.000000,-1.000000,-1.000000,0.999786,-1.000000,0.953516,-1.000000,-1.000000,-1.000000,0.548237,0.881746,-1.000000,0.781366,-1.000000,0.885983,0.949318,0.949319,-1.000000,0.890219,-1.000000,-1.000000,-1.000000,-1.000000,-1.000000,0.945117,-1.000000,-1.000000,0.886001,-1.000000,-1.000000,-1.000000,0.919816,-1.000000,-1.000000,-1.000000,-1.000000,0.886014,-1.000000,-1.000000,-1.000000,0.886019,-1.000000,-1.000000,-1.000000,-1.000000,-1.000000,-1.000000,-1.000000,-1.000000,-1.000000,0.940939,-1.000000,0.919846,-1.000000,-1.000000,-1.000000,-1.000000,-1.000000,-1.000000,0.974647,-1.000000,0.869116,-1.000000,-1.000000,0.966238,-1.000000,-1.000000,-1.000000,-1.000000,-1.000000,-1.000000,0.883322,-1.000000,-1.000000,-1.000000,-1.000000,-1.000000,0.767165,0.715936,0.915663,-1.000000,0.771432,0.999908,-1.000000,-1.000000,0.974686,-1.000000,-1.000000,0.911452,-1.000000,-1.000000,-1.000000,-1.000000,-1.000000,-1.000000,-1.000000,-1.000000,0.869165,-1.000000,-1.000000,-1.000000,-1.000000,0.966294,0.873409,0.932583,0.924144,0.915701,-1.000000,-1.000000,0.999949,0.911483,-0.357668,0.021497,-1.000000,-1.000000,0.970523,-1.000000,-1.000000,-1.000000,0.936823,0.983153,-1.000000,0.932609,-1.000000,0.987364,0.978954,0.974748,-1.000000,0.999978,-1.000000,-1.000000,
-1.000000,-1.000000,0.689943,-0.158117,-1.000000,-1.000000,-1.000000,-1.000000,-1.000000,-1.000000,-1.000000,-1.000000,-1.000000,0.940490,-1.000000,-1.000000,-1.000000,0.999391,-1.000000,0.999395,-0.122068,0.416518,-1.000000,-0.307620,-1.000000,0.940508,-1.000000,-1.000000,-1.000000,-1.000000,-1.000000,-1.000000,-1.000000,0.910989,0.881406,0.822072,0.906770,0.999422,-1.000000,0.999425,-1.000000,-1.000000,-1.000000,-1.000000,-1.000000,0.923669,0.999436,-1.000000,-1.000000,0.995241,0.961604,0.915237,-1.000000,0.940549,-1.000000,0.923683,-1.000000,-1.000000,0.970032,-1.000000,0.273676,-1.000000,-1.000000,0.406390,0.978453,0.999465,-1.000000,-1.000000,-1.000000,-1.000000,0.885685,-1.000000,0.944791,-1.000000,0.970057,0.868766,0.940582,-1.000000,0.911053,-1.000000,-0.066632,-1.000000,0.754129,-1.000000,0.970072,-1.000000,-1.000000,0.999499,-1.000000,0.906845,0.885713,0.915294,0.974290,0.974292,-1.000000,-1.000000,0.974296,0.800907,-1.000000,-1.000000,0.978508,-1.000000,0.771121,-1.000000,-1.000000,-1.000000,0.999529,-1.000000,-1.000000,-1.000000,-1.000000,0.999536,-1.000000,-1.000000,0.915327,0.944854,-1.000000,-1.000000,-1.000000,-1.000000,-0.105534,-1.000000,0.384637,-1.000000,-1.000000,0.940654,-1.000000,-1.000000,-1.000000,-1.000000,-1.000000,-1.000000,0.999569,0.999570,0.928016,-1.000000,0.978562,-1.000000,-1.000000,-1.000000,-1.000000,-1.000000,0.940679,-1.000000,-1.000000,-1.000000,-1.000000,-1.000000,-1.000000,-1.000000,-1.000000,-1.000000,0.999599,-1.000000,-1.000000,0.991202,-1.000000,-1.000000,-1.000000,-1.000000,-1.000000,-1.000000,-0.262128,-1.000000,0.711525,-1.000000,-1.000000,-1.000000,-1.000000,-1.000000,0.974408,-1.000000,-1.000000,-1.000000,-1.000000,-1.000000,-1.000000,0.715815,0.102990,-1.000000,-1.000000,-1.000000,-1.000000,0.339534,-0.059112,-1.000000,-1.000000,-1.000000,-1.000000,0.940747,0.982849,-1.000000,0.978647,-1.000000,0.890087,-1.000000,0.970240,0.999669,0.698649,-1.000000,-1.000000,-1.000000,-0.180611,-1.000000,-1.000000,-1.000000,0.457190,0.999684,-1.000000,0.999687,0.999689,-1.000000,-1.000000,-1.000000,0.982885,0.974476,-1.000000,-1.000000,-1.000000,-1.000000,0.784126,0.664482,0.949225,-1.000000,-1.000000,-1.000000,-1.000000,-1.000000,-1.000000,-1.000000,0.982910,0.978706,0.999723,-1.000000,-1.000000,0.999727,-1.000000,0.999730,0.999732,-1.000000,0.784151,-1.000000,-1.000000,-0.135488,-1.000000,-1.000000,0.911292,0.974524,-1.000000,0.999749,0.982940,-1.000000,-1.000000,-1.000000,0.936626,-1.000000,-1.000000,-1.000000,-1.000000,0.100076,0.728735,-1.000000,-1.000000,-1.000000,0.940857,-1.000000,0.970345,0.940861,0.974555,-1.000000,0.999781,-1.000000,-1.000000,-1.000000,-1.000000,-1.000000,-1.000000,0.928303,-1.000000,-1.000000,0.677410,0.116363,-1.000000,-1.000000,-1.000000,0.940888,-1.000000,-1.000000,0.974586,0.949324,0.915578,-1.000000,-1.000000,0.162149,-1.000000,-1.000000,-1.000000,-0.195641,-1.000000,0.434168,0.999827,-1.000000,0.970399,-1.000000,-1.000000,0.970403,0.970405,-1.000000,0.978822,-1.000000,-1.000000,-1.000000,-1.000000,-1.000000,0.110466,-0.041127,-1.000000,-1.000000,0.775651,0.674597,0.928285,0.869102,-1.000000,0.911402,0.940945,-1.000000,-1.000000,0.945165,-1.000000,-1.000000,-1.000000,-1.000000,-1.000000,-1.000000,-1.000000,-1.000000,-1.000000,-1.000000,0.503670,0.999888,0.991485,-1.000000,-1.000000,0.940973,-1.000000,-1.000000,-1.000000,0.974674,0.999901,-1.000000,-1.000000,-1.000000,-1.000000,-1.000000,-1.000000,-1.000000,-1.000000,0.067531,-1.000000,-1.000000,0.945213,-1.000000,0.970489,0.911459,0.970492,0.999928,0.974703,0.941008,0.999932,-1.000000,-1.000000,-1.000000,-1.000000,-1.000000,0.771461,0.999943,-1.000000,0.471903,-1.000000,-1.000000,0.999951,0.999952,0.941030,0.869187,0.784252,-1.000000,0.999960,-1.000000,0.974736,0.949471,0.852245,-1.000000,-1.000000,-1.000000,-1.000000,-1.000000,-1.000000,-1.000000,0.686034,-1.000000,
0.999364,-1.000000,-1.000000,-1.000000,0.999370,-1.000000,-1.000000,-1.000000,-1.000000,-1.000000,-1.000000,-1.000000,-1.000000,-1.000000,-1.000000,0.999387,-1.000000,0.969969,0.969971,0.999393,0.839026,-1.000000,0.919495,0.119170,-1.000000,-1.000000,-1.000000,-1.000000,-1.000000,-1.000000,-1.000000,-1.000000,-1.000000,-1.000000,-1.000000,-1.000000,-1.000000,0.999421,-1.000000,0.999424,-1.000000,0.276590,-1.000000,0.989709,0.999432,-1.000000,-1.000000,-1.000000,-1.000000,-1.000000,-1.000000,-1.000000,0.936330,0.970023,0.970025,0.970026,-1.000000,-1.000000,0.999453,-1.000000,-1.000000,-1.000000,-1.000000,0.830678,-0.128053,-1.000000,-1.000000,-1.000000,0.999468,-1.000000,-1.000000,0.999473,-1.000000,0.999476,-1.000000,0.970057,0.970058,-1.000000,-1.000000,-1.000000,0.642867,-1.000000,0.002001,0.042153,-1.000000,-1.000000,-1.000000,-1.000000,-1.000000,-1.000000,-1.000000,0.999504,0.999505,-1.000000,-1.000000,-1.000000,-1.000000,0.970090,0.940613,0.911082,0.902635,0.051072,-1.000000,-1.000000,-1.000000,-1.000000,0.999527,-1.000000,-1.000000,0.940629,0.940630,-1.000000,0.999536,-1.000000,0.965907,0.965909,-1.000000,-1.000000,0.944857,-1.000000,-1.000000,-1.000000,-1.000000,-1.000000,-1.000000,-1.000000,-1.000000,-1.000000,0.940657,0.911124,0.911126,0.906904,-1.000000,0.890001,-1.000000,0.961729,-1.000000,0.944885,-1.000000,0.999578,-1.000000,-1.000000,-1.000000,-1.000000,0.685742,0.940682,0.940683,0.940685,0.911151,0.911153,0.999595,0.965962,0.749867,-1.000000,-1.000000,-1.000000,-1.000000,-1.000000,0.940701,0.999609,-1.000000,-1.000000,-1.000000,0.732808,0.741347,-1.000000,-1.000000,0.911178,0.911180,0.944932,-1.000000,-1.000000,-1.000000,-1.000000,-1.000000,0.911190,-1.000000,-1.000000,-1.000000,-1.000000,0.737098,-1.000000,-1.000000,0.715740,-1.000000,0.940740,-1.000000,-1.000000,-1.000000,-1.000000,0.775490,-1.000000,-1.000000,-1.000000,-1.000000,-1.000000,0.911220,-1.000000,0.999669,-1.000000,0.582762,0.999673,-1.000000,-1.000000,0.940768,0.911233,-1.000000,-1.000000,0.974463,0.974465,-1.000000,-1.000000,0.655809,-1.000000,-1.000000,0.885886,0.911248,-1.000000,0.999700,0.978686,0.561132,0.890124,-1.000000,-1.000000,-1.000000,-1.000000,0.911262,-1.000000,-1.000000,-1.000000,-1.000000,0.509261,0.856270,-1.000000,-1.000000,-1.000000,-1.000000,0.999729,-1.000000,-1.000000,-1.000000,0.966097,-1.000000,0.940825,-1.000000,-1.000000,0.915514,0.923958,-1.000000,0.737181,-1.000000,-1.000000,0.754255,0.877475,0.890170,-1.000000,0.999758,-1.000000,-1.000000,-1.000000,-1.000000,0.999766,0.999767,0.974546,0.881723,-1.000000,-1.000000,-1.000000,-1.000000,0.999778,0.890192,-1.000000,0.945083,0.852086,0.835121,-1.000000,0.978773,-1.000000,-1.000000,-1.000000,0.999795,-1.000000,0.999798,-1.000000,0.999801,0.881752,0.885984,0.894445,-1.000000,-1.000000,-1.000000,0.915578,0.911356,0.961965,0.999817,-1.000000,-1.000000,-1.000000,-1.000000,-1.000000,0.970394,0.970396,-1.000000,0.999831,-1.000000,0.953559,0.974611,0.974613,0.999838,-1.000000,0.915605,0.911383,-1.000000,0.995645,0.999847,0.999849,-1.000000,-1.000000,-1.000000,-1.000000,-1.000000,-1.000000,0.970427,0.970429,0.970430,-1.000000,-1.000000,0.974643,0.915631,-1.000000,0.911411,-1.000000,0.957812,-1.000000,-1.000000,-1.000000,-1.000000,-1.000000,-1.000000,-1.000000,-1.000000,-1.000000,0.970457,-1.000000,0.970460,0.970462,0.940976,0.970465,-1.000000,0.911438,-1.000000,-1.000000,0.940984,-1.000000,-1.000000,-1.000000,-1.000000,0.154813,0.111970,0.159240,0.962065,0.999920,-1.000000,-1.000000,0.999924,0.999926,-1.000000,-1.000000,0.911465,0.941009,-1.000000,-1.000000,-1.000000,-1.000000,-1.000000,-1.000000,-1.000000,-1.000000,0.406655,-1.000000,0.999949,-1.000000,-1.000000,-1.000000,0.999955,-1.000000,-1.000000,-1.000000,-1.000000,-1.000000,-1.000000,-1.000000,-1.000000,-1.000000,-1.000000,-1.000000,0.999974,-1.000000,-1.000000,-1.000000,
0.927820,0.353967,-1.000000,-1.000000,-1.000000,-1.000000,-1.000000,-1.000000,-1.000000,-1.000000,0.851731,0.715536,-1.000000,0.999382,0.999384,0.999385,0.999387,-1.000000,-1.000000,-1.000000,-1.000000,-1.000000,-1.000000,0.944716,0.906751,0.999401,0.999402,-1.000000,0.978396,0.978397,-1.000000,0.999410,-1.000000,0.999413,0.923650,-1.000000,-1.000000,0.969998,0.999421,-1.000000,0.885641,0.889871,-1.000000,-1.000000,0.974215,-1.000000,0.970011,-1.000000,-1.000000,0.911009,-1.000000,-1.000000,-1.000000,0.974228,-1.000000,0.771060,0.940550,0.948979,0.999452,0.999453,-1.000000,-1.000000,-1.000000,-1.000000,0.894131,0.957414,-1.000000,-1.000000,-1.000000,-1.000000,-1.000000,-1.000000,-1.000000,0.974259,-1.000000,-1.000000,0.847581,0.995281,-1.000000,-1.000000,0.999485,-1.000000,-1.000000,0.885701,0.970069,-1.000000,-1.000000,-1.000000,-1.000000,-1.000000,-1.000000,-1.000000,-1.000000,-1.000000,-1.000000,0.911075,0.999510,-1.000000,0.999513,0.999515,-1.000000,0.986914,0.999519,-1.000000,0.970099,0.957473,0.944838,-1.000000,-1.000000,0.762605,-1.000000,-1.000000,0.915321,-1.000000,-1.000000,-1.000000,0.999541,-1.000000,-1.000000,0.999545,-1.000000,0.902663,0.978538,0.894214,-1.000000,0.999555,0.919562,-1.000000,0.885763,0.826439,0.771154,0.894225,0.978553,0.978555,0.999569,-1.000000,-1.000000,-1.000000,-1.000000,0.839183,0.890009,-1.000000,-1.000000,-1.000000,0.999584,0.949109,0.915370,0.885790,0.915373,0.974373,-1.000000,0.999595,0.999596,0.949120,0.965965,0.953336,-1.000000,-1.000000,0.928048,-1.000000,-1.000000,-1.000000,0.642874,0.999613,-1.000000,-1.000000,0.919620,-1.000000,-1.000000,0.999623,-1.000000,0.906959,-1.000000,0.915408,-1.000000,0.868900,0.902741,0.923856,0.881602,-1.000000,-1.000000,0.970214,0.919643,0.970217,0.902752,-1.000000,0.915427,-1.000000,-1.000000,-1.000000,-1.000000,-1.000000,-1.000000,0.923879,-1.000000,0.982854,0.999664,-1.000000,-1.000000,-1.000000,0.923889,-1.000000,0.970246,-1.000000,0.835027,-1.000000,0.890101,0.915457,0.944987,-1.000000,0.387534,-1.000000,0.982879,0.923908,-1.000000,-1.000000,-1.000000,0.970268,0.999698,-1.000000,0.999701,-1.000000,0.991302,-1.000000,0.856258,0.885898,-1.000000,-1.000000,0.919709,0.890133,-1.000000,-1.000000,0.923935,0.953451,-1.000000,-1.000000,0.970297,0.970298,0.999729,-1.000000,0.970303,-1.000000,0.949251,-1.000000,-1.000000,-1.000000,0.890157,0.949259,-1.000000,0.949262,0.999747,0.999749,-1.000000,-1.000000,0.999753,0.966116,0.970327,0.999758,-1.000000,0.873249,-1.000000,-1.000000,-1.000000,0.999767,0.999769,0.999770,-1.000000,0.911319,-1.000000,-1.000000,-1.000000,0.945080,0.949296,0.915551,0.881735,0.809637,-1.000000,0.949303,-1.000000,0.688832,0.970363,0.999795,-1.000000,0.999798,0.999800,-1.000000,-1.000000,-1.000000,-1.000000,-1.000000,-1.000000,0.915577,-1.000000,-1.000000,-1.000000,-1.000000,0.890227,-1.000000,0.643023,0.039208,0.911366,-1.000000,0.822419,-1.000000,-1.000000,-1.000000,-1.000000,-1.000000,-1.000000,-1.000000,0.945137,-1.000000,0.974619,-1.000000,0.940927,-1.000000,-1.000000,0.775648,0.911392,0.839423,-1.000000,-1.000000,-1.000000,-1.000000,0.470323,-1.000000,-1.000000,-1.000000,-1.000000,-1.000000,-1.000000,0.907186,-1.000000,0.999875,-1.000000,0.750089,0.970447,-1.000000,-1.000000,-1.000000,-1.000000,0.229876,-1.000000,-1.000000,-1.000000,0.936756,-1.000000,0.999897,-1.000000,0.940978,-1.000000,-1.000000,0.999904,0.970472,-1.000000,-1.000000,0.970477,0.999912,0.999914,-1.000000,0.235762,-0.138447,-1.000000,0.970487,-1.000000,0.999924,-1.000000,-1.000000,-1.000000,-1.000000,0.903015,0.999934,-1.000000,-1.000000,0.970504,0.970505,0.970507,0.999943,-1.000000,0.995744,-1.000000,-1.000000,0.999951,-1.000000,0.894579,0.974729,-1.000000,-1.000000,-1.000000,0.945253,-1.000000,0.999965,-1.000000,0.970532,0.970534,-1.000000,0.970537,-1.000000,0.402311,0.848095,
0.999361,-1.000000,-1.000000,-1.000000,-1.000000,-1.000000,-1.000000,0.796536,-1.000000,0.881367,-1.000000,0.753957,0.969959,0.969960,-1.000000,0.915181,-1.000000,-1.000000,0.779530,-1.000000,0.881382,0.507699,0.779535,-1.000000,-1.000000,0.685603,-1.000000,-1.000000,0.902531,-1.000000,0.830551,-1.000000,0.948941,-1.000000,-1.000000,0.978405,0.915211,0.974203,0.999419,0.741194,-1.000000,0.999424,-1.000000,0.991026,-1.000000,-1.000000,-1.000000,0.560956,-1.000000,-1.000000,-1.000000,0.779571,-1.000000,0.919456,-1.000000,0.948975,0.978437,0.999448,-1.000000,-1.000000,0.999453,-1.000000,-1.000000,-1.000000,-1.000000,-1.000000,0.638473,0.885677,0.915257,-1.000000,-1.000000,-1.000000,-1.000000,0.573924,-1.000000,-1.000000,0.999478,-1.000000,-1.000000,0.986879,-1.000000,0.999485,0.949014,0.634196,-1.000000,-1.000000,-1.000000,-1.000000,0.860309,-1.000000,-1.000000,-1.000000,-1.000000,-1.000000,-1.000000,0.999507,-1.000000,0.974293,-1.000000,0.999513,-1.000000,0.999516,0.894183,0.672839,-1.000000,-1.000000,0.999524,-1.000000,-1.000000,0.839142,-1.000000,-1.000000,-1.000000,0.970111,-1.000000,0.999538,0.999539,-1.000000,0.970118,-1.000000,0.847638,-1.000000,-1.000000,-1.000000,-1.000000,-1.000000,-1.000000,0.868833,-1.000000,-1.000000,-1.000000,-1.000000,-1.000000,-1.000000,0.978555,-1.000000,-1.000000,-1.000000,-1.000000,-1.000000,-1.000000,-1.000000,-1.000000,-1.000000,-1.000000,-1.000000,-1.000000,-1.000000,-1.000000,-1.000000,-1.000000,0.813724,0.864632,0.864633,-1.000000,-1.000000,0.978588,0.906938,-1.000000,-1.000000,0.999607,-1.000000,0.953345,0.999612,-1.000000,-1.000000,0.822240,0.919620,-1.000000,-1.000000,-1.000000,0.978611,-1.000000,0.999627,-1.000000,0.999630,0.999632,-1.000000,-1.000000,0.999636,-1.000000,-1.000000,-1.000000,0.974423,0.822263,-1.000000,-1.000000,-1.000000,0.982841,-1.000000,0.873153,0.779747,-1.000000,-1.000000,-1.000000,0.999661,0.999663,0.999664,-1.000000,-1.000000,-1.000000,0.999670,-1.000000,0.974453,0.999675,0.974456,-1.000000,0.856233,0.856235,0.796794,0.796795,-1.000000,-1.000000,0.953420,0.923908,0.982882,0.999693,0.936568,0.758475,-1.000000,0.999700,-1.000000,-1.000000,-1.000000,-1.000000,-1.000000,0.945012,0.830812,0.830813,0.860501,0.885904,-1.000000,0.923934,0.864742,0.919716,0.999723,-1.000000,0.413713,0.491934,0.843557,0.999730,-1.000000,0.970304,-1.000000,0.999737,0.999738,0.999740,-1.000000,-1.000000,-1.000000,-1.000000,0.987141,0.928182,-1.000000,0.911299,-1.000000,-1.000000,-1.000000,0.194452,-1.000000,0.999761,-1.000000,0.999764,-1.000000,-1.000000,0.999769,-1.000000,-1.000000,0.999773,0.999775,0.999777,0.813880,0.767068,0.732937,-1.000000,-1.000000,-1.000000,-1.000000,-1.000000,-1.000000,0.974569,0.999794,0.999795,-1.000000,0.999798,-1.000000,-1.000000,-1.000000,0.890214,0.999806,0.999807,0.843627,-1.000000,0.869060,-1.000000,0.999815,0.999817,0.805413,0.847877,-1.000000,-1.000000,0.999824,0.999826,0.999827,0.999829,0.999831,-1.000000,-1.000000,-1.000000,0.915601,0.886015,0.707335,0.940923,-1.000000,0.999844,-1.000000,-1.000000,0.898712,-1.000000,0.915616,0.945150,0.999855,0.999857,0.999858,0.999860,0.839429,-1.000000,-1.000000,-1.000000,-1.000000,-1.000000,-1.000000,-1.000000,0.856404,0.966233,0.995675,0.869119,-1.000000,-1.000000,-1.000000,-1.000000,0.999886,0.999888,-1.000000,0.949400,-1.000000,-1.000000,-1.000000,-1.000000,-1.000000,0.852187,0.911438,-1.000000,-1.000000,-1.000000,0.890308,0.949418,0.869148,0.970478,0.999914,0.784218,0.999917,0.999918,0.999920,0.903005,-1.000000,-1.000000,-1.000000,-1.000000,0.822506,-1.000000,-1.000000,-1.000000,0.945228,-1.000000,0.945231,0.941016,0.941018,0.945235,-1.000000,0.995744,0.999948,0.999949,0.999951,-1.000000,0.911486,0.881889,-1.000000,0.822531,-1.000000,0.873428,-1.000000,0.780000,-1.000000,0.974741,0.915724,-1.000000,-1.000000,-1.000000,-1.000000,
0.982555,0.595478,0.537959,-1.000000,0.969945,0.999367,0.999368,-1.000000,-1.000000,0.927830,-1.000000,0.969956,0.944697,0.969959,0.965753,0.898286,-1.000000,0.999385,0.940492,-1.000000,-1.000000,-1.000000,-1.000000,0.999395,-1.000000,-1.000000,0.999399,-1.000000,-1.000000,-1.000000,-1.000000,0.969986,-1.000000,0.969989,0.999411,0.978404,-1.000000,-1.000000,-1.000000,-1.000000,0.902626,-1.000000,0.999424,-1.000000,0.901224,-1.000000,0.999430,0.535040,0.970011,0.970013,0.999436,0.999438,0.999439,0.940543,-1.000000,0.999444,0.999445,-1.000000,0.999448,0.999450,0.981324,-1.000000,-1.000000,0.970034,0.783843,0.851802,0.805113,0.417922,-1.000000,-1.000000,-1.000000,0.715604,-1.000000,0.299936,0.970050,0.999475,0.953216,0.999478,0.906824,-1.000000,-1.000000,0.999484,0.970063,0.881548,-1.000000,-0.081675,-1.000000,0.361235,-1.000000,0.400514,-1.000000,-1.000000,0.621310,0.885712,0.970081,-1.000000,0.970084,0.999509,0.999510,-1.000000,0.911079,-1.000000,0.970093,0.970094,0.711368,-1.000000,0.940620,-1.000000,0.999525,0.361253,0.915315,0.361254,0.530780,-1.000000,-1.000000,0.970112,0.999538,-1.000000,0.970117,0.999542,0.259066,-1.000000,-1.000000,-1.000000,0.970126,-1.000000,0.911116,0.999555,0.830679,-1.000000,-1.000000,0.796693,0.813698,0.970139,-1.000000,0.991165,0.694292,0.928015,-1.000000,0.999573,-1.000000,0.991175,-1.000000,0.902692,0.970156,-1.000000,0.999584,0.999586,-1.000000,0.251672,-1.000000,0.970166,0.999593,-1.000000,0.898481,0.999598,-1.000000,-1.000000,0.999602,-1.000000,0.317620,-1.000000,0.190058,-1.000000,0.940705,0.995413,0.999615,0.771197,0.999618,0.970193,-1.000000,-1.000000,-1.000000,0.999626,0.940720,0.915408,0.999630,-1.000000,-1.000000,0.811007,-1.000000,0.533812,0.805263,0.754167,0.940734,-1.000000,0.999646,0.677219,-1.000000,-1.000000,0.999652,0.970226,-1.000000,0.970229,0.999658,0.970232,-1.000000,-1.000000,0.999664,0.815283,0.999667,0.730083,0.970243,0.843508,-1.000000,0.940765,-1.000000,0.970250,0.970252,0.724315,-1.000000,0.970256,0.940775,0.970259,-1.000000,-1.000000,0.974471,0.974472,0.813810,-1.000000,0.285500,0.938058,0.970273,0.999703,0.999704,-1.000000,0.970279,-1.000000,-1.000000,-1.000000,0.999713,0.822324,0.970288,0.940806,0.999720,-1.000000,0.999723,0.999724,0.949243,-1.000000,-1.000000,-1.000000,-1.000000,0.999733,0.999735,-1.000000,0.813847,0.970310,0.999741,-1.000000,0.999744,0.999746,0.940834,0.940835,0.978735,0.970322,0.999753,0.999755,0.945058,0.928191,-0.112975,-1.000000,0.881716,-1.000000,0.999766,0.940853,-1.000000,0.970340,0.999772,-1.000000,-1.000000,-1.000000,-1.000000,-1.000000,0.974558,-1.000000,0.970354,-1.000000,0.970357,0.520930,-1.000000,0.601512,-1.000000,0.919785,0.999797,0.894438,-1.000000,-1.000000,-1.000000,0.902898,-1.000000,0.999807,0.970378,-1.000000,0.999812,0.928243,-1.000000,-1.000000,0.999818,0.088250,0.999821,0.983011,0.847881,0.860600,0.978810,0.999829,0.970399,-1.000000,0.999834,0.999835,0.999837,0.999838,-1.000000,-1.000000,0.999843,-1.000000,-1.000000,0.999847,0.999849,-1.000000,-1.000000,-1.000000,0.978838,-1.000000,-1.000000,0.999860,-1.000000,-1.000000,0.999864,0.949377,0.999867,-1.000000,-1.000000,-1.000000,0.999874,-1.000000,0.999877,-1.000000,-1.000000,-1.000000,0.831040,0.999884,0.999886,0.843695,0.999889,0.999891,-1.000000,0.970460,-1.000000,-1.000000,0.970465,-1.000000,0.694542,-1.000000,-1.000000,0.999906,0.999908,0.974683,0.999911,0.673209,0.999914,-1.000000,0.999917,-1.000000,-1.000000,-1.000000,-1.000000,-1.000000,0.970492,-1.000000,-1.000000,-1.000000,0.535357,0.999934,0.983122,-1.000000,-1.000000,0.999940,0.969184,-1.000000,0.025956,-1.000000,-1.000000,0.999949,-1.000000,-1.000000,-1.000000,0.999955,0.945249,0.911490,0.936818,-1.000000,0.703150,-1.000000,-1.000000,0.999968,0.999969,-1.000000,0.953692,0.460338,
-1.000000,-1.000000,0.999361,0.969942,0.999364,-1.000000,0.999367,0.999368,0.969950,-1.000000,-1.000000,0.910951,0.940481,-1.000000,-1.000000,-1.000000,-1.000000,-1.000000,-1.000000,-1.000000,0.969968,0.999390,0.961555,0.910968,0.969974,-1.000000,-1.000000,0.999399,-1.000000,0.999402,-1.000000,-1.000000,0.655604,0.547988,-1.000000,0.578195,0.834800,-1.000000,-1.000000,0.974203,-1.000000,0.766779,0.885640,0.885641,0.982620,-1.000000,-1.000000,0.923665,-1.000000,0.685628,0.940537,-1.000000,-1.000000,-1.000000,0.560961,0.813597,-1.000000,0.822094,-1.000000,0.974233,-1.000000,-1.000000,0.919466,-1.000000,0.982650,-1.000000,0.894129,0.864513,0.779590,0.745495,-1.000000,-1.000000,0.817867,0.783853,0.805122,-1.000000,0.919486,-1.000000,-1.000000,-1.000000,-1.000000,-1.000000,-1.000000,0.999485,-1.000000,0.817884,-1.000000,-1.000000,-1.000000,0.817889,0.889935,0.906841,0.728447,0.792389,0.894169,-1.000000,0.953244,-1.000000,-1.000000,-1.000000,0.999512,0.839129,-1.000000,0.999516,-1.000000,0.957469,0.864567,0.809415,0.655689,0.822162,0.970103,0.762604,0.940628,0.940629,-1.000000,0.999535,0.999536,0.999538,0.999539,0.999541,-1.000000,0.435376,-1.000000,-1.000000,-1.000000,0.881525,-1.000000,0.881527,0.694282,-1.000000,0.741301,-1.000000,-1.000000,0.999562,-1.000000,-1.000000,-1.000000,0.978556,-1.000000,0.949095,0.847662,-1.000000,0.604153,0.220843,-1.000000,-1.000000,0.923807,-1.000000,-1.000000,-1.000000,-1.000000,-1.000000,-1.000000,-1.000000,-1.000000,-1.000000,-1.000000,-1.000000,-1.000000,-1.000000,0.944913,0.036249,-1.000000,-1.000000,0.422358,-1.000000,-1.000000,-1.000000,-1.000000,-1.000000,-1.000000,-1.000000,-1.000000,-1.000000,-1.000000,-1.000000,-1.000000,-1.000000,-1.000000,-1.000000,0.987030,-1.000000,-1.000000,0.873141,-1.000000,0.813766,-1.000000,0.839243,-1.000000,0.762700,0.826515,-1.000000,-1.000000,-1.000000,-1.000000,-1.000000,-1.000000,-1.000000,-1.000000,-1.000000,0.999666,-1.000000,-1.000000,-1.000000,0.809541,0.923892,-1.000000,-1.000000,0.911231,0.911233,-1.000000,0.784027,-1.000000,-1.000000,-1.000000,-1.000000,-1.000000,-1.000000,-1.000000,-1.000000,0.881656,-1.000000,-1.000000,0.911252,-1.000000,0.966067,-1.000000,0.911258,0.940797,0.839299,0.796818,0.818075,-1.000000,-1.000000,-1.000000,-1.000000,-1.000000,-1.000000,-1.000000,-1.000000,-1.000000,0.999729,0.970301,-1.000000,0.970304,0.999735,0.698699,-1.000000,0.873230,0.856287,0.898615,-1.000000,-1.000000,-1.000000,0.999749,-1.000000,-1.000000,-1.000000,0.543890,-1.000000,0.970328,0.999760,-1.000000,0.999763,0.999764,-1.000000,0.991364,-1.000000,-1.000000,0.754271,0.779844,-1.000000,-1.000000,0.737205,-1.000000,0.856323,0.945083,0.999784,-1.000000,-1.000000,-1.000000,0.999790,0.999792,-1.000000,0.999795,0.970366,-1.000000,-1.000000,0.822397,-1.000000,0.940888,-1.000000,0.961957,-1.000000,0.843628,-1.000000,-1.000000,0.999815,0.999817,-1.000000,0.940902,0.999821,-1.000000,0.974601,-1.000000,0.999827,0.970397,0.864841,-1.000000,0.911375,0.940917,-1.000000,0.847893,-1.000000,0.869086,0.999843,-1.000000,0.999846,0.999847,0.999849,0.949362,0.999852,0.999854,-1.000000,0.999857,-1.000000,-1.000000,-1.000000,0.886037,-1.000000,-1.000000,0.852159,0.724461,0.711636,0.991468,-1.000000,0.999875,-1.000000,0.999878,-1.000000,0.945177,-1.000000,-1.000000,-1.000000,-1.000000,0.999889,0.999891,-1.000000,0.902980,-1.000000,0.582830,-1.000000,0.784206,0.907213,0.924107,-1.000000,-1.000000,-1.000000,-1.000000,0.999911,-1.000000,-1.000000,0.864916,-1.000000,0.999918,0.974694,0.999921,0.987315,-1.000000,-1.000000,-1.000000,-1.000000,-1.000000,-1.000000,0.856457,-1.000000,0.945230,0.945231,0.974714,0.974715,0.953664,-1.000000,0.978927,-1.000000,-1.000000,-1.000000,-1.000000,-1.000000,-1.000000,-1.000000,-1.000000,-1.000000,-1.000000,-1.000000,-1.000000,-1.000000,-1.000000,0.915724,0.915726,-1.000000,
0.999356,-0.149102,0.830510,0.788100,-0.298527,-1.000000,0.384537,0.571061,-1.000000,0.113245,0.969951,0.191431,0.318966,0.422310,-1.000000,0.117684,-1.000000,-1.000000,0.881375,0.822124,-0.225904,0.113252,0.659963,-1.000000,-1.000000,0.999395,-1.000000,-1.000000,-1.000000,0.113257,-1.000000,-0.259145,-1.000000,-0.204779,-1.000000,-0.122065,0.144285,0.788143,-1.000000,0.340875,-0.086099,-1.000000,0.496083,-1.000000,-1.000000,-1.000000,0.126570,0.672854,-1.000000,-1.000000,0.999433,-1.000000,0.478833,-1.000000,0.257552,0.228211,0.019843,0.617052,0.999445,-0.293963,-1.000000,0.732760,-1.000000,-1.000000,-1.000000,-1.000000,-1.000000,0.719952,-1.000000,-1.000000,-1.000000,-1.000000,-1.000000,0.517845,-1.000000,-1.000000,-1.000000,0.415109,-1.000000,-1.000000,0.436871,0.108850,0.873000,-1.000000,0.086648,0.775433,0.435427,0.599871,-0.307603,-1.000000,-1.000000,-1.000000,0.496212,-1.000000,0.122165,-1.000000,-1.000000,0.629992,0.999507,0.582652,-1.000000,-1.000000,-1.000000,-1.000000,0.415132,-1.000000,0.839134,0.231183,-0.110038,0.019869,-0.164094,-1.000000,0.604203,-1.000000,0.974314,-0.011391,0.630013,-1.000000,-1.000000,-1.000000,0.311745,0.068884,0.944855,-1.000000,0.073333,-1.000000,-1.000000,0.843484,0.517898,-1.000000,0.999556,-0.331883,-1.000000,0.059990,0.732848,0.634331,-0.253062,0.015421,-1.000000,-1.000000,-1.000000,0.086680,-1.000000,0.627177,-0.047180,-1.000000,-1.000000,-1.000000,-0.257596,-1.000000,-1.000000,0.297152,0.604245,-1.000000,-1.000000,-1.000000,0.432588,-1.000000,-1.000000,-1.000000,-1.000000,0.285456,-1.000000,-1.000000,0.617166,0.556837,0.634364,-1.000000,-1.000000,0.496284,-1.000000,-1.000000,-0.344032,0.419545,0.608572,0.970199,-1.000000,0.698699,0.949151,-1.000000,-1.000000,0.545335,-1.000000,0.340988,-1.000000,0.380320,-1.000000,0.402131,0.413751,0.040720,-1.000000,0.169454,-1.000000,-1.000000,-1.000000,-1.000000,0.345373,-1.000000,0.253255,0.762793,0.970237,0.999666,-1.000000,-1.000000,-1.000000,0.690170,-1.000000,-0.221314,0.314733,-0.218294,-1.000000,0.098565,-1.000000,-1.000000,-0.221311,-1.000000,-1.000000,-0.266653,0.919689,0.108929,-1.000000,0.566964,-1.000000,-1.000000,-1.000000,0.940791,0.928141,-1.000000,-1.000000,-1.000000,0.034798,-1.000000,-1.000000,0.703043,-1.000000,-0.293913,0.371629,-1.000000,0.175378,-1.000000,-1.000000,-1.000000,0.999729,-1.000000,-1.000000,-1.000000,-1.000000,-1.000000,-0.200182,0.409447,0.974519,-0.272697,-1.000000,0.086742,0.284060,-0.325774,0.575628,-0.298455,0.953482,-1.000000,-1.000000,-1.000000,-1.000000,-1.000000,0.762873,-0.289356,0.999766,-1.000000,-1.000000,-1.000000,-1.000000,-0.366831,-1.000000,-1.000000,0.991375,0.999780,-1.000000,0.210727,-0.126470,0.051163,-0.194142,0.367297,-1.000000,-0.225817,-1.000000,0.376036,0.410930,0.410931,0.470369,0.308949,0.999803,0.107490,-1.000000,-1.000000,-0.047112,0.323562,-1.000000,-1.000000,-1.000000,-1.000000,0.911361,-1.000000,0.506518,-1.000000,-1.000000,-1.000000,-1.000000,-1.000000,0.089735,-1.000000,-1.000000,-1.000000,0.349838,-1.000000,-1.000000,0.248936,-0.284795,0.818266,-0.230336,-1.000000,0.471845,-1.000000,-1.000000,0.055639,0.584321,-1.000000,-1.000000,0.300206,0.352766,-1.000000,0.999864,0.445789,-0.136957,-1.000000,-1.000000,-0.114445,-0.126447,-1.000000,-1.000000,0.750171,-1.000000,0.257754,0.856492,-1.000000,-1.000000,-1.000000,0.902976,0.500784,0.279736,0.500786,0.843701,-1.000000,0.741650,-1.000000,0.715936,-0.042605,-1.000000,-1.000000,-1.000000,0.758727,-1.000000,0.384829,0.957849,-1.000000,-1.000000,0.839559,-1.000000,-1.000000,-1.000000,0.332378,-1.000000,-1.000000,-0.212204,-1.000000,-1.000000,0.999934,0.809843,0.741681,0.843739,0.310478,0.797090,-1.000000,-1.000000,0.536890,-1.000000,0.153351,-1.000000,-1.000000,-0.047070,-1.000000,0.287086,-1.000000,0.626012,-1.000000,0.852243,0.015549,-1.000000,-0.126423,0.724620,0.818373,
-1.000000,-1.000000,-1.000000,0.822021,0.805030,-1.000000,-1.000000,0.940471,-1.000000,0.969948,-1.000000,0.919390,0.969953,0.889825,0.927833,-1.000000,-1.000000,-1.000000,-1.000000,-1.000000,-1.000000,-1.000000,-1.000000,-1.000000,0.999391,0.969972,0.969974,-1.000000,-1.000000,-1.000000,-1.000000,-1.000000,0.969983,0.974191,0.999407,0.957362,0.915205,-1.000000,-1.000000,-1.000000,0.999416,0.969996,-1.000000,-1.000000,-1.000000,-1.000000,0.999425,-1.000000,0.999428,0.974215,0.974216,0.999433,-1.000000,0.974221,0.932108,0.927892,-1.000000,-1.000000,-1.000000,-1.000000,0.970025,-1.000000,-1.000000,0.894122,0.970031,0.999455,0.999456,-1.000000,0.974243,0.974245,-1.000000,-1.000000,-1.000000,0.677086,0.839090,-1.000000,0.986869,0.889914,0.792368,-1.000000,-1.000000,-1.000000,0.927931,-1.000000,-1.000000,0.999485,-1.000000,-1.000000,0.999490,-1.000000,0.999493,-1.000000,-1.000000,0.889937,0.898393,0.923731,-1.000000,-1.000000,-1.000000,-1.000000,-1.000000,-1.000000,0.839127,-1.000000,0.999515,-1.000000,-1.000000,0.999519,-1.000000,-1.000000,0.961683,0.873039,-1.000000,0.970105,-1.000000,-1.000000,0.889969,0.830661,-1.000000,-1.000000,0.582591,-1.000000,0.681426,-1.000000,-1.000000,-1.000000,-1.000000,-1.000000,0.513487,-1.000000,-1.000000,0.936437,-1.000000,-1.000000,0.940657,-1.000000,-1.000000,0.758371,0.779675,-1.000000,-1.000000,-1.000000,-1.000000,-1.000000,-1.000000,-1.000000,-1.000000,-1.000000,-1.000000,-1.000000,-1.000000,-1.000000,0.999589,0.970165,0.911151,0.877332,-1.000000,-1.000000,0.535228,-1.000000,0.915383,-1.000000,-1.000000,-1.000000,-1.000000,-1.000000,-1.000000,-1.000000,-1.000000,-1.000000,-1.000000,-1.000000,0.970193,0.970195,0.856183,0.923846,-1.000000,-1.000000,-1.000000,-1.000000,-1.000000,-1.000000,-1.000000,-1.000000,-1.000000,-1.000000,-1.000000,-1.000000,-1.000000,-1.000000,-1.000000,-1.000000,-1.000000,0.932310,-1.000000,-1.000000,-1.000000,-1.000000,-1.000000,-1.000000,0.906993,-1.000000,-1.000000,-1.000000,-1.000000,0.745658,-1.000000,-1.000000,-1.000000,-1.000000,0.940768,-1.000000,0.932337,-1.000000,0.911237,-1.000000,-1.000000,-1.000000,-1.000000,-1.000000,0.263531,-1.000000,-1.000000,-1.000000,-1.000000,-1.000000,0.940791,0.940793,0.970277,-1.000000,-1.000000,-1.000000,0.940800,0.847785,0.894362,-1.000000,-1.000000,-1.000000,-1.000000,-1.000000,0.970295,0.974504,0.999727,0.999729,0.885918,-1.000000,0.902833,-1.000000,0.974515,-1.000000,-1.000000,-1.000000,0.999743,-1.000000,-1.000000,-1.000000,-1.000000,0.885936,0.928185,0.999753,-1.000000,-1.000000,0.974536,0.940845,0.999761,0.732923,0.949279,0.945067,-1.000000,0.999769,-1.000000,0.999772,0.999773,0.995574,0.999777,0.970348,0.999780,0.999781,0.970352,-1.000000,0.923997,0.999787,-1.000000,-1.000000,0.995591,0.982983,0.957734,0.974573,-1.000000,-1.000000,0.999801,-1.000000,-1.000000,-1.000000,0.970376,0.999809,0.999810,0.961962,0.970382,-1.000000,-1.000000,-1.000000,0.978803,-1.000000,0.970391,0.999824,-1.000000,-1.000000,0.999829,0.999831,0.974608,0.974610,0.999835,0.970405,0.940920,-1.000000,0.999841,0.999843,0.940926,0.999846,0.915611,-1.000000,0.999851,-1.000000,-1.000000,0.999855,0.978839,0.999858,-1.000000,-1.000000,-1.000000,0.974640,-1.000000,-1.000000,-1.000000,0.940951,0.928298,-1.000000,-1.000000,0.999877,0.792701,0.835202,-1.000000,0.999883,-1.000000,-1.000000,0.945183,-1.000000,-1.000000,-1.000000,0.928318,-1.000000,-1.000000,-1.000000,0.940978,-1.000000,0.970469,0.940983,0.970472,0.999908,-1.000000,0.839472,0.902997,0.966271,-1.000000,0.987309,-1.000000,-1.000000,0.924124,-1.000000,-1.000000,0.974700,0.999928,0.999929,0.999931,0.999932,0.999934,-1.000000,0.999937,0.999938,-1.000000,0.260630,0.999943,-1.000000,0.983133,-1.000000,-1.000000,-1.000000,-1.000000,-1.000000,-1.000000,-1.000000,-1.000000,0.999960,0.970526,-1.000000,0.999965,-1.000000,0.974741,-1.000000,
-1.000000,-1.000000,-1.000000,-1.000000,-1.000000,-1.000000,-1.000000,-1.000000,-1.000000,-1.000000,-1.000000,-1.000000,-1.000000,-1.000000,-1.000000,-1.000000,0.940483,-1.000000,-1.000000,-1.000000,0.324811,-1.000000,-1.000000,0.990988,-1.000000,-1.000000,-1.000000,-1.000000,-1.000000,-1.000000,-1.000000,-1.000000,-1.000000,-1.000000,-1.000000,-1.000000,0.940512,-1.000000,-1.000000,-1.000000,-1.000000,-1.000000,-1.000000,-1.000000,-1.000000,0.991022,-1.000000,-1.000000,-1.000000,-1.000000,0.894103,0.894104,-1.000000,0.999435,-1.000000,0.809344,-1.000000,-1.000000,0.999442,0.974228,0.409202,-1.000000,-1.000000,0.356843,-1.000000,-1.000000,-1.000000,0.970034,-1.000000,-1.000000,0.999461,0.999462,0.999464,-1.000000,0.894136,0.860285,-1.000000,0.974256,-1.000000,0.940575,0.412206,-1.000000,-1.000000,-1.000000,0.999482,-1.000000,-1.000000,0.754044,0.612700,-1.000000,-1.000000,-1.000000,0.999495,-1.000000,-1.000000,0.535083,0.877249,0.919512,-1.000000,-1.000000,-1.000000,-1.000000,-1.000000,-1.000000,-1.000000,-1.000000,-1.000000,0.629919,-1.000000,-1.000000,-1.000000,-1.000000,0.881503,0.556701,0.582584,-1.000000,0.949057,0.986929,-1.000000,0.999536,-1.000000,-1.000000,0.974323,-1.000000,0.999544,0.788171,0.758356,0.999549,-1.000000,-1.000000,-1.000000,-1.000000,-1.000000,0.800943,0.766891,0.974343,0.974344,0.949088,-1.000000,-1.000000,-1.000000,-1.000000,0.965939,0.999573,0.961732,-1.000000,-1.000000,0.999579,0.999581,-1.000000,-1.000000,-1.000000,-1.000000,0.928032,0.860392,-1.000000,-1.000000,-1.000000,0.999596,-1.000000,-1.000000,-1.000000,0.978590,-1.000000,0.970180,-1.000000,0.995408,-1.000000,0.999612,0.919616,-1.000000,0.999616,0.919620,0.965985,-1.000000,0.999623,0.940717,0.911183,0.578339,-1.000000,0.999630,0.970205,-1.000000,0.999635,0.970210,0.970211,0.999639,0.999641,0.999643,-1.000000,0.953379,0.898528,-1.000000,-1.000000,0.999652,0.999653,0.970228,0.805277,0.860452,-1.000000,0.987056,0.999663,0.999664,0.999666,0.970240,0.970241,-1.000000,0.999672,-1.000000,0.982866,0.970249,-1.000000,0.999680,-1.000000,0.999683,0.999684,0.970258,-1.000000,-1.000000,-1.000000,-1.000000,0.999693,0.999695,-1.000000,0.970270,0.970271,-1.000000,-1.000000,0.999704,-1.000000,-1.000000,-1.000000,0.999710,0.999712,0.999713,-1.000000,0.970288,-1.000000,0.970291,0.945024,0.970294,0.970295,-1.000000,0.999727,0.970300,0.970301,-1.000000,0.999733,0.999735,-1.000000,0.970309,0.999740,0.999741,-1.000000,-1.000000,-1.000000,0.945049,0.869004,-1.000000,-1.000000,-1.000000,-1.000000,-1.000000,-1.000000,0.957700,0.881714,-1.000000,0.978748,0.999766,0.970337,-1.000000,0.970340,0.999772,-1.000000,0.957715,-1.000000,0.578439,-1.000000,-1.000000,-1.000000,-1.000000,0.999786,0.999787,-1.000000,-1.000000,-1.000000,0.970363,-1.000000,-1.000000,0.940882,0.970369,0.999801,0.999803,0.970373,0.805402,-1.000000,-1.000000,0.621526,-1.000000,-1.000000,-1.000000,-1.000000,-1.000000,-1.000000,-1.000000,-1.000000,-1.000000,-1.000000,-1.000000,-1.000000,-1.000000,0.999832,-1.000000,-1.000000,-1.000000,0.784155,-1.000000,0.949353,-1.000000,-1.000000,-1.000000,-1.000000,-1.000000,-1.000000,-1.000000,-1.000000,-1.000000,-1.000000,0.911398,0.847912,-1.000000,-1.000000,0.999864,0.999866,0.999867,-1.000000,-1.000000,-1.000000,0.526670,0.295826,-1.000000,-1.000000,-1.000000,-1.000000,-1.000000,-1.000000,-1.000000,-1.000000,-1.000000,-1.000000,-1.000000,-1.000000,-1.000000,-1.000000,-1.000000,-1.000000,-1.000000,0.970469,0.970471,0.999906,-1.000000,-1.000000,-1.000000,-1.000000,-1.000000,0.886085,-1.000000,-1.000000,0.877625,0.936782,0.881860,-1.000000,0.999926,0.999928,0.911463,0.966287,0.999932,-1.000000,0.999935,-1.000000,-1.000000,-1.000000,-1.000000,-1.000000,-1.000000,0.919925,-1.000000,-1.000000,-1.000000,-1.000000,-1.000000,-1.000000,0.999957,-1.000000,0.915716,0.999961,0.983150,0.945256,0.999966,-1.000000,
-1.000000,0.519216,-1.000000,-1.000000,0.898263,0.073267,0.380171,-1.000000,-1.000000,-1.000000,-1.000000,0.494689,0.999370,0.974238,0.957328,0.999375,0.642788,-1.000000,-1.000000,-1.000000,0.910958,0.609841,0.788120,-1.000000,0.644228,0.894066,-1.000000,-1.000000,0.999395,-0.194231,-1.000000,0.717057,-1.000000,0.702807,-1.000000,0.974191,-1.000000,0.153137,0.340872,0.467247,0.471588,0.462907,-0.158105,-1.000000,0.969998,-1.000000,-1.000000,-1.000000,0.823573,0.348171,-1.000000,-1.000000,0.889877,0.573980,-1.000000,-1.000000,-1.000000,-0.090584,0.104397,0.571111,0.944760,0.601276,0.042138,-1.000000,0.105880,0.419450,0.436857,0.911105,-1.000000,0.943449,0.776830,0.908295,-1.000000,0.574000,0.270751,-1.000000,0.940569,0.732776,0.046601,-0.244011,-1.000000,-0.119048,0.179697,0.545236,-1.000000,0.642863,-1.000000,-0.113047,-1.000000,-1.000000,-1.000000,0.517860,0.923724,-1.000000,0.711432,-1.000000,-1.000000,0.276625,-1.000000,-1.000000,0.982699,0.375884,-0.090566,0.660050,-1.000000,-1.000000,-1.000000,0.953255,0.970094,-0.114537,-1.000000,-0.359261,-0.284856,-0.017355,-1.000000,0.457183,-1.000000,-1.000000,-1.000000,-1.000000,-1.000000,-1.000000,-1.000000,0.685790,0.970118,-1.000000,-1.000000,0.441259,-0.216814,-1.000000,-0.005426,-1.000000,0.928000,0.591303,-1.000000,0.160572,-1.000000,-1.000000,-1.000000,0.206223,-1.000000,-0.081567,-1.000000,0.801035,0.707214,-0.266676,0.881629,-1.000000,-1.000000,0.628613,-1.000000,-0.105525,-0.020318,-1.000000,0.581269,-0.009883,-1.000000,0.333671,0.999595,0.394839,0.219467,-1.000000,0.148787,-1.000000,0.999604,-1.000000,0.999607,-1.000000,-1.000000,-1.000000,-1.000000,-1.000000,-1.000000,-0.218308,-1.000000,0.999621,0.991300,0.028824,0.139940,-1.000000,-1.000000,0.610011,0.179760,0.809589,-1.000000,0.681577,-1.000000,-1.000000,0.949162,0.693002,-0.038202,0.323481,-0.200203,-1.000000,0.463045,-1.000000,-1.000000,-0.198693,-1.000000,0.019913,-1.000000,0.661590,0.445672,-1.000000,-1.000000,0.635836,0.974448,-1.000000,-1.000000,-0.038194,-1.000000,-1.000000,-1.000000,0.156195,-1.000000,-1.000000,0.010995,-1.000000,0.957711,0.605747,-1.000000,-0.189644,-0.189644,0.915550,-0.180607,0.957641,0.105972,0.436997,-1.000000,-1.000000,-1.000000,-1.000000,-1.000000,-1.000000,-1.000000,-1.000000,0.953445,0.657340,-1.000000,0.919795,-1.000000,-1.000000,-1.000000,-1.000000,0.961880,-1.000000,-1.000000,-1.000000,-1.000000,0.492021,0.873227,-1.000000,0.868996,0.148842,-1.000000,0.394918,-0.216771,-0.063568,-1.000000,-0.162536,0.974530,0.554051,-1.000000,-0.221296,-1.000000,-0.014301,-1.000000,-1.000000,0.999764,-1.000000,-1.000000,-1.000000,-0.121972,-1.000000,-1.000000,0.999775,-1.000000,0.915627,0.051160,0.754359,0.957803,-1.000000,-1.000000,-1.000000,0.779857,-1.000000,0.812556,-1.000000,-1.000000,-1.000000,-1.000000,-0.248478,-1.000000,0.360022,0.643093,-1.000000,0.866313,-1.000000,-1.000000,0.276770,0.999814,-0.085990,-1.000000,0.881846,-0.126461,-1.000000,0.298726,-1.000000,-1.000000,-1.000000,-1.000000,-1.000000,-1.000000,-1.000000,-1.000000,0.999837,0.970406,-0.389677,0.397878,0.206341,0.536825,0.877639,-1.000000,0.107507,-1.000000,0.890258,0.919839,0.068993,0.406606,-1.000000,-1.000000,-1.000000,0.970430,-1.000000,-1.000000,0.536840,0.562761,-0.234862,-1.000000,0.432744,0.970442,0.471862,0.525313,0.999880,0.580027,-1.000000,0.179864,-1.000000,0.826717,-1.000000,0.999891,0.533973,0.999894,0.008085,-1.000000,0.860744,-1.000000,0.919964,-0.121937,0.754458,0.432763,-1.000000,-1.000000,-1.000000,0.999912,0.741662,0.222543,-1.000000,-1.000000,0.581490,0.442922,-1.000000,-1.000000,-1.000000,0.069019,0.890328,0.329462,-1.000000,0.437129,-0.252987,-1.000000,0.254847,0.640325,0.869256,0.562810,0.408107,0.640330,0.932669,-1.000000,-1.000000,0.022984,-1.000000,-1.000000,-0.312071,-1.000000,-1.000000,0.970526,0.711788,-1.000000,-0.348537,
-1.000000,0.583984,0.855947,-0.180686,0.826344,0.496127,-1.000000,-1.000000,-1.000000,0.369904,0.948898,-1.000000,-1.000000,-1.000000,0.999371,0.999373,0.999375,0.346687,0.999378,0.592619,-0.180680,-1.000000,-0.203277,0.664248,-0.048729,-1.000000,0.995190,-1.000000,-1.000000,0.664174,-1.000000,-1.000000,-1.000000,0.969980,0.969981,-1.000000,0.999405,0.999407,-1.000000,-1.000000,-1.000000,0.148713,-1.000000,-1.000000,-0.245534,-1.000000,-1.000000,-1.000000,-1.000000,-1.000000,0.986824,-1.000000,0.346714,-1.000000,-1.000000,-1.000000,0.999436,0.999438,-1.000000,-1.000000,-1.000000,-1.000000,0.024305,-1.000000,-0.280326,-0.207785,-1.000000,-1.000000,-1.000000,0.543699,-1.000000,-1.000000,-1.000000,0.961624,0.999464,0.999465,-1.000000,0.999468,-0.265183,-1.000000,-1.000000,-1.000000,0.970053,0.092569,-1.000000,-1.000000,-1.000000,-1.000000,-0.289496,-0.385245,-1.000000,-1.000000,-1.000000,0.999493,0.991094,0.999496,-1.000000,-1.000000,0.974284,-1.000000,-1.000000,0.940604,0.565402,-1.000000,-1.000000,-1.000000,0.957463,-1.000000,-1.000000,0.779635,-1.000000,0.999521,0.999522,-1.000000,0.860335,-1.000000,-1.000000,-1.000000,-1.000000,-0.334927,-1.000000,0.936498,-1.000000,-1.000000,-1.000000,-1.000000,-0.380577,-1.000000,-0.068110,-1.000000,0.970126,-1.000000,0.999553,0.957503,0.999556,-1.000000,-1.000000,-1.000000,0.651425,-0.306073,-0.144543,-1.000000,-1.000000,0.216516,-1.000000,-1.000000,-1.000000,0.822206,-1.000000,0.999579,0.999581,-1.000000,-1.000000,-1.000000,-1.000000,-1.000000,-0.107023,0.558264,-1.000000,-1.000000,0.631489,-1.000000,0.766923,-0.318207,-1.000000,-1.000000,-1.000000,-1.000000,-1.000000,-1.000000,0.999612,0.999613,-1.000000,0.978603,-1.000000,0.970193,-1.000000,-1.000000,-1.000000,-1.000000,0.747127,0.677287,-1.000000,0.335150,-1.000000,-1.000000,-1.000000,-1.000000,-1.000000,-1.000000,0.999643,-1.000000,0.919646,-1.000000,0.890073,-1.000000,-0.201709,-1.000000,-1.000000,0.592806,0.999658,0.311803,-1.000000,0.188608,-1.000000,-1.000000,-1.000000,-1.000000,-1.000000,-1.000000,0.949193,-1.000000,-1.000000,-1.000000,0.621516,-1.000000,-0.233391,-1.000000,0.953417,-1.000000,0.822382,-1.000000,-1.000000,0.126672,-1.000000,0.932352,0.877426,0.999700,-1.000000,0.999703,0.999704,0.966069,-1.000000,-1.000000,-1.000000,-1.000000,-1.000000,0.409433,-0.054609,-0.234894,-1.000000,-0.080029,0.999723,-1.000000,-1.000000,-1.000000,-1.000000,-1.000000,0.999732,0.999733,-1.000000,0.999737,-1.000000,-1.000000,-1.000000,-1.000000,0.148843,-1.000000,0.999747,-1.000000,0.281134,-0.257562,-1.000000,-1.000000,-1.000000,-1.000000,0.919752,-1.000000,-1.000000,0.894407,0.919758,-1.000000,-1.000000,-1.000000,-1.000000,0.928206,-1.000000,-1.000000,-0.171556,-1.000000,-1.000000,-1.000000,0.999784,-1.000000,-1.000000,-1.000000,-1.000000,0.999792,-1.000000,-1.000000,0.999797,0.957737,-1.000000,0.057105,-1.000000,-1.000000,-1.000000,-1.000000,0.881757,0.664558,0.999812,-1.000000,-1.000000,-1.000000,-1.000000,0.999820,0.999821,0.970391,-1.000000,0.852123,0.784146,0.647323,0.805423,-1.000000,0.991430,-1.000000,-1.000000,-1.000000,-1.000000,-1.000000,-1.000000,-1.000000,-1.000000,-1.000000,-1.000000,-1.000000,0.932498,0.575696,-1.000000,-1.000000,-1.000000,-1.000000,-1.000000,0.260594,-1.000000,-1.000000,-1.000000,-1.000000,0.999871,-1.000000,-1.000000,-1.000000,0.646007,-1.000000,-1.000000,0.999881,0.999883,-1.000000,-1.000000,-1.000000,-1.000000,0.552618,0.638778,-1.000000,-1.000000,-1.000000,-1.000000,-0.231835,-1.000000,0.691770,-0.015748,0.466090,0.907218,-1.000000,0.999911,0.877618,0.518122,0.159155,-1.000000,-1.000000,0.974694,-1.000000,-1.000000,-1.000000,-1.000000,-1.000000,0.365914,0.523904,-1.000000,-1.000000,0.999935,-1.000000,-1.000000,-1.000000,0.999941,0.999943,-1.000000,-1.000000,-1.000000,-1.000000,0.962096,0.957886,0.890350,-1.000000,0.995755,-1.000000,0.086819,0.349901,0.489268,0.175477,
-1.000000,-1.000000,0.311653,0.213483,-1.000000,-1.000000,0.419398,-0.149101,-1.000000,-1.000000,-1.000000,0.865921,-1.000000,-1.000000,-1.000000,-0.135581,0.860200,-0.344074,-1.000000,0.711341,0.415056,0.380182,-0.344073,-1.000000,0.809300,-1.000000,-1.000000,-1.000000,-1.000000,0.185552,-1.000000,0.569643,-1.000000,-1.000000,-1.000000,-1.000000,-1.000000,-1.000000,-1.000000,-0.180674,0.999410,-1.000000,-1.000000,-0.185189,-1.000000,-1.000000,-1.000000,-1.000000,0.668481,-1.000000,-1.000000,-1.000000,-1.000000,0.004960,-1.000000,-1.000000,0.940537,-1.000000,-1.000000,0.033222,-1.000000,0.999442,0.902648,0.064401,0.822096,-1.000000,-1.000000,0.621358,-1.000000,0.999455,-1.000000,-1.000000,-1.000000,-1.000000,-1.000000,0.927915,-1.000000,-1.000000,0.919561,-1.000000,-1.000000,-1.000000,0.999475,-1.000000,0.632838,0.851820,-1.000000,0.974266,-1.000000,0.999485,-1.000000,0.999488,-1.000000,0.999492,-1.000000,-1.000000,-1.000000,-1.000000,-1.000000,0.954724,-1.000000,0.999504,-1.000000,0.877255,0.830639,0.953249,-1.000000,-1.000000,0.999515,-1.000000,0.999518,0.974302,-1.000000,-1.000000,0.999524,0.999525,0.999527,-1.000000,-1.000000,0.999532,0.970109,-1.000000,-1.000000,0.999538,0.957488,-1.000000,-1.000000,0.999544,0.999545,-1.000000,0.999549,-1.000000,-1.000000,-1.000000,-1.000000,0.999556,0.999558,-1.000000,0.999561,-1.000000,0.999564,-1.000000,-1.000000,0.999569,0.999570,0.999572,-1.000000,0.999575,0.999576,-1.000000,-1.000000,-1.000000,0.982775,-1.000000,0.999586,-1.000000,0.999589,0.999590,-1.000000,-1.000000,-1.000000,-1.000000,-1.000000,-1.000000,0.999601,-1.000000,0.999604,-1.000000,-1.000000,-1.000000,0.982802,0.999612,0.982805,0.932275,-1.000000,-1.000000,0.999619,-1.000000,0.999623,-1.000000,-1.000000,0.999627,-1.000000,0.999630,0.999632,-1.000000,-1.000000,-1.000000,0.159128,-1.000000,-1.000000,-0.221321,0.890069,-1.000000,0.999647,0.999649,-1.000000,0.999652,0.999653,-1.000000,0.957601,0.999658,0.999659,0.999661,0.999663,-1.000000,-1.000000,-1.000000,-1.000000,-1.000000,-1.000000,-1.000000,-1.000000,0.915453,-1.000000,0.999680,-1.000000,-1.000000,0.970256,0.999686,0.897236,0.999689,0.999690,-1.000000,0.999693,-1.000000,-1.000000,-1.000000,-1.000000,-1.000000,-1.000000,-1.000000,-1.000000,0.949225,-1.000000,0.999710,-1.000000,0.999713,-1.000000,0.185686,-1.000000,0.905717,0.999721,-1.000000,-1.000000,-1.000000,-1.000000,-1.000000,-1.000000,-1.000000,0.970304,-1.000000,-1.000000,-1.000000,-1.000000,0.999741,0.999743,-1.000000,-1.000000,-1.000000,0.869004,0.950751,-1.000000,-1.000000,0.923968,-1.000000,-1.000000,-1.000000,-1.000000,-1.000000,-0.266638,-1.000000,-1.000000,0.999769,-1.000000,0.999772,-1.000000,-1.000000,-1.000000,-1.000000,-1.000000,0.528136,0.545430,-1.000000,-1.000000,-1.000000,-1.000000,-1.000000,-1.000000,-1.000000,-1.000000,-1.000000,0.999798,-1.000000,0.999801,-1.000000,0.999804,0.999806,-1.000000,-1.000000,-1.000000,-1.000000,-1.000000,-1.000000,-1.000000,-1.000000,-1.000000,-1.000000,-1.000000,0.304576,0.683146,0.999827,-1.000000,0.999831,0.999832,0.999834,0.455913,-0.024715,0.569934,-0.394252,0.957779,-1.000000,0.234262,-1.000000,-1.000000,-1.000000,-0.357685,-1.000000,0.128126,-1.000000,-1.000000,0.999858,0.999860,0.999861,-1.000000,-1.000000,0.711633,0.559882,0.291434,-1.000000,-1.000000,-1.000000,-0.275700,-0.289335,0.457304,-1.000000,-1.000000,-1.000000,-0.032161,-1.000000,0.978869,-1.000000,0.987283,0.999892,0.999894,0.970462,0.542622,0.650317,-1.000000,0.306075,0.970469,0.464642,-1.000000,-0.096448,-1.000000,-1.000000,-1.000000,-1.000000,0.974689,-1.000000,-1.000000,0.999920,-1.000000,0.983110,-1.000000,0.852210,0.457332,-1.000000,0.215201,-1.000000,0.510919,-1.000000,0.371743,-1.000000,0.924141,-1.000000,-0.246937,-1.000000,0.999946,-1.000000,-1.000000,-1.000000,0.835264,-1.000000,0.903036,0.733074,-1.000000,-1.000000,-0.163989,0.614543,
-1.000000,0.226702,-1.000000,-1.000000,-1.000000,-1.000000,-1.000000,-1.000000,-1.000000,-1.000000,-1.000000,0.902494,-1.000000,-1.000000,-1.000000,-1.000000,-1.000000,-1.000000,-1.000000,-0.125074,0.484580,-0.204785,-1.000000,-1.000000,-1.000000,-1.000000,-1.000000,-1.000000,-1.000000,-1.000000,0.910968,-1.000000,-1.000000,-1.000000,-1.000000,-1.000000,-1.000000,-1.000000,-1.000000,-1.000000,0.323363,-1.000000,-1.000000,-1.000000,-1.000000,-1.000000,-1.000000,0.061340,0.851768,0.856007,-1.000000,-1.000000,0.792328,-1.000000,0.915224,0.409194,-1.000000,-1.000000,-1.000000,-1.000000,-1.000000,0.999441,0.999442,0.940546,-1.000000,0.851791,-1.000000,-1.000000,0.856033,0.856034,0.444022,-1.000000,0.856038,-1.000000,-1.000000,-1.000000,-1.000000,0.796614,-1.000000,-1.000000,-1.000000,-1.000000,-1.000000,0.915265,-1.000000,-1.000000,0.822123,0.856059,-1.000000,-1.000000,-1.000000,0.843347,0.826377,0.889930,-1.000000,-1.000000,-1.000000,-1.000000,-1.000000,-1.000000,0.978490,-1.000000,-1.000000,0.906848,0.847605,0.741263,0.970087,-1.000000,-1.000000,0.999515,-1.000000,0.911083,0.911085,0.919529,0.919531,0.974307,-1.000000,0.961686,-1.000000,-1.000000,0.999532,0.834903,-1.000000,-1.000000,-1.000000,-1.000000,-1.000000,-1.000000,-1.000000,0.999545,0.999547,-1.000000,-1.000000,0.999552,-1.000000,-1.000000,0.999556,-1.000000,-1.000000,0.999561,0.940658,0.881537,-1.000000,-1.000000,0.847658,-1.000000,0.982764,0.999573,0.999575,0.999576,0.999578,0.999579,-1.000000,0.999582,0.999584,0.999586,0.999587,-1.000000,-1.000000,-1.000000,0.940687,0.940689,-1.000000,0.868870,0.754134,-1.000000,0.940696,-1.000000,-1.000000,0.902717,0.877346,0.915391,-1.000000,-1.000000,0.999615,0.999616,0.999618,-1.000000,0.919623,0.915403,0.940717,0.940718,-1.000000,0.839228,0.792496,0.965997,-1.000000,-1.000000,-1.000000,-1.000000,-1.000000,-1.000000,-1.000000,-1.000000,0.999646,0.999647,-1.000000,0.864681,-1.000000,-1.000000,0.885850,-1.000000,0.864688,0.702920,0.911215,-1.000000,-1.000000,-1.000000,-1.000000,-1.000000,-1.000000,0.758456,0.902778,0.957619,-1.000000,0.940768,0.873176,0.839274,-1.000000,-1.000000,-1.000000,-1.000000,0.999689,-1.000000,-1.000000,-1.000000,-1.000000,-1.000000,-1.000000,-1.000000,-1.000000,-1.000000,-1.000000,-1.000000,-1.000000,0.911260,-1.000000,0.999712,-1.000000,-1.000000,-1.000000,0.957660,0.915493,0.852031,-1.000000,-1.000000,-1.000000,-1.000000,-1.000000,-1.000000,0.868989,0.928168,-1.000000,-1.000000,-1.000000,0.911288,0.530912,-1.000000,-1.000000,-1.000000,-1.000000,-1.000000,0.860533,0.724370,-1.000000,-1.000000,-1.000000,-1.000000,0.961911,0.919753,0.890177,-1.000000,0.707279,-1.000000,0.953497,-1.000000,-1.000000,-0.298451,0.885958,-1.000000,0.218075,-1.000000,-1.000000,-1.000000,0.949299,-1.000000,0.970357,-1.000000,-1.000000,0.894432,0.864808,0.796887,0.720131,0.919788,-1.000000,-1.000000,-1.000000,-1.000000,-1.000000,-1.000000,0.877525,-1.000000,0.940895,-1.000000,-1.000000,-1.000000,-1.000000,-1.000000,0.953547,0.919811,0.945122,0.847883,0.792659,-1.000000,-1.000000,0.643031,-1.000000,-1.000000,-1.000000,-1.000000,0.003601,-1.000000,-1.000000,-1.000000,-1.000000,-1.000000,-1.000000,0.999851,-1.000000,-1.000000,0.750071,0.784170,-1.000000,0.928287,-1.000000,-1.000000,-1.000000,-1.000000,-1.000000,-1.000000,-1.000000,-1.000000,-1.000000,-1.000000,-1.000000,-1.000000,-1.000000,-1.000000,0.919867,0.835206,-1.000000,0.711649,-1.000000,-1.000000,-1.000000,-0.216825,-1.000000,-1.000000,-1.000000,-1.000000,0.160708,-0.275695,-1.000000,-1.000000,-1.000000,-1.000000,-1.000000,0.978894,0.852200,0.278199,0.643091,0.754388,0.745855,0.630203,0.805500,-1.000000,-1.000000,-1.000000,-1.000000,-1.000000,-0.150463,-1.000000,0.970501,-1.000000,-1.000000,0.999940,0.999941,-1.000000,0.852227,-1.000000,-1.000000,0.784246,-1.000000,-1.000000,-1.000000,-1.000000,-1.000000,-1.000000,0.915716,-1.000000,
0.944666,0.055465,0.436797,-1.000000,-1.000000,-1.000000,-1.000000,0.467214,-1.000000,-1.000000,0.826348,0.441153,0.999364,0.401979,-1.000000,-1.000000,-0.257639,0.139841,-1.000000,0.104372,0.999376,-1.000000,-0.018890,-0.126573,-0.389747,0.974170,0.410704,0.432470,-1.000000,-0.298522,0.046574,0.758314,-1.000000,-1.000000,0.441173,-1.000000,0.969980,-1.000000,0.406358,-0.185191,0.754061,0.037669,0.754064,-1.000000,-1.000000,-1.000000,-1.000000,-1.000000,0.605562,0.642820,0.999422,-1.000000,-1.000000,-1.000000,0.310229,-0.362320,0.086629,-0.284874,0.698553,0.689994,0.999438,0.073295,0.104397,0.037680,0.638542,-1.000000,-0.056181,-1.000000,0.839074,-1.000000,0.139873,0.532255,0.006457,-0.321269,-1.000000,0.999461,0.974247,0.664306,0.668594,-1.000000,0.826440,-0.262157,-1.000000,0.077754,0.999475,-0.024825,-1.000000,-1.000000,0.436872,-1.000000,0.179699,-1.000000,-1.000000,-1.000000,0.445573,-1.000000,0.762657,-1.000000,-0.280317,0.371513,-1.000000,0.826468,-0.316707,-0.225879,-1.000000,-1.000000,0.677198,0.117734,-1.000000,-0.078590,-0.087569,0.244390,-1.000000,0.051072,-1.000000,-0.293949,-1.000000,-1.000000,-1.000000,0.367161,-1.000000,0.462976,-1.000000,-1.000000,0.999536,0.999538,-1.000000,0.046625,0.483233,0.179724,-1.000000,-1.000000,0.817935,-1.000000,-0.312145,0.310290,0.432564,-1.000000,-0.090552,0.210632,0.999561,0.476016,-1.000000,0.402088,-1.000000,-1.000000,-1.000000,0.082235,-1.000000,-1.000000,-1.000000,-1.000000,0.036240,-1.000000,-1.000000,-0.221333,0.999586,-0.257595,0.690108,-0.262133,-1.000000,-1.000000,-1.000000,-0.262132,0.868870,-1.000000,0.754216,0.771267,-0.362291,-1.000000,-1.000000,-1.000000,0.911169,-1.000000,0.060008,-1.000000,-1.000000,0.467368,-0.230384,-0.086043,0.970196,-0.262126,-1.000000,-0.015833,-0.146030,-1.000000,0.375950,-1.000000,0.999635,0.046657,-0.083045,-1.000000,-0.051643,0.253247,0.148804,-1.000000,-1.000000,-0.225848,0.839328,0.042207,0.944959,0.545348,-0.284831,-1.000000,0.961814,-1.000000,-1.000000,-1.000000,0.010989,0.638700,-1.000000,-0.330345,-1.000000,-1.000000,0.380338,0.104484,-0.194167,-0.321230,0.371609,-1.000000,0.999684,-1.000000,-1.000000,-0.321228,0.327882,0.961846,-1.000000,0.051131,-1.000000,0.231261,0.638723,0.305978,-0.321226,-1.000000,-0.078536,-1.000000,0.741420,0.732963,-1.000000,-1.000000,-0.230364,-1.000000,-1.000000,0.139976,-1.000000,0.314756,0.634444,0.191579,0.587109,0.319141,-1.000000,0.575615,0.835076,-1.000000,0.698780,-1.000000,-1.000000,-1.000000,0.416709,-1.000000,0.949262,-0.221298,0.139988,-1.000000,-0.257562,-1.000000,-1.000000,0.389109,-1.000000,-1.000000,0.139993,-1.000000,-1.000000,0.483367,0.703083,-1.000000,-1.000000,0.467459,-1.000000,-1.000000,-1.000000,0.698812,-1.000000,0.471805,-1.000000,0.698816,-1.000000,0.634488,0.502166,-1.000000,-1.000000,-1.000000,-1.000000,-0.177572,-1.000000,0.006566,0.432704,0.104530,-1.000000,0.077872,0.999807,0.473269,0.852190,0.467482,-1.000000,-0.280256,-1.000000,-0.353125,-1.000000,-1.000000,0.437066,-1.000000,-1.000000,-1.000000,0.024431,-1.000000,-1.000000,-1.000000,0.206338,0.476178,0.336712,0.445774,-1.000000,0.797008,-1.000000,-1.000000,-1.000000,0.733071,-0.321199,-1.000000,-1.000000,-1.000000,0.978839,0.187217,-0.087475,0.733081,-1.000000,-1.000000,-1.000000,-1.000000,0.864875,0.471858,0.831031,-1.000000,0.604439,-0.394247,-1.000000,-1.000000,-1.000000,0.354234,0.830961,-1.000000,-1.000000,-1.000000,0.310454,-1.000000,-1.000000,0.441457,-1.000000,0.728838,-1.000000,0.664624,0.480557,0.015530,0.805486,-1.000000,-1.000000,-0.257530,0.135620,0.051206,-1.000000,0.724579,-1.000000,-1.000000,-1.000000,-1.000000,0.253374,0.441475,0.432775,0.758743,0.877634,0.698928,0.668937,0.073470,-1.000000,0.135630,0.042304,-1.000000,-1.000000,-1.000000,-1.000000,-1.000000,-1.000000,0.310484,-0.348539,-0.051552,0.886121,0.020010,-1.000000,-1.000000,
0.969924,-1.000000,-1.000000,-1.000000,-1.000000,0.406329,0.462871,-1.000000,0.073266,-1.000000,-1.000000,0.436804,-1.000000,0.042110,-1.000000,0.783849,-1.000000,0.467222,-1.000000,-1.000000,-1.000000,-1.000000,-1.000000,-1.000000,0.401987,0.999382,0.898287,-1.000000,-0.126572,0.285354,-1.000000,-1.000000,0.436822,-1.000000,-1.000000,-1.000000,0.919496,-0.054700,0.800894,-1.000000,0.006440,0.144283,-1.000000,-0.194228,-1.000000,-1.000000,-1.000000,-1.000000,0.068840,0.088105,-1.000000,0.407820,-0.221368,0.471595,0.441190,0.868800,-1.000000,-1.000000,-1.000000,-1.000000,0.571107,-0.158100,-1.000000,-1.000000,-1.000000,-0.389738,0.965816,-1.000000,-1.000000,0.618490,-1.000000,-1.000000,-1.000000,-1.000000,0.745490,-1.000000,-1.000000,0.851885,-1.000000,0.179692,-1.000000,0.037689,0.970047,-1.000000,-1.000000,-0.114549,-1.000000,-1.000000,-1.000000,0.672892,0.999482,0.982757,-1.000000,-1.000000,-1.000000,-1.000000,-1.000000,0.345289,-1.000000,-1.000000,0.970075,0.237045,-1.000000,-0.164099,0.067387,0.145798,0.949033,0.102942,-1.000000,-0.221349,-1.000000,0.007964,-1.000000,-1.000000,0.974302,0.617105,-1.000000,0.410780,0.664350,0.788237,-1.000000,-1.000000,0.885738,-1.000000,-1.000000,0.999536,0.042168,-1.000000,-1.000000,0.902738,-1.000000,0.181198,-1.000000,-1.000000,0.297133,0.292746,0.222386,-1.000000,-1.000000,-1.000000,-0.266679,-1.000000,-0.011382,-1.000000,-1.000000,-1.000000,-1.000000,0.113320,0.766981,-1.000000,-1.000000,0.974358,-0.216807,0.248819,-1.000000,-1.000000,-1.000000,-0.015846,0.015427,-1.000000,-1.000000,-0.321245,0.970168,-0.262132,0.148785,-1.000000,0.890109,-1.000000,-1.000000,-1.000000,-1.000000,-0.000940,-1.000000,0.579846,0.509277,-1.000000,0.677276,0.621472,0.999618,-0.126512,0.436952,0.135509,-1.000000,-1.000000,-1.000000,-1.000000,-1.000000,-1.000000,-1.000000,0.970208,-1.000000,-1.000000,-1.000000,0.634385,-1.000000,-0.204726,-1.000000,0.732914,0.206259,-1.000000,-1.000000,0.497751,0.999655,0.410853,-1.000000,-1.000000,0.822358,0.732926,-1.000000,-1.000000,-1.000000,0.792609,-0.047153,-1.000000,0.396334,0.257660,-1.000000,-1.000000,0.999680,-0.194166,0.367242,-1.000000,-1.000000,0.724401,-1.000000,0.885882,-1.000000,0.762817,-1.000000,0.940785,-1.000000,-1.000000,0.188624,-1.000000,0.860492,-0.213762,0.139972,-0.194160,-0.262109,0.077839,-0.185120,-0.117486,-1.000000,0.402171,0.046685,-1.000000,-0.248494,-1.000000,-1.000000,-1.000000,-1.000000,-1.000000,-0.253028,-1.000000,0.552600,-1.000000,0.179804,-1.000000,-1.000000,-1.000000,0.720172,-1.000000,-1.000000,-1.000000,-1.000000,0.104511,0.932405,0.215126,-1.000000,-1.000000,-1.000000,-1.000000,-1.000000,-0.021755,-1.000000,0.911314,0.864867,-1.000000,-1.000000,-1.000000,-0.257557,-0.225820,0.830870,0.037793,-0.221291,0.175402,0.410924,-1.000000,-0.298448,0.057101,-1.000000,-1.000000,-1.000000,0.361475,-1.000000,0.311871,-0.085994,-1.000000,-1.000000,0.342530,0.987199,-1.000000,-0.221285,0.694555,-1.000000,-0.189616,-1.000000,0.241589,0.536809,0.267985,-1.000000,0.313344,0.313345,-1.000000,-1.000000,-1.000000,-0.230339,0.497859,-1.000000,0.784234,-1.000000,-1.000000,-1.000000,0.437077,-1.000000,-1.000000,-1.000000,-1.000000,-1.000000,-1.000000,0.999852,-0.350077,-1.000000,-1.000000,-1.000000,0.788511,-0.289338,0.179855,0.970432,0.664598,0.630247,0.826782,0.890355,0.336730,0.541167,0.792780,0.940957,-1.000000,0.082345,0.835284,0.970450,0.600140,-1.000000,0.788534,-1.000000,0.384817,0.864976,-0.234857,0.784283,0.480553,-1.000000,-0.198638,-1.000000,-0.298427,-0.194116,-1.000000,-1.000000,0.171033,0.051205,0.024458,0.999914,0.333833,-1.000000,-1.000000,-1.000000,0.970487,-1.000000,0.792820,0.856450,-1.000000,-0.262065,0.055666,-1.000000,-0.262064,-1.000000,-0.157979,0.919918,-1.000000,0.647485,0.036362,0.503706,0.970591,0.792840,0.140066,-1.000000,-1.000000,0.480587,-1.000000,-1.000000,-1.000000,
