minWeight=-1.000000, maxWeight=1.000000
-1.000000,-1.000000,0.999385,-1.000000,-1.000000,-1.000000,0.999391,-1.000000,0.999395,-1.000000,-1.000000,-1.000000,0.999401,-1.000000,0.999404,-1.000000,-1.000000,-1.000000,0.999410,-1.000000,-1.000000,-1.000000,-1.000000,0.999418,-1.000000,-1.000000,0.999422,0.999424,-1.000000,-1.000000,-1.000000,-1.000000,0.999432,-1.000000,-1.000000,0.999436,-1.000000,-1.000000,0.999441,0.999442,-1.000000,0.999445,0.999447,0.999448,0.999450,-1.000000,-1.000000,-1.000000,0.999456,-1.000000,0.999459,-1.000000,-1.000000,0.999464,-1.000000,-1.000000,-1.000000,0.999470,0.999472,-1.000000,-1.000000,-1.000000,-1.000000,0.999479,0.999481,-1.000000,-1.000000,-1.000000,-1.000000,-1.000000,0.999490,-1.000000,0.999493,-1.000000,-1.000000,-1.000000,-1.000000,0.999501,-1.000000,0.999504,-1.000000,0.999507,-1.000000,-1.000000,0.999512,-1.000000,-1.000000,-1.000000,0.999518,-1.000000,0.999521,0.999522,0.999524,0.999525,-1.000000,0.999529,0.999530,-1.000000,-1.000000,-1.000000,-1.000000,0.999538,-1.000000,-1.000000,0.999542,-1.000000,-1.000000,-1.000000,0.999549,0.999550,-1.000000,0.999553,0.999555,-1.000000,-1.000000,-1.000000,-1.000000,-1.000000,-1.000000,0.999566,-1.000000,0.999569,-1.000000,-1.000000,-1.000000,-1.000000,-1.000000,-1.000000,-1.000000,-1.000000,-1.000000,-1.000000,-1.000000,-1.000000,-1.000000,-1.000000,-1.000000,-1.000000,-1.000000,0.999596,0.999598,-1.000000,-1.000000,-1.000000,-1.000000,-1.000000,-1.000000,0.999609,-1.000000,0.999612,-1.000000,0.999615,0.999616,0.999618,-1.000000,0.999621,-1.000000,0.999624,-1.000000,0.999627,-1.000000,-1.000000,0.999632,-1.000000,-1.000000,0.999636,-1.000000,-1.000000,0.999641,0.999643,-1.000000,0.999646,-1.000000,0.999649,0.999650,-1.000000,-1.000000,-1.000000,-1.000000,0.999658,-1.000000,-1.000000,-1.000000,0.999664,0.999666,-1.000000,0.999669,-1.000000,-1.000000,0.999673,0.999675,-1.000000,0.999678,-1.000000,-1.000000,0.999683,-1.000000,-1.000000,0.999687,0.999689,-1.000000,-1.000000,-1.000000,-1.000000,-1.000000,-1.000000,0.999700,0.999701,-1.000000,-1.000000,-1.000000,-1.000000,0.999709,-1.000000,-1.000000,0.999713,0.999715,-1.000000,-1.000000,-1.000000,0.999721,-1.000000,-1.000000,-1.000000,-1.000000,-1.000000,-1.000000,0.999732,0.999733,0.999735,-1.000000,-1.000000,0.999740,0.999741,-1.000000,-1.000000,-1.000000,0.999747,-1.000000,-1.000000,-1.000000,-1.000000,0.999755,0.999757,0.999758,0.999760,-1.000000,-1.000000,-1.000000,-1.000000,-1.000000,-1.000000,0.999770,0.999772,-1.000000,-1.000000,0.999777,-1.000000,0.999780,0.999781,-1.000000,-1.000000,-1.000000,0.999787,-1.000000,0.999790,-1.000000,-1.000000,-1.000000,-1.000000,-1.000000,-1.000000,0.999801,-1.000000,0.999804,-1.000000,0.999807,-1.000000,-1.000000,0.999812,-1.000000,-1.000000,-1.000000,-1.000000,0.999820,-1.000000,-1.000000,0.999824,0.999826,0.999827,-1.000000,0.999831,0.999832,0.999834,0.999835,-1.000000,-1.000000,-1.000000,0.999841,-1.000000,-1.000000,-1.000000,-1.000000,0.999849,0.999851,-1.000000,-1.000000,0.999855,0.999857,0.999858,-1.000000,-1.000000,0.999863,-1.000000,-1.000000,-1.000000,-1.000000,-1.000000,0.999872,-1.000000,-1.000000,-1.000000,-1.000000,0.999880,0.999881,-1.000000,-1.000000,0.999886,0.999888,-1.000000,-1.000000,0.999892,0.999894,-1.000000,-1.000000,-1.000000,-1.000000,0.999901,-1.000000,0.999904,-1.000000,-1.000000,0.999909,0.999911,-1.000000,-1.000000,-1.000000,0.999917,-1.000000,0.999920,0.999921,-1.000000,-1.000000,-1.000000,-1.000000,-1.000000,0.999931,0.999932,-1.000000,-1.000000,0.999937,0.999938,-1.000000,-1.000000,-1.000000,-1.000000,0.999946,-1.000000,0.999949,0.999951,0.999952,-1.000000,-1.000000,0.999957,0.999958,-1.000000,-1.000000,-1.000000,-1.000000,0.999966,-1.000000,0.999969,0.999971,-1.000000,0.999974,-1.000000,-1.000000,-1.000000,0.999980,-1.000000,0.999983,-1.000000,-1.000000,-1.000000,0.999989,-1.000000,0.999992,-1.000000,-1.000000,-1.000000,
-1.000000,-1.000000,0.999384,-1.000000,-1.000000,-1.000000,0.999390,-1.000000,-1.000000,0.999395,0.999396,-1.000000,0.999399,0.999401,-1.000000,-1.000000,0.999405,-1.000000,-1.000000,0.908249,0.999411,0.999413,-1.000000,0.999416,-1.000000,-1.000000,-1.000000,0.999422,-1.000000,0.999425,0.999427,0.999428,0.999430,-1.000000,-1.000000,-1.000000,-1.000000,-1.000000,0.999439,-1.000000,0.621801,0.999444,-1.000000,-1.000000,-1.000000,-1.000000,-1.000000,0.999453,0.999455,-1.000000,0.999458,0.999459,-1.000000,-1.000000,-1.000000,-1.000000,0.999467,-1.000000,-1.000000,0.999472,-1.000000,0.999475,0.999476,-1.000000,0.999479,0.999481,-1.000000,-1.000000,0.999485,0.999487,-1.000000,-1.000000,-1.000000,0.999493,-1.000000,-1.000000,-1.000000,-1.000000,-1.000000,0.999502,-1.000000,0.999505,-1.000000,0.999509,0.999510,0.999512,0.999513,0.999515,-1.000000,0.999518,-1.000000,-1.000000,-1.000000,0.999524,0.999525,-1.000000,-1.000000,-1.000000,-1.000000,0.999533,-1.000000,-1.000000,-1.000000,-1.000000,-1.000000,-1.000000,0.999544,-1.000000,0.999547,0.999549,-1.000000,0.999552,-1.000000,-1.000000,-1.000000,0.999558,-1.000000,0.999561,0.999562,-1.000000,0.999566,-1.000000,-1.000000,0.999570,-1.000000,0.999573,0.999575,-1.000000,-1.000000,0.999579,-1.000000,0.999582,-1.000000,-1.000000,-1.000000,-1.000000,-1.000000,0.999592,-1.000000,0.999595,-1.000000,-1.000000,0.999599,0.999601,-1.000000,-1.000000,-1.000000,-1.000000,-1.000000,0.999610,0.999612,-1.000000,-1.000000,0.999616,-1.000000,-1.000000,-1.000000,0.999623,-1.000000,0.999626,0.999627,-1.000000,0.999630,-1.000000,0.999633,0.999635,-1.000000,-1.000000,0.999639,0.999641,-1.000000,-1.000000,0.999646,-1.000000,0.999649,-1.000000,-1.000000,0.999653,-1.000000,-1.000000,0.999658,-1.000000,0.999661,-1.000000,0.999664,0.999666,0.999667,-1.000000,-1.000000,-1.000000,-1.000000,-1.000000,0.999676,-1.000000,0.999680,-1.000000,-1.000000,0.999684,-1.000000,0.999687,-1.000000,-1.000000,0.999692,-1.000000,0.999695,-1.000000,0.999698,-1.000000,0.999701,0.999703,-1.000000,-1.000000,-1.000000,0.999709,-1.000000,-1.000000,-1.000000,-1.000000,0.999716,0.999718,-1.000000,-1.000000,-1.000000,0.999724,-1.000000,-1.000000,0.999729,-1.000000,0.999732,-1.000000,0.999735,-1.000000,0.999738,-1.000000,-1.000000,-1.000000,-1.000000,-1.000000,0.999747,-1.000000,-1.000000,0.999752,-1.000000,0.999755,-1.000000,-1.000000,0.999760,-1.000000,-1.000000,-1.000000,-1.000000,0.999767,-1.000000,-1.000000,-1.000000,-1.000000,-1.000000,-1.000000,0.999778,0.999780,-1.000000,-1.000000,-1.000000,0.999786,-1.000000,-1.000000,-1.000000,-1.000000,0.999794,0.999795,-1.000000,-1.000000,-1.000000,-1.000000,-1.000000,-1.000000,-1.000000,-1.000000,-1.000000,-1.000000,-1.000000,0.999814,-1.000000,-1.000000,0.999818,-1.000000,0.999821,-1.000000,-1.000000,-1.000000,-1.000000,-1.000000,-1.000000,-1.000000,0.999834,-1.000000,-1.000000,-1.000000,0.999840,-1.000000,-1.000000,-1.000000,0.999846,0.999847,0.999849,-1.000000,-1.000000,-1.000000,-1.000000,-1.000000,0.999858,0.999860,0.999861,-1.000000,-1.000000,-1.000000,-1.000000,0.999869,-1.000000,0.999872,0.919938,-1.000000,-1.000000,0.999878,0.999880,-1.000000,-1.000000,0.999884,0.999886,-1.000000,0.999889,-1.000000,0.999892,-1.000000,0.999895,0.999897,-1.000000,0.999900,-1.000000,-1.000000,-1.000000,-1.000000,-1.000000,0.999909,-1.000000,-1.000000,-1.000000,0.999915,0.999917,-1.000000,0.999920,0.999921,-1.000000,0.999924,0.999926,-1.000000,0.999929,-1.000000,-1.000000,-1.000000,-1.000000,-1.000000,-1.000000,0.999940,0.999941,-1.000000,-1.000000,0.999946,0.999948,-1.000000,-1.000000,-1.000000,0.999954,-1.000000,0.999957,-1.000000,-1.000000,0.999961,-1.000000,-1.000000,-1.000000,0.999968,0.999969,-1.000000,-1.000000,-1.000000,0.999975,-1.000000,0.999978,-1.000000,-1.000000,-1.000000,-1.000000,-1.000000,-1.000000,0.970553,-1.000000,-1.000000,0.999994,-1.000000,
-1.000000,-1.000000,0.999382,0.999384,-1.000000,-1.000000,0.999388,-1.000000,-1.000000,-1.000000,-1.000000,0.999396,-1.000000,0.999399,0.999401,-1.000000,-1.000000,-1.000000,-1.000000,-1.000000,-1.000000,-1.000000,0.999413,0.999415,0.999416,0.999418,-1.000000,-1.000000,0.999422,-1.000000,-1.000000,-1.000000,-1.000000,0.999430,-1.000000,0.999433,-1.000000,0.999436,-1.000000,-1.000000,-1.000000,-1.000000,-1.000000,0.999445,-1.000000,-1.000000,-1.000000,-1.000000,-1.000000,-1.000000,-1.000000,0.999458,-1.000000,-1.000000,-1.000000,-1.000000,0.999465,-1.000000,0.999468,-1.000000,-1.000000,0.999473,-1.000000,-1.000000,-1.000000,-1.000000,-1.000000,-1.000000,-1.000000,0.999485,0.999487,0.999488,0.999490,0.999492,-1.000000,0.999495,-1.000000,-1.000000,0.999499,-1.000000,0.999502,0.999504,0.999505,0.999507,-1.000000,0.999510,-1.000000,0.999513,0.999515,-1.000000,-1.000000,0.999519,-1.000000,-1.000000,0.999524,0.999525,0.999527,-1.000000,-1.000000,0.999532,0.999533,0.999535,-1.000000,0.999538,0.999539,-1.000000,-1.000000,0.999544,-1.000000,0.999547,0.999549,0.999550,0.999552,-1.000000,-1.000000,-1.000000,-1.000000,-1.000000,-1.000000,0.999562,-1.000000,0.999566,0.999567,-1.000000,0.999570,-1.000000,0.999573,-1.000000,-1.000000,-1.000000,-1.000000,-1.000000,0.999582,-1.000000,-1.000000,-1.000000,-1.000000,-1.000000,-1.000000,-1.000000,-1.000000,-1.000000,0.999598,0.999599,-1.000000,-1.000000,0.999604,0.999606,-1.000000,0.999609,-1.000000,-1.000000,-1.000000,-1.000000,0.999616,-1.000000,-1.000000,-1.000000,-1.000000,-1.000000,-1.000000,0.999627,-1.000000,-1.000000,-1.000000,0.999633,-1.000000,0.999636,-1.000000,-1.000000,-1.000000,-1.000000,-1.000000,-1.000000,0.999647,0.999649,-1.000000,-1.000000,-1.000000,-1.000000,-1.000000,0.999658,-1.000000,-1.000000,0.999663,-1.000000,-1.000000,-1.000000,0.999669,0.999670,-1.000000,-1.000000,-1.000000,-1.000000,0.999678,-1.000000,-1.000000,0.999683,0.999684,-1.000000,-1.000000,-1.000000,-1.000000,0.999692,-1.000000,-1.000000,-1.000000,0.999698,-1.000000,0.999701,-1.000000,-1.000000,-1.000000,-1.000000,-1.000000,0.999710,-1.000000,-1.000000,-1.000000,-1.000000,-1.000000,-1.000000,-1.000000,-1.000000,-1.000000,-1.000000,-1.000000,-1.000000,0.999730,-1.000000,0.999733,-1.000000,-1.000000,-1.000000,-1.000000,0.999741,-1.000000,-1.000000,-1.000000,-1.000000,0.999749,-1.000000,-1.000000,0.999753,-1.000000,-1.000000,0.999758,-1.000000,0.999761,-1.000000,-1.000000,0.999766,0.999767,0.999769,-1.000000,0.999772,0.999773,0.999775,-1.000000,-1.000000,0.999780,-1.000000,-1.000000,-1.000000,0.999786,-1.000000,0.999789,0.999790,-1.000000,-1.000000,0.999795,0.999797,-1.000000,0.999800,0.999801,-1.000000,0.999804,-1.000000,0.999807,-1.000000,0.999810,0.999812,-1.000000,0.999815,-1.000000,-1.000000,-1.000000,0.999821,-1.000000,0.999824,-1.000000,-1.000000,-1.000000,-1.000000,-1.000000,-1.000000,0.999835,0.999837,0.999838,-1.000000,0.999841,-1.000000,-1.000000,0.999846,0.999847,0.999849,-1.000000,-1.000000,-1.000000,-1.000000,0.999857,-1.000000,-1.000000,0.999861,0.999863,0.999864,-1.000000,-1.000000,-1.000000,-1.000000,0.999872,-1.000000,-1.000000,0.999877,-1.000000,-1.000000,-1.000000,-1.000000,0.999884,-1.000000,0.999888,0.999889,-1.000000,-1.000000,-1.000000,0.999895,-1.000000,0.999898,0.999900,-1.000000,-1.000000,-1.000000,-1.000000,-1.000000,-1.000000,-1.000000,0.999912,-1.000000,-1.000000,0.999917,-1.000000,0.999920,-1.000000,0.999923,-1.000000,-1.000000,-1.000000,0.999929,-1.000000,0.999932,-1.000000,0.999935,-1.000000,-1.000000,0.999940,-1.000000,0.999943,-1.000000,0.999946,-1.000000,-1.000000,0.999951,0.999952,0.999954,-1.000000,0.999957,-1.000000,0.999960,0.999961,0.999963,0.999965,0.999966,-1.000000,0.999969,-1.000000,-1.000000,-1.000000,-1.000000,0.999977,0.999978,0.999980,-1.000000,-1.000000,0.999985,-1.000000,-1.000000,0.999989,-1.000000,-1.000000,-1.000000,
-1.000000,0.999379,-1.000000,0.999382,0.999384,-1.000000,0.999387,0.999388,-1.000000,-1.000000,0.999393,-1.000000,-1.000000,-1.000000,-1.000000,0.999401,-1.000000,-1.000000,0.999405,-1.000000,0.999408,0.999410,-1.000000,-1.000000,-1.000000,0.999416,-1.000000,-1.000000,0.999421,0.999422,-1.000000,0.999425,0.999427,-1.000000,-1.000000,-1.000000,-1.000000,-1.000000,0.999436,-1.000000,0.999439,-1.000000,0.999442,-1.000000,-1.000000,0.999447,0.999448,0.999450,0.999452,0.999453,0.999455,0.999456,-1.000000,-1.000000,-1.000000,-1.000000,0.999464,-1.000000,-1.000000,-1.000000,-1.000000,-1.000000,0.999473,-1.000000,0.999476,-1.000000,-1.000000,0.999481,0.999482,-1.000000,0.999485,-1.000000,0.999488,-1.000000,-1.000000,0.999493,0.999495,-1.000000,-1.000000,0.999499,0.999501,0.999502,-1.000000,-1.000000,0.999507,-1.000000,-1.000000,-1.000000,0.999513,0.999515,-1.000000,0.999518,0.999519,-1.000000,-1.000000,-1.000000,-1.000000,0.999527,0.999529,-1.000000,0.999532,-1.000000,-1.000000,-1.000000,-1.000000,-1.000000,-1.000000,-1.000000,0.999544,-1.000000,0.999547,-1.000000,0.999550,-1.000000,-1.000000,-1.000000,-1.000000,0.999558,-1.000000,-1.000000,-1.000000,0.999564,-1.000000,0.999567,0.999569,-1.000000,-1.000000,0.999573,0.999575,0.999576,-1.000000,-1.000000,-1.000000,0.999582,-1.000000,-1.000000,0.999587,0.999589,-1.000000,-1.000000,-1.000000,-1.000000,-1.000000,0.999598,-1.000000,-1.000000,-1.000000,-1.000000,0.999606,-1.000000,-1.000000,-1.000000,-1.000000,0.999613,0.999615,-1.000000,-1.000000,-1.000000,0.999621,-1.000000,-1.000000,-1.000000,-1.000000,-1.000000,0.999630,-1.000000,-1.000000,-1.000000,0.999636,0.999638,0.999639,0.999641,-1.000000,-1.000000,-1.000000,0.999647,-1.000000,-1.000000,0.999652,-1.000000,0.999655,-1.000000,0.999658,-1.000000,0.999661,-1.000000,0.999664,-1.000000,0.999667,-1.000000,-1.000000,-1.000000,0.999673,-1.000000,-1.000000,-1.000000,-1.000000,-1.000000,-1.000000,-1.000000,0.999686,0.999687,0.999689,0.999690,-1.000000,-1.000000,0.999695,-1.000000,-1.000000,-1.000000,-1.000000,-1.000000,0.999704,0.999706,-1.000000,-1.000000,-1.000000,-1.000000,-1.000000,-1.000000,-1.000000,-1.000000,0.999720,0.999721,-1.000000,0.999724,0.999726,-1.000000,0.999729,-1.000000,-1.000000,-1.000000,0.999735,0.999737,-1.000000,0.999740,0.999741,-1.000000,-1.000000,-1.000000,-1.000000,0.999749,-1.000000,0.999752,0.999753,-1.000000,-1.000000,-1.000000,-1.000000,0.999761,-1.000000,-1.000000,0.999766,-1.000000,0.999769,-1.000000,-1.000000,0.999773,0.999775,-1.000000,-1.000000,0.999780,0.999781,-1.000000,-1.000000,0.999786,0.999787,-1.000000,0.999790,0.999792,0.999794,0.999795,0.999797,0.999798,0.999800,-1.000000,-1.000000,-1.000000,-1.000000,-1.000000,-1.000000,0.999810,-1.000000,0.999814,-1.000000,-1.000000,-1.000000,0.999820,-1.000000,0.999823,-1.000000,0.999826,0.999827,0.999829,0.999831,0.999832,0.999834,0.999835,-1.000000,-1.000000,-1.000000,-1.000000,0.999843,0.999844,-1.000000,-1.000000,0.999849,-1.000000,-1.000000,-1.000000,-1.000000,-1.000000,-1.000000,-1.000000,0.999861,0.999863,-1.000000,-1.000000,0.999867,0.999869,0.999871,-1.000000,-1.000000,-1.000000,0.999877,-1.000000,0.999880,-1.000000,-1.000000,0.999884,-1.000000,0.999888,-1.000000,0.999891,-1.000000,-1.000000,0.999895,0.999897,-1.000000,-1.000000,-1.000000,-1.000000,-1.000000,0.999906,-1.000000,-1.000000,0.999911,0.999912,0.999914,0.999915,-1.000000,-1.000000,0.999920,-1.000000,0.999923,-1.000000,0.999926,0.999928,0.999929,-1.000000,-1.000000,-1.000000,0.999935,-1.000000,-1.000000,-1.000000,0.999941,0.999943,0.999945,0.999946,0.999948,-1.000000,0.999951,-1.000000,-1.000000,0.999955,0.999957,0.999958,-1.000000,0.999961,-1.000000,-1.000000,0.999966,-1.000000,0.999969,0.999971,-1.000000,-1.000000,-1.000000,-1.000000,0.999978,0.999980,0.999982,0.999983,0.999985,0.999986,-1.000000,-1.000000,-1.000000,-1.000000,
-1.000000,0.999378,-1.000000,-1.000000,0.999382,0.999384,0.999385,0.999387,-1.000000,0.999390,-1.000000,0.999393,-1.000000,0.999396,-1.000000,0.999399,0.999401,-1.000000,-1.000000,-1.000000,-1.000000,0.999408,0.999410,0.999411,-1.000000,-1.000000,-1.000000,0.999418,-1.000000,-1.000000,0.999422,0.999424,0.999425,-1.000000,0.999428,-1.000000,-1.000000,-1.000000,0.999435,0.999436,-1.000000,0.999439,-1.000000,-1.000000,-1.000000,-1.000000,-1.000000,-1.000000,-1.000000,0.999452,-1.000000,-1.000000,0.999456,0.999458,0.999459,-1.000000,-1.000000,-1.000000,-1.000000,-1.000000,-1.000000,0.999470,-1.000000,0.999473,-1.000000,-1.000000,0.999478,-1.000000,-1.000000,-1.000000,-1.000000,-1.000000,0.999487,-1.000000,-1.000000,-1.000000,-1.000000,-1.000000,-1.000000,0.999498,-1.000000,-1.000000,0.999502,0.999504,-1.000000,-1.000000,-1.000000,-1.000000,-1.000000,0.999513,-1.000000,-1.000000,-1.000000,-1.000000,0.999521,0.999522,-1.000000,-1.000000,0.999527,-1.000000,0.999530,0.999532,0.999533,-1.000000,-1.000000,-1.000000,-1.000000,0.999541,-1.000000,0.999544,0.999545,-1.000000,-1.000000,-1.000000,0.999552,0.999553,-1.000000,-1.000000,0.999558,0.999559,0.999561,-1.000000,-1.000000,-1.000000,-1.000000,0.999569,0.999570,-1.000000,-1.000000,-1.000000,0.999576,0.999578,0.999579,-1.000000,-1.000000,0.999584,0.999586,-1.000000,0.999589,0.999590,0.999592,-1.000000,-1.000000,0.999596,-1.000000,0.999599,-1.000000,-1.000000,0.999604,-1.000000,-1.000000,-1.000000,-1.000000,-1.000000,-1.000000,-1.000000,-1.000000,-1.000000,-1.000000,-1.000000,-1.000000,-1.000000,0.999626,0.999627,0.999629,0.999630,-1.000000,-1.000000,0.999635,-1.000000,0.999638,-1.000000,-1.000000,0.999643,0.999644,0.999646,-1.000000,-1.000000,-1.000000,0.999652,-1.000000,0.999655,-1.000000,-1.000000,-1.000000,-1.000000,-1.000000,-1.000000,-1.000000,0.999667,0.999669,-1.000000,-1.000000,0.999673,0.999675,-1.000000,-1.000000,-1.000000,0.999681,-1.000000,-1.000000,0.999686,-1.000000,-1.000000,-1.000000,-1.000000,0.999693,-1.000000,0.999696,-1.000000,-1.000000,-1.000000,0.999703,-1.000000,-1.000000,0.999707,-1.000000,-1.000000,0.999712,-1.000000,-1.000000,0.999716,-1.000000,-1.000000,-1.000000,0.999723,-1.000000,0.999726,0.999727,-1.000000,0.999730,0.999732,0.999733,-1.000000,0.999737,-1.000000,0.999740,0.999741,-1.000000,-1.000000,0.999746,-1.000000,-1.000000,0.999750,-1.000000,-1.000000,0.999755,-1.000000,0.999758,-1.000000,-1.000000,0.999763,-1.000000,-1.000000,0.999767,-1.000000,-1.000000,-1.000000,0.999773,0.999775,-1.000000,-1.000000,-1.000000,-1.000000,-1.000000,-1.000000,-1.000000,0.999787,-1.000000,-1.000000,-1.000000,0.999794,-1.000000,0.999797,-1.000000,-1.000000,0.999801,0.999803,-1.000000,-1.000000,-1.000000,-1.000000,-1.000000,0.999812,-1.000000,-1.000000,-1.000000,-1.000000,0.999820,0.999821,0.999823,-1.000000,0.999826,-1.000000,-1.000000,-1.000000,-1.000000,0.999834,0.999835,-1.000000,0.999838,0.999840,0.999841,-1.000000,-1.000000,-1.000000,0.999847,-1.000000,0.999851,0.999852,-1.000000,0.999855,-1.000000,-1.000000,0.999860,-1.000000,0.999863,0.999864,-1.000000,-1.000000,-1.000000,0.999871,-1.000000,-1.000000,0.999875,-1.000000,-1.000000,-1.000000,0.999881,0.999883,-1.000000,-1.000000,0.999888,0.999889,0.999891,0.999892,0.999894,-1.000000,0.999897,-1.000000,0.999900,0.999901,0.999903,-1.000000,-1.000000,-1.000000,0.999909,-1.000000,0.999912,-1.000000,-1.000000,0.999917,-1.000000,0.999920,0.999921,-1.000000,0.999924,0.999926,-1.000000,-1.000000,-1.000000,-1.000000,0.999934,0.999935,-1.000000,-1.000000,-1.000000,0.999941,0.999943,0.999945,-1.000000,-1.000000,0.999949,0.999951,-1.000000,-1.000000,0.999955,-1.000000,-1.000000,-1.000000,-1.000000,0.999963,-1.000000,-1.000000,-1.000000,-1.000000,-1.000000,-1.000000,-1.000000,-1.000000,-1.000000,0.999978,0.999980,0.999982,-1.000000,-1.000000,-1.000000,-1.000000,0.999989,-1.000000,
0.999375,0.999376,-1.000000,-1.000000,-1.000000,-1.000000,-1.000000,-1.000000,-1.000000,-1.000000,-1.000000,0.999391,0.817884,-1.000000,-1.000000,-1.000000,-1.000000,-1.000000,-1.000000,0.840528,-1.000000,-1.000000,-1.000000,-1.000000,-1.000000,-1.000000,-1.000000,0.704243,-1.000000,-1.000000,0.601259,-1.000000,0.851852,0.885723,0.999427,-1.000000,-1.000000,-1.000000,0.885730,-1.000000,0.462920,-1.000000,-1.000000,-1.000000,-1.000000,0.601275,-1.000000,-1.000000,-1.000000,-1.000000,-1.000000,-1.000000,-1.000000,-1.000000,-1.000000,-1.000000,-1.000000,-1.000000,-1.000000,0.532261,-1.000000,0.428165,0.788190,0.428166,-1.000000,-1.000000,0.999476,0.311714,-1.000000,0.099972,-1.000000,0.826453,-1.000000,-1.000000,-1.000000,0.999490,-1.000000,-1.000000,-1.000000,0.497655,0.704305,-1.000000,0.999501,-1.000000,-1.000000,0.135463,-1.000000,-1.000000,0.428188,-1.000000,-1.000000,0.179712,-1.000000,0.635730,-1.000000,0.241457,0.566850,0.919613,-1.000000,0.999527,-1.000000,-1.000000,-1.000000,0.908362,-1.000000,-1.000000,-1.000000,-1.000000,-1.000000,-1.000000,-1.000000,0.540957,0.099996,-1.000000,-1.000000,0.818018,0.497690,0.532318,-1.000000,-1.000000,-1.000000,0.851972,0.999562,-1.000000,-1.000000,-1.000000,0.658663,-1.000000,0.999572,-1.000000,0.999575,-1.000000,-1.000000,-1.000000,-1.000000,-1.000000,0.601370,-1.000000,-1.000000,-1.000000,0.311769,-1.000000,0.919677,-1.000000,-1.000000,-1.000000,0.970174,-1.000000,0.999602,0.874600,-1.000000,-1.000000,0.520817,-1.000000,-1.000000,0.784052,-1.000000,-1.000000,0.822322,-1.000000,0.135508,0.497732,-1.000000,0.463031,0.818082,-1.000000,-1.000000,-1.000000,-1.000000,0.311791,-1.000000,0.346820,0.532372,-1.000000,0.999643,-1.000000,-1.000000,-1.000000,0.999649,-1.000000,-1.000000,-1.000000,-1.000000,-1.000000,-1.000000,0.919739,-1.000000,-1.000000,-1.000000,-1.000000,-1.000000,-1.000000,0.497761,-1.000000,-1.000000,-1.000000,-1.000000,-1.000000,-1.000000,0.727245,0.999683,-1.000000,0.999686,-1.000000,-1.000000,0.463069,-1.000000,0.416681,0.750025,-1.000000,0.999698,0.738648,-1.000000,0.311824,-1.000000,-1.000000,-1.000000,-1.000000,-1.000000,-1.000000,-1.000000,0.999715,0.670207,-1.000000,-1.000000,-1.000000,0.999723,-1.000000,0.428309,-1.000000,0.724434,-1.000000,-1.000000,0.170961,-1.000000,-1.000000,-1.000000,0.381827,-1.000000,0.784158,0.566996,-1.000000,-1.000000,0.566999,-1.000000,0.100071,-1.000000,-1.000000,0.919829,-1.000000,0.999760,-1.000000,-1.000000,-1.000000,-1.000000,-1.000000,0.635908,0.346888,0.999772,-1.000000,-1.000000,-1.000000,0.311861,-1.000000,0.852164,0.886045,-1.000000,0.784193,0.135572,-1.000000,-1.000000,-1.000000,-1.000000,-1.000000,0.999797,-1.000000,0.999800,0.206324,0.919872,-1.000000,-1.000000,-1.000000,-1.000000,-1.000000,0.206328,-1.000000,-1.000000,-1.000000,-1.000000,-1.000000,0.999821,-1.000000,-1.000000,-1.000000,0.463149,-1.000000,0.497859,-1.000000,0.999834,-1.000000,-1.000000,-1.000000,-1.000000,-1.000000,-1.000000,0.886101,-1.000000,-1.000000,-1.000000,-1.000000,0.215167,-1.000000,-1.000000,0.635970,-1.000000,0.999860,-1.000000,-1.000000,-1.000000,-1.000000,0.840930,0.532517,-1.000000,-1.000000,0.590080,0.999875,-1.000000,-1.000000,-1.000000,0.987354,-1.000000,-1.000000,-1.000000,-1.000000,0.532529,-1.000000,-1.000000,0.206363,-1.000000,-1.000000,-1.000000,0.784287,-1.000000,-1.000000,-1.000000,-1.000000,-1.000000,-1.000000,-1.000000,-1.000000,-1.000000,-1.000000,-1.000000,-1.000000,-1.000000,-1.000000,-1.000000,-1.000000,0.919987,0.428423,-1.000000,-1.000000,-1.000000,0.601609,-1.000000,-1.000000,0.953740,-1.000000,-1.000000,-1.000000,-1.000000,0.920006,0.397936,0.772968,-1.000000,-1.000000,0.999954,0.485153,-1.000000,-1.000000,0.920019,0.135639,-1.000000,0.953765,0.567141,-1.000000,-1.000000,0.953771,-1.000000,-1.000000,-1.000000,-1.000000,0.818380,0.750251,0.999982,-1.000000,0.999985,-1.000000,-1.000000,-1.000000,
0.999373,-1.000000,-1.000000,-1.000000,-1.000000,-1.000000,-1.000000,0.999384,-1.000000,-1.000000,-1.000000,-1.000000,-1.000000,-1.000000,-1.000000,-1.000000,-1.000000,-1.000000,0.999401,-1.000000,-1.000000,-1.000000,-1.000000,0.999408,0.999410,0.999411,-1.000000,-1.000000,0.999416,-1.000000,0.999419,-1.000000,0.999422,0.999424,-1.000000,-1.000000,0.999428,0.999430,-1.000000,-1.000000,-1.000000,-1.000000,-1.000000,0.999439,0.999441,-1.000000,0.999444,0.999445,0.999447,-1.000000,-1.000000,0.999452,-1.000000,-1.000000,0.999456,-1.000000,-1.000000,-1.000000,-1.000000,0.999464,0.999465,-1.000000,0.999468,-1.000000,0.999472,0.999473,0.999475,0.999476,0.999478,-1.000000,0.999481,0.999482,0.999484,-1.000000,-1.000000,-1.000000,0.999490,0.999492,0.999493,-1.000000,-1.000000,-1.000000,0.999499,-1.000000,-1.000000,-1.000000,-1.000000,0.999507,0.999509,-1.000000,-1.000000,0.999513,-1.000000,-1.000000,0.999518,0.999519,-1.000000,-1.000000,-1.000000,0.999525,0.999527,-1.000000,-1.000000,-1.000000,-1.000000,-1.000000,-1.000000,-1.000000,-1.000000,0.999541,-1.000000,-1.000000,-1.000000,-1.000000,-1.000000,0.999550,0.999552,0.999553,-1.000000,0.999556,0.999558,0.999559,-1.000000,0.999562,0.999564,-1.000000,-1.000000,0.999569,0.999570,-1.000000,-1.000000,0.999575,-1.000000,0.999578,-1.000000,-1.000000,-1.000000,-1.000000,0.999586,0.999587,-1.000000,-1.000000,0.999592,-1.000000,-1.000000,-1.000000,-1.000000,-1.000000,-1.000000,0.999602,-1.000000,-1.000000,-1.000000,-1.000000,-1.000000,-1.000000,-1.000000,-1.000000,-1.000000,-1.000000,-1.000000,-1.000000,0.999623,-1.000000,-1.000000,0.999627,0.999629,-1.000000,0.999632,-1.000000,0.999635,-1.000000,-1.000000,-1.000000,-1.000000,0.999643,0.999644,0.999646,-1.000000,-1.000000,-1.000000,-1.000000,0.999653,0.999655,-1.000000,0.999658,-1.000000,-1.000000,-1.000000,-1.000000,-1.000000,-1.000000,-1.000000,0.999670,0.999672,0.999673,0.999675,-1.000000,0.999678,-1.000000,0.999681,0.999683,-1.000000,0.999686,0.999687,-1.000000,-1.000000,-1.000000,-1.000000,0.999695,0.999696,0.999698,-1.000000,0.999701,0.999703,-1.000000,-1.000000,-1.000000,0.999709,-1.000000,-1.000000,-1.000000,-1.000000,-1.000000,0.999718,0.999720,-1.000000,0.999723,0.999724,-1.000000,0.999727,-1.000000,0.999730,-1.000000,-1.000000,0.999735,0.999737,-1.000000,0.999740,-1.000000,0.999743,-1.000000,0.999746,-1.000000,-1.000000,-1.000000,-1.000000,0.999753,0.999755,-1.000000,0.999758,-1.000000,-1.000000,0.999763,0.999764,0.999766,0.999767,-1.000000,-1.000000,-1.000000,-1.000000,-1.000000,-1.000000,-1.000000,0.999780,-1.000000,-1.000000,-1.000000,-1.000000,-1.000000,-1.000000,0.999790,-1.000000,-1.000000,0.999795,-1.000000,-1.000000,-1.000000,-1.000000,-1.000000,-1.000000,-1.000000,-1.000000,-1.000000,0.999810,-1.000000,-1.000000,-1.000000,-1.000000,0.999818,-1.000000,-1.000000,-1.000000,0.999824,-1.000000,-1.000000,0.999829,0.999831,-1.000000,-1.000000,0.999835,-1.000000,-1.000000,-1.000000,0.999841,0.999843,-1.000000,-1.000000,0.999847,-1.000000,0.999851,0.999852,-1.000000,0.999855,-1.000000,-1.000000,0.999860,0.999861,0.999863,0.999864,-1.000000,-1.000000,-1.000000,-1.000000,0.999872,-1.000000,-1.000000,-1.000000,-1.000000,-1.000000,0.999881,-1.000000,-1.000000,-1.000000,-1.000000,-1.000000,0.999891,-1.000000,0.999894,0.999895,-1.000000,-1.000000,-1.000000,-1.000000,-1.000000,-1.000000,-1.000000,0.999908,-1.000000,-1.000000,0.999912,-1.000000,-1.000000,0.999917,-1.000000,-1.000000,-1.000000,-1.000000,-1.000000,0.999926,-1.000000,0.999929,0.999931,-1.000000,-1.000000,-1.000000,-1.000000,0.999938,-1.000000,-1.000000,-1.000000,-1.000000,-1.000000,-1.000000,0.999949,-1.000000,0.999952,0.999954,0.999955,-1.000000,-1.000000,-1.000000,-1.000000,-1.000000,-1.000000,-1.000000,-1.000000,-1.000000,-1.000000,-1.000000,-1.000000,-1.000000,-1.000000,0.999978,-1.000000,-1.000000,-1.000000,0.999985,0.999986,-1.000000,
-1.000000,0.999373,-1.000000,0.999376,-1.000000,0.999379,0.999381,-1.000000,-1.000000,0.969965,-1.000000,-1.000000,0.999390,0.999391,0.999393,0.999395,0.999396,0.999398,-1.000000,0.999401,0.588893,-1.000000,-1.000000,-1.000000,-1.000000,-1.000000,-1.000000,0.999413,-1.000000,-1.000000,0.999418,-1.000000,0.999421,-1.000000,-1.000000,0.999425,-1.000000,-1.000000,-1.000000,-1.000000,-1.000000,-1.000000,0.999436,0.999438,-1.000000,0.999441,-1.000000,0.999444,-1.000000,-1.000000,0.999448,0.999450,-1.000000,0.999453,0.999455,-1.000000,-1.000000,-1.000000,-1.000000,0.999462,0.999464,0.999465,-1.000000,-1.000000,-1.000000,-1.000000,-1.000000,-1.000000,-1.000000,-1.000000,0.999479,-1.000000,0.999482,-1.000000,0.999485,-1.000000,0.999488,0.999490,-1.000000,0.999493,0.999495,-1.000000,-1.000000,0.999499,-1.000000,0.999502,-1.000000,-1.000000,-1.000000,-1.000000,-1.000000,0.999512,0.999513,-1.000000,-1.000000,0.999518,-1.000000,0.999521,-1.000000,-1.000000,-1.000000,0.999527,-1.000000,-1.000000,-1.000000,-1.000000,-1.000000,-1.000000,0.999538,-1.000000,0.999541,-1.000000,0.999544,-1.000000,-1.000000,0.999549,0.999550,-1.000000,-1.000000,-1.000000,-1.000000,-1.000000,-1.000000,0.999561,-1.000000,-1.000000,-1.000000,-1.000000,0.999569,-1.000000,-1.000000,0.999573,0.999575,0.999576,-1.000000,-1.000000,0.999581,-1.000000,-1.000000,-1.000000,-1.000000,0.999589,0.999590,0.999592,0.999593,0.999595,0.999596,-1.000000,-1.000000,-1.000000,0.999602,-1.000000,-1.000000,0.999607,0.999609,0.999610,0.999612,0.999613,-1.000000,-1.000000,0.999618,-1.000000,-1.000000,0.999623,0.999624,-1.000000,0.999627,-1.000000,0.999630,-1.000000,0.999633,0.999635,-1.000000,-1.000000,0.999639,0.999641,-1.000000,0.999644,-1.000000,-1.000000,-1.000000,0.999650,-1.000000,0.999653,0.999655,0.999656,-1.000000,-1.000000,-1.000000,0.999663,0.999664,-1.000000,0.999667,0.999669,0.999670,-1.000000,-1.000000,0.999675,-1.000000,-1.000000,-1.000000,-1.000000,-1.000000,-1.000000,-1.000000,-1.000000,-1.000000,-1.000000,-1.000000,-1.000000,-1.000000,-1.000000,-1.000000,-1.000000,-1.000000,0.999703,-1.000000,-1.000000,-1.000000,0.999709,-1.000000,0.999712,-1.000000,-1.000000,-1.000000,0.999718,0.999720,-1.000000,-1.000000,0.999724,0.999726,-1.000000,0.999729,0.999730,-1.000000,-1.000000,0.999735,-1.000000,0.999738,-1.000000,-1.000000,-1.000000,-1.000000,-1.000000,0.999747,-1.000000,-1.000000,-1.000000,0.999753,-1.000000,-1.000000,-1.000000,0.999760,0.999761,-1.000000,-1.000000,0.999766,-1.000000,-1.000000,0.999770,-1.000000,-1.000000,-1.000000,0.999777,0.999778,0.999780,-1.000000,-1.000000,-1.000000,-1.000000,-1.000000,0.999789,0.999790,0.999792,-1.000000,0.999795,-1.000000,-1.000000,-1.000000,0.999801,-1.000000,-1.000000,-1.000000,0.999807,0.999809,-1.000000,-1.000000,-1.000000,-1.000000,-1.000000,0.999818,0.999820,0.999821,-1.000000,-1.000000,-1.000000,0.999827,-1.000000,0.999831,-1.000000,-1.000000,-1.000000,-1.000000,-1.000000,0.999840,-1.000000,-1.000000,0.999844,-1.000000,-1.000000,0.999849,0.999851,0.999852,-1.000000,0.999855,0.999857,0.999858,-1.000000,-1.000000,-1.000000,0.999864,0.999866,-1.000000,0.999869,0.999871,0.999872,0.999874,-1.000000,0.999877,-1.000000,-1.000000,-1.000000,-1.000000,-1.000000,0.999886,-1.000000,-1.000000,-1.000000,0.999892,0.999894,0.999895,0.999897,0.999898,-1.000000,-1.000000,-1.000000,-1.000000,-1.000000,-1.000000,0.999909,-1.000000,0.999912,-1.000000,-1.000000,-1.000000,0.999918,0.999920,-1.000000,-1.000000,-1.000000,0.999926,-1.000000,-1.000000,0.999931,-1.000000,0.999934,0.999935,-1.000000,-1.000000,0.999940,-1.000000,0.999943,-1.000000,0.999946,-1.000000,-1.000000,0.999951,-1.000000,0.999954,0.999955,0.999957,0.999958,-1.000000,-1.000000,0.999963,0.999965,-1.000000,-1.000000,-1.000000,0.999971,-1.000000,-1.000000,-1.000000,0.999977,0.999978,-1.000000,0.999982,0.999983,-1.000000,0.999986,
-1.000000,-1.000000,0.343454,-1.000000,0.999376,-1.000000,-1.000000,-1.000000,-1.000000,-1.000000,0.783865,-1.000000,-1.000000,-1.000000,-1.000000,0.206150,0.601241,-1.000000,-1.000000,-1.000000,-1.000000,0.601247,0.885703,-1.000000,0.601250,0.999408,-1.000000,-1.000000,-1.000000,-1.000000,-1.000000,-1.000000,-1.000000,0.206162,0.532234,0.669993,-1.000000,0.817913,-1.000000,0.851857,-1.000000,-1.000000,-1.000000,-1.000000,0.999438,0.670004,-1.000000,-1.000000,-1.000000,-1.000000,0.999447,-1.000000,0.999450,-1.000000,-1.000000,-1.000000,0.851880,-1.000000,-1.000000,0.817941,-1.000000,0.245833,-1.000000,-1.000000,-1.000000,0.817949,-1.000000,-1.000000,0.999475,0.783939,0.532269,-1.000000,0.241440,-1.000000,0.999484,0.999485,-1.000000,-1.000000,-1.000000,-1.000000,-1.000000,0.566832,-1.000000,-1.000000,0.999499,-1.000000,-1.000000,-1.000000,-1.000000,0.999507,-1.000000,-1.000000,-1.000000,-1.000000,-1.000000,-1.000000,-1.000000,-1.000000,-1.000000,-1.000000,-1.000000,-1.000000,-1.000000,0.241340,-1.000000,-1.000000,-1.000000,0.670074,-1.000000,-1.000000,-1.000000,-1.000000,0.919630,-1.000000,-1.000000,-1.000000,-1.000000,-1.000000,0.635754,-1.000000,-1.000000,-1.000000,-1.000000,-1.000000,0.999561,-1.000000,0.381734,-1.000000,-1.000000,0.462997,-1.000000,-1.000000,-1.000000,-1.000000,0.704364,-1.000000,0.670107,-1.000000,0.999582,0.635777,-1.000000,0.704373,-1.000000,0.784033,0.784034,-1.000000,-1.000000,-1.000000,-1.000000,0.999599,-1.000000,-1.000000,0.999604,-1.000000,-1.000000,-1.000000,-1.000000,-1.000000,-1.000000,-1.000000,0.987092,-1.000000,-1.000000,-1.000000,-1.000000,0.885902,-1.000000,0.852030,0.428255,-1.000000,-1.000000,0.463035,0.999635,-1.000000,-1.000000,-1.000000,0.999641,-1.000000,-1.000000,0.818098,-1.000000,-1.000000,0.497749,0.135520,-1.000000,0.635827,0.428270,-1.000000,0.999659,0.818111,0.885937,0.772737,-1.000000,0.601427,-1.000000,-1.000000,-1.000000,-1.000000,0.953487,-1.000000,-1.000000,-1.000000,-1.000000,-1.000000,-1.000000,0.885958,-1.000000,-1.000000,-1.000000,0.852086,0.566962,-1.000000,-1.000000,-1.000000,-1.000000,-1.000000,0.987177,-1.000000,-1.000000,0.704464,0.999709,-1.000000,-1.000000,0.999713,-1.000000,-1.000000,-1.000000,-1.000000,-1.000000,-1.000000,-1.000000,-1.000000,-1.000000,-1.000000,0.589984,-1.000000,-1.000000,-1.000000,-1.000000,-1.000000,0.463097,0.276737,-1.000000,-1.000000,-1.000000,-1.000000,0.497809,0.738688,-1.000000,-1.000000,-1.000000,-1.000000,-1.000000,-1.000000,0.428329,0.852148,-1.000000,-1.000000,-1.000000,-1.000000,0.999770,0.784182,-1.000000,-1.000000,-1.000000,-1.000000,-1.000000,0.999781,-1.000000,-1.000000,0.999786,0.953595,0.428345,-1.000000,-1.000000,0.999794,-1.000000,0.953604,-1.000000,0.999800,0.532474,-1.000000,-1.000000,0.784209,-1.000000,0.238370,0.567039,-1.000000,-1.000000,-1.000000,-1.000000,-1.000000,-1.000000,-1.000000,0.886082,0.784225,-1.000000,0.750130,0.428367,-1.000000,-1.000000,-1.000000,-1.000000,-1.000000,0.463155,-1.000000,-1.000000,-1.000000,-1.000000,-1.000000,0.852222,-1.000000,-1.000000,0.567066,0.750151,-1.000000,-1.000000,0.463167,-1.000000,-1.000000,-1.000000,-1.000000,-1.000000,0.206352,0.999869,-1.000000,-1.000000,-1.000000,0.886129,0.987349,-1.000000,0.852251,-1.000000,0.670329,-1.000000,0.704599,-1.000000,-1.000000,0.463186,-1.000000,-1.000000,0.100124,-1.000000,-1.000000,-1.000000,-1.000000,-1.000000,-1.000000,0.999906,-1.000000,0.999909,0.999911,0.840968,-1.000000,0.276818,-1.000000,-1.000000,0.636014,0.987393,-1.000000,-1.000000,-1.000000,-1.000000,0.567117,0.999931,-1.000000,-1.000000,0.919996,-1.000000,0.886186,-1.000000,-1.000000,-1.000000,-1.000000,-1.000000,-1.000000,0.999949,-1.000000,-1.000000,-1.000000,-1.000000,-1.000000,-1.000000,0.852321,-1.000000,-1.000000,-1.000000,-1.000000,-1.000000,-1.000000,0.818373,-1.000000,-1.000000,0.171059,-1.000000,0.818380,0.999980,-1.000000,0.463240,0.841031,
-1.000000,-1.000000,0.999371,0.999373,-1.000000,0.999376,0.999378,0.999379,0.999381,-1.000000,0.999384,-1.000000,-1.000000,-1.000000,-1.000000,-1.000000,-1.000000,0.999395,0.999396,-1.000000,-1.000000,-1.000000,-1.000000,0.999404,0.999405,0.999407,-1.000000,-1.000000,-1.000000,-1.000000,-1.000000,0.999416,0.999418,0.999419,-1.000000,-1.000000,0.999424,0.999425,-1.000000,-1.000000,-1.000000,-1.000000,-1.000000,0.999435,0.999436,0.999438,-1.000000,-1.000000,-1.000000,0.999444,-1.000000,0.999447,0.999448,-1.000000,-1.000000,0.999453,-1.000000,-1.000000,0.999458,0.999459,-1.000000,-1.000000,-1.000000,-1.000000,-1.000000,-1.000000,0.999470,-1.000000,-1.000000,0.999475,0.999476,0.999478,-1.000000,-1.000000,0.999482,-1.000000,-1.000000,-1.000000,-1.000000,0.999490,-1.000000,0.999493,-1.000000,0.999496,0.999498,-1.000000,-1.000000,-1.000000,-1.000000,0.999505,-1.000000,-1.000000,0.999510,0.999512,0.999513,0.999515,0.999516,0.999518,0.999519,0.999521,-1.000000,-1.000000,-1.000000,0.999527,-1.000000,-1.000000,-1.000000,0.999533,-1.000000,-1.000000,-1.000000,-1.000000,-1.000000,0.999542,0.999544,-1.000000,-1.000000,-1.000000,0.999550,-1.000000,0.999553,-1.000000,-1.000000,-1.000000,0.999559,-1.000000,-1.000000,-1.000000,0.999566,-1.000000,-1.000000,0.999570,0.999572,-1.000000,-1.000000,0.999576,-1.000000,-1.000000,-1.000000,-1.000000,0.999584,-1.000000,-1.000000,-1.000000,-1.000000,0.999592,0.999593,-1.000000,0.999596,-1.000000,-1.000000,-1.000000,-1.000000,0.999604,-1.000000,-1.000000,0.999609,-1.000000,-1.000000,-1.000000,0.999615,-1.000000,-1.000000,-1.000000,0.999621,0.999623,-1.000000,-1.000000,-1.000000,-1.000000,-1.000000,-1.000000,0.999633,0.999635,-1.000000,0.999638,-1.000000,-1.000000,0.999643,-1.000000,0.999646,-1.000000,-1.000000,-1.000000,-1.000000,0.999653,-1.000000,0.999656,-1.000000,0.999659,-1.000000,0.999663,0.999664,-1.000000,-1.000000,-1.000000,0.999670,0.999672,0.999673,-1.000000,0.999676,-1.000000,0.999680,0.999681,0.999683,-1.000000,-1.000000,-1.000000,-1.000000,0.999690,0.999692,0.999693,-1.000000,-1.000000,0.999698,-1.000000,0.999701,-1.000000,-1.000000,-1.000000,0.999707,-1.000000,-1.000000,-1.000000,-1.000000,-1.000000,-1.000000,-1.000000,0.999720,-1.000000,-1.000000,0.999724,-1.000000,-1.000000,-1.000000,0.999730,-1.000000,-1.000000,-1.000000,-1.000000,-1.000000,-1.000000,-1.000000,-1.000000,0.999744,-1.000000,0.999747,-1.000000,-1.000000,-1.000000,-1.000000,-1.000000,0.999757,-1.000000,0.999760,-1.000000,-1.000000,-1.000000,-1.000000,-1.000000,-1.000000,-1.000000,0.999772,-1.000000,-1.000000,0.999777,-1.000000,0.999780,-1.000000,0.999783,0.999784,0.999786,0.999787,-1.000000,-1.000000,-1.000000,-1.000000,0.999795,-1.000000,-1.000000,-1.000000,0.999801,-1.000000,-1.000000,-1.000000,-1.000000,-1.000000,-1.000000,-1.000000,0.999814,-1.000000,0.999817,0.999818,0.999820,0.999821,0.999823,0.999824,-1.000000,-1.000000,-1.000000,0.999831,0.999832,-1.000000,0.999835,0.999837,-1.000000,-1.000000,0.999841,-1.000000,-1.000000,0.999846,0.999847,0.999849,-1.000000,0.999852,-1.000000,-1.000000,0.999857,0.999858,-1.000000,-1.000000,-1.000000,-1.000000,-1.000000,-1.000000,-1.000000,0.999871,-1.000000,-1.000000,0.999875,0.999877,0.999878,-1.000000,0.999881,-1.000000,0.999884,-1.000000,-1.000000,-1.000000,0.999891,-1.000000,-1.000000,0.999895,-1.000000,-1.000000,-1.000000,-1.000000,-1.000000,-1.000000,0.999906,-1.000000,-1.000000,-1.000000,-1.000000,-1.000000,-1.000000,0.999917,0.999918,-1.000000,-1.000000,-1.000000,-1.000000,0.999926,-1.000000,-1.000000,-1.000000,-1.000000,0.999934,-1.000000,0.999937,-1.000000,-1.000000,0.999941,0.999943,-1.000000,-1.000000,0.999948,-1.000000,-1.000000,-1.000000,0.999954,0.999955,-1.000000,-1.000000,-1.000000,0.999961,-1.000000,-1.000000,-1.000000,0.999968,-1.000000,-1.000000,-1.000000,-1.000000,-1.000000,-1.000000,-1.000000,-1.000000,-1.000000,-1.000000,
-1.000000,-1.000000,-1.000000,0.817866,0.532203,0.532204,-1.000000,-1.000000,0.999379,-1.000000,-1.000000,-1.000000,0.919484,-1.000000,0.772513,-1.000000,-1.000000,0.601240,-1.000000,-1.000000,-1.000000,-1.000000,-1.000000,-1.000000,-1.000000,0.999405,0.727032,-1.000000,-1.000000,-1.000000,-1.000000,0.809406,-1.000000,-1.000000,0.635661,0.486032,0.566784,0.276589,-1.000000,0.738434,0.999428,-1.000000,-1.000000,-1.000000,-1.000000,-1.000000,-1.000000,-1.000000,-1.000000,0.772557,-1.000000,0.854696,-1.000000,-1.000000,0.889974,-1.000000,0.999453,-1.000000,-1.000000,0.170850,-1.000000,-1.000000,-1.000000,0.566811,-1.000000,0.940568,-1.000000,0.206183,-1.000000,-1.000000,-1.000000,-1.000000,-1.000000,-1.000000,-1.000000,0.999482,-1.000000,0.840599,0.486091,-1.000000,-1.000000,-1.000000,-1.000000,-1.000000,-1.000000,0.644306,0.826467,-1.000000,0.999502,0.635720,0.342379,-1.000000,-1.000000,0.532290,-1.000000,0.276631,0.999515,-1.000000,-1.000000,0.986996,-1.000000,-1.000000,-1.000000,-1.000000,-1.000000,-1.000000,0.970106,-1.000000,0.785405,0.113307,0.685786,-1.000000,0.999539,0.545275,-1.000000,-1.000000,-1.000000,0.851959,-1.000000,-1.000000,-1.000000,0.566870,-1.000000,0.999556,0.555364,-1.000000,-1.000000,-1.000000,-1.000000,-1.000000,0.919573,-1.000000,-1.000000,-1.000000,0.441274,-1.000000,0.999576,-1.000000,-1.000000,-1.000000,0.991261,0.601370,-1.000000,0.806717,-1.000000,-1.000000,0.605681,0.674403,-1.000000,0.999596,0.999598,-1.000000,-1.000000,-1.000000,-1.000000,0.609994,-1.000000,-1.000000,0.601388,-1.000000,0.999613,-1.000000,-1.000000,0.428249,-1.000000,-1.000000,-1.000000,0.281074,-1.000000,-1.000000,-1.000000,-1.000000,0.311789,-1.000000,0.966080,-1.000000,-1.000000,0.486183,0.999641,-1.000000,-1.000000,-1.000000,0.170926,-1.000000,-1.000000,0.720101,0.890158,0.276697,-1.000000,-1.000000,-1.000000,0.885936,-1.000000,-1.000000,0.785513,0.215088,-1.000000,0.754271,-1.000000,0.999673,-1.000000,-1.000000,-1.000000,0.532397,-1.000000,0.999683,0.241530,-1.000000,-1.000000,-1.000000,-1.000000,-1.000000,0.346849,0.999695,0.751448,0.999698,0.999700,0.281111,0.416687,-1.000000,0.241540,-1.000000,0.601455,-1.000000,0.999712,-1.000000,0.999715,0.999716,-1.000000,0.999720,0.999721,-1.000000,-1.000000,0.970297,0.819583,-1.000000,-1.000000,-1.000000,-1.000000,-1.000000,-1.000000,-1.000000,0.635887,-1.000000,-1.000000,-1.000000,-1.000000,-1.000000,-1.000000,0.999750,-1.000000,-1.000000,0.995634,-1.000000,-1.000000,-1.000000,-1.000000,0.886027,-1.000000,-1.000000,-1.000000,0.999769,-1.000000,-1.000000,-1.000000,-1.000000,-1.000000,0.635914,-1.000000,-1.000000,-1.000000,-1.000000,-1.000000,-1.000000,0.942359,-1.000000,-1.000000,0.587384,0.806891,0.840868,-1.000000,0.497840,-1.000000,0.999803,0.567035,0.942375,-1.000000,0.999809,-1.000000,-1.000000,-1.000000,-1.000000,-1.000000,0.788477,-1.000000,-1.000000,0.999823,-1.000000,0.999826,0.999827,0.999829,-1.000000,0.999832,-1.000000,-1.000000,0.567056,-1.000000,-1.000000,-1.000000,0.345467,-1.000000,-1.000000,-1.000000,-1.000000,-1.000000,0.567066,-1.000000,-1.000000,0.497874,0.919924,-1.000000,0.874830,-1.000000,-1.000000,-1.000000,-1.000000,-1.000000,-1.000000,0.999872,-1.000000,0.762963,-1.000000,-1.000000,0.601572,-1.000000,-1.000000,-1.000000,-1.000000,-1.000000,-1.000000,0.506561,-1.000000,-1.000000,-1.000000,-1.000000,-1.000000,0.738805,0.999901,-1.000000,-1.000000,0.999906,0.910115,-1.000000,-1.000000,-1.000000,-1.000000,-1.000000,0.784300,-1.000000,-1.000000,-1.000000,-1.000000,-1.000000,-1.000000,0.999928,-1.000000,-1.000000,-1.000000,-1.000000,-1.000000,-1.000000,0.811263,-1.000000,0.852304,0.670373,0.999945,-1.000000,-1.000000,-1.000000,0.590132,-1.000000,0.987425,-1.000000,-1.000000,0.999958,0.601627,0.451640,-1.000000,0.484932,0.792855,0.826867,0.351363,-1.000000,0.886216,0.532583,0.999975,-1.000000,0.999978,-1.000000,-1.000000,
-1.000000,-1.000000,0.749766,-1.000000,-1.000000,-1.000000,-1.000000,-1.000000,0.999378,0.999379,0.999381,-1.000000,-1.000000,-1.000000,-1.000000,-1.000000,-1.000000,0.999391,-1.000000,0.874413,-1.000000,0.132959,-1.000000,-1.000000,-1.000000,0.999404,-1.000000,-1.000000,-1.000000,0.999410,-1.000000,-1.000000,-1.000000,-1.000000,0.999418,0.999419,0.999421,0.999422,-1.000000,-1.000000,-1.000000,-1.000000,-1.000000,-1.000000,-1.000000,0.999435,0.999436,-1.000000,-1.000000,0.999441,0.999442,0.999444,-1.000000,0.999447,-1.000000,-1.000000,-1.000000,-1.000000,-1.000000,-1.000000,0.749837,-1.000000,-1.000000,0.999462,0.999464,0.999465,-1.000000,0.999468,-1.000000,-1.000000,0.999473,-1.000000,0.999476,-1.000000,-1.000000,-1.000000,0.999482,-1.000000,-1.000000,-1.000000,0.635710,-1.000000,0.999492,-1.000000,-1.000000,-1.000000,-1.000000,-1.000000,-1.000000,0.999502,0.999504,0.999505,-1.000000,0.999509,-1.000000,-1.000000,-1.000000,0.999515,0.999516,-1.000000,0.999519,-1.000000,0.999522,-1.000000,-1.000000,-1.000000,0.999529,-1.000000,-1.000000,-1.000000,-1.000000,0.999536,-1.000000,-1.000000,0.999541,-1.000000,-1.000000,-1.000000,-1.000000,-1.000000,0.241470,-1.000000,0.772647,-1.000000,-1.000000,0.999558,-1.000000,-1.000000,-1.000000,-1.000000,-1.000000,-1.000000,0.999569,-1.000000,-1.000000,-1.000000,-1.000000,-1.000000,-1.000000,0.999579,-1.000000,-1.000000,-1.000000,-1.000000,-1.000000,-1.000000,0.999590,-1.000000,-1.000000,-1.000000,-1.000000,-1.000000,0.999599,-1.000000,-1.000000,0.999604,-1.000000,-1.000000,-1.000000,-1.000000,-1.000000,-1.000000,-1.000000,-1.000000,0.999618,0.999619,-1.000000,-1.000000,0.999624,-1.000000,0.999627,-1.000000,-1.000000,-1.000000,-1.000000,-1.000000,-1.000000,0.999638,0.999639,-1.000000,-1.000000,-1.000000,-1.000000,0.999647,0.999649,-1.000000,0.999652,0.999653,-1.000000,-1.000000,0.999658,-1.000000,0.999661,-1.000000,-1.000000,-1.000000,0.999667,-1.000000,-1.000000,-1.000000,-1.000000,-1.000000,-1.000000,-1.000000,0.999680,0.999681,0.999683,0.999684,-1.000000,-1.000000,0.999689,-1.000000,-1.000000,0.999693,0.999695,0.999696,-1.000000,-1.000000,-1.000000,-1.000000,0.999704,0.999706,0.999707,-1.000000,0.999710,-1.000000,-1.000000,-1.000000,-1.000000,-1.000000,0.999720,0.999721,0.999723,-1.000000,-1.000000,0.999727,-1.000000,0.999730,-1.000000,-1.000000,0.886002,-1.000000,-1.000000,0.999740,-1.000000,-1.000000,0.999744,0.999746,-1.000000,0.999749,0.999750,-1.000000,-1.000000,-1.000000,-1.000000,-1.000000,-1.000000,-1.000000,-1.000000,-1.000000,0.919838,0.999767,-1.000000,0.999770,0.999772,-1.000000,0.999775,0.999777,0.999778,-1.000000,0.999781,-1.000000,-1.000000,-1.000000,-1.000000,-1.000000,-1.000000,-1.000000,-1.000000,-1.000000,0.999797,0.999798,-1.000000,-1.000000,-1.000000,0.999804,-1.000000,-1.000000,-1.000000,-1.000000,0.999812,-1.000000,0.999815,-1.000000,-1.000000,-1.000000,-1.000000,-1.000000,-1.000000,0.999826,-1.000000,-1.000000,0.999831,-1.000000,-1.000000,0.999835,-1.000000,-1.000000,0.999840,-1.000000,-1.000000,0.999844,0.999846,-1.000000,0.999849,0.999851,-1.000000,0.999854,0.999855,0.999857,0.999858,-1.000000,-1.000000,0.999863,0.999864,-1.000000,-1.000000,0.999869,-1.000000,-1.000000,-1.000000,-1.000000,0.999877,0.999878,-1.000000,0.999881,-1.000000,-1.000000,0.999886,0.999888,0.532529,-1.000000,-1.000000,0.999894,-1.000000,-1.000000,-1.000000,-1.000000,0.999901,-1.000000,-1.000000,0.999906,-1.000000,-1.000000,0.999911,0.999912,-1.000000,0.999915,-1.000000,-1.000000,-1.000000,-1.000000,0.999923,0.999924,-1.000000,-1.000000,0.999929,0.999931,0.999932,-1.000000,-1.000000,-1.000000,-1.000000,0.999940,-1.000000,0.999943,-1.000000,0.999946,-1.000000,-1.000000,-1.000000,-1.000000,0.999954,-1.000000,0.999957,-1.000000,0.999960,-1.000000,0.999963,0.999965,-1.000000,-1.000000,0.999969,-1.000000,-1.000000,-1.000000,-1.000000,-1.000000,0.999978,-1.000000,
0.999364,-1.000000,-1.000000,-1.000000,0.999370,0.969951,0.999373,-1.000000,-1.000000,-1.000000,-1.000000,0.999381,-1.000000,-1.000000,-1.000000,-1.000000,-1.000000,0.999390,0.999391,0.999393,-1.000000,-1.000000,0.999398,-1.000000,-1.000000,-1.000000,0.999404,-1.000000,-1.000000,0.969987,-1.000000,-1.000000,-1.000000,-1.000000,-1.000000,-1.000000,-1.000000,-1.000000,-1.000000,-1.000000,-1.000000,-1.000000,-1.000000,-1.000000,-1.000000,-1.000000,-1.000000,-1.000000,-1.000000,0.999439,-1.000000,-1.000000,0.999444,0.999445,0.999447,0.999448,-1.000000,-1.000000,0.999453,-1.000000,-1.000000,-1.000000,-1.000000,0.999461,0.999462,-1.000000,0.999465,0.999467,-1.000000,-1.000000,-1.000000,0.999473,-1.000000,-1.000000,-1.000000,0.999479,-1.000000,-1.000000,-1.000000,-1.000000,0.999487,-1.000000,0.999490,-1.000000,-1.000000,-1.000000,-1.000000,-1.000000,-1.000000,-1.000000,-1.000000,-1.000000,-1.000000,-1.000000,-1.000000,-1.000000,-1.000000,0.999513,0.999515,0.999516,0.999518,0.999519,-1.000000,0.999522,-1.000000,-1.000000,-1.000000,-1.000000,-1.000000,-1.000000,0.999533,-1.000000,0.999536,-1.000000,0.999539,0.999541,-1.000000,-1.000000,0.999545,-1.000000,-1.000000,0.999550,-1.000000,-1.000000,-1.000000,-1.000000,-1.000000,-1.000000,0.999561,0.999562,0.999564,-1.000000,-1.000000,0.999569,-1.000000,0.999572,-1.000000,0.999575,-1.000000,-1.000000,-1.000000,0.999581,0.999582,-1.000000,0.999586,0.999587,0.999589,0.999590,0.999592,-1.000000,0.999595,0.999596,-1.000000,-1.000000,-1.000000,-1.000000,-1.000000,-1.000000,0.999607,0.999609,-1.000000,-1.000000,-1.000000,-1.000000,-1.000000,-1.000000,-1.000000,0.999621,0.999623,0.999624,-1.000000,0.999627,-1.000000,0.999630,0.999632,0.999633,-1.000000,-1.000000,-1.000000,-1.000000,0.999641,-1.000000,0.999644,0.999646,-1.000000,0.999649,-1.000000,-1.000000,-1.000000,-1.000000,0.999656,0.999658,-1.000000,0.999661,-1.000000,-1.000000,0.999666,-1.000000,0.999669,-1.000000,-1.000000,0.999673,-1.000000,-1.000000,0.999678,0.999680,-1.000000,-1.000000,0.999684,-1.000000,-1.000000,-1.000000,-1.000000,-1.000000,-1.000000,-1.000000,-1.000000,-1.000000,-1.000000,0.999701,-1.000000,0.999704,-1.000000,0.999707,-1.000000,-1.000000,-1.000000,-1.000000,-1.000000,-1.000000,-1.000000,0.999720,0.999721,-1.000000,-1.000000,-1.000000,-1.000000,0.999729,-1.000000,0.999732,-1.000000,0.999735,-1.000000,0.999738,-1.000000,-1.000000,0.999743,0.999744,-1.000000,0.999747,-1.000000,-1.000000,0.999752,0.999753,0.999755,-1.000000,0.999758,-1.000000,-1.000000,-1.000000,-1.000000,0.999766,-1.000000,0.999769,0.999770,-1.000000,-1.000000,0.999775,-1.000000,-1.000000,0.999780,-1.000000,0.999783,0.999784,-1.000000,-1.000000,-1.000000,-1.000000,0.999792,0.999794,0.999795,-1.000000,0.999798,-1.000000,0.999801,0.999803,-1.000000,-1.000000,-1.000000,-1.000000,-1.000000,0.999812,0.999814,0.999815,-1.000000,-1.000000,-1.000000,-1.000000,-1.000000,-1.000000,0.970394,0.999827,-1.000000,-1.000000,-1.000000,0.999834,0.999835,-1.000000,0.999838,-1.000000,0.999841,0.999843,-1.000000,0.999846,0.999847,0.999849,-1.000000,0.999852,-1.000000,0.999855,-1.000000,-1.000000,0.999860,-1.000000,-1.000000,-1.000000,-1.000000,0.999867,0.999869,-1.000000,0.999872,-1.000000,-1.000000,-1.000000,-1.000000,-1.000000,0.999881,-1.000000,-1.000000,-1.000000,-1.000000,-1.000000,0.999891,-1.000000,0.999894,-1.000000,0.999897,0.999898,-1.000000,0.999901,-1.000000,-1.000000,0.999906,-1.000000,0.999909,-1.000000,-1.000000,0.999914,0.999915,0.999917,0.976175,-1.000000,-1.000000,-1.000000,0.999924,0.999926,-1.000000,-1.000000,0.999931,-1.000000,0.999934,-1.000000,0.999937,-1.000000,0.999940,-1.000000,0.999943,-1.000000,0.999946,-1.000000,0.999949,-1.000000,-1.000000,-1.000000,-1.000000,-1.000000,0.999958,-1.000000,-1.000000,-1.000000,-1.000000,-1.000000,0.999968,-1.000000,-1.000000,-1.000000,0.999974,-1.000000,-1.000000,-1.000000,
0.999362,0.999364,-1.000000,-1.000000,0.919468,-1.000000,-1.000000,0.497580,-1.000000,-1.000000,0.999378,-1.000000,-1.000000,0.206145,0.817876,0.462890,0.428119,-1.000000,-1.000000,-1.000000,-1.000000,-1.000000,-1.000000,0.953221,-1.000000,0.999401,0.999402,-1.000000,0.919502,0.428130,-1.000000,-1.000000,-1.000000,-1.000000,0.999415,-1.000000,-1.000000,0.749806,0.276588,-1.000000,0.783896,0.851853,-1.000000,-1.000000,-1.000000,-1.000000,0.999433,-1.000000,-1.000000,0.999438,-1.000000,-1.000000,-1.000000,-1.000000,-1.000000,-1.000000,0.851873,0.346725,0.999452,-1.000000,-1.000000,-1.000000,-1.000000,-1.000000,-1.000000,-1.000000,-1.000000,-1.000000,-1.000000,-1.000000,-1.000000,-1.000000,-1.000000,0.817953,-1.000000,-1.000000,0.986956,0.135454,-1.000000,-1.000000,0.311718,-1.000000,-1.000000,0.170863,-1.000000,-1.000000,-1.000000,-1.000000,-1.000000,-1.000000,0.999501,-1.000000,-1.000000,-1.000000,-1.000000,0.462962,0.986987,-1.000000,-1.000000,0.999515,-1.000000,0.999518,0.670063,-1.000000,-1.000000,0.566851,0.999525,-1.000000,-1.000000,-1.000000,-1.000000,0.999533,0.987011,-1.000000,-1.000000,-1.000000,0.566862,-1.000000,-1.000000,-1.000000,-1.000000,0.953366,-1.000000,0.670086,-1.000000,-1.000000,-1.000000,-1.000000,-1.000000,0.206221,0.999562,-1.000000,0.953382,-1.000000,0.566880,-1.000000,-1.000000,-1.000000,-1.000000,0.416617,0.635773,-1.000000,-1.000000,-1.000000,-1.000000,-1.000000,-1.000000,0.885870,-1.000000,0.999592,-1.000000,-1.000000,-1.000000,0.601380,0.999599,0.987076,-1.000000,-1.000000,0.463019,-1.000000,-1.000000,0.276676,0.999612,-1.000000,-1.000000,-1.000000,-1.000000,-1.000000,-1.000000,-1.000000,0.999624,0.532363,-1.000000,0.635809,-1.000000,0.999632,0.999633,-1.000000,0.999636,-1.000000,-1.000000,0.919722,0.139946,-1.000000,-1.000000,-1.000000,-1.000000,-1.000000,-1.000000,-1.000000,-1.000000,0.346830,-1.000000,0.738617,-1.000000,-1.000000,0.953477,-1.000000,0.416667,-1.000000,0.999670,-1.000000,-1.000000,-1.000000,0.170938,-1.000000,-1.000000,-1.000000,-1.000000,-1.000000,-1.000000,-1.000000,-1.000000,0.999690,-1.000000,-1.000000,-1.000000,-1.000000,0.999698,-1.000000,-1.000000,-1.000000,-1.000000,-1.000000,0.772772,-1.000000,-1.000000,-1.000000,0.532418,-1.000000,-1.000000,-1.000000,0.463086,-1.000000,-1.000000,-1.000000,-1.000000,-1.000000,0.674503,-1.000000,-1.000000,-1.000000,0.999735,-1.000000,-1.000000,-1.000000,0.852129,0.999743,-1.000000,0.566997,0.999747,0.999749,-1.000000,-1.000000,0.497812,0.381835,-1.000000,0.463108,-1.000000,0.987235,-1.000000,-1.000000,-1.000000,0.852152,0.170976,0.999770,-1.000000,0.919845,-1.000000,-1.000000,-1.000000,-1.000000,-1.000000,-1.000000,0.999784,0.999786,-1.000000,-1.000000,-1.000000,-1.000000,0.852175,0.999795,-1.000000,0.635928,0.886061,0.241582,-1.000000,-1.000000,-1.000000,-1.000000,-1.000000,0.346908,-1.000000,-1.000000,-1.000000,0.311880,0.987291,-1.000000,-1.000000,0.999823,0.999824,-1.000000,-1.000000,-1.000000,-1.000000,-1.000000,-1.000000,0.416760,-1.000000,-1.000000,0.987313,-1.000000,-1.000000,-1.000000,-1.000000,-1.000000,0.635964,0.532505,-1.000000,0.987326,-1.000000,-1.000000,-1.000000,-1.000000,-1.000000,-1.000000,0.999864,-1.000000,-1.000000,-1.000000,-1.000000,0.784264,-1.000000,0.840936,-1.000000,0.346943,-1.000000,-1.000000,-1.000000,-1.000000,0.953690,0.886140,-1.000000,-1.000000,-1.000000,0.100123,-1.000000,0.311919,-1.000000,-1.000000,-1.000000,-1.000000,0.886155,-1.000000,-1.000000,-1.000000,0.919973,0.463198,0.532545,-1.000000,0.636012,0.497912,-1.000000,0.704626,-1.000000,0.919986,-1.000000,-1.000000,-1.000000,-1.000000,-1.000000,0.999934,-1.000000,-1.000000,0.999938,0.999940,0.999941,0.999943,-1.000000,0.999946,-1.000000,-1.000000,0.346980,-1.000000,-1.000000,-1.000000,-1.000000,-1.000000,-1.000000,0.999961,-1.000000,0.999965,-1.000000,0.999968,-1.000000,-1.000000,0.987444,0.381633,0.532584,0.784350,
-1.000000,-1.000000,0.999364,-1.000000,-1.000000,-1.000000,0.999370,0.999371,-1.000000,0.999375,-1.000000,-1.000000,0.999379,0.999381,-1.000000,0.999384,-1.000000,-1.000000,0.999388,-1.000000,0.999391,0.999393,0.999395,-1.000000,-1.000000,-1.000000,0.999401,-1.000000,0.999404,-1.000000,0.999407,-1.000000,0.999410,-1.000000,-1.000000,0.999415,0.999416,0.999418,0.999419,0.999421,-1.000000,0.999424,-1.000000,0.999427,-1.000000,0.999430,-1.000000,-1.000000,-1.000000,-1.000000,-1.000000,0.999439,-1.000000,-1.000000,-1.000000,-1.000000,0.999447,-1.000000,-1.000000,-1.000000,0.999453,-1.000000,-1.000000,-1.000000,-1.000000,-1.000000,0.999462,0.999464,0.999465,-1.000000,-1.000000,-1.000000,0.999472,0.999473,-1.000000,-1.000000,-1.000000,-1.000000,-1.000000,-1.000000,-1.000000,-1.000000,-1.000000,0.999488,0.999490,-1.000000,-1.000000,-1.000000,0.999496,-1.000000,-1.000000,-1.000000,-1.000000,-1.000000,-1.000000,-1.000000,-1.000000,0.999510,-1.000000,-1.000000,-1.000000,0.999516,0.999518,0.999519,-1.000000,-1.000000,0.999524,-1.000000,-1.000000,0.999529,-1.000000,-1.000000,-1.000000,-1.000000,-1.000000,0.999538,0.999539,-1.000000,0.999542,-1.000000,0.999545,-1.000000,-1.000000,-1.000000,-1.000000,-1.000000,-1.000000,0.999556,-1.000000,-1.000000,-1.000000,-1.000000,-1.000000,-1.000000,0.999567,-1.000000,-1.000000,-1.000000,-1.000000,-1.000000,-1.000000,-1.000000,-1.000000,-1.000000,-1.000000,-1.000000,-1.000000,-1.000000,-1.000000,0.999590,-1.000000,0.999593,-1.000000,0.999596,-1.000000,-1.000000,0.999601,-1.000000,-1.000000,-1.000000,0.999607,-1.000000,0.999610,0.999612,0.999613,-1.000000,0.999616,0.999618,0.999619,0.999621,-1.000000,0.999624,-1.000000,0.999627,-1.000000,0.999630,0.999632,-1.000000,-1.000000,0.999636,-1.000000,-1.000000,-1.000000,0.999643,-1.000000,-1.000000,-1.000000,-1.000000,0.999650,-1.000000,0.999653,0.999655,-1.000000,-1.000000,-1.000000,0.999661,0.999663,0.999664,-1.000000,-1.000000,-1.000000,-1.000000,-1.000000,-1.000000,-1.000000,0.999676,-1.000000,0.999680,0.999681,0.999683,-1.000000,-1.000000,-1.000000,0.999689,0.999690,-1.000000,0.999693,0.999695,-1.000000,-1.000000,0.999700,-1.000000,-1.000000,-1.000000,-1.000000,-1.000000,0.999709,0.999710,0.999712,-1.000000,0.999715,-1.000000,0.999718,0.999720,-1.000000,0.999723,-1.000000,0.999726,0.999727,0.999729,-1.000000,-1.000000,0.999733,-1.000000,-1.000000,0.999738,-1.000000,-1.000000,-1.000000,-1.000000,-1.000000,0.999747,0.999749,-1.000000,0.999752,-1.000000,-1.000000,-1.000000,0.999758,-1.000000,-1.000000,-1.000000,0.999764,-1.000000,-1.000000,0.999769,-1.000000,-1.000000,0.999773,0.999775,0.999777,0.999778,0.999780,0.999781,-1.000000,-1.000000,-1.000000,-1.000000,-1.000000,-1.000000,-1.000000,0.999794,0.999795,-1.000000,0.999798,-1.000000,-1.000000,-1.000000,-1.000000,0.999806,0.999807,0.999809,-1.000000,0.999812,-1.000000,0.999815,0.999817,0.999818,0.999820,-1.000000,-1.000000,0.999824,0.999826,0.999827,-1.000000,0.999831,0.999832,-1.000000,-1.000000,0.999837,-1.000000,0.999840,-1.000000,-1.000000,0.999844,-1.000000,-1.000000,0.999849,-1.000000,0.999852,0.999854,-1.000000,-1.000000,0.999858,-1.000000,0.999861,-1.000000,-1.000000,-1.000000,-1.000000,-1.000000,-1.000000,-1.000000,0.999874,0.999875,0.999877,0.999878,-1.000000,-1.000000,-1.000000,-1.000000,0.999886,0.999888,-1.000000,0.999891,-1.000000,-1.000000,-1.000000,-1.000000,-1.000000,0.999900,0.999901,-1.000000,-1.000000,-1.000000,-1.000000,-1.000000,-1.000000,-1.000000,-1.000000,-1.000000,-1.000000,0.999918,0.999920,-1.000000,-1.000000,-1.000000,-1.000000,-1.000000,-1.000000,-1.000000,-1.000000,-1.000000,0.999935,-1.000000,-1.000000,0.999940,-1.000000,-1.000000,-1.000000,-1.000000,0.999948,0.999949,0.999951,-1.000000,0.999954,0.999955,-1.000000,0.999958,-1.000000,0.999961,-1.000000,0.999965,-1.000000,0.999968,0.999969,-1.000000,-1.000000,-1.000000,-1.000000,
-1.000000,0.999361,-1.000000,-1.000000,-1.000000,0.999367,-1.000000,-1.000000,-1.000000,0.999373,-1.000000,0.999376,0.999378,0.999379,0.999381,0.999382,-1.000000,0.999385,0.999387,-1.000000,-1.000000,-1.000000,-1.000000,-1.000000,-1.000000,-1.000000,-1.000000,-1.000000,-1.000000,-1.000000,-1.000000,-1.000000,-1.000000,0.999410,0.999411,0.999413,-1.000000,-1.000000,-1.000000,-1.000000,0.999421,-1.000000,-1.000000,-1.000000,0.999427,-1.000000,0.999430,0.999432,0.999433,-1.000000,0.999436,0.999438,0.999439,-1.000000,-1.000000,-1.000000,0.999445,-1.000000,0.999448,0.999450,0.999452,-1.000000,-1.000000,0.999456,0.999458,0.999459,-1.000000,-1.000000,0.999464,-1.000000,0.999467,-1.000000,-1.000000,0.999472,0.999473,0.999475,0.999476,-1.000000,-1.000000,-1.000000,-1.000000,0.999484,0.999485,-1.000000,-1.000000,0.999490,-1.000000,0.999493,-1.000000,0.999496,0.999498,0.999499,-1.000000,0.999502,-1.000000,-1.000000,0.999507,0.999509,-1.000000,-1.000000,0.999513,-1.000000,0.999516,0.999518,-1.000000,-1.000000,-1.000000,-1.000000,0.999525,0.999527,-1.000000,0.999530,0.999532,-1.000000,-1.000000,0.999536,-1.000000,-1.000000,-1.000000,-1.000000,-1.000000,-1.000000,-1.000000,-1.000000,0.999550,-1.000000,0.999553,-1.000000,0.999556,-1.000000,-1.000000,-1.000000,0.999562,0.999564,-1.000000,-1.000000,0.999569,-1.000000,-1.000000,0.999573,-1.000000,0.999576,-1.000000,0.999579,-1.000000,-1.000000,-1.000000,0.999586,-1.000000,0.999589,-1.000000,0.999592,0.999593,-1.000000,0.999596,0.999598,-1.000000,-1.000000,0.999602,-1.000000,-1.000000,-1.000000,-1.000000,-1.000000,0.999612,-1.000000,-1.000000,0.999616,0.999618,0.999619,-1.000000,-1.000000,-1.000000,-1.000000,0.999627,-1.000000,0.999630,-1.000000,-1.000000,0.999635,-1.000000,-1.000000,-1.000000,0.999641,-1.000000,-1.000000,-1.000000,-1.000000,-1.000000,-1.000000,-1.000000,-1.000000,-1.000000,0.999656,0.999658,0.999659,-1.000000,-1.000000,-1.000000,0.999666,0.999667,0.999669,0.999670,0.999672,-1.000000,0.999675,-1.000000,0.999678,-1.000000,0.999681,-1.000000,-1.000000,0.999686,0.999687,-1.000000,-1.000000,0.999692,-1.000000,-1.000000,-1.000000,0.999698,0.999700,-1.000000,0.999703,-1.000000,-1.000000,0.999707,-1.000000,-1.000000,-1.000000,0.999713,0.999715,0.999716,0.999718,0.999720,-1.000000,0.999723,0.999724,-1.000000,-1.000000,-1.000000,-1.000000,-1.000000,0.999733,0.999735,-1.000000,-1.000000,-1.000000,-1.000000,0.999743,-1.000000,0.999746,-1.000000,0.999749,-1.000000,0.999752,0.999753,0.999755,-1.000000,0.999758,-1.000000,-1.000000,-1.000000,-1.000000,0.999766,0.999767,-1.000000,-1.000000,-1.000000,-1.000000,-1.000000,-1.000000,-1.000000,-1.000000,0.999781,-1.000000,-1.000000,-1.000000,-1.000000,0.999789,-1.000000,0.999792,-1.000000,-1.000000,-1.000000,-1.000000,-1.000000,-1.000000,-1.000000,-1.000000,-1.000000,-1.000000,0.999809,-1.000000,-1.000000,-1.000000,-1.000000,-1.000000,-1.000000,-1.000000,-1.000000,0.999823,0.999824,0.999826,0.999827,0.999829,-1.000000,-1.000000,-1.000000,0.999835,-1.000000,-1.000000,-1.000000,-1.000000,0.999843,-1.000000,-1.000000,0.999847,-1.000000,-1.000000,-1.000000,-1.000000,-1.000000,-1.000000,-1.000000,-1.000000,-1.000000,-1.000000,0.999864,0.999866,0.999867,-1.000000,-1.000000,-1.000000,0.999874,-1.000000,0.999877,-1.000000,-1.000000,-1.000000,-1.000000,-1.000000,0.999886,0.999888,0.999889,-1.000000,-1.000000,-1.000000,-1.000000,-1.000000,0.999898,-1.000000,-1.000000,0.999903,-1.000000,-1.000000,-1.000000,-1.000000,0.999911,-1.000000,0.999914,-1.000000,-1.000000,-1.000000,-1.000000,-1.000000,-1.000000,-1.000000,0.999926,-1.000000,-1.000000,-1.000000,0.999932,-1.000000,-1.000000,-1.000000,-1.000000,-1.000000,-1.000000,-1.000000,-1.000000,-1.000000,-1.000000,0.999949,-1.000000,-1.000000,-1.000000,-1.000000,-1.000000,0.999958,0.999960,-1.000000,-1.000000,-1.000000,-1.000000,0.999968,0.999969,-1.000000,-1.000000,0.624588,
-1.000000,-1.000000,0.999361,0.999362,0.999364,-1.000000,-1.000000,0.999368,-1.000000,-1.000000,-1.000000,0.999375,0.999376,-1.000000,-1.000000,0.999381,-1.000000,-1.000000,-1.000000,0.999387,0.999388,0.999390,0.999391,-1.000000,0.999395,-1.000000,-1.000000,-1.000000,-1.000000,0.999402,-1.000000,-1.000000,0.999407,0.999408,0.999410,0.999411,0.999413,-1.000000,-1.000000,0.999418,-1.000000,-1.000000,0.999422,0.999424,-1.000000,-1.000000,-1.000000,0.999430,-1.000000,-1.000000,-1.000000,-1.000000,-1.000000,-1.000000,0.999441,0.999442,-1.000000,0.999445,-1.000000,0.999448,-1.000000,-1.000000,0.999453,-1.000000,0.999456,-1.000000,0.999459,-1.000000,-1.000000,-1.000000,-1.000000,-1.000000,0.999468,0.999470,0.999472,-1.000000,0.999475,-1.000000,-1.000000,-1.000000,-1.000000,-1.000000,-1.000000,0.999485,-1.000000,0.999488,-1.000000,-1.000000,-1.000000,-1.000000,0.999496,0.999498,-1.000000,0.999501,-1.000000,-1.000000,0.999505,-1.000000,-1.000000,-1.000000,-1.000000,-1.000000,-1.000000,-1.000000,-1.000000,0.999519,-1.000000,0.999522,0.999524,-1.000000,-1.000000,0.999529,0.999530,0.999532,-1.000000,0.999535,-1.000000,-1.000000,0.999539,0.999541,0.999542,-1.000000,-1.000000,-1.000000,-1.000000,0.999550,-1.000000,0.999553,0.999555,-1.000000,0.999558,-1.000000,-1.000000,0.999562,-1.000000,-1.000000,-1.000000,0.999569,-1.000000,0.999572,-1.000000,-1.000000,0.999576,0.999578,-1.000000,-1.000000,-1.000000,-1.000000,-1.000000,-1.000000,-1.000000,-1.000000,0.999592,-1.000000,-1.000000,0.999596,0.999598,0.999599,-1.000000,-1.000000,0.999604,0.999606,0.999607,-1.000000,-1.000000,-1.000000,-1.000000,0.999615,-1.000000,0.999618,0.999619,-1.000000,-1.000000,0.999624,0.999626,-1.000000,0.999629,-1.000000,-1.000000,-1.000000,-1.000000,-1.000000,-1.000000,0.999639,-1.000000,0.999643,-1.000000,-1.000000,-1.000000,-1.000000,0.999650,-1.000000,-1.000000,-1.000000,-1.000000,0.999658,-1.000000,-1.000000,-1.000000,0.999664,0.999666,-1.000000,0.999669,-1.000000,-1.000000,-1.000000,-1.000000,-1.000000,0.999678,0.999680,-1.000000,0.999683,-1.000000,-1.000000,-1.000000,0.999689,0.999690,0.999692,0.999693,-1.000000,0.999696,0.999698,-1.000000,0.999701,-1.000000,0.999704,-1.000000,0.999707,-1.000000,-1.000000,0.999712,-1.000000,-1.000000,-1.000000,-1.000000,-1.000000,0.999721,0.999723,0.999724,0.999726,-1.000000,0.999729,0.999730,-1.000000,0.999733,0.999735,0.999737,-1.000000,0.999740,0.999741,0.999743,-1.000000,-1.000000,-1.000000,0.999749,-1.000000,-1.000000,-1.000000,-1.000000,-1.000000,0.999758,-1.000000,-1.000000,0.999763,0.999764,0.999766,0.999767,-1.000000,-1.000000,-1.000000,-1.000000,-1.000000,-1.000000,0.999778,-1.000000,0.999781,0.999783,0.999784,-1.000000,-1.000000,-1.000000,0.999790,0.999792,-1.000000,0.999795,0.999797,-1.000000,-1.000000,0.999801,-1.000000,0.999804,-1.000000,-1.000000,-1.000000,0.999810,-1.000000,-1.000000,-1.000000,-1.000000,-1.000000,0.999820,0.999821,-1.000000,0.999824,-1.000000,-1.000000,0.999829,0.999831,-1.000000,0.999834,-1.000000,-1.000000,-1.000000,-1.000000,0.999841,0.999843,-1.000000,0.999846,0.999847,0.999849,-1.000000,-1.000000,0.999854,-1.000000,0.999857,-1.000000,-1.000000,-1.000000,0.999863,-1.000000,-1.000000,0.999867,0.999869,-1.000000,-1.000000,-1.000000,0.999875,-1.000000,0.999878,-1.000000,0.970448,-1.000000,-1.000000,-1.000000,-1.000000,0.999889,0.999891,-1.000000,-1.000000,-1.000000,-1.000000,-1.000000,0.999900,0.999901,0.999903,-1.000000,-1.000000,-1.000000,-1.000000,0.999911,-1.000000,-1.000000,0.999915,-1.000000,-1.000000,0.999920,0.999921,-1.000000,-1.000000,-1.000000,-1.000000,0.999929,-1.000000,-1.000000,-1.000000,-1.000000,-1.000000,-1.000000,0.999940,0.999941,0.999943,-1.000000,0.999946,-1.000000,-1.000000,-1.000000,-1.000000,-1.000000,-1.000000,-1.000000,-1.000000,-1.000000,0.999961,-1.000000,-1.000000,-1.000000,-1.000000,0.999969,-1.000000,-1.000000,
0.999356,-1.000000,0.999359,0.999361,-1.000000,-1.000000,0.999365,0.999367,-1.000000,0.999370,-1.000000,0.999373,0.999375,0.999376,-1.000000,0.999379,-1.000000,-1.000000,0.999384,0.999385,-1.000000,0.170821,0.999390,-1.000000,-1.000000,-1.000000,-1.000000,-1.000000,-1.000000,0.999401,-1.000000,0.999404,-1.000000,-1.000000,-1.000000,-1.000000,-1.000000,0.999413,-1.000000,0.999416,-1.000000,-1.000000,0.999421,-1.000000,-1.000000,-1.000000,-1.000000,0.999428,-1.000000,-1.000000,-1.000000,0.999435,0.999436,-1.000000,0.999439,0.999441,0.999442,0.999444,0.999445,-1.000000,-1.000000,0.999450,-1.000000,-1.000000,-1.000000,-1.000000,-1.000000,0.999459,-1.000000,-1.000000,-1.000000,-1.000000,-1.000000,0.999468,-1.000000,-1.000000,-1.000000,0.999475,-1.000000,-1.000000,0.999479,-1.000000,-1.000000,-1.000000,-1.000000,0.999487,0.999488,0.999490,-1.000000,-1.000000,-1.000000,0.999496,0.999498,-1.000000,-1.000000,-1.000000,-1.000000,0.999505,0.999507,0.999509,-1.000000,-1.000000,-1.000000,-1.000000,0.999516,-1.000000,0.999519,0.999521,0.999522,0.999524,-1.000000,-1.000000,0.999529,-1.000000,0.999532,0.999533,0.999535,-1.000000,-1.000000,-1.000000,0.999541,-1.000000,-1.000000,-1.000000,-1.000000,-1.000000,-1.000000,0.999552,0.999553,-1.000000,-1.000000,0.999558,-1.000000,0.999561,0.999562,0.999564,-1.000000,0.999567,-1.000000,-1.000000,-1.000000,0.999573,-1.000000,0.999576,0.999578,-1.000000,-1.000000,-1.000000,-1.000000,-1.000000,-1.000000,0.999589,0.999590,-1.000000,-1.000000,-1.000000,0.999596,-1.000000,-1.000000,-1.000000,-1.000000,0.999604,-1.000000,-1.000000,0.999609,0.999610,0.999612,-1.000000,-1.000000,0.999616,-1.000000,-1.000000,-1.000000,0.999623,0.999624,0.999626,-1.000000,0.999629,0.999630,-1.000000,-1.000000,0.999635,-1.000000,0.999638,-1.000000,0.999641,-1.000000,0.999644,0.999646,0.999647,-1.000000,0.999650,-1.000000,-1.000000,-1.000000,-1.000000,0.999658,-1.000000,0.999661,0.999663,0.999664,0.999666,-1.000000,-1.000000,-1.000000,0.999672,-1.000000,-1.000000,0.999676,-1.000000,-1.000000,0.999681,-1.000000,-1.000000,-1.000000,-1.000000,-1.000000,-1.000000,0.999692,0.999693,-1.000000,0.999696,-1.000000,-1.000000,-1.000000,-1.000000,0.999704,-1.000000,-1.000000,-1.000000,0.999710,-1.000000,-1.000000,0.999715,-1.000000,-1.000000,0.999720,-1.000000,0.999723,-1.000000,-1.000000,-1.000000,0.999729,-1.000000,-1.000000,-1.000000,-1.000000,-1.000000,-1.000000,0.999740,0.999741,0.999743,-1.000000,0.999746,0.999747,-1.000000,0.999750,-1.000000,-1.000000,-1.000000,-1.000000,-1.000000,-1.000000,-1.000000,0.999763,-1.000000,-1.000000,-1.000000,-1.000000,-1.000000,-1.000000,-1.000000,-1.000000,-1.000000,0.999778,-1.000000,-1.000000,0.999783,-1.000000,-1.000000,-1.000000,0.999789,-1.000000,-1.000000,-1.000000,0.999795,0.999797,0.999798,0.999800,0.999801,0.999803,0.999804,-1.000000,-1.000000,-1.000000,0.999810,-1.000000,-1.000000,-1.000000,-1.000000,0.999818,-1.000000,0.999821,-1.000000,-1.000000,-1.000000,-1.000000,-1.000000,0.999831,-1.000000,-1.000000,-1.000000,0.999837,-1.000000,-1.000000,0.999841,-1.000000,0.999844,-1.000000,-1.000000,0.999849,-1.000000,-1.000000,0.999854,0.999855,-1.000000,-1.000000,0.999860,0.999861,-1.000000,0.999864,0.999866,0.999867,-1.000000,-1.000000,0.999872,-1.000000,-1.000000,-1.000000,0.999878,-1.000000,0.999881,0.999883,-1.000000,-1.000000,-1.000000,0.999889,0.999891,0.999892,0.999894,-1.000000,-1.000000,0.999898,-1.000000,0.999901,-1.000000,-1.000000,-1.000000,-1.000000,0.999909,-1.000000,0.999912,-1.000000,-1.000000,-1.000000,0.999918,-1.000000,-1.000000,-1.000000,0.999924,-1.000000,-1.000000,-1.000000,-1.000000,-1.000000,0.999934,0.999935,0.999937,-1.000000,0.999940,0.999941,-1.000000,-1.000000,0.999946,-1.000000,0.999949,-1.000000,-1.000000,0.999954,-1.000000,0.999957,-1.000000,0.999960,-1.000000,0.999963,-1.000000,-1.000000,-1.000000,0.999969,0.999971,
-1.000000,-1.000000,-1.000000,-1.000000,0.635619,-1.000000,-1.000000,0.635622,-1.000000,-1.000000,-1.000000,0.999371,0.999373,0.999375,-1.000000,-1.000000,-1.000000,-1.000000,-1.000000,0.135416,-1.000000,-1.000000,-1.000000,-1.000000,-1.000000,0.999393,-1.000000,-1.000000,-1.000000,-1.000000,-1.000000,-1.000000,-1.000000,0.999405,0.999407,0.999408,0.999410,-1.000000,-1.000000,-1.000000,-1.000000,-1.000000,-1.000000,-1.000000,-1.000000,-1.000000,-1.000000,-1.000000,-1.000000,0.999430,0.999432,0.999433,-1.000000,0.999436,0.999438,0.999439,-1.000000,-1.000000,-1.000000,-1.000000,0.566800,-1.000000,-1.000000,0.999452,0.999453,0.999455,-1.000000,-1.000000,-1.000000,0.999461,-1.000000,-1.000000,-1.000000,0.999467,0.999468,-1.000000,0.999472,-1.000000,-1.000000,-1.000000,-1.000000,-1.000000,0.999481,-1.000000,-1.000000,0.999485,-1.000000,-1.000000,0.999490,-1.000000,-1.000000,-1.000000,-1.000000,-1.000000,0.999499,-1.000000,-1.000000,-1.000000,-1.000000,0.623896,-1.000000,-1.000000,-1.000000,-1.000000,0.999515,-1.000000,-1.000000,0.999519,-1.000000,-1.000000,0.999524,-1.000000,-1.000000,0.999529,-1.000000,-1.000000,0.999533,0.984209,0.285424,-1.000000,0.999539,-1.000000,0.999542,0.999544,-1.000000,-1.000000,0.999549,-1.000000,0.999552,-1.000000,0.999555,-1.000000,-1.000000,-1.000000,0.999561,-1.000000,-1.000000,0.601358,0.851977,0.624306,0.601361,-1.000000,-1.000000,0.999575,0.999576,-1.000000,-1.000000,0.999581,0.999582,0.999584,-1.000000,-1.000000,-1.000000,0.999590,0.999592,0.999593,-1.000000,-1.000000,0.999598,-1.000000,0.999601,-1.000000,-1.000000,-1.000000,-1.000000,-1.000000,-1.000000,-1.000000,0.999613,0.999615,-1.000000,0.999618,0.999619,0.999621,-1.000000,-1.000000,-1.000000,-1.000000,-1.000000,0.275954,-1.000000,-1.000000,-1.000000,-1.000000,-1.000000,-1.000000,-1.000000,-1.000000,0.999644,0.999646,0.999647,-1.000000,-1.000000,0.999652,-1.000000,-1.000000,0.999656,-1.000000,0.999659,0.704429,0.999663,0.806782,-1.000000,0.999667,0.999669,0.999670,-1.000000,-1.000000,-1.000000,-1.000000,0.999678,-1.000000,0.999681,-1.000000,0.999684,-1.000000,-1.000000,0.999689,0.381801,-1.000000,-1.000000,-1.000000,-1.000000,-1.000000,-1.000000,-1.000000,-1.000000,0.999704,0.999706,-1.000000,-1.000000,-1.000000,0.999712,0.999713,0.999715,-1.000000,-1.000000,0.999720,0.381256,-1.000000,0.999724,-1.000000,0.727281,0.999729,-1.000000,-1.000000,0.999733,-1.000000,0.999737,-1.000000,-1.000000,-1.000000,0.999743,-1.000000,-1.000000,-1.000000,-1.000000,0.806854,0.999752,0.999753,-1.000000,-1.000000,-1.000000,-1.000000,0.999761,-1.000000,0.999764,0.999766,-1.000000,-1.000000,-1.000000,0.999772,-1.000000,-1.000000,0.999777,0.999778,-1.000000,-1.000000,0.999783,-1.000000,0.999786,0.863471,-1.000000,-1.000000,-1.000000,0.999794,-1.000000,0.999797,-1.000000,-1.000000,-1.000000,-1.000000,-1.000000,-1.000000,0.999807,0.999809,-1.000000,0.908619,-1.000000,-1.000000,-1.000000,-1.000000,0.999820,-1.000000,0.999823,-1.000000,-1.000000,-1.000000,0.999829,0.999831,0.999832,0.999834,-1.000000,0.999837,0.999838,-1.000000,-1.000000,0.999843,-1.000000,0.532502,0.999847,-1.000000,0.999851,-1.000000,-1.000000,0.999855,0.999857,-1.000000,-1.000000,-1.000000,-1.000000,0.999864,-1.000000,-1.000000,-1.000000,0.999871,0.999872,-1.000000,-1.000000,-1.000000,-1.000000,-1.000000,-1.000000,0.999883,-1.000000,-1.000000,-1.000000,-1.000000,-1.000000,-1.000000,0.999894,-1.000000,-1.000000,-1.000000,0.999900,-1.000000,0.976160,-1.000000,-1.000000,-1.000000,-1.000000,0.999911,-1.000000,-1.000000,-1.000000,-1.000000,-1.000000,0.999920,-1.000000,-1.000000,-1.000000,0.999926,0.999928,0.999929,0.999931,-1.000000,0.999934,-1.000000,0.919997,0.999938,-1.000000,0.381934,-1.000000,-1.000000,0.999946,-1.000000,-1.000000,-1.000000,-1.000000,-1.000000,0.999955,0.999957,-1.000000,-1.000000,0.999961,-1.000000,0.999965,-1.000000,0.346988,-1.000000,
-1.000000,-1.000000,-1.000000,-1.000000,-1.000000,0.999361,-1.000000,-1.000000,0.999365,-1.000000,-1.000000,-1.000000,-1.000000,0.999373,-1.000000,0.999376,0.999378,-1.000000,-1.000000,-1.000000,-1.000000,-1.000000,-1.000000,0.999388,-1.000000,0.999391,-1.000000,-1.000000,0.999396,-1.000000,-1.000000,0.999401,0.999402,-1.000000,-1.000000,-1.000000,0.999408,-1.000000,-1.000000,-1.000000,-1.000000,-1.000000,-1.000000,-1.000000,-1.000000,0.999422,-1.000000,-1.000000,-1.000000,-1.000000,0.999430,0.999432,-1.000000,-1.000000,-1.000000,0.999438,-1.000000,-1.000000,-1.000000,0.999444,0.999445,-1.000000,-1.000000,0.999450,-1.000000,-1.000000,-1.000000,-1.000000,-1.000000,-1.000000,-1.000000,-1.000000,0.999464,-1.000000,-1.000000,0.999468,-1.000000,-1.000000,-1.000000,0.999475,0.999476,-1.000000,-1.000000,0.999481,0.999482,0.999484,0.999485,0.999487,0.999488,-1.000000,-1.000000,-1.000000,0.999495,-1.000000,0.999498,0.999499,0.999501,0.999502,-1.000000,-1.000000,-1.000000,0.999509,-1.000000,-1.000000,-1.000000,0.999515,0.999516,0.999518,-1.000000,-1.000000,-1.000000,-1.000000,0.999525,-1.000000,0.999529,-1.000000,0.999532,-1.000000,-1.000000,-1.000000,0.999538,-1.000000,0.999541,-1.000000,0.999544,0.999545,0.999547,0.999549,-1.000000,-1.000000,0.999553,0.999555,-1.000000,0.999558,0.999559,0.999561,-1.000000,-1.000000,-1.000000,-1.000000,0.999569,-1.000000,-1.000000,-1.000000,0.999575,-1.000000,-1.000000,-1.000000,0.999581,0.999582,0.999584,-1.000000,-1.000000,0.999589,-1.000000,-1.000000,-1.000000,-1.000000,0.999596,-1.000000,-1.000000,-1.000000,-1.000000,-1.000000,0.999606,-1.000000,0.999609,-1.000000,0.999612,0.999613,-1.000000,-1.000000,0.999618,0.999619,-1.000000,-1.000000,-1.000000,0.999626,0.999627,-1.000000,-1.000000,-1.000000,-1.000000,-1.000000,0.999636,0.999638,-1.000000,0.999641,0.999643,-1.000000,0.999646,-1.000000,-1.000000,-1.000000,-1.000000,-1.000000,-1.000000,0.999656,0.999658,-1.000000,0.999661,0.999663,-1.000000,-1.000000,-1.000000,-1.000000,-1.000000,0.999672,-1.000000,-1.000000,0.999676,-1.000000,0.999680,-1.000000,0.999683,-1.000000,-1.000000,-1.000000,-1.000000,-1.000000,-1.000000,0.999693,-1.000000,-1.000000,0.999698,-1.000000,-1.000000,-1.000000,0.999704,-1.000000,-1.000000,-1.000000,0.999710,-1.000000,-1.000000,-1.000000,0.999716,-1.000000,0.999720,0.999721,0.999723,-1.000000,-1.000000,0.999727,-1.000000,-1.000000,-1.000000,0.999733,-1.000000,-1.000000,0.999738,-1.000000,-1.000000,-1.000000,-1.000000,-1.000000,0.999747,-1.000000,-1.000000,-1.000000,-1.000000,-1.000000,-1.000000,-1.000000,0.999760,-1.000000,-1.000000,0.999764,0.999766,0.999767,-1.000000,-1.000000,0.999772,-1.000000,0.999775,-1.000000,0.999778,0.999780,-1.000000,-1.000000,0.999784,0.999786,-1.000000,-1.000000,-1.000000,0.999792,0.999794,0.999795,-1.000000,0.999798,0.999800,0.999801,0.999803,0.999804,0.999806,-1.000000,-1.000000,-1.000000,-1.000000,0.999814,-1.000000,-1.000000,-1.000000,-1.000000,-1.000000,0.999823,-1.000000,-1.000000,-1.000000,-1.000000,-1.000000,0.999832,-1.000000,-1.000000,0.999837,0.999838,-1.000000,0.999841,0.999843,-1.000000,0.999846,-1.000000,0.999849,-1.000000,-1.000000,-1.000000,0.999855,-1.000000,0.999858,0.999860,-1.000000,-1.000000,0.999864,0.999866,0.999867,-1.000000,-1.000000,-1.000000,0.999874,-1.000000,-1.000000,0.999878,-1.000000,-1.000000,-1.000000,-1.000000,-1.000000,-1.000000,-1.000000,0.999891,-1.000000,-1.000000,0.999895,-1.000000,-1.000000,-1.000000,-1.000000,0.999903,0.999904,0.999906,-1.000000,-1.000000,-1.000000,0.999912,-1.000000,0.999915,-1.000000,-1.000000,0.999920,0.999921,-1.000000,0.999924,-1.000000,0.999928,0.999929,-1.000000,0.999932,-1.000000,0.999935,-1.000000,-1.000000,0.999940,-1.000000,-1.000000,-1.000000,0.999946,-1.000000,-1.000000,0.999951,-1.000000,-1.000000,0.999955,-1.000000,-1.000000,-1.000000,-1.000000,0.999963,-1.000000,-1.000000,-1.000000,
-1.000000,0.999353,-1.000000,-1.000000,0.999358,0.416496,0.635619,-1.000000,-1.000000,-1.000000,-1.000000,-1.000000,0.999370,0.885674,0.953197,0.885596,0.872986,-1.000000,-1.000000,-1.000000,0.999382,0.566759,0.885687,-1.000000,0.601237,-1.000000,-1.000000,-1.000000,0.999395,-1.000000,-1.000000,0.601245,-1.000000,0.999402,-1.000000,0.839116,-1.000000,0.451321,0.497603,0.806570,0.704241,0.462907,-1.000000,-1.000000,-1.000000,-1.000000,-1.000000,-1.000000,0.669994,-1.000000,-1.000000,-1.000000,0.999432,0.817918,-1.000000,-1.000000,-1.000000,-1.000000,-1.000000,0.704263,0.999444,0.840564,-1.000000,-1.000000,-1.000000,0.601280,0.532254,0.986932,-1.000000,-1.000000,0.742728,0.506297,-1.000000,0.771155,0.861774,-1.000000,-1.000000,0.999470,-1.000000,-1.000000,-1.000000,-1.000000,0.486086,0.670034,-1.000000,0.986959,-1.000000,-1.000000,-1.000000,-1.000000,-1.000000,0.995371,0.999493,-1.000000,0.885787,-1.000000,-1.000000,0.276625,-1.000000,-1.000000,0.999505,0.999507,-1.000000,0.953329,-1.000000,-1.000000,-1.000000,0.953335,0.999518,-1.000000,-1.000000,-1.000000,0.940622,0.484669,-1.000000,0.999529,-1.000000,-1.000000,-1.000000,-1.000000,-1.000000,-1.000000,-1.000000,0.987017,0.999542,-1.000000,-1.000000,0.704342,-1.000000,-1.000000,-1.000000,-1.000000,0.999555,0.818022,-1.000000,0.532321,-1.000000,-1.000000,-1.000000,-1.000000,-1.000000,-1.000000,-1.000000,0.851981,0.851982,-1.000000,0.919661,-1.000000,-1.000000,-1.000000,-1.000000,-1.000000,0.438381,-1.000000,0.135495,-1.000000,-1.000000,0.416626,0.987070,-1.000000,-1.000000,-1.000000,-1.000000,-1.000000,0.999604,-1.000000,0.532351,-1.000000,-1.000000,-1.000000,-1.000000,-1.000000,-1.000000,0.170915,-1.000000,0.999621,0.999623,0.381766,-1.000000,-1.000000,-1.000000,0.670144,0.135512,0.919714,-1.000000,0.852038,-1.000000,-1.000000,-1.000000,-1.000000,0.060019,0.458699,-1.000000,-1.000000,0.601416,-1.000000,-1.000000,-1.000000,-1.000000,0.999658,-1.000000,0.999661,0.738619,-1.000000,-1.000000,0.601427,0.987143,-1.000000,-1.000000,-1.000000,-1.000000,-1.000000,-1.000000,0.463062,-1.000000,-1.000000,-1.000000,-1.000000,0.999687,0.497772,-1.000000,-1.000000,-1.000000,0.999695,-1.000000,0.999698,-1.000000,0.908517,-1.000000,-1.000000,-1.000000,-1.000000,-1.000000,-1.000000,-1.000000,-1.000000,0.999715,0.532420,-1.000000,0.987194,-1.000000,-1.000000,-1.000000,-1.000000,0.999727,-1.000000,-1.000000,-1.000000,-1.000000,0.970306,-1.000000,-1.000000,-1.000000,-1.000000,-1.000000,-1.000000,-1.000000,-1.000000,-1.000000,-1.000000,0.999752,0.670234,-1.000000,-1.000000,-1.000000,-1.000000,-1.000000,-1.000000,0.999764,-1.000000,-1.000000,-1.000000,-1.000000,-1.000000,-1.000000,0.999775,-1.000000,0.999778,0.381848,0.919852,0.852166,-1.000000,-1.000000,-1.000000,0.999789,-1.000000,0.100086,-1.000000,-1.000000,-1.000000,-1.000000,-1.000000,-1.000000,0.275483,0.953611,-1.000000,0.532478,-1.000000,-1.000000,0.241587,-1.000000,-1.000000,-1.000000,0.999818,-1.000000,-1.000000,0.368771,-1.000000,-1.000000,-1.000000,-1.000000,-1.000000,-1.000000,-1.000000,-1.000000,0.999837,0.999838,-1.000000,0.601546,0.346925,0.497867,0.886102,-1.000000,0.532504,-1.000000,0.999852,0.970421,-1.000000,0.575698,-1.000000,-1.000000,-1.000000,-1.000000,-1.000000,-1.000000,0.497881,0.670319,-1.000000,-1.000000,0.428392,0.999875,0.532522,0.276801,0.987352,0.601573,-1.000000,-1.000000,-1.000000,0.999888,-1.000000,0.999891,0.731681,0.999894,-1.000000,-1.000000,0.919961,-1.000000,0.999901,-1.000000,0.999904,0.532540,-1.000000,-1.000000,-1.000000,0.999912,0.805573,0.450165,-1.000000,-1.000000,0.241635,0.210787,-1.000000,-1.000000,-1.000000,0.828442,0.999929,-1.000000,-1.000000,0.536882,-1.000000,-1.000000,0.135630,0.532562,0.999941,0.874903,-1.000000,0.450183,0.894654,-1.000000,-1.000000,0.670380,-1.000000,-1.000000,-1.000000,-1.000000,-1.000000,-1.000000,0.987435,-1.000000,-1.000000,
-1.000000,0.999351,-1.000000,-1.000000,0.969936,0.999358,-1.000000,-1.000000,-1.000000,0.999364,-1.000000,-1.000000,-1.000000,-1.000000,0.999371,0.999373,-1.000000,0.624171,0.999378,0.639927,-1.000000,-1.000000,-1.000000,0.999385,0.999387,0.999388,0.999390,0.999391,-1.000000,0.999395,-1.000000,-1.000000,-1.000000,0.999401,-1.000000,-1.000000,-1.000000,0.999407,-1.000000,-1.000000,-1.000000,0.416433,-1.000000,-1.000000,0.555273,-1.000000,-1.000000,-1.000000,-1.000000,0.999425,0.999427,-1.000000,0.999430,-1.000000,-1.000000,-1.000000,-1.000000,0.999438,-1.000000,0.135438,-1.000000,-1.000000,-1.000000,0.999447,0.991128,0.999450,-1.000000,-1.000000,-1.000000,-1.000000,-1.000000,0.999459,-1.000000,-1.000000,0.999464,-1.000000,-1.000000,0.704283,0.942056,-1.000000,-1.000000,-1.000000,0.999476,0.999478,-1.000000,-1.000000,0.999482,-1.000000,0.999485,0.999487,-1.000000,0.999490,-1.000000,-1.000000,-1.000000,0.999496,-1.000000,0.999499,0.999501,-1.000000,-1.000000,0.999505,0.999507,-1.000000,-1.000000,-1.000000,0.999513,-1.000000,-1.000000,-1.000000,-1.000000,0.999521,-1.000000,-1.000000,-1.000000,-1.000000,0.999529,-1.000000,-1.000000,-1.000000,-1.000000,0.999536,-1.000000,-1.000000,-1.000000,0.999542,0.999544,-1.000000,-1.000000,-1.000000,0.999550,-1.000000,0.999553,0.999555,0.999556,-1.000000,-1.000000,-1.000000,0.999562,0.670096,-1.000000,-1.000000,-1.000000,0.784016,0.885855,0.919658,-1.000000,0.975840,-1.000000,-1.000000,0.999581,-1.000000,-1.000000,-1.000000,-1.000000,0.999589,0.999590,0.908416,-1.000000,-1.000000,0.999596,-1.000000,-1.000000,0.555392,-1.000000,-1.000000,-1.000000,-1.000000,-1.000000,-1.000000,0.999612,-1.000000,-1.000000,0.999616,-1.000000,-1.000000,-1.000000,-1.000000,-1.000000,-1.000000,0.999627,0.999629,-1.000000,0.987107,-1.000000,-1.000000,-1.000000,0.999638,-1.000000,-1.000000,0.999643,-1.000000,0.999646,-1.000000,0.999649,-1.000000,0.532379,-1.000000,-1.000000,0.874647,0.999658,0.999659,-1.000000,-1.000000,-1.000000,-1.000000,-1.000000,-1.000000,-1.000000,-1.000000,0.999673,-1.000000,-1.000000,0.555442,0.999680,-1.000000,0.635847,-1.000000,0.999686,-1.000000,0.999689,-1.000000,-1.000000,-1.000000,-1.000000,0.999696,-1.000000,0.837956,0.999701,0.999703,-1.000000,-1.000000,-1.000000,-1.000000,-1.000000,-1.000000,-1.000000,0.999715,-1.000000,-1.000000,-1.000000,0.874705,-1.000000,-1.000000,-1.000000,-1.000000,-1.000000,-1.000000,0.999732,0.999733,-1.000000,0.999737,-1.000000,-1.000000,-1.000000,-1.000000,0.311844,-1.000000,0.999747,-1.000000,-1.000000,0.999752,-1.000000,-1.000000,-1.000000,-1.000000,0.999760,-1.000000,-1.000000,0.999764,0.999766,-1.000000,-1.000000,-1.000000,-1.000000,0.999773,-1.000000,-1.000000,-1.000000,-1.000000,-1.000000,-1.000000,0.999784,-1.000000,-1.000000,-1.000000,-1.000000,0.999792,-1.000000,-1.000000,0.999797,-1.000000,0.999800,0.999801,-1.000000,-1.000000,-1.000000,-1.000000,0.999809,0.999810,0.999812,-1.000000,-1.000000,-1.000000,-1.000000,0.806912,0.999821,-1.000000,0.999824,0.999826,-1.000000,-1.000000,0.999831,-1.000000,-1.000000,0.845144,-1.000000,-1.000000,-1.000000,-1.000000,-1.000000,-1.000000,-1.000000,-1.000000,-1.000000,-1.000000,-1.000000,0.999854,-1.000000,-1.000000,-1.000000,-1.000000,-1.000000,0.999863,-1.000000,0.640273,-1.000000,0.416779,0.999871,-1.000000,-1.000000,-1.000000,-1.000000,-1.000000,-1.000000,0.999881,0.999883,-1.000000,-1.000000,-1.000000,-1.000000,0.999891,0.999892,-1.000000,-1.000000,0.555583,-1.000000,-1.000000,-1.000000,0.567100,0.451607,-1.000000,-1.000000,-1.000000,-1.000000,-1.000000,-1.000000,0.999915,-1.000000,-1.000000,0.999920,-1.000000,-1.000000,-1.000000,-1.000000,-1.000000,0.999929,0.970496,-1.000000,-1.000000,0.999935,-1.000000,-1.000000,-1.000000,-1.000000,0.999943,-1.000000,-1.000000,-1.000000,-1.000000,-1.000000,0.999952,0.999954,-1.000000,0.999957,-1.000000,0.314019,0.970526,0.841012,-1.000000,
-1.000000,-1.000000,0.416492,0.566739,0.964405,-1.000000,0.999358,-1.000000,-1.000000,-1.000000,-1.000000,0.999365,-1.000000,-1.000000,-1.000000,-1.000000,0.999373,-1.000000,-1.000000,0.999378,0.738397,0.908222,-1.000000,-1.000000,-1.000000,-1.000000,-1.000000,-1.000000,-1.000000,0.999393,-1.000000,0.999396,-1.000000,-1.000000,-1.000000,0.999402,-1.000000,-1.000000,-1.000000,-1.000000,0.999410,-1.000000,-1.000000,0.999415,-1.000000,-1.000000,-1.000000,-1.000000,0.999422,-1.000000,-1.000000,-1.000000,-1.000000,0.999430,-1.000000,-1.000000,-1.000000,-1.000000,-1.000000,-1.000000,-1.000000,0.999442,-1.000000,0.999445,0.999447,0.999448,-1.000000,0.999452,-1.000000,0.999455,-1.000000,-1.000000,-1.000000,-1.000000,-1.000000,0.999464,0.999465,-1.000000,0.999468,-1.000000,-1.000000,-1.000000,-1.000000,-1.000000,-1.000000,0.999479,-1.000000,0.999482,-1.000000,0.999485,-1.000000,0.999488,-1.000000,0.999492,-1.000000,-1.000000,-1.000000,-1.000000,-1.000000,0.908332,-1.000000,-1.000000,-1.000000,0.999507,-1.000000,0.999510,-1.000000,-1.000000,-1.000000,-1.000000,-1.000000,0.999519,-1.000000,-1.000000,0.999524,0.999525,-1.000000,-1.000000,-1.000000,0.999532,0.999533,-1.000000,-1.000000,-1.000000,0.999539,-1.000000,-1.000000,0.999544,-1.000000,-1.000000,-1.000000,-1.000000,-1.000000,-1.000000,-1.000000,0.999556,0.999558,-1.000000,0.999561,-1.000000,-1.000000,-1.000000,-1.000000,0.999569,0.999570,0.999572,-1.000000,-1.000000,0.999576,-1.000000,-1.000000,-1.000000,0.999582,-1.000000,0.999586,-1.000000,-1.000000,0.999590,-1.000000,-1.000000,-1.000000,-1.000000,-1.000000,-1.000000,-1.000000,-1.000000,-1.000000,-1.000000,-1.000000,-1.000000,-1.000000,-1.000000,0.999613,0.999615,-1.000000,-1.000000,-1.000000,-1.000000,-1.000000,-1.000000,-1.000000,-1.000000,-1.000000,0.999630,0.999632,-1.000000,-1.000000,-1.000000,0.999638,0.999639,-1.000000,0.999643,-1.000000,-1.000000,0.999647,0.999649,-1.000000,-1.000000,0.999653,-1.000000,0.999656,-1.000000,-1.000000,0.999661,0.999663,-1.000000,-1.000000,-1.000000,-1.000000,-1.000000,-1.000000,-1.000000,0.999675,0.999676,-1.000000,-1.000000,-1.000000,-1.000000,0.999684,0.999686,-1.000000,0.999689,-1.000000,-1.000000,0.999693,-1.000000,-1.000000,0.999698,-1.000000,0.999701,0.999703,-1.000000,-1.000000,0.999707,-1.000000,0.999710,-1.000000,0.999713,-1.000000,-1.000000,-1.000000,-1.000000,0.999721,-1.000000,-1.000000,0.999726,-1.000000,0.999729,0.999730,0.999732,0.999733,-1.000000,-1.000000,-1.000000,-1.000000,0.999741,0.999743,-1.000000,-1.000000,-1.000000,0.852136,0.999750,-1.000000,-1.000000,-1.000000,0.999757,0.999758,-1.000000,-1.000000,-1.000000,0.999764,-1.000000,-1.000000,-1.000000,-1.000000,-1.000000,-1.000000,-1.000000,-1.000000,0.692646,-1.000000,0.999781,0.999783,-1.000000,-1.000000,-1.000000,-1.000000,-1.000000,-1.000000,-1.000000,-1.000000,-1.000000,0.999798,-1.000000,0.999801,-1.000000,0.999804,-1.000000,-1.000000,-1.000000,-1.000000,-1.000000,-1.000000,-1.000000,-1.000000,-1.000000,0.999820,-1.000000,-1.000000,0.999824,0.999826,-1.000000,-1.000000,-1.000000,0.999832,0.999834,0.999835,0.999837,0.999838,-1.000000,-1.000000,-1.000000,-1.000000,-1.000000,-1.000000,-1.000000,0.999851,0.999852,-1.000000,-1.000000,-1.000000,0.999858,0.999860,0.999861,-1.000000,-1.000000,0.999866,0.999867,-1.000000,-1.000000,-1.000000,-1.000000,-1.000000,-1.000000,0.999878,-1.000000,-1.000000,-1.000000,-1.000000,-1.000000,-1.000000,-1.000000,0.999891,0.999892,0.999894,-1.000000,0.999897,0.999898,-1.000000,0.772930,0.999903,-1.000000,-1.000000,-1.000000,-1.000000,-1.000000,-1.000000,-1.000000,0.999915,-1.000000,-1.000000,0.999920,-1.000000,0.999923,-1.000000,0.999926,-1.000000,-1.000000,-1.000000,-1.000000,0.743101,-1.000000,0.704638,-1.000000,0.970505,-1.000000,0.999943,-1.000000,0.999946,-1.000000,-1.000000,-1.000000,-1.000000,-1.000000,0.999955,0.999957,-1.000000,-1.000000,-1.000000,0.999963,
-1.000000,0.999348,-1.000000,-1.000000,-1.000000,-1.000000,0.999356,0.999358,-1.000000,-1.000000,-1.000000,0.999364,0.999365,0.999367,-1.000000,-1.000000,0.999371,0.999373,0.999375,0.999376,0.999378,0.999379,-1.000000,-1.000000,-1.000000,0.999385,0.999387,0.999388,-1.000000,0.999391,-1.000000,-1.000000,-1.000000,0.999398,-1.000000,-1.000000,0.999402,-1.000000,0.999405,0.999407,0.999408,-1.000000,-1.000000,-1.000000,-1.000000,-1.000000,0.999418,0.999419,0.999421,0.999422,-1.000000,-1.000000,-1.000000,-1.000000,-1.000000,0.999432,0.999433,0.999435,0.999436,-1.000000,0.999439,0.999441,0.999442,0.999444,-1.000000,0.999447,-1.000000,-1.000000,0.999452,0.999453,0.999455,-1.000000,0.999458,-1.000000,-1.000000,-1.000000,-1.000000,0.999465,-1.000000,-1.000000,-1.000000,-1.000000,-1.000000,0.999475,-1.000000,-1.000000,0.999479,0.999481,-1.000000,-1.000000,-1.000000,-1.000000,0.999488,0.999490,-1.000000,-1.000000,-1.000000,-1.000000,-1.000000,-1.000000,0.999501,-1.000000,-1.000000,0.999505,0.999507,-1.000000,0.999510,-1.000000,-1.000000,0.999515,-1.000000,-1.000000,-1.000000,-1.000000,-1.000000,0.999524,-1.000000,0.999527,-1.000000,0.999530,0.999532,-1.000000,-1.000000,-1.000000,-1.000000,-1.000000,-1.000000,-1.000000,-1.000000,-1.000000,0.999547,-1.000000,-1.000000,0.999552,-1.000000,-1.000000,-1.000000,-1.000000,-1.000000,-1.000000,-1.000000,-1.000000,-1.000000,-1.000000,0.999569,-1.000000,0.999572,0.999573,0.999575,0.999576,-1.000000,-1.000000,-1.000000,0.999582,0.999584,0.999586,0.999587,-1.000000,-1.000000,-1.000000,-1.000000,0.999595,-1.000000,0.999598,0.999599,-1.000000,-1.000000,-1.000000,-1.000000,0.999607,0.999609,0.999610,-1.000000,-1.000000,0.999615,0.999616,-1.000000,-1.000000,-1.000000,-1.000000,0.999624,0.999626,-1.000000,0.999629,-1.000000,-1.000000,0.999633,-1.000000,0.999636,-1.000000,-1.000000,0.999641,-1.000000,-1.000000,-1.000000,0.999647,-1.000000,0.999650,-1.000000,-1.000000,-1.000000,-1.000000,0.999658,-1.000000,-1.000000,-1.000000,-1.000000,-1.000000,-1.000000,0.999669,-1.000000,0.999672,-1.000000,0.999675,-1.000000,0.999678,-1.000000,0.999681,-1.000000,-1.000000,-1.000000,-1.000000,0.999689,-1.000000,-1.000000,-1.000000,-1.000000,-1.000000,0.999698,-1.000000,-1.000000,-1.000000,-1.000000,-1.000000,-1.000000,0.999709,-1.000000,0.999712,-1.000000,-1.000000,-1.000000,-1.000000,0.999720,0.999721,-1.000000,-1.000000,-1.000000,0.999727,-1.000000,-1.000000,0.999732,0.999733,-1.000000,-1.000000,-1.000000,0.999740,-1.000000,-1.000000,-1.000000,-1.000000,-1.000000,-1.000000,0.999750,0.999752,-1.000000,-1.000000,-1.000000,-1.000000,0.999760,-1.000000,0.999763,-1.000000,0.999766,-1.000000,0.999769,-1.000000,0.999772,0.999773,0.999775,-1.000000,0.999778,-1.000000,-1.000000,0.999783,0.999784,-1.000000,0.999787,-1.000000,-1.000000,0.999792,0.999794,0.999795,0.999797,0.999798,-1.000000,-1.000000,-1.000000,-1.000000,-1.000000,0.999807,0.999809,-1.000000,0.999812,0.999814,0.999815,-1.000000,-1.000000,-1.000000,0.999821,-1.000000,-1.000000,-1.000000,0.999827,-1.000000,-1.000000,0.999832,-1.000000,0.999835,-1.000000,0.999838,-1.000000,-1.000000,-1.000000,-1.000000,-1.000000,0.999847,-1.000000,0.999851,-1.000000,-1.000000,-1.000000,0.999857,0.999858,0.999860,-1.000000,0.999863,-1.000000,0.999866,0.999867,0.999869,-1.000000,-1.000000,0.999874,-1.000000,-1.000000,0.999878,-1.000000,-1.000000,0.999883,0.999884,-1.000000,0.999888,-1.000000,-1.000000,-1.000000,0.999894,0.999895,0.999897,0.999898,-1.000000,0.999901,0.999903,-1.000000,-1.000000,0.999908,-1.000000,-1.000000,-1.000000,0.999914,-1.000000,0.999917,0.999918,-1.000000,0.999921,-1.000000,-1.000000,0.999926,0.999928,0.999929,-1.000000,-1.000000,0.999934,0.999935,0.999937,-1.000000,-1.000000,0.999941,-1.000000,-1.000000,-1.000000,-1.000000,0.999949,-1.000000,-1.000000,-1.000000,-1.000000,-1.000000,-1.000000,0.999960,-1.000000,
0.999345,-1.000000,0.806517,-1.000000,-1.000000,-1.000000,-1.000000,0.497570,-1.000000,-1.000000,0.919461,0.497574,-1.000000,0.497575,-1.000000,-1.000000,-1.000000,-1.000000,-1.000000,0.168844,0.999376,-1.000000,-1.000000,-1.000000,-1.000000,0.999384,0.999385,0.669966,-1.000000,-1.000000,-1.000000,0.919491,-1.000000,-1.000000,0.462897,-1.000000,-1.000000,-1.000000,0.566772,-1.000000,0.851837,0.170830,0.953233,-1.000000,-1.000000,-1.000000,-1.000000,-1.000000,0.497608,0.999421,0.999422,-1.000000,-1.000000,-1.000000,0.566788,-1.000000,-1.000000,-1.000000,0.817919,0.749820,0.999438,-1.000000,0.241422,0.416542,0.817927,-1.000000,0.135441,-1.000000,0.999450,-1.000000,0.241427,0.462931,-1.000000,-1.000000,-1.000000,-1.000000,-1.000000,0.986941,0.783930,-1.000000,0.919561,-1.000000,-1.000000,-1.000000,-1.000000,0.307834,-1.000000,-1.000000,0.532271,-1.000000,0.206189,-1.000000,-1.000000,-1.000000,0.462951,-1.000000,0.999493,-1.000000,-1.000000,0.428181,-1.000000,0.999501,-1.000000,-1.000000,-1.000000,-1.000000,0.817982,-1.000000,-1.000000,0.276631,0.135467,0.635729,-1.000000,0.169467,-1.000000,-1.000000,-1.000000,-1.000000,-1.000000,0.497675,-1.000000,0.601335,-1.000000,-1.000000,0.999536,0.999538,-1.000000,-1.000000,0.783993,-1.000000,-1.000000,-1.000000,-1.000000,-1.000000,-1.000000,0.670088,0.601351,-1.000000,-1.000000,0.311754,0.999561,0.635762,-1.000000,0.738543,-1.000000,-1.000000,-1.000000,-1.000000,-1.000000,-1.000000,-1.000000,-1.000000,0.601367,-1.000000,-1.000000,-1.000000,0.999586,-1.000000,0.885870,-1.000000,-1.000000,-1.000000,-1.000000,-1.000000,-1.000000,-1.000000,0.919684,0.784043,-1.000000,-1.000000,-1.000000,-1.000000,0.999610,-1.000000,-1.000000,-1.000000,-1.000000,0.532358,-1.000000,-1.000000,0.999623,-1.000000,-1.000000,0.135510,-1.000000,-1.000000,0.772711,-1.000000,0.999635,-1.000000,-1.000000,-1.000000,-1.000000,0.566929,0.451457,-1.000000,-1.000000,-1.000000,0.999650,-1.000000,0.999653,0.999655,-1.000000,-1.000000,0.999659,-1.000000,-1.000000,-1.000000,0.135525,0.784096,-1.000000,-1.000000,-1.000000,-1.000000,0.772746,0.206271,-1.000000,-1.000000,0.497768,-1.000000,0.999684,-1.000000,-1.000000,-1.000000,0.772758,0.999692,-1.000000,-1.000000,-1.000000,0.908514,0.818144,0.566967,-1.000000,-1.000000,0.206283,-1.000000,-1.000000,0.999710,-1.000000,-1.000000,-1.000000,-1.000000,-1.000000,0.206289,-1.000000,0.670212,0.818164,0.463089,0.999727,0.704480,-1.000000,0.999732,-1.000000,-1.000000,0.818175,-1.000000,-1.000000,-1.000000,0.170965,-1.000000,0.999746,-1.000000,-1.000000,-1.000000,-1.000000,-1.000000,-1.000000,0.601488,-1.000000,-1.000000,-1.000000,-1.000000,-1.000000,0.919838,0.999767,-1.000000,-1.000000,0.738705,-1.000000,-1.000000,-1.000000,0.953586,-1.000000,0.704520,-1.000000,0.852167,-1.000000,0.886050,0.463126,-1.000000,-1.000000,-1.000000,-1.000000,-1.000000,-1.000000,-1.000000,0.601518,-1.000000,-1.000000,0.170991,0.999807,0.594345,0.999810,0.601526,-1.000000,-1.000000,-1.000000,-1.000000,-1.000000,-1.000000,0.567047,-1.000000,-1.000000,-1.000000,0.171000,-1.000000,-1.000000,-1.000000,0.416760,0.601543,0.601544,0.601545,-1.000000,0.886100,-1.000000,-1.000000,-1.000000,0.852224,-1.000000,-1.000000,-1.000000,-1.000000,-1.000000,0.670311,0.135263,0.999861,-1.000000,-1.000000,-1.000000,-1.000000,0.999869,0.463174,0.999872,-1.000000,0.818292,-1.000000,-1.000000,-1.000000,-1.000000,0.874850,-1.000000,-1.000000,-1.000000,-1.000000,0.497895,-1.000000,-1.000000,0.567095,-1.000000,0.987371,-1.000000,0.999901,0.670344,0.135617,-1.000000,-1.000000,-1.000000,-1.000000,0.206371,0.416804,-1.000000,0.818328,-1.000000,-1.000000,-1.000000,-1.000000,0.999924,0.497917,0.463207,0.999929,-1.000000,0.999932,0.886182,0.171043,-1.000000,0.100140,0.276830,-1.000000,-1.000000,-1.000000,-1.000000,-1.000000,-1.000000,0.636036,-1.000000,-1.000000,0.999955,-1.000000,-1.000000,-1.000000,
