minWeight=-1.000000, maxWeight=1.000000
0.451306,0.214966,0.467231,-1.000000,-1.000000,-1.000000,0.335029,-1.000000,-1.000000,-1.000000,-1.000000,-1.000000,0.923637,-1.000000,0.969983,-1.000000,0.203215,-1.000000,0.345246,0.037670,-1.000000,-1.000000,-1.000000,-0.281847,0.037672,0.591211,0.764020,0.944741,0.944742,-1.000000,-1.000000,-1.000000,0.548003,-1.000000,-1.000000,-1.000000,-1.000000,-1.000000,0.488954,0.698559,-1.000000,0.501956,0.458584,0.409287,0.717096,-1.000000,-1.000000,-1.000000,0.529373,-1.000000,0.817859,0.881444,-1.000000,0.932133,-1.000000,-1.000000,-1.000000,0.261963,-1.000000,-1.000000,-1.000000,-1.000000,-1.000000,0.283934,0.163489,-1.000000,-1.000000,-1.000000,-1.000000,-1.000000,0.783870,-1.000000,-1.000000,-1.000000,-1.000000,-1.000000,-0.176137,0.057002,-1.000000,0.471642,-1.000000,0.999507,-1.000000,-0.254586,0.999512,-1.000000,-1.000000,-1.000000,-1.000000,-1.000000,0.496143,0.940620,-1.000000,0.970102,-1.000000,0.429649,0.198854,-1.000000,-1.000000,-1.000000,-1.000000,0.801007,-1.000000,-1.000000,0.999542,-1.000000,-1.000000,-1.000000,0.513485,0.898439,-1.000000,0.523667,-1.000000,-1.000000,-1.000000,-1.000000,-1.000000,0.012444,-1.000000,0.552490,-1.000000,0.818033,-0.239457,-1.000000,-1.000000,0.316144,-1.000000,-1.000000,-1.000000,0.911141,-1.000000,-1.000000,-1.000000,-1.000000,-1.000000,-1.000000,-1.000000,-1.000000,-1.000000,0.371564,0.690033,0.042189,-1.000000,-1.000000,-1.000000,-1.000000,-1.000000,0.062974,-1.000000,0.911170,-1.000000,-1.000000,-1.000000,0.605698,0.999619,0.881669,-1.000000,0.134032,-1.000000,0.357017,-1.000000,-1.000000,0.754240,-1.000000,-1.000000,0.732906,-1.000000,-1.000000,0.940733,0.911198,0.809518,-0.254558,-1.000000,0.999649,0.445665,0.645847,-1.000000,-1.000000,-1.000000,0.232712,0.881623,-0.248507,-1.000000,0.750001,0.796861,-1.000000,0.970241,-1.000000,-1.000000,0.940764,0.911228,-1.000000,0.911231,0.970252,-1.000000,0.477533,-1.000000,-1.000000,0.614353,0.715854,-1.000000,-1.000000,-1.000000,-1.000000,-1.000000,-1.000000,-1.000000,0.999701,-1.000000,0.970276,-1.000000,0.940796,0.970280,-1.000000,0.847783,0.999713,0.055592,-1.000000,-1.000000,-1.000000,0.970292,-1.000000,-1.000000,-1.000000,0.046688,-1.000000,-1.000000,0.999732,0.999733,0.970306,-1.000000,-1.000000,0.881695,-1.000000,-1.000000,0.940831,0.936616,-1.000000,-1.000000,-0.090500,-1.000000,-0.041156,0.428326,0.470344,0.919750,0.008042,-1.000000,-1.000000,-1.000000,-1.000000,-1.000000,0.911315,0.940856,0.552541,-1.000000,-1.000000,0.621584,-1.000000,0.393484,0.437043,0.999783,-1.000000,-1.000000,-0.216762,-1.000000,-0.062060,-1.000000,-1.000000,-1.000000,-1.000000,-1.000000,-1.000000,0.881751,-1.000000,0.911348,-1.000000,0.839383,-1.000000,-1.000000,0.263585,-0.020248,-1.000000,-1.000000,-1.000000,0.999820,-1.000000,-1.000000,0.970393,0.788402,-1.000000,-1.000000,0.673067,0.796918,0.822424,0.970403,-1.000000,-1.000000,-1.000000,0.248936,-1.000000,-1.000000,-1.000000,0.003604,-1.000000,-1.000000,-1.000000,0.869097,0.932501,0.970424,-0.147476,-1.000000,-1.000000,0.839431,-1.000000,-1.000000,-1.000000,-1.000000,-0.135455,0.741630,-1.000000,-1.000000,-1.000000,-1.000000,-1.000000,0.911419,-1.000000,-1.000000,0.216568,0.801218,-1.000000,-1.000000,0.809726,0.915654,-1.000000,-1.000000,0.140046,-1.000000,0.915742,-1.000000,0.809817,-1.000000,-1.000000,0.724573,0.070496,-1.000000,-1.000000,-1.000000,-1.000000,-1.000000,0.771443,0.839481,-1.000000,-1.000000,-1.000000,0.559922,-1.000000,0.941008,0.033385,-1.000000,-1.000000,0.402290,0.903101,-1.000000,-1.000000,-1.000000,-1.000000,0.141541,-1.000000,0.881884,0.881885,0.911485,-1.000000,0.941031,-1.000000,-1.000000,-1.000000,0.179895,-1.000000,-1.000000,0.519598,0.945259,0.835359,0.949557,-1.000000,0.076449,-1.000000,-1.000000,-1.000000,0.860736,-1.000000,-1.000000,0.456000,-1.000000,-1.000000,-1.000000,-1.000000,0.941066,-1.000000,-1.000000,-1.000000,
-1.000000,0.970042,0.999384,-1.000000,-1.000000,-1.000000,0.999390,-1.000000,-1.000000,0.969974,-1.000000,-1.000000,-1.000000,-1.000000,-1.000000,-1.000000,-1.000000,0.969986,-1.000000,0.999410,0.999411,0.999413,-1.000000,0.999416,-1.000000,0.969998,-1.000000,0.999422,-1.000000,0.856010,0.826324,0.923663,0.944747,0.970010,0.911005,0.970013,0.999436,-1.000000,0.999439,-1.000000,0.999442,0.999444,-1.000000,-1.000000,-1.000000,-1.000000,-1.000000,0.970031,0.898352,-1.000000,0.940559,0.970037,-1.000000,-1.000000,-1.000000,-1.000000,0.970044,-1.000000,0.999470,0.999472,0.999473,0.999475,0.970053,-1.000000,0.970057,0.970058,-1.000000,-1.000000,0.932153,0.873004,0.970066,-1.000000,-1.000000,0.970070,-1.000000,-1.000000,-1.000000,-1.000000,-1.000000,0.999502,-1.000000,-1.000000,-1.000000,0.970085,0.970087,0.970088,0.978502,0.898407,0.940614,0.940616,-1.000000,-1.000000,-1.000000,0.911089,0.940623,-1.000000,-1.000000,0.970106,-1.000000,0.999533,-1.000000,0.999536,-1.000000,-1.000000,-1.000000,-1.000000,0.982737,-1.000000,0.940644,0.940645,-1.000000,0.940648,-1.000000,-1.000000,-1.000000,0.974340,-1.000000,0.919567,0.864603,-1.000000,0.999566,-1.000000,-1.000000,0.856137,-1.000000,0.902686,0.999575,0.999576,-1.000000,0.940674,0.928025,0.873090,-1.000000,-1.000000,-1.000000,-1.000000,-1.000000,0.715699,0.651447,0.873101,-1.000000,-1.000000,0.970174,0.591251,0.817981,-1.000000,-1.000000,-1.000000,-1.000000,0.940704,0.834971,0.940706,-1.000000,-1.000000,-1.000000,-1.000000,-1.000000,-1.000000,-1.000000,-1.000000,0.970201,0.970202,0.792496,-1.000000,0.839232,0.970208,-1.000000,-1.000000,0.940731,0.911197,-1.000000,-1.000000,-1.000000,-1.000000,-1.000000,-1.000000,-1.000000,-1.000000,-1.000000,-1.000000,0.628667,-1.000000,0.919660,-1.000000,0.940755,0.940756,0.940758,0.940759,-1.000000,-1.000000,0.919671,-1.000000,-1.000000,-1.000000,0.970252,-1.000000,-1.000000,-1.000000,-1.000000,-1.000000,-1.000000,-1.000000,-1.000000,0.864719,0.999695,-1.000000,0.940787,-1.000000,0.940790,0.940791,0.940793,0.940794,-1.000000,-1.000000,-1.000000,-1.000000,-1.000000,-1.000000,-1.000000,-1.000000,-1.000000,-1.000000,-1.000000,-1.000000,-1.000000,-1.000000,0.999729,-1.000000,0.970303,-1.000000,0.940822,0.940823,0.940825,-1.000000,-1.000000,0.970313,-1.000000,-1.000000,-1.000000,-1.000000,-1.000000,-1.000000,-1.000000,-1.000000,-1.000000,-1.000000,-1.000000,-1.000000,-1.000000,0.970334,-1.000000,0.847832,-1.000000,-1.000000,-1.000000,-1.000000,-1.000000,-1.000000,-1.000000,-1.000000,-1.000000,-1.000000,-1.000000,-1.000000,-1.000000,-1.000000,-1.000000,-1.000000,-1.000000,-1.000000,-1.000000,-1.000000,-1.000000,-1.000000,0.999803,0.999804,0.961956,-1.000000,-1.000000,-1.000000,-1.000000,0.940897,0.978798,0.919805,0.907136,-1.000000,-1.000000,-1.000000,-1.000000,-1.000000,-1.000000,0.940911,-1.000000,0.940914,0.970402,-1.000000,-1.000000,-1.000000,-1.000000,-1.000000,-1.000000,0.945141,0.970414,0.894483,0.991445,-1.000000,-1.000000,-1.000000,-1.000000,-1.000000,0.970426,0.932506,0.911401,-1.000000,-1.000000,-1.000000,0.999867,0.940949,-1.000000,-1.000000,0.974649,-1.000000,-1.000000,0.957815,0.999880,-1.000000,-1.000000,0.919868,0.813971,0.940967,0.970456,-1.000000,0.911429,0.940973,0.970462,0.999897,-1.000000,0.999900,-1.000000,-1.000000,0.970471,-1.000000,-1.000000,0.962056,-1.000000,-1.000000,-1.000000,0.949424,0.949425,-1.000000,0.852205,0.886090,0.911457,0.915683,0.999926,-1.000000,0.999929,-1.000000,-1.000000,-1.000000,-1.000000,0.970502,0.970504,0.970505,0.970507,-1.000000,-1.000000,0.941022,0.890344,0.941025,-1.000000,-1.000000,0.945246,-1.000000,0.978937,-1.000000,-1.000000,0.970526,0.945255,-1.000000,0.999966,0.999968,0.970534,-1.000000,0.970537,-1.000000,0.970540,-1.000000,0.970543,-1.000000,-1.000000,0.970547,0.860740,0.919963,-1.000000,0.999989,-1.000000,-1.000000,-1.000000,-1.000000,
0.974165,-1.000000,0.321890,0.860290,-1.000000,-1.000000,-1.000000,-1.000000,-1.000000,-1.000000,-1.000000,-1.000000,-1.000000,-1.000000,-1.000000,-1.000000,-1.000000,-1.000000,-1.000000,0.409265,-1.000000,-1.000000,-1.000000,-1.000000,-1.000000,-1.000000,-1.000000,-1.000000,-1.000000,-1.000000,-1.000000,-1.000000,-1.000000,-1.000000,-1.000000,-1.000000,-1.000000,-1.000000,-1.000000,-1.000000,-1.000000,-1.000000,-1.000000,-1.000000,-1.000000,-1.000000,-1.000000,-1.000000,-1.000000,-1.000000,-1.000000,0.999458,-1.000000,-1.000000,-1.000000,-1.000000,-1.000000,-1.000000,-1.000000,-1.000000,-1.000000,0.885685,-1.000000,-1.000000,0.885690,-1.000000,0.894149,0.940582,-1.000000,0.999485,0.999487,0.999488,0.999490,0.999492,0.999493,0.978484,-1.000000,0.839115,0.834874,-1.000000,0.974286,0.822144,-1.000000,0.851844,-1.000000,0.940609,0.970088,0.999513,0.999515,0.970093,-1.000000,0.999519,-1.000000,-1.000000,0.999524,0.999525,0.881504,-1.000000,-1.000000,0.944844,0.944845,0.860343,0.889972,0.813678,0.970115,-1.000000,-1.000000,0.999544,0.970121,0.970123,0.970124,0.970126,0.970127,0.970129,0.999555,0.817941,-1.000000,-1.000000,-1.000000,0.974344,0.881537,0.728498,0.741309,-1.000000,0.970145,-1.000000,0.999573,0.999575,-1.000000,-1.000000,-1.000000,-1.000000,0.970157,0.970159,0.970160,-1.000000,0.999589,0.957537,-1.000000,-1.000000,-1.000000,-1.000000,0.864635,0.970174,0.970175,-1.000000,0.970178,0.999606,-1.000000,0.999609,-1.000000,-1.000000,0.999613,-1.000000,0.970190,-1.000000,-1.000000,0.928062,0.978609,-1.000000,-1.000000,0.919628,-1.000000,-1.000000,-1.000000,0.999633,-1.000000,-1.000000,-1.000000,-1.000000,-1.000000,-1.000000,-1.000000,-1.000000,0.970220,0.970222,0.970223,-1.000000,-1.000000,-1.000000,-1.000000,0.974438,-1.000000,-1.000000,0.970235,-1.000000,-1.000000,-1.000000,-1.000000,0.987065,-1.000000,-1.000000,-1.000000,-1.000000,0.999678,0.970252,0.970253,0.944987,-1.000000,-1.000000,-1.000000,-1.000000,0.974469,-1.000000,-1.000000,-1.000000,-1.000000,-1.000000,-1.000000,0.999701,-1.000000,-1.000000,0.999706,-1.000000,0.999709,0.970282,0.945015,-1.000000,-1.000000,-1.000000,-1.000000,-1.000000,-1.000000,-1.000000,-1.000000,-1.000000,-1.000000,-1.000000,0.999730,-1.000000,0.970304,0.970306,0.970307,-1.000000,0.999740,0.953470,-1.000000,-1.000000,0.928180,-1.000000,0.999749,-1.000000,-1.000000,0.970324,-1.000000,-1.000000,-1.000000,-1.000000,0.970331,-1.000000,-1.000000,0.970336,0.999767,0.999769,-1.000000,0.970342,0.970343,0.911321,-1.000000,-1.000000,-1.000000,-1.000000,-1.000000,-1.000000,0.999786,-1.000000,-1.000000,-1.000000,-1.000000,-1.000000,0.970364,0.970366,0.999798,0.999800,0.999801,-1.000000,0.940888,-1.000000,-1.000000,-1.000000,0.970379,-1.000000,-1.000000,-1.000000,-1.000000,-1.000000,-1.000000,-1.000000,-1.000000,0.999824,-1.000000,-1.000000,-1.000000,-1.000000,-1.000000,-1.000000,0.911376,-1.000000,-1.000000,-1.000000,0.999841,-1.000000,-1.000000,-1.000000,-1.000000,-1.000000,-1.000000,-1.000000,-1.000000,-1.000000,0.999857,-1.000000,-1.000000,0.999861,0.970430,0.970432,-1.000000,-1.000000,-1.000000,-1.000000,0.970439,0.843683,0.970442,-1.000000,-1.000000,-1.000000,-1.000000,-1.000000,0.970451,-1.000000,0.999888,0.999889,-1.000000,-1.000000,-1.000000,0.970462,-1.000000,-1.000000,-1.000000,-1.000000,-1.000000,-1.000000,-1.000000,0.999908,-1.000000,0.890311,0.886082,-1.000000,0.852201,0.991513,-1.000000,0.970486,-1.000000,0.970489,-1.000000,-1.000000,-1.000000,0.750130,-1.000000,-1.000000,-1.000000,-1.000000,-1.000000,-1.000000,0.932581,-1.000000,0.970508,-1.000000,0.945238,0.945240,-1.000000,0.970516,0.970517,0.999954,-1.000000,0.999957,-1.000000,0.941035,0.593012,0.440046,0.941040,0.970531,0.941043,0.941044,-1.000000,0.999972,-1.000000,-1.000000,0.945268,-1.000000,0.970544,-1.000000,-1.000000,0.911514,-1.000000,-1.000000,0.949495,-1.000000,-1.000000,0.999994,
-1.000000,0.150175,-1.000000,-1.000000,-1.000000,-1.000000,-1.000000,-1.000000,-1.000000,-1.000000,-1.000000,-1.000000,0.783793,-1.000000,-1.000000,0.999401,0.999402,-1.000000,0.974191,-1.000000,0.999408,0.999410,0.927866,-1.000000,-1.000000,0.856002,-1.000000,-1.000000,0.813579,-1.000000,-1.000000,0.944742,0.957380,-1.000000,-1.000000,-1.000000,-1.000000,0.961597,0.944753,-1.000000,0.999439,-1.000000,0.889886,-1.000000,-1.000000,0.822096,0.856030,0.478758,-1.000000,0.839077,0.758282,0.953197,-1.000000,-1.000000,-1.000000,-1.000000,-1.000000,-1.000000,-1.000000,-1.000000,-1.000000,0.999472,0.999473,0.999475,-1.000000,-1.000000,-1.000000,-1.000000,-1.000000,-1.000000,0.927935,-1.000000,0.999488,-1.000000,-1.000000,-1.000000,-1.000000,-1.000000,-1.000000,-1.000000,0.999501,0.999502,-1.000000,-1.000000,-1.000000,-1.000000,-1.000000,-1.000000,-1.000000,0.940613,-1.000000,0.999518,0.830648,-1.000000,-1.000000,-1.000000,-1.000000,-1.000000,-1.000000,-1.000000,0.999532,-1.000000,-1.000000,-1.000000,-1.000000,-1.000000,-1.000000,-1.000000,0.936425,0.970121,0.999547,-1.000000,0.817936,-1.000000,-1.000000,-1.000000,-1.000000,-1.000000,-1.000000,0.961719,-1.000000,0.222390,-1.000000,-1.000000,-1.000000,-1.000000,-1.000000,0.719959,0.970150,0.970151,0.965945,-1.000000,-1.000000,-1.000000,-1.000000,-1.000000,-1.000000,0.970163,-1.000000,-1.000000,-1.000000,-1.000000,-1.000000,-1.000000,-1.000000,-1.000000,-1.000000,-1.000000,0.970180,-1.000000,0.890037,-1.000000,-1.000000,-1.000000,-1.000000,-1.000000,-1.000000,0.999619,0.970195,-1.000000,-1.000000,-1.000000,-1.000000,-1.000000,0.944937,-1.000000,-1.000000,0.970208,0.970210,0.944945,0.894293,0.923862,-1.000000,-1.000000,-1.000000,0.999647,-1.000000,-1.000000,0.970225,-1.000000,0.618632,-1.000000,0.970231,-1.000000,0.856217,-1.000000,0.999664,-1.000000,0.970240,-1.000000,-1.000000,-1.000000,-1.000000,-1.000000,-1.000000,-1.000000,-1.000000,-1.000000,0.970255,-1.000000,0.940775,0.944992,0.999689,0.919687,-1.000000,-1.000000,0.999695,-1.000000,0.745680,0.885890,-1.000000,-1.000000,0.902806,0.822316,0.957650,-1.000000,-1.000000,-1.000000,-1.000000,-1.000000,-1.000000,-1.000000,0.890138,0.949238,-1.000000,0.999724,0.978711,-1.000000,0.881685,-1.000000,-1.000000,0.999733,0.949251,0.843564,0.860522,0.881695,0.999741,-1.000000,-1.000000,-1.000000,-1.000000,0.915520,-1.000000,0.999752,0.978738,0.999755,-1.000000,-1.000000,-1.000000,0.970331,0.999763,-1.000000,0.987160,-1.000000,0.885952,0.805373,0.987166,0.885957,0.565495,-1.000000,-1.000000,0.999780,0.999781,-1.000000,0.961935,0.999786,0.999787,-1.000000,-1.000000,0.953519,0.970363,0.999795,0.999797,0.694465,0.535273,-1.000000,-1.000000,-1.000000,0.711587,-1.000000,-1.000000,-1.000000,-1.000000,0.945112,-1.000000,-1.000000,-1.000000,0.750043,-1.000000,0.953549,-1.000000,0.970394,0.999827,0.835158,0.660201,0.771372,0.902925,0.936700,-1.000000,-1.000000,-1.000000,-1.000000,0.822432,0.843657,-1.000000,-1.000000,0.907165,-1.000000,-1.000000,-1.000000,-1.000000,-1.000000,0.945155,-1.000000,0.733000,0.724456,-1.000000,-1.000000,-1.000000,-1.000000,0.760117,-1.000000,-1.000000,-1.000000,0.991473,-1.000000,0.970447,-1.000000,0.894515,0.962032,-1.000000,0.877596,-1.000000,0.970457,-1.000000,-1.000000,0.856423,0.898756,-1.000000,-1.000000,-1.000000,-1.000000,-1.000000,-1.000000,-1.000000,-1.000000,0.999911,0.898770,0.932556,0.898772,-1.000000,-1.000000,0.940997,0.826746,0.915681,-1.000000,0.962072,0.907237,0.664563,-1.000000,-1.000000,-1.000000,-1.000000,-1.000000,-1.000000,-1.000000,0.999941,-1.000000,0.941021,0.831014,0.754411,-1.000000,0.903032,-1.000000,-1.000000,0.970520,0.995755,-1.000000,-1.000000,-1.000000,-1.000000,-1.000000,0.826785,-1.000000,-1.000000,-1.000000,-1.000000,-1.000000,-1.000000,-1.000000,0.711718,-1.000000,0.762968,0.911513,0.970549,0.991581,-1.000000,-1.000000,0.915744,-1.000000,
0.910952,0.468674,-1.000000,-1.000000,0.999382,0.792373,0.540855,0.195852,-1.000000,0.444067,-1.000000,0.501924,-1.000000,0.974262,-1.000000,0.659970,0.175246,-0.198750,-1.000000,0.170828,0.999407,0.889936,0.728459,0.540872,-1.000000,-1.000000,0.056973,-0.015897,0.860241,-1.000000,0.257545,0.608435,0.549520,-1.000000,0.519263,-1.000000,-1.000000,-1.000000,0.108832,0.449889,-1.000000,0.536568,-1.000000,-1.000000,-1.000000,0.061434,0.077745,-1.000000,0.131011,0.742721,-1.000000,-1.000000,0.970034,0.672875,0.566808,-1.000000,-1.000000,-1.000000,-1.000000,-1.000000,-1.000000,0.402036,-1.000000,0.868839,-1.000000,-1.000000,-0.062150,-1.000000,-1.000000,-1.000000,-1.000000,-1.000000,0.953307,-1.000000,-1.000000,-1.000000,-1.000000,0.126596,-1.000000,0.625689,-0.117542,-1.000000,0.906926,0.813730,-1.000000,-1.000000,-0.096556,-1.000000,-1.000000,0.796734,0.150229,-1.000000,0.970094,-0.051678,0.792487,-0.114536,-1.000000,-0.051676,0.642895,0.019871,0.919538,0.099991,0.510671,-1.000000,-1.000000,-1.000000,-1.000000,0.890056,-1.000000,0.598473,0.874548,-1.000000,-1.000000,0.185617,0.737109,0.378818,0.856124,-1.000000,0.681519,0.410800,0.484690,-0.149051,-1.000000,-1.000000,-1.000000,0.999569,0.184153,-1.000000,-1.000000,-1.000000,0.970151,0.187101,0.915363,-1.000000,-1.000000,0.617149,0.728595,-1.000000,0.549626,0.597069,0.978579,-1.000000,-1.000000,0.055551,-1.000000,0.157638,-1.000000,-1.000000,0.978591,-1.000000,-1.000000,-1.000000,-1.000000,-1.000000,-1.000000,-1.000000,-1.000000,-1.000000,-0.144530,-1.000000,-1.000000,-1.000000,0.767025,0.175339,0.999629,0.340984,-0.153543,-1.000000,0.244443,-1.000000,0.826504,-1.000000,-1.000000,0.792587,0.005028,0.974426,-1.000000,-1.000000,-0.000926,0.028833,-1.000000,0.801105,-1.000000,-1.000000,-1.000000,-1.000000,-1.000000,-1.000000,-1.000000,0.513640,0.856224,-1.000000,-1.000000,0.758538,0.541040,-1.000000,-1.000000,-1.000000,0.345384,-1.000000,-1.000000,0.215096,-1.000000,-1.000000,-1.000000,-1.000000,0.732950,-1.000000,-1.000000,-1.000000,-1.000000,-1.000000,0.953433,-1.000000,-1.000000,0.737231,-1.000000,-0.144507,0.928228,-1.000000,-1.000000,0.707323,-1.000000,-1.000000,-1.000000,0.919717,-0.159534,-0.206216,0.999727,-1.000000,0.809590,0.640178,0.200411,-1.000000,0.694500,-1.000000,0.999740,0.830919,-1.000000,0.113385,0.792673,-1.000000,-1.000000,0.543969,-1.000000,-1.000000,-0.035184,-1.000000,0.319155,-1.000000,-1.000000,0.953491,-1.000000,-1.000000,0.500709,-1.000000,-1.000000,-1.000000,0.758618,0.651659,-1.000000,-1.000000,0.051160,-1.000000,-1.000000,-1.000000,-1.000000,0.737294,-1.000000,-1.000000,-1.000000,0.458785,-1.000000,-0.177572,-1.000000,-1.000000,0.999801,0.384770,-0.108465,-1.000000,-1.000000,0.254788,-1.000000,0.966252,-1.000000,0.210741,-1.000000,-1.000000,0.677428,0.978804,0.999823,-1.000000,0.839399,-1.000000,-1.000000,-1.000000,-1.000000,0.754401,0.064536,-1.000000,0.873318,0.999840,0.397878,-1.000000,0.250405,-1.000000,0.095665,-1.000000,0.970418,0.999852,-1.000000,0.696016,-1.000000,-1.000000,0.197522,-1.000000,0.970430,0.432739,-1.000000,-1.000000,-1.000000,0.262147,-1.000000,-1.000000,0.999875,-1.000000,-1.000000,-1.000000,0.999881,0.910093,-1.000000,-1.000000,0.999888,0.536854,0.268018,0.797049,0.484890,-1.000000,0.647453,-1.000000,0.970466,0.116402,0.531096,-1.000000,-1.000000,-1.000000,0.686064,-1.000000,0.999912,-1.000000,0.970481,0.354252,-1.000000,0.393559,0.306084,-1.000000,0.894553,0.515244,-1.000000,-1.000000,-1.000000,-1.000000,0.240174,0.450176,0.945230,-1.000000,-1.000000,0.945234,0.953664,0.957878,-1.000000,-1.000000,0.915706,0.644629,-1.000000,-1.000000,0.734578,-1.000000,0.184313,0.034881,-1.000000,0.848083,-1.000000,-1.000000,0.037856,-1.000000,-1.000000,-1.000000,0.966329,-1.000000,-1.000000,0.060135,0.873525,0.458895,-1.000000,-1.000000,0.915740,-1.000000,0.894692,-1.000000,
0.919393,0.772504,-1.000000,-1.000000,-1.000000,-1.000000,-1.000000,-1.000000,-1.000000,-1.000000,-1.000000,-1.000000,-1.000000,-1.000000,-1.000000,-1.000000,-1.000000,-1.000000,-1.000000,0.195859,-1.000000,-1.000000,-1.000000,-1.000000,-1.000000,0.719836,-1.000000,-1.000000,-1.000000,-1.000000,-1.000000,-1.000000,-1.000000,-1.000000,-1.000000,-1.000000,-1.000000,-1.000000,0.999433,-1.000000,0.674288,-1.000000,-1.000000,-1.000000,-1.000000,0.877198,0.940547,0.860266,-1.000000,-1.000000,-1.000000,-1.000000,-1.000000,-1.000000,-1.000000,-1.000000,0.999461,-1.000000,-1.000000,0.999465,-1.000000,0.948997,0.809371,0.783854,0.685658,-1.000000,0.965846,0.970055,-1.000000,0.970058,-1.000000,0.898379,-1.000000,-1.000000,-1.000000,0.889930,-1.000000,0.999493,-1.000000,0.999496,0.970075,-1.000000,0.822141,-1.000000,-1.000000,0.999505,0.970084,0.970085,0.970087,0.970088,-1.000000,0.919524,-1.000000,0.970094,0.999519,0.999521,0.932188,0.999524,-1.000000,0.999527,-1.000000,-1.000000,-1.000000,0.868812,0.949060,0.999536,-1.000000,-1.000000,-1.000000,0.999542,0.999544,0.970121,0.970123,0.970124,0.999550,0.999552,0.999553,0.999555,-1.000000,0.999558,-1.000000,0.944871,0.860367,-1.000000,0.953302,-1.000000,0.970144,-1.000000,0.999572,-1.000000,0.999575,-1.000000,0.970153,-1.000000,-1.000000,0.999582,0.999584,-1.000000,0.957534,0.999589,0.748520,-1.000000,0.991191,-1.000000,-1.000000,-1.000000,0.991198,-1.000000,0.999602,0.999604,-1.000000,-1.000000,0.970183,-1.000000,-1.000000,-1.000000,-1.000000,-1.000000,-1.000000,-1.000000,0.629992,0.775462,-1.000000,0.936502,0.991225,-1.000000,-1.000000,-1.000000,-1.000000,0.991233,-1.000000,-1.000000,0.826506,-1.000000,-1.000000,-1.000000,-1.000000,-1.000000,-1.000000,-1.000000,-1.000000,-1.000000,-1.000000,0.919656,-1.000000,0.999659,0.999661,0.999663,-1.000000,-1.000000,-1.000000,-1.000000,0.944976,-1.000000,-1.000000,-1.000000,-1.000000,-1.000000,-1.000000,-1.000000,0.999683,-1.000000,0.915461,0.919684,-1.000000,0.970262,-1.000000,0.860483,0.894344,-1.000000,0.852011,0.902802,-1.000000,0.999703,-1.000000,-1.000000,-1.000000,-1.000000,-1.000000,-1.000000,-1.000000,-1.000000,0.945020,-1.000000,-1.000000,0.864744,0.873215,-1.000000,-1.000000,-1.000000,0.847798,0.945033,-1.000000,0.999733,0.999735,-1.000000,-1.000000,-1.000000,-1.000000,-1.000000,0.881699,-1.000000,0.856293,0.945050,-1.000000,0.999752,-1.000000,-1.000000,0.961908,-1.000000,0.856304,-1.000000,-1.000000,-1.000000,-1.000000,-1.000000,-1.000000,-1.000000,-1.000000,-1.000000,0.881727,-1.000000,0.945078,-1.000000,0.999781,0.999783,0.932435,-1.000000,0.970357,-1.000000,0.881741,-1.000000,-1.000000,-1.000000,0.999797,-1.000000,0.660179,-1.000000,-1.000000,-1.000000,-1.000000,0.911351,0.982998,-1.000000,0.999812,-1.000000,-1.000000,-1.000000,-1.000000,-1.000000,0.886000,-1.000000,0.999824,-1.000000,0.970396,-1.000000,-1.000000,-1.000000,-1.000000,-1.000000,-1.000000,0.999838,-1.000000,-1.000000,-1.000000,0.999844,-1.000000,-1.000000,0.877561,-1.000000,0.999852,0.999854,-1.000000,0.999857,0.949369,0.919845,-1.000000,-1.000000,-1.000000,-1.000000,-1.000000,0.856400,-1.000000,-1.000000,0.999874,0.999875,-1.000000,-1.000000,-1.000000,0.999881,-1.000000,-1.000000,-1.000000,-1.000000,0.962036,-1.000000,-1.000000,0.813978,-1.000000,-1.000000,-1.000000,0.673118,-1.000000,0.999903,-1.000000,0.999906,0.999908,-1.000000,0.970477,0.970478,0.970480,-1.000000,-1.000000,0.983106,-1.000000,-1.000000,-1.000000,-1.000000,0.145878,0.625908,-1.000000,-1.000000,0.941009,0.970499,0.970501,-1.000000,0.974712,0.941016,0.970507,-1.000000,-1.000000,0.970511,0.970513,0.945241,-1.000000,-1.000000,0.835265,0.556979,-1.000000,0.365930,-1.000000,0.814035,0.822535,0.999965,0.970531,-1.000000,0.962114,0.949477,0.945263,-1.000000,-1.000000,-1.000000,0.970543,-1.000000,-1.000000,-1.000000,0.698886,0.413939,0.801301,0.522498,
0.919392,-1.000000,-1.000000,-1.000000,-1.000000,-1.000000,-1.000000,-1.000000,-1.000000,-1.000000,-1.000000,-1.000000,-1.000000,0.999393,-1.000000,-1.000000,-1.000000,-1.000000,0.999401,-1.000000,-1.000000,-1.000000,-1.000000,0.940512,0.894085,0.860234,-1.000000,-1.000000,0.817823,-1.000000,-1.000000,-1.000000,0.986820,0.999424,-1.000000,0.999427,0.999428,0.999430,-1.000000,0.999433,-1.000000,-1.000000,0.999438,0.796592,-1.000000,0.749744,0.779575,0.513421,0.672786,-1.000000,-1.000000,-1.000000,-1.000000,-1.000000,0.999456,-1.000000,-1.000000,-1.000000,0.999462,0.999464,0.694215,-1.000000,0.809370,0.409216,0.826362,0.647069,0.872993,0.953216,-1.000000,-1.000000,-1.000000,-1.000000,-1.000000,-1.000000,-1.000000,0.999488,0.953229,0.999492,0.944807,-1.000000,-1.000000,0.868781,0.868782,0.582565,-1.000000,-1.000000,-1.000000,0.999507,0.949035,-1.000000,-1.000000,-1.000000,-1.000000,-1.000000,0.999518,0.999519,-1.000000,-1.000000,0.949050,0.999525,0.970103,-1.000000,-1.000000,0.923760,0.851867,0.999535,-1.000000,-1.000000,-1.000000,-1.000000,-1.000000,-1.000000,-1.000000,-1.000000,-1.000000,0.999550,0.961710,0.864595,0.915340,0.974338,0.970133,0.843410,-1.000000,-1.000000,0.940660,-1.000000,0.986963,0.986965,0.877311,-1.000000,-1.000000,-1.000000,-1.000000,0.999578,-1.000000,0.953317,-1.000000,-1.000000,0.915368,0.881558,0.995388,-1.000000,0.906928,-1.000000,0.873101,-1.000000,0.986993,-1.000000,-1.000000,-1.000000,-1.000000,-1.000000,0.999607,0.999609,-1.000000,-1.000000,-1.000000,-1.000000,-1.000000,-1.000000,-1.000000,0.830735,-1.000000,0.826492,-1.000000,0.991225,0.999629,0.999630,0.970205,-1.000000,0.944942,-1.000000,-1.000000,-1.000000,0.991239,0.915421,-1.000000,-1.000000,0.999647,-1.000000,-1.000000,-1.000000,0.851972,0.928094,-1.000000,0.970231,-1.000000,-1.000000,-1.000000,-1.000000,-1.000000,-1.000000,-1.000000,0.999670,0.907001,0.877404,0.907004,-1.000000,0.999678,-1.000000,0.999681,0.999683,-1.000000,0.932342,0.970259,-1.000000,-1.000000,0.999692,0.999693,0.999695,0.999696,0.999698,0.999700,0.999701,0.999703,0.999704,-1.000000,0.974486,0.999709,-1.000000,0.999712,-1.000000,0.999715,-1.000000,0.970289,0.970291,-1.000000,0.999723,0.999724,0.999726,0.999727,0.999729,0.999730,-1.000000,-1.000000,0.999735,0.999737,-1.000000,0.999740,-1.000000,0.974521,-1.000000,0.999746,-1.000000,0.999749,-1.000000,-1.000000,0.999753,0.999755,-1.000000,0.970328,-1.000000,-1.000000,0.999763,0.999764,0.957706,0.999767,-1.000000,0.860551,-1.000000,0.999773,-1.000000,-1.000000,-1.000000,0.970349,0.970351,0.999783,-1.000000,-1.000000,-1.000000,-1.000000,0.991387,-1.000000,-1.000000,0.957734,-1.000000,-1.000000,-1.000000,-1.000000,-1.000000,-1.000000,-1.000000,-1.000000,-1.000000,0.940894,-1.000000,-1.000000,-1.000000,-1.000000,0.970387,-1.000000,0.999821,0.999823,0.970393,-1.000000,-1.000000,0.953555,-1.000000,-1.000000,-1.000000,0.940917,-1.000000,-1.000000,-1.000000,0.940923,-1.000000,-1.000000,-1.000000,0.949359,0.860620,0.953575,0.987245,-1.000000,0.771391,-1.000000,-1.000000,-1.000000,-1.000000,-1.000000,-1.000000,-1.000000,-1.000000,-1.000000,-1.000000,0.779925,0.936737,-1.000000,-1.000000,0.949388,-1.000000,0.999881,-1.000000,-1.000000,-1.000000,-1.000000,-1.000000,0.886062,-1.000000,0.677401,0.839459,-1.000000,0.720209,-1.000000,-1.000000,-1.000000,-1.000000,-1.000000,0.792725,-1.000000,-1.000000,0.999912,-1.000000,-1.000000,0.983104,-1.000000,0.818249,0.886090,-1.000000,-1.000000,0.864925,-1.000000,-1.000000,-1.000000,-1.000000,-1.000000,-1.000000,-1.000000,0.856461,-1.000000,-1.000000,-1.000000,-1.000000,-1.000000,-1.000000,0.856470,-1.000000,0.999952,0.962099,0.860714,-1.000000,-1.000000,-1.000000,-1.000000,0.999963,-1.000000,-1.000000,-1.000000,-1.000000,0.852249,-1.000000,-1.000000,-1.000000,0.999977,0.962123,0.814051,-1.000000,-1.000000,0.805552,0.932625,-1.000000,
0.894050,0.953117,-1.000000,0.488915,-1.000000,0.314588,0.783780,0.037660,-1.000000,0.329190,0.399085,-1.000000,0.999390,0.999391,0.910968,0.549501,0.793801,0.108819,-1.000000,0.969980,0.294138,-1.000000,-1.000000,-1.000000,0.460009,-1.000000,-1.000000,0.736919,-1.000000,-1.000000,0.999418,-1.000000,0.999421,-1.000000,-1.000000,0.999425,-1.000000,-1.000000,-1.000000,-1.000000,-1.000000,-1.000000,0.970014,0.858926,-1.000000,0.744135,-1.000000,-1.000000,-1.000000,-1.000000,0.995249,-1.000000,-1.000000,-1.000000,0.864508,-1.000000,-1.000000,0.940560,-1.000000,0.868830,0.051053,0.687161,-1.000000,-1.000000,0.834930,-1.000000,-1.000000,-1.000000,-1.000000,-1.000000,0.860294,-1.000000,-1.000000,-1.000000,-1.000000,-1.000000,0.509118,0.868774,-1.000000,-0.201745,0.677188,0.576896,0.400598,0.970076,-1.000000,0.970079,-1.000000,-1.000000,-1.000000,-1.000000,-1.000000,-1.000000,-1.000000,-1.000000,-1.000000,0.978506,-1.000000,0.940619,-1.000000,0.378803,-1.000000,0.999527,0.970105,-1.000000,-1.000000,-1.000000,-1.000000,-1.000000,0.356971,-1.000000,0.970117,-1.000000,0.982737,-1.000000,-1.000000,0.949073,0.919557,-1.000000,-1.000000,-1.000000,-1.000000,-1.000000,-1.000000,0.999561,-1.000000,-1.000000,-1.000000,-1.000000,0.957516,-1.000000,-1.000000,0.999573,0.999575,0.999576,-1.000000,-1.000000,0.978568,-1.000000,-1.000000,-1.000000,0.999587,0.999589,0.843437,0.999592,0.999593,0.999595,0.957543,0.890027,-1.000000,-1.000000,0.970177,-1.000000,-1.000000,0.982799,0.890037,0.978597,0.999612,0.970187,0.970189,-1.000000,0.999618,-1.000000,-1.000000,0.999623,0.999624,-1.000000,0.999627,-1.000000,-1.000000,-1.000000,0.949154,0.911191,-1.000000,-1.000000,0.999639,0.961796,-1.000000,0.999644,-1.000000,-1.000000,0.999649,0.999650,-1.000000,0.999653,0.999655,0.911211,-1.000000,-1.000000,-1.000000,-1.000000,0.953396,-1.000000,0.043613,0.813788,0.982861,-1.000000,-1.000000,0.237123,0.999676,-1.000000,-1.000000,-1.000000,-1.000000,-1.000000,-1.000000,-1.000000,-1.000000,-1.000000,-1.000000,-1.000000,-1.000000,-1.000000,-1.000000,0.890120,-1.000000,0.999703,-1.000000,-1.000000,-1.000000,0.999709,-1.000000,0.777036,-1.000000,-1.000000,-1.000000,0.945021,0.470240,-1.000000,-1.000000,0.321976,0.890143,-1.000000,0.843557,0.923945,-1.000000,-1.000000,0.999735,-1.000000,0.890154,-1.000000,-0.059085,-1.000000,0.697359,-1.000000,0.663082,-1.000000,-1.000000,-1.000000,-0.063651,-1.000000,-1.000000,0.826607,0.830854,0.999761,-1.000000,-1.000000,0.999766,0.999767,0.273821,0.002090,-1.000000,-1.000000,-1.000000,0.999777,0.999778,-1.000000,-1.000000,-1.000000,-1.000000,0.276758,-1.000000,0.885971,0.890202,0.999792,-1.000000,0.999795,-1.000000,-1.000000,-1.000000,0.852101,-1.000000,-1.000000,-1.000000,0.772853,0.604394,-1.000000,0.881760,-1.000000,-1.000000,-1.000000,0.949331,-1.000000,0.463145,-1.000000,0.999824,-1.000000,0.970396,-1.000000,0.936776,-1.000000,0.999834,-1.000000,-1.000000,-1.000000,0.222510,-1.000000,-0.078498,-1.000000,-1.000000,-1.000000,0.932495,0.903021,0.983040,-1.000000,0.999855,0.999857,0.999858,-1.000000,-1.000000,-1.000000,0.999864,0.131171,-1.000000,0.182804,-1.000000,0.750085,0.767144,-1.000000,0.876255,-1.000000,-1.000000,-1.000000,-1.000000,-1.000000,0.970453,-1.000000,-1.000000,-1.000000,0.668906,0.856502,0.991491,0.624535,0.940977,-1.000000,-1.000000,-1.000000,-1.000000,-1.000000,-1.000000,0.902994,-1.000000,-1.000000,-1.000000,-1.000000,0.974691,0.940996,0.940997,-1.000000,-1.000000,0.017024,0.241638,-1.000000,-1.000000,0.999931,-1.000000,0.941011,0.894563,-1.000000,-1.000000,0.983127,-1.000000,0.971991,-1.000000,0.999946,-1.000000,-1.000000,0.541216,-1.000000,0.894660,0.970520,0.932677,0.276838,-1.000000,-1.000000,0.941038,0.941040,-1.000000,-1.000000,-1.000000,0.903050,-1.000000,-1.000000,-1.000000,0.970541,0.970543,-1.000000,0.548356,0.666113,-1.000000,0.815553,
-1.000000,-1.000000,0.250192,-1.000000,0.948908,0.188490,-0.158114,-1.000000,0.046571,-1.000000,0.378729,-0.168640,-1.000000,-1.000000,0.285356,0.113254,0.182608,0.108818,-1.000000,-0.122068,-1.000000,0.279507,0.728454,-0.262170,0.226728,0.898310,-1.000000,-1.000000,-1.000000,-1.000000,-1.000000,-1.000000,-1.000000,-1.000000,-0.057682,0.217922,-1.000000,0.638530,-1.000000,0.762606,-1.000000,0.210578,-1.000000,-1.000000,0.999438,-0.080107,-1.000000,-1.000000,-1.000000,-1.000000,0.974231,-1.000000,0.999450,-1.000000,-1.000000,-1.000000,0.304398,-1.000000,0.179689,0.698572,-1.000000,0.175272,-0.122050,-1.000000,-1.000000,0.056991,-1.000000,-1.000000,0.999475,0.999476,0.999478,-1.000000,0.940581,0.944797,-0.041235,0.839105,-1.000000,-1.000000,-1.000000,-1.000000,-1.000000,0.406407,0.073315,-1.000000,0.999499,-1.000000,-1.000000,0.974287,-1.000000,0.864554,-1.000000,-1.000000,-1.000000,0.881491,-1.000000,-1.000000,0.302966,-1.000000,-0.122036,-0.126537,-1.000000,-1.000000,-1.000000,-0.182151,-1.000000,-1.000000,0.915320,0.944847,-1.000000,-1.000000,-1.000000,-1.000000,0.136870,-1.000000,-1.000000,0.039201,-1.000000,-1.000000,0.609957,-1.000000,-1.000000,-1.000000,-1.000000,-1.000000,0.999561,-1.000000,0.915348,-1.000000,0.404994,0.682955,-1.000000,-1.000000,0.805208,0.860378,0.970151,-1.000000,0.536657,-1.000000,0.864702,0.609979,-1.000000,0.367192,-1.000000,0.539545,0.868945,-1.000000,-1.000000,-1.000000,-1.000000,0.974381,-1.000000,-1.000000,0.881573,-1.000000,-1.000000,-1.000000,-1.000000,-1.000000,-1.000000,0.184171,0.694410,-1.000000,-1.000000,-1.000000,-1.000000,0.978611,-1.000000,0.970201,0.562604,-1.000000,-1.000000,0.999633,0.944942,-1.000000,-1.000000,0.999639,0.999641,-1.000000,-1.000000,0.702991,-1.000000,-1.000000,0.471728,0.086708,-1.000000,0.915433,0.915434,-1.000000,0.999659,0.999661,0.974442,0.999664,-1.000000,0.978653,-1.000000,-1.000000,0.788275,-1.000000,0.788359,-1.000000,-1.000000,-1.000000,0.184199,0.048158,-1.000000,0.881647,0.915463,-1.000000,-1.000000,0.513656,0.678763,-1.000000,-1.000000,0.940787,-1.000000,-1.000000,-0.005378,-1.000000,-0.259084,0.120765,0.999709,-1.000000,-1.000000,0.945017,-1.000000,-1.000000,-1.000000,-1.000000,-1.000000,-1.000000,-1.000000,-1.000000,-1.000000,0.940816,0.002077,-1.000000,-1.000000,-1.000000,-1.000000,-1.000000,0.402183,0.113384,-0.162538,-0.117478,-1.000000,0.970318,0.940835,0.940837,-1.000000,-1.000000,-1.000000,-1.000000,-1.000000,-1.000000,0.362914,0.552617,-1.000000,-1.000000,-1.000000,-1.000000,0.961922,0.767143,-1.000000,-1.000000,-0.042642,-1.000000,-1.000000,0.999781,0.919773,-1.000000,0.762811,0.885969,0.974566,-1.000000,-1.000000,0.919783,0.970364,0.970366,-1.000000,0.801225,0.515167,-1.000000,-1.000000,0.762908,-1.000000,-1.000000,0.288480,-1.000000,-1.000000,-1.000000,-1.000000,-1.000000,0.974596,-1.000000,0.479063,0.453010,-1.000000,0.830993,0.567051,-0.090478,-1.000000,0.232789,-0.085984,-1.000000,0.349838,-1.000000,-1.000000,-1.000000,-1.000000,-1.000000,0.422573,-1.000000,-1.000000,0.683165,0.322123,-1.000000,-1.000000,0.362964,-1.000000,0.042277,-1.000000,0.104553,0.025930,0.157745,0.911408,-1.000000,-1.000000,-1.000000,-0.139959,-0.014265,-1.000000,0.911418,-1.000000,0.306066,-0.121942,0.292906,-1.000000,-1.000000,0.567092,-0.185079,-1.000000,0.364440,0.137091,-1.000000,-1.000000,-1.000000,-1.000000,-1.000000,0.999906,-1.000000,0.767173,0.999911,0.974686,-1.000000,0.002136,-1.000000,-1.000000,0.471887,0.690356,-1.000000,-0.230319,-1.000000,-1.000000,0.222549,0.779972,-1.000000,-1.000000,0.949523,-1.000000,0.574314,-1.000000,-1.000000,-1.000000,-0.154970,-1.000000,-1.000000,0.275370,-1.000000,-1.000000,-1.000000,-1.000000,-1.000000,-1.000000,0.548425,-1.000000,0.113467,-1.000000,-1.000000,-1.000000,-1.000000,0.903050,0.999972,-1.000000,0.184320,-1.000000,0.668969,0.999980,-1.000000,0.536913,0.484944,
0.999368,0.533642,0.940477,0.491802,-1.000000,0.672815,-1.000000,-1.000000,-1.000000,-1.000000,0.452673,-1.000000,-1.000000,-1.000000,0.999390,-1.000000,0.999393,0.999395,0.999396,0.999398,-0.158109,-1.000000,-1.000000,0.546627,0.483151,0.969986,0.889856,-1.000000,-1.000000,-1.000000,-1.000000,-1.000000,-1.000000,0.969998,-1.000000,-1.000000,0.970002,0.999425,-1.000000,-1.000000,-1.000000,-1.000000,-1.000000,-1.000000,-1.000000,-1.000000,-1.000000,-1.000000,-1.000000,0.999444,-1.000000,0.970025,0.999448,-1.000000,-1.000000,0.999453,-1.000000,0.999456,0.715596,-1.000000,-1.000000,-1.000000,-1.000000,-1.000000,-1.000000,-1.000000,0.999470,-1.000000,-1.000000,0.999475,0.999476,0.999478,-1.000000,-1.000000,0.970060,-1.000000,0.873003,-1.000000,-1.000000,-1.000000,-1.000000,-1.000000,-1.000000,-1.000000,-1.000000,-1.000000,-1.000000,0.999502,-1.000000,0.999505,-1.000000,-1.000000,0.999510,0.999512,0.999513,0.949041,0.711366,0.707090,0.286796,-1.000000,-1.000000,-1.000000,-1.000000,-1.000000,-1.000000,-1.000000,-1.000000,0.999533,-1.000000,-1.000000,-1.000000,-1.000000,-1.000000,0.999542,0.923771,-1.000000,-1.000000,-1.000000,0.873061,-1.000000,-1.000000,-1.000000,0.783924,-1.000000,0.999559,-1.000000,-1.000000,-1.000000,0.986961,-1.000000,-1.000000,-1.000000,-1.000000,-1.000000,0.999575,0.986972,-1.000000,0.999579,-1.000000,-1.000000,-1.000000,-1.000000,-1.000000,-1.000000,-1.000000,0.991190,0.970168,-1.000000,0.999596,-1.000000,-1.000000,0.999601,0.999602,0.999604,0.999606,-1.000000,0.999609,-1.000000,-1.000000,-1.000000,-1.000000,-1.000000,-1.000000,0.999619,0.999621,0.999623,-1.000000,0.999626,-1.000000,0.999629,-1.000000,0.999632,0.999633,0.999635,-1.000000,0.999638,0.999639,-1.000000,0.877376,-1.000000,-1.000000,-1.000000,0.999649,-1.000000,-1.000000,0.999653,0.999655,0.999656,-1.000000,0.999659,-1.000000,0.999663,0.999664,-1.000000,-1.000000,-1.000000,0.999670,0.974451,0.970246,-1.000000,0.894327,-1.000000,0.999680,0.999681,0.999683,-1.000000,-1.000000,-1.000000,-1.000000,0.987085,0.991289,0.999693,0.999695,-1.000000,0.999698,-1.000000,0.949219,-1.000000,-1.000000,-1.000000,-1.000000,-1.000000,-1.000000,0.999712,-1.000000,-1.000000,0.982907,-1.000000,0.999720,-1.000000,-1.000000,0.999724,-1.000000,-1.000000,-1.000000,0.999730,-1.000000,-1.000000,0.999735,-1.000000,-1.000000,-1.000000,0.999741,-1.000000,0.999744,-1.000000,0.999747,0.999749,-1.000000,-1.000000,-1.000000,0.999755,0.999757,0.999758,0.999760,-1.000000,-1.000000,-1.000000,-1.000000,-1.000000,-1.000000,-1.000000,0.999772,-1.000000,-1.000000,0.999777,-1.000000,0.978763,-1.000000,0.999783,0.999784,0.999786,0.999787,-1.000000,-1.000000,-1.000000,-1.000000,0.928226,-1.000000,-1.000000,-1.000000,-1.000000,-1.000000,-1.000000,-1.000000,-1.000000,-1.000000,-1.000000,-1.000000,0.999814,-1.000000,0.999817,0.999818,0.999820,0.999821,-1.000000,-1.000000,-1.000000,0.970396,-1.000000,0.655910,-1.000000,-1.000000,-1.000000,-1.000000,-1.000000,0.970408,-1.000000,-1.000000,-1.000000,0.983034,0.991444,0.999849,-1.000000,0.999852,-1.000000,-1.000000,-1.000000,0.144460,-1.000000,-1.000000,-1.000000,-1.000000,-1.000000,-1.000000,-1.000000,-1.000000,-1.000000,-1.000000,0.999875,0.953601,0.999878,0.999880,0.999881,-1.000000,0.966242,-1.000000,-1.000000,0.953612,0.864894,-1.000000,-1.000000,-0.003828,-1.000000,-1.000000,-1.000000,-1.000000,-1.000000,-1.000000,-1.000000,-1.000000,-1.000000,0.999911,-1.000000,-1.000000,-1.000000,-0.284781,-1.000000,-1.000000,-1.000000,-1.000000,-1.000000,0.949434,-1.000000,-1.000000,-1.000000,-1.000000,-1.000000,-1.000000,-1.000000,-1.000000,-1.000000,0.999941,0.999943,0.999945,-1.000000,0.953669,0.243116,-1.000000,-1.000000,0.330933,-1.000000,-1.000000,-1.000000,-1.000000,-1.000000,-1.000000,-1.000000,-1.000000,-1.000000,-1.000000,-1.000000,-1.000000,-1.000000,-1.000000,-1.000000,-1.000000,-1.000000,-1.000000,-0.072474,
-1.000000,-1.000000,-1.000000,0.788109,0.388903,0.358343,-1.000000,0.232588,0.999379,-1.000000,-1.000000,0.126554,0.766831,-1.000000,0.861706,-1.000000,-1.000000,0.614150,-1.000000,-1.000000,-1.000000,-1.000000,-1.000000,-1.000000,0.999404,0.969984,-0.024846,0.219385,-1.000000,-1.000000,-1.000000,0.634225,-1.000000,-1.000000,0.806576,0.782475,0.410724,0.201751,-1.000000,0.393294,0.847536,-1.000000,-1.000000,-0.239486,-1.000000,-1.000000,-1.000000,-1.000000,0.986838,0.527923,-1.000000,0.223808,-1.000000,-1.000000,0.932200,0.438305,0.948982,-1.000000,-1.000000,0.359843,0.329227,-1.000000,-0.095071,0.288316,-1.000000,0.779675,-0.050199,-0.042732,-1.000000,-0.113050,-1.000000,-1.000000,-1.000000,0.148739,-1.000000,0.843343,-1.000000,0.501981,0.342369,-0.198731,-1.000000,-1.000000,-1.000000,-1.000000,0.337999,0.519306,0.638581,-1.000000,0.881482,0.371516,-0.056164,-1.000000,-1.000000,0.349671,-1.000000,0.551017,0.974298,-1.000000,-1.000000,0.999519,-1.000000,-1.000000,-1.000000,-1.000000,-1.000000,-1.000000,0.383170,-1.000000,0.226783,-0.146053,0.374444,-1.000000,0.999539,0.169410,-1.000000,-1.000000,-0.253066,0.672941,-1.000000,-1.000000,0.915337,0.579809,-1.000000,0.612828,0.254674,-1.000000,-1.000000,-1.000000,-1.000000,-1.000000,0.543852,-1.000000,-1.000000,0.024346,0.165001,0.285442,0.970151,0.144350,-1.000000,-0.189669,0.638640,0.480367,-1.000000,0.415171,-1.000000,-1.000000,0.182689,0.402103,-1.000000,0.578400,0.940692,0.403559,-1.000000,-1.000000,-1.000000,0.536673,-1.000000,-0.086047,0.635795,-0.189662,0.634284,-1.000000,-0.158057,0.406475,-1.000000,-1.000000,-1.000000,0.157648,-1.000000,-1.000000,-1.000000,-1.000000,0.210663,-1.000000,0.715813,-1.000000,-1.000000,0.263506,0.698708,-1.000000,-1.000000,-0.198696,0.068920,-1.000000,0.953383,0.530938,0.673019,0.019912,-1.000000,-1.000000,-1.000000,0.642991,0.940753,0.028837,0.327870,-0.056117,-1.000000,0.673031,-1.000000,0.690171,-1.000000,-1.000000,-1.000000,0.441334,-1.000000,0.617218,0.073382,-1.000000,-1.000000,-1.000000,-1.000000,-1.000000,-0.263625,0.625827,0.519430,0.604318,0.999700,0.148826,0.117806,-1.000000,0.184209,-0.086020,0.471763,-1.000000,0.999712,0.999713,0.765676,0.869056,-1.000000,-0.222813,0.160636,-1.000000,-1.000000,0.720158,0.022910,-1.000000,-0.248493,-1.000000,-1.000000,-1.000000,-1.000000,-1.000000,0.376007,-0.094995,-1.000000,-1.000000,-1.000000,0.105990,0.991346,0.432675,-1.000000,-1.000000,0.999755,-1.000000,-1.000000,-1.000000,-1.000000,0.945144,-1.000000,-1.000000,-1.000000,0.839430,-0.139986,-1.000000,0.999773,-1.000000,-1.000000,0.549748,-1.000000,-1.000000,-1.000000,-1.000000,-1.000000,-1.000000,0.397850,-1.000000,-1.000000,0.117840,0.519491,0.380402,-1.000000,0.502173,-0.014289,0.737306,0.747267,0.393498,-1.000000,0.745848,-1.000000,-1.000000,-1.000000,-1.000000,-1.000000,0.707400,-1.000000,-1.000000,0.970391,-0.158006,0.822499,0.999827,0.886007,-1.000000,0.915677,-1.000000,-1.000000,0.618758,-1.000000,-1.000000,-1.000000,0.730219,-1.000000,-1.000000,-1.000000,-1.000000,-1.000000,0.575695,-0.099459,-1.000000,0.713132,0.775735,-1.000000,0.696020,-1.000000,-1.000000,-1.000000,-1.000000,-1.000000,-1.000000,0.894505,-1.000000,0.788524,-1.000000,-1.000000,0.349860,-1.000000,-1.000000,-1.000000,-1.000000,-1.000000,-1.000000,0.580033,-1.000000,-1.000000,-1.000000,-1.000000,0.269486,0.959319,0.713167,-0.000847,-1.000000,0.970472,0.091244,-1.000000,-1.000000,0.033379,-1.000000,-1.000000,0.877702,-1.000000,-1.000000,-1.000000,-1.000000,-1.000000,-1.000000,0.664643,-1.000000,0.008097,-1.000000,-1.000000,-1.000000,-1.000000,0.575752,0.064573,0.703215,0.432784,0.970510,-1.000000,-1.000000,0.254852,0.320711,-0.176030,0.839590,-1.000000,-1.000000,0.898812,0.614541,0.046767,-1.000000,0.284162,0.565703,0.405213,0.024477,-1.000000,0.565707,0.601636,0.792862,-1.000000,0.792865,-1.000000,-1.000000,
-1.000000,-1.000000,0.999368,-0.086112,-1.000000,-1.000000,-1.000000,-1.000000,0.969957,0.919398,0.944700,-1.000000,-1.000000,0.624178,-1.000000,-1.000000,-1.000000,0.444068,-1.000000,0.644232,-0.189712,0.059934,-1.000000,-1.000000,-1.000000,0.932076,-1.000000,-1.000000,-1.000000,0.948941,-1.000000,-1.000000,-1.000000,0.826315,0.371471,0.689900,-0.090589,0.054007,-1.000000,-1.000000,-1.000000,-0.144577,-0.126561,-1.000000,-1.000000,-0.080108,0.847543,-1.000000,-1.000000,0.970019,0.953184,0.304308,-1.000000,0.813601,-1.000000,0.056984,-1.000000,-1.000000,0.247296,-1.000000,0.638551,-1.000000,-1.000000,0.204709,0.067373,-1.000000,-1.000000,0.948997,-1.000000,-1.000000,0.970050,-1.000000,-0.201748,-1.000000,-1.000000,-1.000000,0.308794,-1.000000,0.974269,-1.000000,0.467292,-1.000000,0.813719,-1.000000,-1.000000,-1.000000,-1.000000,0.894166,-1.000000,0.999502,0.999504,-1.000000,-1.000000,0.509131,-1.000000,-1.000000,-1.000000,0.131036,0.259053,0.237054,0.999519,-1.000000,0.970099,-1.000000,-1.000000,-1.000000,0.125131,-1.000000,-1.000000,-1.000000,-1.000000,0.393352,-1.000000,-1.000000,0.873053,-1.000000,-1.000000,-1.000000,-1.000000,-1.000000,0.051082,-1.000000,0.467330,-1.000000,-1.000000,0.999558,-1.000000,0.216512,0.940658,0.999564,-1.000000,-1.000000,0.762636,0.232673,-1.000000,-1.000000,0.003517,-1.000000,-1.000000,0.283981,-1.000000,-1.000000,0.999584,-1.000000,-1.000000,-1.000000,-1.000000,-1.000000,-1.000000,0.970169,-1.000000,-1.000000,0.834960,-1.000000,-1.000000,0.971661,-1.000000,-1.000000,-1.000000,-1.000000,-0.194182,-1.000000,-0.176109,-1.000000,0.569789,0.582727,-1.000000,-1.000000,0.940717,-1.000000,0.974408,-1.000000,-1.000000,-1.000000,-1.000000,-1.000000,-1.000000,0.707263,0.476061,-1.000000,-1.000000,-1.000000,-1.000000,0.651567,0.749988,-1.000000,-1.000000,-1.000000,-1.000000,0.894309,0.911213,-1.000000,0.145859,-1.000000,0.175354,-1.000000,0.826610,-0.149025,-1.000000,-1.000000,0.898552,-1.000000,-0.081538,0.117797,0.762806,-1.000000,0.999683,0.101527,-1.000000,0.835036,0.907017,-1.000000,-1.000000,-1.000000,0.999695,0.476095,-1.000000,-1.000000,-1.000000,-1.000000,0.767088,0.754299,0.970279,-0.167058,0.033312,-1.000000,-1.000000,-1.000000,-1.000000,-1.000000,0.999720,0.940809,0.940810,-1.000000,-1.000000,0.387639,-1.000000,0.437014,0.999732,-1.000000,0.728711,-1.000000,-1.000000,0.677368,-1.000000,-1.000000,0.843570,0.244492,-1.000000,0.873238,0.936620,-1.000000,-1.000000,-1.000000,-1.000000,-1.000000,-1.000000,-1.000000,-1.000000,0.100076,0.839428,0.567011,-1.000000,0.574203,0.024412,-1.000000,0.811125,0.608677,-1.000000,-1.000000,0.999781,-1.000000,-1.000000,-1.000000,-1.000000,-1.000000,-1.000000,-0.050105,-1.000000,-1.000000,0.690263,0.476156,-1.000000,-1.000000,-1.000000,0.507952,-1.000000,-1.000000,0.513728,0.940894,0.999812,-1.000000,0.945114,-1.000000,-1.000000,-1.000000,-1.000000,0.351288,-1.000000,0.250396,0.999827,-1.000000,0.999831,-1.000000,-1.000000,0.546904,0.037812,-1.000000,0.732983,-1.000000,-1.000000,0.970412,0.949358,-1.000000,0.852143,0.852144,0.108988,0.738769,0.999855,0.354221,0.604428,-1.000000,-1.000000,0.370248,0.397891,-1.000000,-1.000000,0.856400,-1.000000,-1.000000,-1.000000,0.995674,0.835199,0.856408,-1.000000,0.911419,-1.000000,-1.000000,-1.000000,0.681763,0.678907,-1.000000,-1.000000,0.144474,-1.000000,-1.000000,-1.000000,0.718867,0.724486,-1.000000,-1.000000,0.991502,-1.000000,-1.000000,0.945205,0.360078,-1.000000,0.169561,-1.000000,-1.000000,0.157766,-1.000000,0.380470,-0.231829,-0.263579,-1.000000,0.949437,0.601607,0.617309,-1.000000,-1.000000,-1.000000,0.856461,0.886107,0.797009,0.999943,0.408107,0.419725,-1.000000,-1.000000,-1.000000,-0.144447,0.941030,-1.000000,-1.000000,-1.000000,0.396489,-1.000000,0.767216,-1.000000,0.999966,-1.000000,0.941044,-1.000000,-1.000000,0.513830,-0.289317,-1.000000,0.945269,-1.000000,
0.999364,-1.000000,-1.000000,-1.000000,0.969950,0.771080,-1.000000,-1.000000,-1.000000,-1.000000,-1.000000,0.999381,-1.000000,-1.000000,-1.000000,0.999387,-1.000000,0.902518,0.923629,0.953136,0.999395,-1.000000,-1.000000,-1.000000,-1.000000,-1.000000,0.999404,-1.000000,0.974192,0.910982,0.826310,-1.000000,0.826312,0.889861,-1.000000,-1.000000,-1.000000,0.999421,-1.000000,0.999424,-1.000000,-1.000000,-1.000000,-1.000000,0.999432,-1.000000,-1.000000,-1.000000,-1.000000,0.796592,-1.000000,0.919456,0.885659,0.927898,0.953188,0.944764,-1.000000,-1.000000,0.999453,-1.000000,-1.000000,-1.000000,-1.000000,0.881444,-1.000000,-1.000000,0.974250,0.944782,0.923701,-1.000000,-1.000000,0.944788,-1.000000,0.999476,-1.000000,0.978469,0.881462,-1.000000,-1.000000,-1.000000,0.949094,-1.000000,-1.000000,-1.000000,-1.000000,-1.000000,-1.000000,-1.000000,-1.000000,-1.000000,-1.000000,-1.000000,-1.000000,-1.000000,-1.000000,-1.000000,-1.000000,0.970090,0.999515,0.999516,0.889955,-1.000000,-1.000000,-1.000000,-1.000000,-1.000000,0.847622,-1.000000,-1.000000,0.970108,0.970109,-1.000000,0.940633,-1.000000,0.915325,0.999541,-1.000000,-1.000000,0.999545,-1.000000,-1.000000,-1.000000,-1.000000,-1.000000,-1.000000,-1.000000,-1.000000,-1.000000,0.944871,0.970138,0.940660,0.923791,-1.000000,0.894229,-1.000000,0.999572,-1.000000,0.936454,-1.000000,0.999578,-1.000000,-1.000000,-1.000000,-1.000000,0.999586,0.999587,0.999589,0.974372,0.999592,-1.000000,0.974376,0.923820,0.800976,-1.000000,-1.000000,-1.000000,-1.000000,-1.000000,0.999607,0.999609,-1.000000,-1.000000,-1.000000,0.999615,0.999616,-1.000000,-1.000000,0.944929,0.915403,0.949145,-1.000000,0.762683,-1.000000,0.582652,0.556769,0.834990,0.944942,-1.000000,-1.000000,-1.000000,0.681499,-1.000000,0.936520,0.999646,-1.000000,0.974429,-1.000000,-1.000000,0.970226,-1.000000,0.894309,0.839254,0.638613,-1.000000,-1.000000,-1.000000,0.944971,-1.000000,0.999669,-1.000000,-1.000000,0.978659,-1.000000,-1.000000,0.940768,0.940769,-1.000000,-1.000000,0.970256,-1.000000,-1.000000,-1.000000,-1.000000,-1.000000,-1.000000,0.944999,0.945001,-1.000000,-1.000000,0.999701,-1.000000,0.999704,-1.000000,0.999707,-1.000000,-1.000000,0.940800,-1.000000,-1.000000,-1.000000,-1.000000,0.745697,0.720073,-1.000000,-1.000000,-1.000000,-1.000000,0.970300,-1.000000,0.999732,-1.000000,0.999735,-1.000000,0.945040,-1.000000,-1.000000,-1.000000,-1.000000,-1.000000,-1.000000,-1.000000,-1.000000,0.818107,0.885939,0.974533,-1.000000,0.974536,-1.000000,-1.000000,-1.000000,-1.000000,0.999766,0.999767,0.978753,0.974548,-1.000000,-1.000000,-1.000000,-1.000000,-1.000000,-1.000000,-1.000000,0.915551,0.945084,0.974563,-1.000000,0.945089,-1.000000,0.945092,-1.000000,0.999795,-1.000000,0.974575,-1.000000,0.949315,0.801147,-1.000000,-1.000000,-1.000000,-1.000000,-1.000000,0.915578,0.974590,0.915581,0.999817,-1.000000,-1.000000,-1.000000,-1.000000,-1.000000,0.999826,0.974604,-1.000000,0.974607,-1.000000,0.928262,0.978818,0.945134,0.974614,-1.000000,0.915605,0.940924,-1.000000,0.945143,0.999847,0.999849,-1.000000,-1.000000,-1.000000,-1.000000,-1.000000,-1.000000,0.974635,0.974637,0.970430,-1.000000,-1.000000,0.957804,0.978851,-1.000000,0.911411,-1.000000,0.974650,-1.000000,0.999878,-1.000000,-1.000000,-1.000000,-1.000000,-1.000000,-1.000000,-1.000000,0.974665,-1.000000,0.999894,0.978877,0.856424,0.860664,-1.000000,0.945196,-1.000000,-1.000000,0.949415,-1.000000,-1.000000,-1.000000,-1.000000,-1.000000,-1.000000,-1.000000,0.886087,0.962066,-1.000000,-1.000000,0.999924,0.999926,-1.000000,-1.000000,0.928353,0.898788,0.911467,-1.000000,0.999937,-1.000000,-1.000000,-1.000000,-1.000000,-1.000000,-1.000000,-1.000000,0.941025,-1.000000,-1.000000,-1.000000,0.999955,-1.000000,0.949465,-1.000000,0.924161,-1.000000,-1.000000,-1.000000,-1.000000,-1.000000,-1.000000,-1.000000,0.970538,-1.000000,-1.000000,-1.000000,
0.915161,0.419401,0.940471,-1.000000,0.999368,-1.000000,-1.000000,-1.000000,-1.000000,-1.000000,0.932051,0.681305,-1.000000,0.910958,0.881375,0.881377,0.885608,-1.000000,-1.000000,-1.000000,-1.000000,-1.000000,0.999396,0.999398,-1.000000,0.851751,0.978393,-1.000000,0.999405,0.999407,-1.000000,0.969989,-1.000000,0.957366,0.923650,-1.000000,-1.000000,0.969998,0.999421,-1.000000,0.999424,0.999425,0.999427,-1.000000,0.940533,-1.000000,0.999433,-1.000000,-1.000000,-1.000000,-1.000000,-1.000000,-1.000000,-1.000000,-1.000000,0.999447,0.999448,0.999450,0.999452,-1.000000,-1.000000,-1.000000,-1.000000,-1.000000,-1.000000,0.999462,-1.000000,0.974250,-1.000000,-1.000000,-1.000000,-1.000000,-1.000000,0.940575,-1.000000,0.999478,0.999479,0.999481,-1.000000,-1.000000,0.999485,-1.000000,-1.000000,0.970067,0.999492,-1.000000,-1.000000,-1.000000,-1.000000,-1.000000,-1.000000,-1.000000,-1.000000,0.970082,-1.000000,0.944822,0.999510,-1.000000,-1.000000,0.999515,-1.000000,0.970094,0.970096,-1.000000,0.949048,0.999524,0.940623,-1.000000,-1.000000,0.873043,-1.000000,0.737014,0.881511,-1.000000,-1.000000,-1.000000,0.999541,-1.000000,-1.000000,-1.000000,-1.000000,0.919555,0.970126,0.986948,-1.000000,0.940651,0.974338,-1.000000,0.911122,0.932224,0.940658,-1.000000,0.911127,-1.000000,0.944879,-1.000000,-1.000000,-1.000000,-1.000000,0.999576,0.978565,-1.000000,-1.000000,0.949106,0.974366,0.999586,0.999587,0.944898,0.986986,0.999592,-1.000000,-1.000000,0.940690,0.940692,0.974381,0.999601,-1.000000,-1.000000,-1.000000,-1.000000,-1.000000,-1.000000,0.915393,-1.000000,-1.000000,-1.000000,0.974399,-1.000000,-1.000000,-1.000000,0.936501,0.970199,-1.000000,0.974409,-1.000000,0.970205,-1.000000,-1.000000,0.970210,-1.000000,-1.000000,0.181237,-1.000000,0.999644,-1.000000,-1.000000,0.978635,-1.000000,-1.000000,-1.000000,-1.000000,-1.000000,-1.000000,0.944965,-1.000000,0.999663,0.999664,-1.000000,0.999667,0.999669,0.999670,-1.000000,0.999673,-1.000000,0.999676,-1.000000,0.944984,0.999681,0.970255,-1.000000,0.894335,0.915463,0.915464,0.949209,-1.000000,-1.000000,-1.000000,0.999696,0.999698,-1.000000,0.999701,-1.000000,0.999704,-1.000000,0.982898,0.978694,-1.000000,0.945015,0.974492,0.978700,-1.000000,-1.000000,0.978704,-1.000000,-1.000000,-1.000000,0.999726,0.970298,0.999729,-1.000000,0.771372,-1.000000,0.999735,-1.000000,-1.000000,-1.000000,0.978726,0.978727,-1.000000,0.949262,0.881702,0.945050,-1.000000,-1.000000,0.999753,0.974533,-1.000000,0.999758,-1.000000,0.957702,-1.000000,-1.000000,-1.000000,0.999767,0.974546,0.991367,-1.000000,0.923986,-1.000000,0.932427,-1.000000,-1.000000,0.999781,-1.000000,0.928216,0.999786,-1.000000,-1.000000,-1.000000,0.932442,0.881744,0.999795,-1.000000,0.999798,0.856339,-1.000000,-1.000000,-1.000000,-1.000000,-1.000000,-1.000000,0.970379,-1.000000,-1.000000,-1.000000,-1.000000,0.915584,-1.000000,0.957760,0.999823,0.999824,-1.000000,-1.000000,-1.000000,0.535375,-1.000000,-1.000000,-1.000000,-1.000000,0.898702,0.970408,-1.000000,0.999843,-1.000000,0.936710,-1.000000,-1.000000,0.715897,-1.000000,0.999854,-1.000000,0.855057,-1.000000,-1.000000,0.999861,-1.000000,-1.000000,-1.000000,-1.000000,-1.000000,-1.000000,0.940952,-1.000000,0.974650,-1.000000,0.779930,-1.000000,-1.000000,-1.000000,-1.000000,0.216652,-1.000000,-1.000000,-1.000000,-1.000000,0.999894,-1.000000,0.970463,-1.000000,0.999900,-1.000000,-1.000000,0.999904,0.945200,-1.000000,-1.000000,0.974685,0.983099,0.999914,-1.000000,0.089766,0.323616,-1.000000,0.999921,-1.000000,0.919905,-1.000000,-1.000000,-1.000000,-1.000000,0.970498,0.970499,-1.000000,-1.000000,0.957872,0.949447,0.877644,0.750141,-1.000000,0.262181,-1.000000,-1.000000,0.117899,-1.000000,-1.000000,0.894581,-1.000000,-1.000000,-1.000000,0.970526,-1.000000,0.999965,-1.000000,0.928388,0.953689,-1.000000,0.924172,-0.109919,0.562831,-1.000000,
-1.000000,-1.000000,0.999364,-1.000000,-1.000000,0.915167,0.860198,0.927828,-1.000000,0.999375,-1.000000,0.999378,0.999379,0.999381,-1.000000,0.974170,-1.000000,-1.000000,0.163368,-1.000000,0.561011,-0.002496,0.999395,-1.000000,-1.000000,0.864459,-1.000000,-1.000000,0.999404,-1.000000,0.999407,-1.000000,0.999410,-1.000000,-1.000000,0.999415,0.944734,0.974203,0.999419,-1.000000,-1.000000,0.601261,-1.000000,0.999427,-1.000000,0.898329,-1.000000,0.856017,-1.000000,-1.000000,0.940540,0.940541,-1.000000,-1.000000,-1.000000,0.999445,0.978437,0.999448,-1.000000,-1.000000,0.791013,-1.000000,-1.000000,-1.000000,-1.000000,-1.000000,0.885676,0.970041,0.940566,-1.000000,0.940569,-1.000000,0.885684,0.940573,-1.000000,-1.000000,0.999478,-1.000000,-1.000000,-1.000000,-1.000000,0.522183,-1.000000,0.949016,0.898384,-1.000000,-1.000000,-1.000000,0.970073,-1.000000,-1.000000,-1.000000,-1.000000,-1.000000,-1.000000,0.999507,-1.000000,0.999510,-1.000000,-1.000000,-1.000000,0.932182,0.621322,0.817910,-1.000000,-1.000000,0.940622,-1.000000,-1.000000,0.999529,-1.000000,0.741281,-1.000000,-1.000000,-1.000000,0.999538,0.999539,-1.000000,0.999542,-1.000000,0.817932,-1.000000,-1.000000,-1.000000,-1.000000,-1.000000,0.617047,0.805193,-1.000000,-1.000000,-1.000000,-1.000000,-1.000000,-1.000000,0.940663,-1.000000,-1.000000,-1.000000,-1.000000,-1.000000,-1.000000,-1.000000,-1.000000,-1.000000,-1.000000,-1.000000,-1.000000,-1.000000,-1.000000,-1.000000,-1.000000,-1.000000,0.822221,0.928039,-1.000000,-1.000000,0.999601,-1.000000,-1.000000,0.999606,0.999607,-1.000000,-1.000000,-1.000000,-1.000000,-1.000000,0.911174,0.923840,0.999619,-1.000000,-1.000000,0.999624,-1.000000,0.928068,-1.000000,0.970204,0.999632,-1.000000,-1.000000,0.932295,-1.000000,-1.000000,-1.000000,0.999643,0.834999,-1.000000,-1.000000,-1.000000,-1.000000,-1.000000,0.982844,0.885850,-1.000000,-1.000000,-1.000000,0.970234,0.999663,0.999664,-1.000000,-1.000000,0.999669,0.999670,-1.000000,-1.000000,-1.000000,0.940766,-1.000000,0.999680,0.999681,0.999683,-1.000000,-1.000000,-1.000000,0.940778,0.970262,-1.000000,0.999693,0.758474,-1.000000,-1.000000,0.999700,-1.000000,-1.000000,-1.000000,-1.000000,-1.000000,0.999709,0.999710,0.999712,-1.000000,0.999715,-1.000000,0.970289,0.970291,0.970292,0.999723,-1.000000,-1.000000,-1.000000,0.088132,0.999730,-1.000000,0.974512,-1.000000,0.970307,0.940825,-1.000000,-1.000000,-1.000000,-1.000000,-1.000000,0.940834,0.940835,-1.000000,0.974530,-1.000000,-1.000000,-1.000000,0.991355,-1.000000,-1.000000,-1.000000,0.999764,-1.000000,-1.000000,0.940854,-1.000000,-1.000000,0.970343,0.940860,0.940861,0.940863,0.999780,0.953509,-1.000000,-1.000000,-1.000000,0.940872,-1.000000,-1.000000,0.970361,0.999794,0.999795,-1.000000,0.999798,-1.000000,-1.000000,-1.000000,0.970373,0.940889,0.940891,0.940892,-1.000000,0.970381,-1.000000,0.999815,0.999817,0.999818,0.999820,-1.000000,-1.000000,0.999824,0.999826,0.999827,0.999829,0.999831,0.970400,-1.000000,-1.000000,0.978819,0.894474,0.894476,0.919828,-1.000000,0.999844,-1.000000,-1.000000,0.928276,-1.000000,0.999852,0.999854,0.999855,0.999857,0.999858,0.999860,0.999861,-1.000000,-1.000000,-1.000000,-1.000000,-1.000000,-1.000000,-1.000000,0.945169,0.999875,0.978859,0.999878,-1.000000,-1.000000,-1.000000,-1.000000,0.999886,0.999888,-1.000000,0.999891,-1.000000,-1.000000,-1.000000,-1.000000,-1.000000,0.890301,0.847948,-1.000000,-1.000000,-1.000000,0.999908,0.999909,-1.000000,-1.000000,0.999914,0.974689,0.978898,0.978900,0.978901,0.999921,-1.000000,-1.000000,-1.000000,-1.000000,0.919910,-1.000000,-1.000000,-1.000000,0.999935,-1.000000,0.999938,0.999940,0.999941,0.999943,-1.000000,0.987338,0.953669,0.999949,0.999951,-1.000000,0.941030,0.999955,-1.000000,0.999958,-1.000000,0.052623,-1.000000,0.970529,-1.000000,0.999968,0.999969,-1.000000,-1.000000,-1.000000,-1.000000,
0.986757,0.940467,0.576807,-1.000000,0.969945,0.881360,0.940474,-1.000000,-1.000000,0.990973,-1.000000,0.885598,0.872907,0.999379,0.999381,0.978373,-1.000000,0.999385,0.999387,-1.000000,-1.000000,-1.000000,-1.000000,0.969974,-1.000000,-1.000000,0.999399,-1.000000,-1.000000,-1.000000,-1.000000,0.978397,-1.000000,0.948941,0.999411,0.999413,-1.000000,-1.000000,-1.000000,-1.000000,0.796657,-1.000000,0.944741,-1.000000,0.999427,-1.000000,0.788076,0.978422,0.999433,0.999435,0.999436,0.970016,0.915233,0.885656,-1.000000,-1.000000,0.383042,-1.000000,0.885663,0.881435,0.602715,-1.000000,-1.000000,0.999456,0.906804,0.413566,0.409211,0.595465,0.919476,-1.000000,0.919479,0.902590,-1.000000,0.664230,0.629888,0.911043,0.404862,0.911046,0.999479,-1.000000,-1.000000,0.999484,0.970063,0.940587,-1.000000,0.982684,-1.000000,0.902613,-1.000000,0.999496,0.702798,0.655671,0.629908,-1.000000,0.999504,-1.000000,0.940606,0.961668,0.999510,-1.000000,0.970090,-1.000000,0.940614,0.999518,0.978508,-1.000000,0.970099,-1.000000,0.999525,0.999527,0.927976,0.999530,-1.000000,-1.000000,-1.000000,0.999536,0.970114,-1.000000,0.999541,0.999542,0.481789,-1.000000,-1.000000,-1.000000,0.999550,-1.000000,0.940649,0.970130,0.974338,-1.000000,0.999559,0.999561,0.724224,0.163438,-1.000000,0.940663,0.999569,0.999570,-1.000000,0.999573,-1.000000,0.999576,-1.000000,0.970154,0.999581,-1.000000,0.911144,0.830705,-1.000000,0.944898,-1.000000,0.999592,0.999593,-1.000000,0.953331,0.999598,-1.000000,-1.000000,0.915384,-1.000000,0.548197,-1.000000,0.999609,-1.000000,0.970186,0.970187,0.978602,0.999616,0.999618,0.999619,0.999621,-1.000000,-1.000000,0.978612,0.843469,0.999629,0.999630,-1.000000,-1.000000,0.827998,-1.000000,0.999638,0.957584,0.999641,0.970216,-1.000000,0.999646,0.999647,-1.000000,-1.000000,0.995451,0.999653,-1.000000,0.999656,0.940749,0.999659,-1.000000,-1.000000,0.970237,0.970238,0.944973,0.999669,0.999670,0.974451,-1.000000,0.970247,-1.000000,0.970250,0.940769,0.970253,-1.000000,0.970256,0.999686,0.953419,-1.000000,-1.000000,0.974471,0.970265,0.999695,-1.000000,0.359968,0.999700,0.970273,0.982893,0.970276,-1.000000,0.970279,-1.000000,-1.000000,-1.000000,0.247328,-1.000000,0.685839,0.928154,0.949237,-1.000000,0.999723,0.970295,0.999726,-1.000000,-1.000000,-1.000000,-1.000000,0.999733,0.978720,-1.000000,0.999738,0.974518,0.999741,0.999743,0.999744,0.999746,0.970318,0.970319,0.864770,0.724370,0.999753,0.970325,0.970327,0.970328,0.176866,-1.000000,0.999763,-1.000000,0.974543,0.198870,-1.000000,0.999770,-1.000000,-1.000000,-1.000000,-1.000000,-1.000000,-1.000000,0.881733,-1.000000,0.940869,-1.000000,0.940872,0.893100,-1.000000,0.999792,-1.000000,0.974572,0.822393,0.957737,-1.000000,-1.000000,-1.000000,0.915571,-1.000000,0.999807,0.999809,-1.000000,0.690193,0.970382,-1.000000,-1.000000,0.974595,-0.167032,0.945119,0.894460,0.999824,0.974602,0.936693,0.681638,0.894467,-1.000000,0.966193,0.999835,0.949349,0.978821,-1.000000,-1.000000,0.970411,-1.000000,-1.000000,0.983036,0.995648,-1.000000,-1.000000,-1.000000,0.970423,-1.000000,-1.000000,0.826694,-1.000000,-1.000000,0.724457,0.999866,0.852159,-1.000000,-1.000000,-1.000000,0.940954,-1.000000,0.779928,-1.000000,-1.000000,-1.000000,0.999883,0.999884,0.999886,0.991484,0.007999,0.987283,-1.000000,0.999894,-1.000000,-1.000000,0.999898,-1.000000,0.999901,0.970469,-1.000000,0.852193,0.957843,0.999909,0.970477,0.999912,0.999914,-1.000000,0.999917,-1.000000,-1.000000,-1.000000,-1.000000,-1.000000,0.999926,-1.000000,-1.000000,-1.000000,0.970498,0.970499,0.999935,-1.000000,-1.000000,0.295857,0.503704,-1.000000,0.370291,-1.000000,-1.000000,0.487732,-1.000000,-1.000000,-1.000000,0.999955,0.974730,0.974732,0.881893,-1.000000,0.970528,-1.000000,-1.000000,0.999968,0.974742,-1.000000,0.999972,0.246062,
-1.000000,-1.000000,0.999361,0.969942,0.969944,-1.000000,0.999367,0.999368,0.999370,-1.000000,-1.000000,0.969954,0.969956,-1.000000,0.999379,-1.000000,-1.000000,-1.000000,-1.000000,-1.000000,0.732631,0.719818,0.969971,0.999393,0.999395,-1.000000,-1.000000,0.999399,-1.000000,0.974188,-1.000000,-1.000000,0.948938,0.898310,0.953153,0.999411,0.982608,-1.000000,-1.000000,0.948948,-1.000000,0.940524,0.953164,0.898324,0.999425,-1.000000,-1.000000,0.911002,-1.000000,-1.000000,0.851780,-1.000000,-1.000000,-1.000000,0.898339,0.970020,-1.000000,0.978435,-1.000000,0.940550,-1.000000,-1.000000,0.970031,-1.000000,0.999456,-1.000000,0.936345,0.911030,0.872983,0.885677,-1.000000,-1.000000,0.906814,0.872989,0.843334,-1.000000,0.915265,-1.000000,-1.000000,-1.000000,-1.000000,-1.000000,-1.000000,0.940585,-1.000000,0.800885,-1.000000,-1.000000,-1.000000,-1.000000,0.965865,-1.000000,0.940598,0.906844,0.877251,-1.000000,0.940604,-1.000000,-1.000000,-1.000000,0.915300,0.889951,-1.000000,0.856090,-1.000000,0.881497,-1.000000,0.923751,0.868804,-1.000000,-1.000000,0.826411,0.860339,0.906872,-1.000000,0.944847,-1.000000,0.940635,0.864583,-1.000000,0.999542,-1.000000,-1.000000,-1.000000,-1.000000,-1.000000,-1.000000,-1.000000,-1.000000,-1.000000,-1.000000,-1.000000,-1.000000,0.961720,0.868840,-1.000000,-1.000000,0.843418,-1.000000,-1.000000,0.999573,-1.000000,-1.000000,-1.000000,-1.000000,-1.000000,-1.000000,-1.000000,-1.000000,-1.000000,-1.000000,-1.000000,0.970166,-1.000000,-1.000000,0.885797,0.940692,0.970174,-1.000000,-1.000000,-1.000000,-1.000000,-1.000000,-1.000000,-1.000000,-1.000000,-1.000000,-1.000000,-1.000000,-1.000000,0.788232,-1.000000,-1.000000,0.919626,0.856186,-1.000000,0.940721,-1.000000,-1.000000,-1.000000,0.461506,-1.000000,-1.000000,-1.000000,-1.000000,-1.000000,-1.000000,-1.000000,-1.000000,-1.000000,0.911206,-1.000000,-1.000000,-1.000000,-1.000000,0.911213,0.970232,-1.000000,-1.000000,-1.000000,0.999666,-1.000000,-1.000000,-1.000000,-1.000000,-1.000000,-1.000000,-1.000000,0.856232,0.856233,-1.000000,0.822296,-1.000000,-1.000000,-1.000000,0.940778,0.970262,-1.000000,-1.000000,-1.000000,0.940785,0.940787,-1.000000,0.919697,-1.000000,0.999704,-1.000000,0.915481,0.911260,0.835056,0.945015,0.923930,0.860502,-1.000000,0.940806,-1.000000,-1.000000,-1.000000,0.818084,0.982916,-1.000000,0.970300,0.970301,-1.000000,0.940821,0.970306,0.911285,-1.000000,0.860524,0.890157,0.873233,-1.000000,-1.000000,-1.000000,0.885934,-1.000000,0.839335,-1.000000,0.999755,-1.000000,0.999758,0.999760,-1.000000,0.932414,0.970334,0.940851,0.970337,0.860550,-1.000000,0.818124,0.885957,-1.000000,-1.000000,0.911324,-1.000000,0.860560,0.911328,0.940869,-1.000000,-1.000000,-1.000000,0.999790,0.999792,-1.000000,0.961945,0.966157,0.885979,-1.000000,0.885982,-1.000000,0.915571,-1.000000,-1.000000,-1.000000,0.940894,-1.000000,-1.000000,0.885994,0.970385,-1.000000,0.970388,0.987214,-1.000000,0.999824,-1.000000,0.978810,0.915594,0.945128,-1.000000,0.940916,0.940917,-1.000000,0.940920,-1.000000,0.911382,0.940924,-1.000000,0.999846,0.978830,0.999849,0.970418,0.919838,0.999854,-1.000000,0.999857,-1.000000,-1.000000,-1.000000,0.915626,0.915627,-1.000000,0.864873,0.856400,0.805456,-1.000000,-1.000000,0.911413,-1.000000,0.978860,-1.000000,0.999881,-1.000000,-1.000000,-1.000000,-1.000000,0.970456,0.940970,-1.000000,0.974668,-1.000000,-1.000000,-1.000000,0.733030,0.860666,0.940981,-1.000000,-1.000000,-1.000000,-1.000000,0.999911,-1.000000,-1.000000,0.970481,-1.000000,0.919900,0.928343,0.932564,-1.000000,-1.000000,-1.000000,-1.000000,0.890328,-1.000000,-1.000000,-1.000000,-1.000000,0.978918,0.978919,0.999940,0.999941,0.945235,-1.000000,0.970511,-1.000000,-1.000000,-1.000000,-1.000000,-1.000000,-1.000000,-1.000000,-1.000000,-1.000000,-1.000000,-1.000000,-1.000000,-1.000000,-1.000000,0.970534,0.999971,-1.000000,
0.906711,0.881352,0.999359,0.915160,0.982558,-1.000000,0.999365,0.932041,-1.000000,0.999370,0.919390,0.948905,0.851728,0.974162,-1.000000,-1.000000,-1.000000,-1.000000,0.990984,0.361262,-0.225904,-1.000000,0.655674,-1.000000,-1.000000,0.999395,-1.000000,-1.000000,-1.000000,0.982596,-1.000000,0.957357,-1.000000,-1.000000,-1.000000,-1.000000,-1.000000,-1.000000,-1.000000,-1.000000,-1.000000,-1.000000,0.944738,-1.000000,-1.000000,-1.000000,0.999427,0.991028,-1.000000,-1.000000,0.923668,0.728397,0.813592,-1.000000,-1.000000,-1.000000,-1.000000,-1.000000,-1.000000,-1.000000,-1.000000,-0.023342,-1.000000,-1.000000,-1.000000,-1.000000,-1.000000,0.970037,-1.000000,-1.000000,-1.000000,-1.000000,-1.000000,0.830604,-1.000000,-1.000000,-1.000000,0.974259,-1.000000,-1.000000,-1.000000,-1.000000,0.949010,-1.000000,0.999485,0.999487,0.970066,0.999490,-1.000000,-1.000000,-1.000000,-1.000000,-1.000000,-1.000000,0.982694,-1.000000,-1.000000,0.919515,0.919517,0.728454,-1.000000,-1.000000,-1.000000,-1.000000,0.982709,-1.000000,0.970096,0.999521,0.974305,-1.000000,-1.000000,-1.000000,-1.000000,-1.000000,0.999532,0.999533,0.860343,-1.000000,-1.000000,-1.000000,-1.000000,-1.000000,0.970120,-1.000000,0.999547,-1.000000,-1.000000,0.999552,0.999553,-1.000000,-1.000000,-1.000000,-1.000000,-1.000000,0.999562,0.999564,-1.000000,0.999567,-1.000000,-1.000000,-1.000000,-1.000000,-1.000000,0.944886,0.999578,-1.000000,-1.000000,-1.000000,-1.000000,-1.000000,-1.000000,0.902700,0.991188,0.999592,-1.000000,-1.000000,0.999596,-1.000000,-1.000000,-1.000000,-1.000000,0.999604,-1.000000,-1.000000,0.999609,0.999610,0.999612,-1.000000,-1.000000,0.999616,-1.000000,-1.000000,0.957567,0.970196,0.970198,0.999626,-1.000000,0.999629,0.999630,-1.000000,-1.000000,0.999635,-1.000000,0.940730,-1.000000,0.999641,-1.000000,0.970217,0.970219,0.999647,-1.000000,0.999650,-1.000000,-1.000000,0.894307,-1.000000,0.999658,-1.000000,0.999661,0.999663,0.835016,0.830773,-1.000000,-1.000000,-1.000000,0.978658,-1.000000,-1.000000,0.999676,0.999678,-1.000000,0.999681,-1.000000,-1.000000,0.953417,-1.000000,-1.000000,-1.000000,0.999692,0.999693,-1.000000,0.610056,-1.000000,-1.000000,-1.000000,0.974482,0.974483,-1.000000,-1.000000,0.999709,0.936582,-1.000000,-1.000000,-1.000000,-1.000000,0.864741,0.953450,-1.000000,0.999723,-1.000000,-1.000000,-1.000000,0.999729,-1.000000,-1.000000,-1.000000,-1.000000,-1.000000,0.999738,0.995539,0.999741,0.999743,-1.000000,-1.000000,0.805353,0.890164,0.885936,0.999752,0.999753,-1.000000,-1.000000,-1.000000,-1.000000,-1.000000,0.999763,0.999764,0.978750,-1.000000,-1.000000,-1.000000,-1.000000,0.974551,-1.000000,-1.000000,0.923990,-1.000000,-1.000000,0.978766,0.999784,0.999786,-1.000000,-1.000000,-1.000000,-1.000000,-1.000000,0.978779,0.999797,0.999798,0.999800,0.999801,0.953530,0.978788,-1.000000,-1.000000,0.949322,0.860586,-1.000000,-1.000000,-1.000000,-1.000000,0.974595,-1.000000,-1.000000,-1.000000,-1.000000,-1.000000,-1.000000,-1.000000,0.999831,-1.000000,-1.000000,-1.000000,0.919824,-1.000000,-1.000000,0.928269,0.953568,0.999844,-1.000000,-1.000000,0.054153,-1.000000,-1.000000,-1.000000,-1.000000,-1.000000,-1.000000,0.999860,0.987254,-1.000000,0.915627,0.953590,0.957804,-1.000000,0.999871,0.940952,0.999874,-1.000000,-1.000000,0.847928,-1.000000,-1.000000,-1.000000,-1.000000,-1.000000,-1.000000,0.928314,0.945186,0.924097,0.953617,0.898754,-1.000000,0.987291,-1.000000,0.999901,0.991499,-1.000000,-1.000000,-1.000000,-1.000000,-1.000000,-1.000000,-1.000000,-1.000000,-1.000000,-1.000000,-1.000000,-1.000000,-1.000000,0.814004,-1.000000,-1.000000,0.928352,-1.000000,0.970498,-1.000000,-1.000000,-1.000000,0.852221,-1.000000,0.809848,-1.000000,-1.000000,-1.000000,-1.000000,-1.000000,-1.000000,-1.000000,0.970519,-1.000000,0.903038,0.869190,0.970525,-1.000000,0.890358,-1.000000,-1.000000,-1.000000,-1.000000,0.673252,
-1.000000,-1.000000,-1.000000,-0.268232,-0.048737,-1.000000,-1.000000,0.644211,-1.000000,0.786688,-1.000000,0.999371,0.999373,0.885596,-1.000000,0.236991,-1.000000,-0.114574,-0.024853,0.024285,-1.000000,-0.050223,-1.000000,-1.000000,-1.000000,0.894069,0.839026,-1.000000,-1.000000,-1.000000,-1.000000,-1.000000,0.999404,0.999405,0.915203,0.948939,0.345246,-1.000000,-1.000000,-1.000000,0.940519,0.225264,-1.000000,-1.000000,-1.000000,-1.000000,0.970004,-1.000000,-1.000000,-1.000000,0.944748,-1.000000,-1.000000,0.830576,0.919452,0.919453,-1.000000,-1.000000,-1.000000,-1.000000,0.785334,-1.000000,-1.000000,0.413561,0.927905,0.698486,0.999456,-1.000000,0.970037,0.970038,-1.000000,-1.000000,-1.000000,0.719877,0.965838,-1.000000,0.919484,-1.000000,0.083681,-1.000000,-1.000000,-1.000000,0.629893,-1.000000,-1.000000,0.581200,-1.000000,-1.000000,0.940590,-1.000000,0.881473,-1.000000,-1.000000,-1.000000,0.999499,0.974284,-1.000000,-1.000000,-1.000000,0.289799,-1.000000,-1.000000,0.070356,-1.000000,0.999515,-1.000000,-1.000000,0.506333,-1.000000,-1.000000,0.970100,-1.000000,-1.000000,0.999529,-1.000000,-1.000000,0.383172,0.009458,-1.000000,-0.162587,0.999539,-1.000000,-0.030771,-1.000000,-1.000000,-1.000000,0.830673,-1.000000,0.830676,-1.000000,0.970130,-1.000000,-1.000000,-1.000000,0.995361,-1.000000,-1.000000,0.209164,0.483248,-0.209267,0.601361,-1.000000,-1.000000,-1.000000,0.902689,-1.000000,-1.000000,0.877321,0.238466,0.120718,-1.000000,-1.000000,-1.000000,0.999590,0.961749,0.902704,-1.000000,-1.000000,0.238557,-1.000000,0.970175,-1.000000,-1.000000,-1.000000,-0.243983,-1.000000,-1.000000,0.705817,0.987009,0.330764,-1.000000,-1.000000,0.999619,0.999621,0.864657,0.970198,-1.000000,-0.020305,-1.000000,-0.277262,-1.000000,-1.000000,0.126649,-1.000000,0.783991,-1.000000,-1.000000,-1.000000,0.919644,0.251782,0.269370,-1.000000,-1.000000,0.999652,-1.000000,-1.000000,-1.000000,-1.000000,0.758527,-1.000000,0.999663,0.341001,-0.262118,0.173882,-1.000000,0.982861,-1.000000,-1.000000,-1.000000,-1.000000,0.319116,-1.000000,0.999681,-1.000000,0.851999,-1.000000,-1.000000,-0.237922,-0.029235,-1.000000,0.170945,-1.000000,-1.000000,-1.000000,-1.000000,-1.000000,0.970274,0.338104,-1.000000,-1.000000,-1.000000,-1.000000,0.970283,0.877440,0.788311,-1.000000,-1.000000,0.461638,-1.000000,-1.000000,0.999724,0.234210,0.985800,0.966091,0.999730,-1.000000,0.970304,-1.000000,0.970307,-1.000000,-1.000000,-1.000000,0.970313,-1.000000,-1.000000,-1.000000,-1.000000,0.839334,0.886018,0.999753,-1.000000,-1.000000,0.999758,0.999760,0.999761,-1.000000,0.953493,0.970336,-1.000000,0.970339,-1.000000,0.970342,0.970343,0.945075,0.970346,0.911324,0.970349,0.970351,0.970352,-1.000000,0.999786,0.999787,-1.000000,-1.000000,0.970361,0.999794,-1.000000,0.999797,-1.000000,-1.000000,0.999801,-1.000000,-1.000000,-1.000000,0.924017,0.533920,0.999810,0.949325,-1.000000,-1.000000,-1.000000,-1.000000,0.999820,-1.000000,0.970391,-1.000000,-1.000000,-1.000000,0.185732,0.432720,0.037810,0.953559,-1.000000,0.615890,0.970406,-1.000000,0.732984,0.974619,0.999844,0.999846,0.919834,-1.000000,0.999851,-1.000000,-1.000000,0.995654,0.219579,-0.074005,-1.000000,-1.000000,-1.000000,0.247480,-1.000000,-1.000000,-1.000000,0.898732,0.970439,-1.000000,-1.000000,0.243084,0.028908,0.526756,-1.000000,0.974658,-1.000000,-1.000000,-1.000000,-1.000000,-1.000000,-1.000000,0.999894,-1.000000,-1.000000,-1.000000,0.999900,-1.000000,0.886073,0.492124,-1.000000,0.064562,-1.000000,0.953713,0.513792,0.313388,-1.000000,-1.000000,-1.000000,-1.000000,0.915680,-1.000000,-1.000000,-0.041105,-1.000000,0.196079,0.856454,0.715960,0.881870,-1.000000,0.911470,0.767277,-1.000000,0.095699,0.228431,-1.000000,0.999946,-1.000000,-1.000000,-1.000000,-1.000000,-1.000000,-0.085951,0.178420,-1.000000,-1.000000,0.677451,-1.000000,0.999965,-1.000000,0.276843,-1.000000,
-1.000000,-1.000000,-1.000000,-1.000000,-1.000000,-1.000000,-1.000000,-1.000000,-1.000000,-1.000000,-1.000000,-1.000000,-1.000000,-1.000000,-1.000000,0.898280,0.830526,-1.000000,-1.000000,-1.000000,0.969963,-1.000000,-1.000000,0.910964,0.483060,-1.000000,-1.000000,-1.000000,-1.000000,-1.000000,-1.000000,-1.000000,-1.000000,-1.000000,-1.000000,-1.000000,0.608342,-1.000000,-1.000000,-1.000000,-1.000000,-1.000000,-1.000000,-1.000000,-1.000000,0.999422,-1.000000,-1.000000,-1.000000,-1.000000,0.911002,0.860252,-1.000000,0.999435,-1.000000,0.970016,-1.000000,-1.000000,0.970020,0.999444,0.586838,0.435321,-1.000000,-0.001074,-1.000000,-1.000000,-1.000000,0.970034,-1.000000,-1.000000,-1.000000,-1.000000,0.940565,-1.000000,0.915258,0.944783,-1.000000,0.974256,-1.000000,0.694222,-1.000000,-1.000000,-1.000000,-1.000000,0.999482,-1.000000,0.999485,0.940587,0.940588,-1.000000,-1.000000,-1.000000,0.940594,0.940595,-1.000000,0.944813,0.978490,0.932169,-1.000000,-1.000000,-1.000000,-1.000000,-1.000000,-1.000000,-1.000000,-1.000000,0.915304,0.940616,-1.000000,-1.000000,-1.000000,-1.000000,0.940623,0.940625,0.970105,-1.000000,0.999532,0.999533,-1.000000,-1.000000,-1.000000,-1.000000,0.970117,-1.000000,0.974326,0.944857,0.932211,0.940645,-1.000000,-1.000000,-1.000000,-1.000000,-1.000000,0.940654,0.970135,0.978549,0.999562,-1.000000,-1.000000,-1.000000,-1.000000,-1.000000,0.999572,0.974355,0.974356,-1.000000,-1.000000,0.970154,0.970156,-1.000000,-1.000000,-1.000000,-1.000000,0.940683,-1.000000,-1.000000,-1.000000,-1.000000,0.986992,-1.000000,-1.000000,-1.000000,0.999602,-1.000000,0.999606,-1.000000,0.940702,-1.000000,0.970186,0.970187,-1.000000,0.999616,0.940711,0.974400,-1.000000,-1.000000,0.999624,0.991224,0.877362,-1.000000,0.999630,0.940724,-1.000000,0.999635,0.940728,0.940730,0.940731,0.970214,0.970216,-1.000000,0.923866,0.999647,-1.000000,-1.000000,-1.000000,0.999653,0.999655,0.932314,-1.000000,-1.000000,0.957605,0.970235,0.999664,0.974445,0.940758,0.940759,-1.000000,0.970244,-1.000000,0.966039,0.970249,-1.000000,0.944984,-1.000000,0.999683,0.999684,0.999686,-1.000000,-1.000000,-1.000000,-1.000000,0.970265,0.999695,-1.000000,0.974477,0.970271,-1.000000,-1.000000,0.970276,-1.000000,-1.000000,-1.000000,0.945014,0.911262,0.999713,-1.000000,0.881674,-1.000000,0.767020,0.890139,0.999723,0.940812,-1.000000,0.999727,0.999729,0.999730,-1.000000,0.999733,0.999735,-1.000000,0.945040,0.911288,0.911289,-1.000000,-1.000000,-1.000000,0.852054,-1.000000,-1.000000,-1.000000,-1.000000,-1.000000,-1.000000,-1.000000,0.999760,0.999761,-1.000000,0.919756,0.999766,0.999767,-1.000000,-1.000000,0.940857,-1.000000,0.974552,-1.000000,0.599985,-1.000000,-1.000000,-1.000000,0.852086,0.771335,0.970357,-1.000000,-1.000000,0.999792,-1.000000,0.877513,-1.000000,0.940882,0.940883,0.970370,0.970372,0.974581,0.999806,-1.000000,-1.000000,-1.000000,-1.000000,-1.000000,-1.000000,-1.000000,-1.000000,-1.000000,-1.000000,-1.000000,-1.000000,-1.000000,-1.000000,-1.000000,-1.000000,0.970400,-1.000000,-1.000000,-1.000000,0.949350,-1.000000,0.999841,0.552587,-1.000000,-1.000000,-1.000000,-1.000000,-1.000000,-1.000000,-1.000000,-1.000000,-1.000000,0.970426,0.970427,0.970429,-1.000000,0.999864,0.999866,0.999867,-1.000000,-1.000000,-1.000000,0.513686,-1.000000,-1.000000,-1.000000,-1.000000,-1.000000,-1.000000,-1.000000,-1.000000,-1.000000,-1.000000,0.999891,-1.000000,-1.000000,-1.000000,-1.000000,-1.000000,-1.000000,-1.000000,0.945197,0.940983,0.999906,-1.000000,-1.000000,-1.000000,-1.000000,-1.000000,-1.000000,-1.000000,-1.000000,0.999920,0.999921,-1.000000,0.941002,-1.000000,0.999928,0.970495,-1.000000,0.886100,-1.000000,0.970501,-1.000000,-1.000000,-1.000000,-1.000000,-1.000000,-1.000000,0.932587,-1.000000,-1.000000,-1.000000,-1.000000,-1.000000,0.974729,0.974730,-1.000000,0.970525,0.970526,0.945255,0.970529,0.999966,-1.000000,
-1.000000,0.527867,-1.000000,-1.000000,0.910935,-1.000000,0.894040,-1.000000,-1.000000,-1.000000,-1.000000,0.944688,0.953114,0.944691,0.932047,0.927831,0.969956,-1.000000,-1.000000,-1.000000,0.999382,-1.000000,-1.000000,-1.000000,0.715543,0.969969,-1.000000,-1.000000,0.969974,-1.000000,-1.000000,0.932072,-1.000000,0.940506,-1.000000,0.948936,0.969986,0.999408,0.999410,0.999411,-0.129566,-1.000000,-1.000000,-1.000000,0.999419,-1.000000,-1.000000,-1.000000,0.940528,0.940530,-1.000000,-1.000000,0.915225,0.948963,-1.000000,-1.000000,-1.000000,-1.000000,0.970019,0.999442,0.999444,-1.000000,-1.000000,-1.000000,0.999450,0.944767,0.911023,0.856036,-1.000000,0.919471,0.915251,0.881444,-1.000000,0.944779,0.940566,-1.000000,0.911038,0.970047,0.970049,0.999473,-1.000000,-1.000000,0.885690,0.940579,-1.000000,0.944797,-1.000000,0.885697,-1.000000,-1.000000,-1.000000,0.940591,0.970070,-1.000000,-1.000000,-1.000000,-1.000000,-1.000000,-1.000000,-1.000000,0.826391,0.940606,-1.000000,0.911076,-1.000000,-1.000000,-1.000000,0.999516,0.999518,0.999519,-1.000000,-1.000000,-1.000000,-1.000000,-1.000000,-1.000000,-1.000000,-1.000000,-1.000000,-1.000000,-1.000000,-1.000000,-1.000000,0.970117,0.970118,-1.000000,-1.000000,0.999547,0.999549,-1.000000,0.940648,-1.000000,-1.000000,-1.000000,-1.000000,-1.000000,-1.000000,-1.000000,-1.000000,-1.000000,-1.000000,0.999569,-1.000000,0.970147,0.974355,0.974356,0.999576,-1.000000,-1.000000,0.999581,-1.000000,0.940679,0.881557,-1.000000,0.915371,0.856155,-1.000000,-1.000000,-1.000000,-1.000000,0.928041,-1.000000,0.970175,-1.000000,0.970178,-1.000000,0.999607,-1.000000,-1.000000,-1.000000,-1.000000,-1.000000,-1.000000,0.974399,-1.000000,0.944929,0.617094,-1.000000,-1.000000,-1.000000,-1.000000,0.953364,0.970205,0.999633,-1.000000,0.944943,-1.000000,-1.000000,0.974421,0.915421,0.940736,0.928086,0.894300,-1.000000,0.915428,0.915430,-1.000000,-1.000000,-1.000000,-1.000000,-1.000000,0.970234,0.898542,-1.000000,-1.000000,0.881630,0.915445,-1.000000,-1.000000,0.885866,-1.000000,-1.000000,-1.000000,0.885872,-1.000000,-1.000000,0.885876,-1.000000,0.944992,0.528078,-1.000000,-1.000000,-1.000000,0.784038,0.847770,0.885888,-1.000000,0.970273,-1.000000,-1.000000,-1.000000,-1.000000,-1.000000,0.999710,-1.000000,-1.000000,0.911265,0.881674,-1.000000,0.945023,-1.000000,-1.000000,-1.000000,-1.000000,0.767026,-1.000000,-1.000000,-1.000000,-1.000000,0.911284,0.974515,-1.000000,0.999740,0.999741,-1.000000,0.970315,-1.000000,-1.000000,-1.000000,-1.000000,0.940838,0.813860,-1.000000,-1.000000,-1.000000,-1.000000,-1.000000,-1.000000,0.843588,-1.000000,-1.000000,-1.000000,0.999770,-1.000000,-1.000000,0.970345,-1.000000,0.911324,0.911325,0.945081,0.852085,-1.000000,-1.000000,-1.000000,-1.000000,-1.000000,-1.000000,-1.000000,-1.000000,-1.000000,-1.000000,-1.000000,-1.000000,0.999803,0.999804,-1.000000,0.852107,-1.000000,-1.000000,0.945111,0.720144,-1.000000,-1.000000,0.970387,-1.000000,-1.000000,-1.000000,-1.000000,-1.000000,-1.000000,-1.000000,-1.000000,-1.000000,-1.000000,-1.000000,0.881782,0.822428,0.852135,0.911382,0.945140,-1.000000,0.945143,-1.000000,0.953574,-1.000000,0.945149,0.945150,0.886030,0.940938,-1.000000,-1.000000,-1.000000,0.940943,-1.000000,-1.000000,0.852159,0.881811,0.911409,-1.000000,0.999874,0.830953,0.940957,0.940958,0.940959,0.940961,-1.000000,-1.000000,-1.000000,0.970454,-1.000000,0.970457,0.940971,0.890295,0.940974,-1.000000,0.945193,-1.000000,0.999901,0.999903,0.999904,0.292915,-1.000000,-1.000000,-1.000000,0.940990,0.894543,0.898772,-1.000000,-1.000000,0.940997,0.940999,-1.000000,-1.000000,-1.000000,0.999928,0.999929,0.970496,-1.000000,0.945227,0.999935,-1.000000,0.999938,0.767197,0.970507,0.941019,0.949452,0.919925,0.924148,-1.000000,-1.000000,0.941028,-1.000000,-1.000000,0.970522,-1.000000,-1.000000,-1.000000,0.999963,-1.000000,0.466125,
-1.000000,0.916638,0.999353,0.123587,0.792350,0.805108,-1.000000,-1.000000,-1.000000,0.083642,-1.000000,-1.000000,-1.000000,-1.000000,0.948904,0.982568,0.999375,0.974162,0.923616,0.999379,-0.122072,-1.000000,0.123598,0.974171,0.614145,0.999388,0.953133,0.012389,-1.000000,-1.000000,-1.000000,-1.000000,-1.000000,0.885620,0.999402,-1.000000,0.999405,0.999407,-1.000000,-1.000000,-1.000000,0.280975,-1.000000,-1.000000,-1.000000,-1.000000,-1.000000,-1.000000,-1.000000,-1.000000,0.999427,-1.000000,-1.000000,-1.000000,-1.000000,-1.000000,0.999436,0.999438,-1.000000,0.999441,-1.000000,-1.000000,0.311698,-1.000000,0.308778,-0.203262,0.999452,-1.000000,-1.000000,-1.000000,-1.000000,-1.000000,-1.000000,-1.000000,0.999464,0.999465,-1.000000,0.999468,0.970047,-1.000000,-1.000000,-1.000000,0.944791,0.496200,-1.000000,-1.000000,-1.000000,-1.000000,-1.000000,-1.000000,-1.000000,-1.000000,-1.000000,0.991092,0.999495,0.999496,-1.000000,0.999499,0.982694,-1.000000,-1.000000,0.864633,0.923817,-1.000000,-1.000000,-1.000000,0.970090,-1.000000,-1.000000,-1.000000,-1.000000,0.936403,-1.000000,-1.000000,0.999525,0.999527,0.999529,-1.000000,-1.000000,-1.000000,-1.000000,0.940633,-1.000000,-1.000000,-1.000000,0.944854,-1.000000,-1.000000,-1.000000,-1.000000,0.940647,-1.000000,0.999553,0.999555,0.999556,-1.000000,-1.000000,-1.000000,0.944873,-1.000000,-1.000000,-1.000000,-1.000000,0.561127,-1.000000,-1.000000,0.902687,-1.000000,-1.000000,-1.000000,0.970156,-1.000000,-1.000000,-1.000000,-1.000000,0.999589,0.067417,0.999592,-1.000000,-1.000000,0.802473,-1.000000,-1.000000,-1.000000,-1.000000,-1.000000,-1.000000,-1.000000,-1.000000,-1.000000,0.999612,0.999613,-1.000000,0.999616,-1.000000,0.970193,-1.000000,-1.000000,-1.000000,-1.000000,0.717232,0.898591,-1.000000,0.216542,-1.000000,-1.000000,-1.000000,-1.000000,0.999639,-1.000000,0.999643,-1.000000,0.999646,-1.000000,0.851968,-1.000000,0.235645,-1.000000,-1.000000,0.354118,0.961813,0.197438,-1.000000,0.298649,-1.000000,-1.000000,-1.000000,-1.000000,-1.000000,-1.000000,0.999673,-1.000000,-1.000000,-1.000000,0.978665,-1.000000,0.665894,-1.000000,0.999686,-1.000000,0.881649,-1.000000,-1.000000,-1.000000,-1.000000,0.970268,0.999698,0.999700,0.999701,0.999703,-1.000000,-1.000000,-1.000000,-1.000000,-1.000000,-1.000000,-1.000000,0.999715,0.413791,-1.000000,-1.000000,0.571295,0.999723,-1.000000,-1.000000,-1.000000,-1.000000,-1.000000,0.999732,0.999733,-1.000000,0.953466,-1.000000,-1.000000,-1.000000,-1.000000,0.294301,-1.000000,0.970318,-1.000000,0.245962,0.387652,-1.000000,-1.000000,-1.000000,-1.000000,0.974537,-1.000000,-1.000000,0.999764,0.898636,-1.000000,-1.000000,-1.000000,-1.000000,0.940859,-1.000000,-1.000000,-1.000000,-1.000000,-1.000000,-1.000000,0.999784,-1.000000,-1.000000,-1.000000,-1.000000,0.999792,-1.000000,0.852096,0.643005,-1.000000,-1.000000,-1.000000,-1.000000,0.051169,-1.000000,-1.000000,0.852108,0.886070,0.792646,-1.000000,-1.000000,-1.000000,-1.000000,0.999820,0.999821,0.999823,0.961974,0.584301,-1.000000,-1.000000,0.016994,-1.000000,0.949346,0.054148,-1.000000,-1.000000,-1.000000,-1.000000,-1.000000,-1.000000,-1.000000,-1.000000,-1.000000,-1.000000,0.999852,0.987246,-1.000000,-1.000000,-1.000000,-1.000000,-1.000000,-0.081486,-1.000000,-1.000000,-1.000000,0.104555,0.999871,-1.000000,-1.000000,-1.000000,0.999877,-1.000000,-1.000000,0.999881,0.999883,-1.000000,-1.000000,-1.000000,-1.000000,-0.171529,-1.000000,-1.000000,-1.000000,0.015527,-1.000000,0.307536,-1.000000,0.828227,0.999904,0.999906,0.999908,-1.000000,0.999911,0.995711,0.953636,0.999915,-1.000000,-1.000000,0.945213,-1.000000,-1.000000,-1.000000,-1.000000,-1.000000,0.805586,0.358631,-1.000000,-1.000000,0.999935,-1.000000,-1.000000,-1.000000,0.999941,0.987335,-1.000000,-1.000000,-1.000000,-1.000000,-1.000000,0.591570,0.900297,-1.000000,0.970522,-1.000000,-0.069489,0.717489,0.764455,0.268052,
0.969929,-1.000000,0.324795,0.549474,-0.119079,-1.000000,0.058436,-1.000000,-1.000000,-1.000000,-1.000000,0.514896,-1.000000,-1.000000,-1.000000,-0.018893,0.957328,0.079201,-1.000000,0.830607,0.704215,0.865935,-0.014418,-1.000000,-1.000000,-1.000000,-1.000000,-1.000000,-1.000000,0.809387,-1.000000,0.843349,-1.000000,-1.000000,-1.000000,-1.000000,-1.000000,-1.000000,-1.000000,-1.000000,0.999410,-1.000000,-1.000000,0.273656,-1.000000,-1.000000,-1.000000,-1.000000,0.999422,-1.000000,-1.000000,-1.000000,-1.000000,0.558159,-1.000000,-1.000000,-1.000000,0.096995,-1.000000,0.782490,-1.000000,0.764036,-1.000000,0.718517,0.936333,0.552414,-1.000000,0.470164,-1.000000,0.260491,-1.000000,-1.000000,-1.000000,-1.000000,-1.000000,0.911033,0.192942,-1.000000,0.911038,-1.000000,-1.000000,-1.000000,0.461495,-1.000000,0.999478,0.970057,-1.000000,0.995282,-1.000000,0.999485,-1.000000,0.999488,-1.000000,-0.069621,-1.000000,-1.000000,-1.000000,-1.000000,-1.000000,0.759821,-1.000000,0.435436,-1.000000,0.999507,-1.000000,0.970087,-1.000000,-1.000000,0.999515,-1.000000,-1.000000,0.999519,-1.000000,-1.000000,0.999524,0.622842,0.451390,-1.000000,-1.000000,0.970108,0.898424,-1.000000,-1.000000,0.710038,0.999539,-1.000000,-1.000000,0.999544,-1.000000,-1.000000,0.999549,-1.000000,-1.000000,-1.000000,-1.000000,0.999556,0.974340,-1.000000,0.120709,-0.149051,0.438369,-1.000000,-1.000000,0.843418,0.923796,0.999572,-1.000000,0.404999,0.999576,-1.000000,-1.000000,-1.000000,0.986978,-1.000000,0.999586,-1.000000,0.494822,0.120720,-1.000000,-1.000000,-1.000000,-1.000000,-1.000000,-1.000000,0.970175,-1.000000,0.662978,-1.000000,-1.000000,-1.000000,0.326383,-1.000000,0.970187,0.415186,-1.000000,-1.000000,0.978606,-1.000000,0.007998,-1.000000,-1.000000,0.722931,0.698699,0.782646,0.940724,-1.000000,0.520834,-1.000000,0.220953,-1.000000,-1.000000,0.163554,0.999644,-1.000000,0.470279,0.978635,-1.000000,0.206260,0.991251,-1.000000,0.970229,-1.000000,0.574130,0.940752,0.877394,-1.000000,-1.000000,-1.000000,-1.000000,-1.000000,-1.000000,-1.000000,0.847751,0.691600,-1.000000,0.999680,-1.000000,-1.000000,0.840771,0.970258,0.499216,0.157674,-0.014323,-1.000000,0.431110,-1.000000,-1.000000,-1.000000,-1.000000,-0.162548,-1.000000,-1.000000,-1.000000,0.204813,-1.000000,0.970282,-1.000000,0.801154,-1.000000,-1.000000,-1.000000,0.051140,0.999721,-1.000000,-1.000000,-0.096497,-1.000000,-0.248493,0.982920,-1.000000,0.970304,-1.000000,-1.000000,-1.000000,-1.000000,0.826592,0.852050,-1.000000,-1.000000,-1.000000,0.999749,0.575628,-1.000000,-1.000000,0.928188,0.244497,0.330835,-1.000000,-1.000000,-1.000000,0.822446,-1.000000,-1.000000,0.690242,-1.000000,-1.000000,-1.000000,-1.000000,-1.000000,0.533901,-1.000000,0.704520,0.345436,-1.000000,-0.185103,-1.000000,-1.000000,-1.000000,-1.000000,-1.000000,-1.000000,-1.000000,0.019959,-1.000000,0.970370,-1.000000,0.970373,0.897344,-1.000000,-1.000000,-1.000000,-1.000000,-1.000000,-1.000000,-1.000000,0.604401,0.470381,-1.000000,-1.000000,0.999824,0.506521,-0.130962,-1.000000,0.999831,0.999832,0.999834,0.577121,0.082329,0.915603,-1.000000,0.999841,-1.000000,-1.000000,-1.000000,-1.000000,-1.000000,0.886107,0.393523,-1.000000,-1.000000,-1.000000,0.046732,0.949371,0.999861,-1.000000,-1.000000,0.970433,0.064548,-1.000000,-1.000000,-1.000000,-1.000000,-1.000000,-0.148974,0.949388,-1.000000,-1.000000,-1.000000,-0.090463,-1.000000,0.940967,-1.000000,0.999891,0.896013,0.999894,0.778605,0.559902,0.153331,-1.000000,0.653181,0.974677,0.585791,-1.000000,0.294379,-1.000000,-1.000000,0.082356,-1.000000,0.940993,-1.000000,-1.000000,0.700345,-1.000000,0.676075,-1.000000,0.843728,0.999928,-1.000000,0.598735,-1.000000,0.785734,-1.000000,0.627429,0.309016,0.898795,-1.000000,0.484919,-1.000000,0.797013,-1.000000,-1.000000,-1.000000,-1.000000,-1.000000,0.999955,0.966312,0.061612,-1.000000,0.346985,0.925650,
-1.000000,0.257511,-1.000000,-1.000000,-1.000000,-1.000000,0.762465,-1.000000,-1.000000,-1.000000,-1.000000,0.982559,0.910942,-1.000000,-1.000000,-1.000000,-1.000000,-1.000000,-1.000000,-1.000000,0.191433,0.024283,-1.000000,-1.000000,-1.000000,-1.000000,-1.000000,-1.000000,-1.000000,-1.000000,-1.000000,-1.000000,-1.000000,0.999398,0.999399,-1.000000,-1.000000,-1.000000,-1.000000,-1.000000,0.919425,-1.000000,-1.000000,-1.000000,-1.000000,-1.000000,-1.000000,-1.000000,0.881408,0.830565,-1.000000,-1.000000,-1.000000,-1.000000,0.982624,0.978422,0.999433,-1.000000,-1.000000,-1.000000,0.771054,0.911012,0.991042,0.948973,-1.000000,0.944763,-1.000000,-1.000000,0.868740,0.932123,0.965825,-1.000000,-1.000000,-1.000000,0.957412,0.982656,0.948992,0.978455,-1.000000,-1.000000,0.885683,-1.000000,-1.000000,0.881457,-1.000000,-1.000000,0.702784,0.915271,-1.000000,-1.000000,-1.000000,0.936371,0.906833,0.915280,-1.000000,-1.000000,-1.000000,-1.000000,-1.000000,-1.000000,0.961661,-1.000000,-1.000000,0.885715,0.834881,0.766850,0.915298,-1.000000,-1.000000,0.999515,-1.000000,0.944830,0.999519,0.999521,0.999522,0.965892,-1.000000,0.999527,-1.000000,0.982723,0.999532,0.986929,-1.000000,-1.000000,-1.000000,-1.000000,0.766876,-1.000000,-1.000000,0.999545,0.982740,-1.000000,-1.000000,0.999552,-1.000000,-1.000000,0.932220,-1.000000,-1.000000,0.999561,0.944873,0.999564,-1.000000,-1.000000,0.911130,-1.000000,0.991170,0.936453,0.999575,0.999576,0.999578,0.999579,-1.000000,0.999582,0.970159,0.856151,0.834950,-1.000000,-1.000000,-1.000000,0.970168,0.970169,-1.000000,0.978585,0.949122,-1.000000,-1.000000,-1.000000,-1.000000,0.999607,0.999609,0.999610,-1.000000,-1.000000,0.860414,0.809494,0.894274,-1.000000,0.999621,0.999623,0.970198,0.970199,-1.000000,0.944936,-1.000000,-1.000000,-1.000000,-1.000000,-1.000000,-1.000000,-1.000000,0.944948,-1.000000,-1.000000,-1.000000,0.724289,-1.000000,0.999650,-1.000000,-1.000000,0.970228,-1.000000,0.940749,-1.000000,-1.000000,-1.000000,-1.000000,-1.000000,-1.000000,0.953401,-1.000000,0.843508,0.877404,0.526545,0.651507,0.915454,0.978665,0.974460,-1.000000,-1.000000,-1.000000,-1.000000,0.974468,-1.000000,-1.000000,-1.000000,-1.000000,-1.000000,0.894347,-1.000000,-1.000000,-1.000000,-1.000000,-1.000000,-1.000000,0.991306,-1.000000,0.999712,-1.000000,-1.000000,-1.000000,-1.000000,-1.000000,-1.000000,-1.000000,-1.000000,-1.000000,0.919722,-1.000000,-1.000000,0.852041,0.999733,-1.000000,-1.000000,-1.000000,0.987134,0.999741,-1.000000,-1.000000,-1.000000,-1.000000,-1.000000,-1.000000,-1.000000,-1.000000,-1.000000,-1.000000,-1.000000,0.991357,0.940847,0.957703,-1.000000,0.860547,-1.000000,0.582744,-1.000000,0.961923,0.999773,0.940860,-1.000000,-1.000000,-1.000000,-1.000000,-1.000000,-1.000000,-1.000000,0.974564,-1.000000,-1.000000,0.932442,0.999794,0.995594,0.928227,0.638711,-1.000000,-1.000000,-1.000000,-1.000000,-1.000000,-1.000000,0.940892,-1.000000,-1.000000,-1.000000,0.999815,-1.000000,0.999818,-1.000000,0.957760,0.869070,0.915590,0.902918,0.835157,-1.000000,-1.000000,-1.000000,-1.000000,-1.000000,-1.000000,-1.000000,-1.000000,-1.000000,-1.000000,-1.000000,-1.000000,-1.000000,-1.000000,0.957788,-1.000000,-1.000000,0.826690,0.898719,0.898720,0.949371,-1.000000,-1.000000,-1.000000,-1.000000,-1.000000,-1.000000,-1.000000,-1.000000,-1.000000,-1.000000,-1.000000,0.999878,0.999880,-1.000000,0.919867,0.873359,-1.000000,0.898747,-1.000000,-1.000000,-1.000000,-1.000000,-1.000000,-1.000000,0.767164,-1.000000,-1.000000,-1.000000,-1.000000,-1.000000,0.617292,-1.000000,-1.000000,0.999912,0.974688,0.932558,0.932559,0.953641,0.970486,0.928344,-1.000000,-1.000000,-1.000000,-1.000000,-1.000000,-1.000000,-1.000000,-1.000000,-1.000000,-1.000000,-1.000000,0.978921,0.999941,-1.000000,0.966300,-1.000000,-1.000000,0.945241,-1.000000,-1.000000,-1.000000,-1.000000,-1.000000,-1.000000,0.911492,-1.000000,
0.927804,0.197306,0.823508,-1.000000,-1.000000,-1.000000,-1.000000,0.462873,-1.000000,-1.000000,0.889812,0.898267,-1.000000,0.999365,-1.000000,-1.000000,-0.280341,-0.006972,-1.000000,0.024282,0.969956,-1.000000,-0.122073,-1.000000,-0.275796,0.940489,0.080686,0.239930,-1.000000,-1.000000,0.372912,0.898296,-1.000000,-1.000000,-1.000000,-1.000000,0.999401,-1.000000,0.270722,-0.221372,0.889935,0.019832,0.582587,-1.000000,-1.000000,-1.000000,-1.000000,-1.000000,0.919435,0.864478,0.809331,-1.000000,-1.000000,-1.000000,-1.000000,-1.000000,-1.000000,-1.000000,0.343801,0.783906,0.961600,-0.137065,-1.000000,0.280989,0.999444,-1.000000,0.999447,-1.000000,0.911020,-1.000000,0.940554,0.940556,-1.000000,-1.000000,-1.000000,0.758287,0.724146,-0.162605,0.291243,-1.000000,0.647147,-1.000000,-1.000000,0.999473,0.999475,0.999476,-1.000000,-1.000000,0.961641,-1.000000,0.944798,-1.000000,-1.000000,-1.000000,0.367141,-1.000000,-0.072612,-1.000000,-1.000000,0.248782,-1.000000,0.978490,-1.000000,0.999504,-1.000000,-1.000000,0.860320,-1.000000,-1.000000,0.944826,0.889952,0.974299,-1.000000,-1.000000,-1.000000,-1.000000,-1.000000,-1.000000,-1.000000,0.191496,-1.000000,0.999532,-1.000000,-1.000000,0.982729,0.970114,-1.000000,-1.000000,0.595519,0.851876,-1.000000,-1.000000,0.999549,-1.000000,-1.000000,0.982746,0.588429,-1.000000,-0.077081,0.077785,0.970136,0.999562,-1.000000,0.999566,-1.000000,-1.000000,-1.000000,-1.000000,-1.000000,-1.000000,-1.000000,-1.000000,0.940674,-1.000000,-1.000000,-1.000000,0.999586,-0.194188,0.707226,-1.000000,-1.000000,-1.000000,-1.000000,0.970171,0.999598,-1.000000,0.543874,-0.185232,0.949126,-1.000000,-1.000000,-1.000000,0.974391,-1.000000,0.999613,-1.000000,-1.000000,0.532358,-1.000000,-1.000000,0.860420,0.970198,-1.000000,0.970201,0.944936,-1.000000,0.965997,-1.000000,0.982826,0.940728,-1.000000,-1.000000,0.970214,0.999643,0.999644,-1.000000,-1.000000,-1.000000,0.582747,0.064472,0.966018,0.695865,-1.000000,-1.000000,0.915437,-1.000000,-1.000000,-1.000000,0.987060,0.953399,-1.000000,-1.000000,-1.000000,-1.000000,0.999675,0.970249,-1.000000,-1.000000,0.292808,-1.000000,0.970256,-1.000000,-1.000000,0.999689,0.970262,0.970264,-1.000000,0.982885,-1.000000,0.974477,0.974479,0.974480,0.974482,-1.000000,0.999706,-1.000000,-1.000000,0.621538,-1.000000,-1.000000,-1.000000,-1.000000,-1.000000,0.412340,-1.000000,0.940810,0.970295,0.957668,0.974506,0.974507,-1.000000,0.974510,-1.000000,-1.000000,0.999737,-1.000000,-1.000000,-1.000000,0.086741,-1.000000,0.822350,-1.000000,-0.006854,-1.000000,-1.000000,-1.000000,-1.000000,0.970327,-1.000000,-1.000000,0.744388,-1.000000,-1.000000,0.999766,0.999767,-1.000000,-1.000000,-0.102478,-1.000000,-1.000000,-1.000000,0.664534,-1.000000,0.545429,-1.000000,0.374575,-1.000000,0.970357,0.970358,-1.000000,-1.000000,-1.000000,-1.000000,0.999797,0.999798,0.945099,0.794137,-0.277229,-1.000000,-0.263603,0.978791,0.028885,0.728770,0.314800,-1.000000,-1.000000,-1.000000,-1.000000,-1.000000,-1.000000,0.306037,-1.000000,-1.000000,-1.000000,0.999829,-1.000000,-1.000000,-1.000000,-0.127957,0.094180,0.519518,0.480519,-1.000000,0.548349,-1.000000,-1.000000,-1.000000,0.509340,-1.000000,-1.000000,-1.000000,-1.000000,0.999857,0.999858,0.999860,0.999861,-1.000000,-1.000000,-1.000000,-1.000000,0.991465,0.345481,0.435644,-1.000000,0.168071,-1.000000,-1.000000,-1.000000,0.587130,0.487692,0.733018,-1.000000,-1.000000,-1.000000,0.999891,-1.000000,-1.000000,0.704606,-1.000000,0.890380,-1.000000,0.638866,0.297302,-1.000000,0.953629,-1.000000,-1.000000,-1.000000,-1.000000,-1.000000,-1.000000,0.660263,-1.000000,-1.000000,-1.000000,-1.000000,0.999924,0.999926,0.458863,0.860771,0.970496,0.745946,0.767273,-0.042595,-1.000000,-1.000000,-1.000000,-1.000000,-1.000000,-1.000000,-1.000000,-1.000000,-1.000000,0.957884,-1.000000,0.999954,0.999955,0.999957,-1.000000,-1.000000,
0.999344,-1.000000,-1.000000,-1.000000,-1.000000,0.401971,0.579675,-1.000000,0.254583,-1.000000,-1.000000,0.441152,-1.000000,0.113243,-1.000000,0.749765,-1.000000,0.536524,-1.000000,-1.000000,-1.000000,-1.000000,-1.000000,-1.000000,0.449857,0.940487,0.948916,-1.000000,-0.176163,0.006435,-1.000000,-1.000000,0.540860,-1.000000,-1.000000,-1.000000,0.894155,-0.072638,0.766845,-1.000000,-0.015901,0.091063,-1.000000,-0.149089,-1.000000,-1.000000,-1.000000,-1.000000,0.184090,-0.153595,-1.000000,0.364194,-0.050212,0.375841,0.362740,0.728473,-1.000000,-1.000000,-1.000000,-1.000000,0.436847,-0.158100,-0.090584,-1.000000,-1.000000,-1.000000,0.948975,-1.000000,-1.000000,0.449897,-1.000000,-1.000000,-1.000000,-1.000000,0.999458,-1.000000,-1.000000,0.766893,-1.000000,0.117717,-1.000000,0.215002,0.999470,-1.000000,-1.000000,-0.083090,-1.000000,-1.000000,-1.000000,0.582634,0.999482,0.634274,-1.000000,-1.000000,-1.000000,-1.000000,-1.000000,0.644302,-1.000000,-1.000000,0.911065,0.333624,-1.000000,0.073318,0.388974,0.400602,0.970084,0.310268,-1.000000,-1.000000,-1.000000,-1.000000,-1.000000,-1.000000,0.982712,0.834973,-1.000000,0.540944,0.766944,0.664352,-1.000000,-1.000000,0.758344,-1.000000,-1.000000,0.999536,0.215032,-1.000000,-1.000000,0.638611,-1.000000,-1.000000,-1.000000,-1.000000,0.323433,0.327813,0.484685,-1.000000,-1.000000,-1.000000,-0.248528,-1.000000,-0.141540,-1.000000,-1.000000,-1.000000,-1.000000,0.113320,0.839260,-1.000000,-1.000000,0.843505,-0.198711,0.502038,-1.000000,-1.000000,-1.000000,0.086684,0.082240,-1.000000,-1.000000,-1.000000,0.919597,-0.284843,0.015430,-1.000000,0.843525,-1.000000,-1.000000,-1.000000,-1.000000,-0.180627,-1.000000,0.493391,0.690125,-1.000000,0.970189,0.642959,-1.000000,-0.253051,0.467370,0.184175,-1.000000,-1.000000,-1.000000,-1.000000,-1.000000,-1.000000,-1.000000,0.694423,-1.000000,-1.000000,-1.000000,0.668723,-1.000000,0.055567,-1.000000,0.612891,0.381779,-1.000000,-1.000000,0.610027,0.999655,0.380328,-1.000000,-1.000000,0.801110,0.771316,-1.000000,-1.000000,-1.000000,0.612906,0.091158,-1.000000,0.681605,0.384702,-1.000000,-1.000000,0.970252,-0.176094,0.610047,-1.000000,-1.000000,0.898645,-1.000000,0.999690,0.957635,0.771341,-1.000000,0.762820,-1.000000,-1.000000,-0.020283,-1.000000,0.940793,0.091171,-0.087517,-1.000000,-0.257570,0.170953,-0.149014,-1.000000,-1.000000,0.441356,0.113376,-1.000000,-0.248494,-1.000000,-1.000000,-1.000000,-1.000000,-1.000000,-1.000000,-1.000000,0.788408,-1.000000,0.046692,-1.000000,-1.000000,-1.000000,0.728718,-1.000000,-1.000000,-1.000000,-1.000000,0.006551,0.949269,0.210715,-1.000000,-1.000000,-1.000000,-1.000000,-1.000000,0.262098,-1.000000,0.945068,0.911395,-1.000000,-1.000000,-1.000000,-0.225821,-0.230350,0.750010,0.210726,0.030362,0.077864,0.579962,-1.000000,-0.121967,-0.045625,-1.000000,-1.000000,-1.000000,0.612993,-1.000000,0.210734,-1.000000,-1.000000,-1.000000,0.188667,0.999806,-1.000000,-0.005345,0.668847,-1.000000,-0.077010,-1.000000,0.215152,0.454455,-0.082995,-1.000000,0.474724,0.561293,-1.000000,-1.000000,-1.000000,-0.176059,0.610150,-1.000000,0.822507,-1.000000,-1.000000,-1.000000,0.493531,-1.000000,-1.000000,-1.000000,-1.000000,-1.000000,-1.000000,0.940933,-0.132456,-1.000000,-1.000000,-1.000000,0.869183,-0.139963,0.117866,0.919849,0.911485,0.767220,0.737358,0.999871,0.450140,0.437095,0.801288,0.945172,-1.000000,0.140039,0.788529,0.957819,0.686045,-1.000000,0.898828,-1.000000,0.510892,0.707456,-0.090460,0.860741,0.441458,-1.000000,-1.000000,-1.000000,-0.117437,-1.000000,-1.000000,-1.000000,0.184293,0.179875,0.019996,-1.000000,0.166613,-1.000000,-1.000000,-1.000000,0.999921,-1.000000,0.843808,0.999926,-1.000000,-0.216731,0.148917,-1.000000,-1.000000,-1.000000,-0.207677,0.957872,-1.000000,0.634597,0.432784,-0.127930,0.677521,0.999948,0.184309,-1.000000,-1.000000,0.476248,-1.000000,-1.000000,-1.000000,
