minWeight=-1.000000, maxWeight=1.000000
0.015222,0.157415,0.397497,-0.226044,-0.783216,-0.641814,0.672699,-0.952643,0.497461,-0.152238,-0.265338,-0.808251,-0.089238,-1.000000,0.191307,-1.000000,-0.454040,-0.353333,0.401869,0.113123,-0.976309,-0.576930,-0.702285,-0.047367,-0.119202,-0.583098,0.261805,0.940525,-0.900734,-0.429567,-0.720935,-0.981046,0.141203,-1.000000,-0.583096,0.186905,-0.564556,-1.000000,0.274997,0.629819,-0.958992,0.432369,0.253022,0.509044,0.384448,-0.481606,-1.000000,-0.820717,0.289639,0.260356,0.244228,-0.295617,-0.900690,0.391726,-0.533809,-0.750465,-0.703793,0.605468,0.197221,-0.001121,0.016780,-1.000000,-1.000000,0.182506,0.452678,-0.870894,-0.477003,-0.995265,-0.761415,-0.911739,-0.177784,-1.000000,-0.021977,-0.955837,-0.733377,-0.099695,0.242778,0.889937,-0.221491,0.506192,-0.958991,0.659920,-0.697619,-0.047340,-0.165741,-0.618602,-0.426499,-0.417333,0.049448,-0.962103,-0.195850,-0.147699,-0.725596,0.111686,-0.995265,0.064291,0.681371,-0.637160,-0.563048,-0.995264,-0.530726,0.792376,-0.669686,-1.000000,0.457058,-0.694469,-0.620145,-1.000000,0.378721,-0.382240,-1.000000,0.296999,-0.668135,-1.000000,-0.952639,-0.962102,-0.947910,-0.476994,-0.110167,0.560994,-0.576915,0.659965,-0.298629,-1.000000,-0.596929,-0.286502,-0.624781,-0.370048,-0.891259,-0.606235,-0.481548,-0.844194,0.047986,-0.652595,-0.806637,-0.660383,-0.848894,-0.773843,0.435354,0.999596,0.681421,0.077660,-0.126657,-0.262271,-0.389853,-0.734927,-0.366998,0.609867,0.352502,0.467232,-0.057767,0.920984,0.332089,0.734188,0.744150,0.999621,-0.527600,0.999624,0.110285,0.999627,-0.954257,-0.990521,0.690012,-0.637151,-0.253147,0.873096,-0.081688,-0.610823,0.912564,0.999643,0.999644,0.122081,-0.126604,0.644285,0.575431,0.499062,-0.778521,-0.504552,-0.657237,0.285345,-0.509200,-0.357856,-0.924280,0.754141,0.890048,-0.183765,0.721412,-0.403530,-0.380656,0.957578,0.452790,-0.825401,0.022755,-0.755170,-0.651081,-0.007014,-0.905401,-0.262254,0.471617,0.711452,-0.637147,-0.632505,-0.225979,-0.864611,0.088107,-0.527592,0.188486,0.987095,-0.587658,0.197319,-0.564571,-0.248638,0.345263,-0.995262,-0.398988,0.244341,-0.020418,-0.958987,-0.321363,-0.762961,0.732884,-0.949525,-0.613948,-0.360890,0.329225,-0.086153,-0.801942,0.510662,0.987127,0.182611,-0.188267,-0.787883,0.209101,0.022776,-1.000000,-0.266782,-0.518365,0.345283,-0.800421,-0.294047,-0.916451,-0.081656,0.436895,0.957658,-0.251651,0.634340,-0.795733,-0.891253,-0.971567,-0.318318,-0.618581,0.285398,-0.017419,0.283936,-1.000000,-1.000000,0.552496,-0.952635,0.336548,0.502030,-0.862997,-0.764475,0.163474,0.999787,0.135435,0.540983,-0.730247,-0.816010,-0.722426,-0.207848,-0.210865,-0.783196,-0.002507,-0.957365,0.204717,-1.000000,0.096993,-1.000000,-0.924276,0.077736,0.104396,-0.077149,-0.727092,-0.647931,-0.230441,-0.257647,-0.177706,0.704425,0.558285,0.394829,-0.536805,0.530919,0.418116,0.327818,0.000482,-0.995260,-1.000000,-0.957364,0.532368,-0.632493,-0.755119,-0.962096,-0.426452,0.104409,0.970418,-0.382193,0.977395,0.481842,0.461585,0.519399,-0.891250,-0.526079,0.779873,-0.962096,-0.837961,-0.389813,-0.713092,-0.198785,0.852121,-0.230470,-0.958984,-1.000000,-0.609299,-0.069651,0.558322,-0.606167,-0.044243,0.869084,0.000499,-0.717755,-1.000000,0.454365,0.634473,-1.000000,-0.600030,-0.024836,-0.995259,0.750063,-1.000000,0.754332,-0.924274,-0.924274,0.694502,0.608639,-0.947902,-0.475417,-0.825392,0.336617,-0.952632,0.132531,0.256169,-0.174672,-0.995258,-1.000000,-0.020353,-0.266746,-0.583050,0.006469,-0.958982,-0.609294,0.397796,0.750092,-1.000000,-0.637127,-1.000000,-0.995258,0.448600,-1.000000,-0.120565,-0.117564,-0.096576,-0.694442,0.002009,-0.529143,0.120721,-0.720903,-0.047207,-0.325876,-0.995258,0.428311,-0.924272,0.754384,0.957864,-0.992139,0.341022,-0.453965,-0.903863,-0.805099,-0.149089,-0.891289,0.253264,-0.123557,-1.000000,-0.573791,-0.087579,-0.962094,-0.784790,-0.321314,-1.000000,-1.000000,
-0.943186,0.689826,0.882744,0.136756,0.885605,0.923624,0.906740,0.872916,0.796549,0.745434,0.189872,-0.792583,-0.194330,-0.985785,-1.000000,-1.000000,-1.000000,-0.990525,-0.872423,-0.739608,0.999412,0.999413,-0.104171,0.999416,0.944734,-0.180771,0.685612,-0.010034,-0.167226,0.225171,0.034605,-0.036873,0.728387,-0.294066,-0.858305,-0.985785,-0.919564,-1.000000,-1.000000,-1.000000,0.511927,0.233988,0.754005,0.225180,-0.806643,0.642751,0.940552,0.758275,0.647047,0.771062,-0.495367,-0.131155,0.110223,-0.685161,0.181067,-0.587680,-0.820716,-0.952641,-1.000000,-1.000000,0.953212,0.999475,0.957426,0.689936,-0.394406,-0.376115,-0.230512,-0.059258,0.404855,0.374323,0.273594,0.343734,-0.680504,-0.117643,-0.717779,-0.426460,-0.731779,-0.962103,-1.000000,-1.000000,0.944816,0.374333,0.898397,0.513450,-0.221449,-0.769167,-0.957371,-0.905405,-0.499963,-0.421874,0.775373,0.595495,0.417944,-0.027892,-0.081679,-0.122134,-0.806640,-0.872419,-1.000000,-1.000000,0.595505,0.737010,0.509138,-0.629382,-0.741116,-0.995264,-0.307693,-0.872418,-0.610831,0.198765,0.766877,0.500485,0.617038,0.822183,-0.472355,-0.504563,-0.938455,-0.962102,-1.000000,-1.000000,0.698563,-0.068204,-0.886547,-0.924282,-0.881835,-0.952639,-0.952639,-0.486149,-0.564542,0.906914,0.911139,0.834942,0.711411,0.839187,-0.858300,-0.919560,-1.000000,-1.000000,-0.919560,-1.000000,-0.764527,-0.962101,-0.924281,-0.919560,-0.881834,-0.957369,-0.981043,-0.014448,0.491852,0.800982,0.873113,0.860409,-0.499952,-0.207847,-0.578411,-0.995263,-0.962101,-1.000000,-1.000000,-0.976348,-0.338090,-0.962101,-0.858298,-0.933728,-0.905402,-0.435611,0.826499,-0.486141,0.552446,0.766951,0.788246,0.830751,0.452813,-0.086135,-0.990521,-0.769160,-0.957368,-0.924280,-1.000000,-1.000000,-0.029384,-0.962100,-0.891256,-0.555292,0.545223,0.801028,0.326315,-0.830097,-0.001019,0.444135,0.548149,-0.376084,-0.344122,-0.072659,-0.389800,-0.830097,-0.647941,-0.731768,-0.924279,-0.962100,-0.957367,-0.919557,-0.128134,0.757007,0.999695,0.413685,-0.947907,-0.289468,0.348215,0.073250,-0.449368,0.207617,-0.741106,-0.661881,-0.275831,-0.262208,-0.919557,0.370076,-0.755126,-0.593871,-1.000000,-0.830095,0.335060,0.826574,-0.250146,-0.703776,0.004916,-0.848889,-0.606180,0.732894,0.238521,-0.938451,-0.675833,-0.769156,-0.371504,-0.348673,-0.952635,-0.741104,0.982937,-0.262200,-0.781680,0.999752,-0.180693,-0.458545,-0.518364,-0.872411,-0.900682,-1.000000,-0.783198,-0.009968,0.339498,-0.905398,-0.919555,-0.689796,0.120651,0.119173,-0.834790,-0.198765,0.543895,0.885959,-0.990519,-0.713097,-0.783197,-0.398935,-0.303097,-0.877119,-1.000000,-1.000000,-0.844186,-0.291007,0.092586,-0.995260,-0.703772,-0.745773,0.016886,0.655883,-0.126563,0.720133,0.487637,0.813903,-0.787879,0.945111,0.940896,-0.736430,0.681584,-0.976302,-1.000000,-1.000000,-0.844185,-0.027801,-0.280352,-0.569140,0.159108,0.818171,0.543931,0.513652,0.007968,0.548255,0.660200,0.788409,-0.895965,0.039161,-0.848885,-0.120591,-0.093608,-0.284893,-1.000000,-0.952633,-0.914833,0.452935,-0.054667,0.517996,0.754336,0.685940,0.715901,-0.550652,0.505010,0.999869,0.957806,0.856399,-0.027827,0.269379,-0.099552,0.826667,-0.236511,-0.298530,-0.633995,0.052582,-0.792561,0.452953,0.330805,0.698808,0.487687,0.530998,0.750097,-0.518348,0.668822,0.771421,0.007948,-0.230423,-0.284924,-0.708427,-0.117535,0.949379,-0.412654,-0.601531,-0.063619,0.088186,-0.587638,-0.736424,-0.694444,0.269401,-0.408072,0.065952,0.535344,0.707395,-0.731754,-0.722418,0.856451,-0.509168,-0.881824,-0.334998,0.335208,0.608659,-0.245566,0.496389,0.406520,-0.371471,0.190102,-0.077072,-0.054640,-0.262160,-0.564505,-0.265227,0.509397,-0.122022,0.673155,0.690297,0.750151,-0.230410,0.969089,0.999968,0.999969,0.999971,0.970536,0.915726,0.898825,0.974749,0.691699,0.335229,-0.587632,-0.158067,-0.872404,-0.764465,-0.938445,-1.000000,0.176823,0.141461,0.970557,-0.357760,
-0.149237,-0.703799,0.132324,0.012247,-0.811336,-0.321381,-0.722493,-0.271352,-0.891264,-0.957373,0.083554,0.535008,-0.126668,-0.158209,0.915195,0.910974,0.864460,0.969984,0.732639,0.919423,-1.000000,-0.952642,-0.787898,-0.578430,-0.457100,0.396101,0.039059,0.753985,0.101332,-0.063759,-0.316820,-0.601574,-0.059274,0.771041,0.877184,0.689903,0.796583,0.915228,0.800838,0.885652,-0.806643,-1.000000,-1.000000,0.233989,-0.886550,-0.099667,-0.081699,-0.180763,0.487423,-0.541460,0.483089,0.101345,0.702762,0.556648,0.313072,0.839082,0.719869,0.783845,0.911035,0.894137,-1.000000,-1.000000,-0.532229,-0.104155,-0.476963,0.070246,0.591161,-0.403558,-0.235043,0.119105,-0.463174,-0.063741,0.681380,0.741243,0.047995,0.543714,-0.010011,-0.787894,-0.900689,-0.005540,-0.839498,-0.601567,0.970081,0.299941,-0.394401,-0.081683,0.504792,0.295557,0.225210,-0.839498,-0.853599,-0.914841,-0.877127,-0.778527,-0.910122,-0.914841,-0.976307,-0.957371,-0.995264,-0.990523,-0.504566,-0.444801,-0.150701,0.621327,0.478801,0.834906,0.783907,0.830665,-0.244095,-0.905404,-1.000000,-0.929005,-0.839496,-0.877126,-0.990523,-1.000000,-0.995264,-0.962102,-0.962102,-1.000000,-1.000000,-0.825406,0.741303,0.234043,0.352521,0.822197,0.330647,0.569669,0.426681,-0.985782,-0.995264,-0.990522,-1.000000,-1.000000,-1.000000,-1.000000,-0.957369,-1.000000,-1.000000,-1.000000,0.030202,0.335036,0.902706,0.470158,0.478838,0.599857,0.417989,0.556742,0.715704,0.034665,-0.509164,-0.583038,0.145742,-0.171694,0.189964,-0.366955,-0.933728,-1.000000,-1.000000,-1.000000,-0.229013,0.552438,0.728541,-0.463155,0.629991,-0.225950,0.448461,0.387496,0.348183,0.672920,-0.117604,-0.778521,0.016835,0.321925,0.707182,0.936522,0.574032,-0.783203,-0.952637,-1.000000,0.999657,0.766964,0.030223,0.343821,-0.745781,-0.444783,-0.027850,0.159042,0.154618,-0.643298,-0.966833,-0.362379,-0.486137,-0.713104,0.868938,0.172316,0.452833,0.638621,0.207647,-1.000000,-0.330441,-0.472339,-0.825401,0.291254,0.775514,-0.380652,0.317569,0.418041,0.326331,0.509239,-1.000000,-0.990520,-0.371510,-0.330437,-0.499941,0.119189,-0.952636,-0.990520,0.426758,-0.389795,-0.778518,-0.848890,-0.778518,-0.919557,-0.722431,-0.947906,-0.755125,0.698686,-0.225930,-0.620088,-0.877121,-0.995261,-1.000000,-0.271284,0.426772,0.036155,0.509265,-0.624725,-0.703775,-0.527587,-0.467735,-0.787882,-0.905399,-1.000000,-0.995261,-0.962098,-0.995261,-0.848888,-0.773835,-0.895967,-1.000000,-0.526089,-0.947905,0.007946,-0.262196,-0.203289,0.185612,-0.167142,0.326370,-0.135578,-1.000000,-0.848888,-0.629362,-0.990519,-0.919555,-0.924277,-0.995260,-1.000000,-1.000000,-0.928999,-0.919555,-0.995260,-0.844186,0.387583,0.707299,-0.216858,0.569820,0.220929,-0.830092,0.123662,-0.009954,0.599961,-0.787879,-0.914834,-0.919554,-0.877118,-0.952634,-0.928999,-0.867702,-0.877118,-0.905397,-0.009908,-0.093613,0.839399,-0.412665,-0.541420,-0.858291,0.826670,0.278150,0.991436,-0.002495,-0.194229,0.707332,-0.877117,-0.334972,-0.453940,-0.797249,-0.778511,-0.685134,-0.731758,-0.643283,0.881799,0.758600,0.431193,-0.339529,0.132549,-0.289436,-0.928998,0.123684,0.034712,-0.584598,0.634459,-0.680477,-0.924274,-0.321294,-0.090564,-0.122042,0.335180,-0.509132,0.439908,-0.910113,-0.162602,0.123693,-0.018832,0.673106,0.188567,-1.000000,0.561250,0.681683,0.864900,-0.792560,-0.000945,-0.234954,0.007950,0.621586,0.198877,-0.099543,-0.149064,0.243004,-0.162595,-0.541411,-0.293974,0.330821,0.058493,0.552630,0.677417,0.741586,0.970494,0.737318,0.932572,0.070405,-0.914831,-0.895962,-0.872406,-0.086055,-0.398912,-0.207775,0.269411,0.881878,-0.481503,0.526707,0.008004,-0.090544,0.330837,0.664574,0.625920,-0.385184,0.686013,0.737343,0.886125,-0.962094,0.297197,-0.284871,0.119287,-0.394331,0.487735,-0.203244,-0.928995,-0.924272,-0.023280,0.101537,-0.095029,-0.717749,-0.671163,-0.353196,-0.848880,-0.203241,0.839537,0.970556,0.552636,
-0.176265,0.676975,-0.933733,0.343640,0.089435,-0.321381,-0.348733,0.422223,0.556602,-0.592315,-0.778534,-0.685166,-0.957373,-0.731784,-0.727117,0.047963,0.096885,0.999404,0.974190,0.898306,0.565207,-0.053343,-0.235099,0.030142,-0.122163,0.651312,0.470051,0.621245,0.105771,-0.990525,-1.000000,-0.339604,0.578196,0.672765,-0.527621,0.944747,0.383024,0.999435,0.681340,0.970015,0.217792,0.609751,0.167798,0.074681,-0.216936,0.856025,-0.162708,-0.330482,-0.881839,-1.000000,-1.000000,-0.947912,-0.750465,0.457049,0.308688,0.932130,0.809362,0.677077,0.970044,0.970045,-0.748949,0.753987,-0.113149,0.834849,0.885685,0.478764,-0.583050,-0.947911,-0.905406,-1.000000,-0.957371,-0.811331,-0.054774,-0.385256,0.877238,-0.321362,0.426635,0.771095,-0.144659,0.999499,0.404864,0.749785,0.758316,0.881482,0.940604,0.247223,-0.532225,-0.914842,-0.990523,-0.914842,-0.947911,-0.943182,-0.149161,0.599802,0.851854,0.207579,0.582573,0.771119,-0.853598,0.211992,0.478796,0.940629,0.970110,0.304340,0.766867,0.881512,-0.041318,-0.863005,-0.914841,-0.962102,-0.962102,-0.905404,0.378722,0.003411,-0.194295,-0.652597,0.496154,-0.062267,-0.634021,-0.487726,0.457109,0.045009,0.970140,0.847653,0.711399,0.949093,0.599836,-0.886546,-0.962102,-0.962102,-0.816019,-0.239555,-0.335018,-0.844194,-0.652595,-0.472352,-0.620100,-0.914840,-0.947909,-0.924281,0.911151,0.439742,-0.383757,0.672889,0.839199,0.986996,0.999603,0.132449,-0.957369,-0.924281,-0.769162,0.088076,-0.041297,-0.680496,-0.366956,-0.398961,-0.952638,-0.820710,-0.787888,-0.615460,-0.129652,-0.221424,0.719994,0.690049,0.483193,0.995431,0.999633,0.890058,-0.741110,-0.666537,-0.830098,-0.131108,0.634296,0.286842,0.330683,-0.371519,0.242885,0.247287,0.225230,-0.689804,-0.905401,0.672932,0.655777,0.561094,-0.271299,0.902765,0.970236,0.961819,0.413669,-0.403530,-0.509157,0.242895,-0.380656,-0.257677,-0.685146,0.313177,0.083656,0.504896,0.617127,-0.844190,0.638623,0.779768,0.474551,0.426745,-0.532206,0.496238,0.474555,0.586997,-0.023365,-0.239530,-0.086121,-0.657233,0.039155,-0.499941,0.672969,0.617145,-0.262208,-0.412682,0.737148,-0.671182,-0.891254,0.105881,-0.176184,-0.185218,-0.225931,-0.371507,0.361344,-0.834792,0.030246,-0.104087,-0.171666,0.105886,0.157554,-0.825399,-0.985780,-0.583026,-0.820705,-0.321318,-0.018878,0.617171,-0.848889,-0.722471,-0.463140,-0.858294,0.690142,0.513602,0.608572,0.021334,0.167926,-0.023346,-0.394363,0.418078,0.621486,-0.741103,-0.408094,-0.792566,-0.490727,0.150233,0.079245,0.826618,-0.834790,0.352589,-0.550660,0.216510,0.175265,0.203278,0.088140,-0.054687,-0.536809,0.291302,0.286913,-0.643288,0.439857,0.036174,-0.032285,-0.449355,-0.027808,0.348268,0.286879,-0.207805,-0.943176,0.775609,0.061462,0.040637,0.242959,-0.198756,-0.806627,-0.266726,0.651603,0.801159,0.190050,-0.905397,-0.218402,-0.434097,-0.113055,-0.596906,-0.050192,0.333657,0.172379,0.500659,-0.905396,0.595712,0.869084,-0.522964,0.034744,-0.463127,-0.900680,-0.787878,0.435539,-0.018844,0.400698,-0.736427,-0.703768,-0.877117,-0.271259,-0.189704,-0.952633,0.548272,0.275195,0.711628,-0.981038,-0.550651,0.565550,-0.522961,-0.412658,-0.792561,-0.839484,-0.792561,-0.280342,-0.334965,-0.783192,0.826713,-0.495315,-0.555268,0.322047,-0.839483,-0.527571,0.728749,0.070393,0.052588,-1.000000,-0.797247,-0.550648,-0.741095,-0.453932,-0.090556,-0.339521,-0.722419,0.496371,-0.131039,-0.518346,0.655965,0.172413,0.101516,-0.000939,0.383286,0.936785,-0.050165,0.361449,-0.140045,-1.000000,-0.575338,-0.490707,-0.689785,-0.787873,-0.467711,-0.135536,-0.647921,-0.203251,0.486235,0.711688,0.487721,0.148787,0.924151,0.198935,0.711694,-0.467708,0.924157,-0.140038,-0.797244,-1.000000,-0.402002,-0.344073,-0.366899,-0.467707,-0.666512,-0.914830,-0.806620,-0.862991,-0.643273,0.677456,0.021407,0.894602,-0.248540,0.378952,0.677461,0.831045,-0.426391,0.289893,-0.957361,
0.083508,0.046431,-1.000000,-1.000000,-0.647965,0.749653,0.436685,0.397498,-0.230573,0.817758,-1.000000,0.305693,-0.872423,0.689836,-0.878743,0.749665,0.099804,-0.194370,-0.921181,0.068697,0.052379,0.753937,0.783760,0.462773,-0.609339,-0.059318,-0.285017,-0.024982,-0.820760,-0.962105,0.244211,0.539308,0.244212,-0.330527,0.366975,-0.921180,-0.480075,-0.235094,0.046450,0.462787,-0.992148,0.401885,-0.266842,-0.962104,0.248621,-0.244157,0.010779,-0.150722,-0.141708,0.186911,-0.759815,-1.000000,-0.839500,0.668461,0.401896,-0.962104,-0.990524,-0.641808,-0.503081,-0.266837,-0.239578,0.432383,-0.230556,0.664184,-1.000000,-0.954260,0.248636,-0.962104,-0.438732,-0.924284,-1.000000,-0.841107,0.599740,-0.949530,-0.962103,-0.834801,0.022695,-0.056307,-0.298643,0.749743,-0.235080,-0.572297,0.758276,0.728405,-0.844197,-0.458619,0.082073,-0.637161,-0.266828,0.599757,-0.417333,-0.706939,0.088002,0.148617,0.702769,0.006339,-0.298638,0.113165,0.724151,0.104291,0.080599,0.135336,0.462844,-0.572293,-0.235073,-0.394438,-0.992146,0.754043,-0.250183,-0.074233,0.186950,-0.669686,-1.000000,-0.235070,0.539390,0.694235,0.765422,-0.883449,0.719902,0.367043,0.432434,-0.162721,-0.957370,-1.000000,-0.745786,-0.158208,0.042040,-0.466267,-1.000000,-1.000000,0.659970,0.244281,0.480232,-0.641799,-0.952639,0.664265,0.749813,-0.609324,0.401967,0.397608,-0.150687,-0.576913,-1.000000,0.037593,-0.262272,0.015292,-0.600056,-1.000000,0.080626,-0.943181,-0.910163,-0.321383,-0.600056,-0.321382,-0.426485,-0.992145,-0.699123,-0.990522,-0.298620,-0.992145,-0.992145,-0.604687,0.754110,0.037603,-0.541442,0.314575,-0.221463,-0.330491,0.217876,-0.936920,0.634254,-0.604686,0.000421,0.548090,0.226695,0.630001,-0.911735,-0.924280,-0.162700,0.068783,-0.207839,0.758398,-0.992144,-0.641792,-1.000000,-0.702269,-0.426478,-0.962100,0.058404,0.295591,0.690040,-0.992144,-1.000000,0.513513,0.314597,-0.198829,-0.183763,-0.911734,0.432502,-1.000000,-0.643296,0.019783,-0.563032,-1.000000,-0.606184,-0.924279,0.732824,-0.380694,0.062866,-0.702267,-0.962099,-1.000000,0.404935,-1.000000,-1.000000,0.690069,-0.572277,-0.325921,0.694354,-0.572276,-0.509152,0.724298,-0.185259,-0.883444,-0.389835,-0.014452,0.082151,0.283914,-0.347196,-0.702265,0.125070,0.156078,0.089561,-1.000000,0.634324,-1.000000,0.694375,0.754202,-0.266783,0.139848,0.754206,-0.567649,-0.498443,0.694383,-0.957366,-0.604676,0.213519,-0.957366,0.191455,-0.284952,-0.035322,0.253164,0.176771,-0.458585,0.660109,-0.992142,-0.962098,-0.609308,0.784058,0.720069,-1.000000,-0.572270,0.139862,-0.962098,-0.962098,-0.230489,-1.000000,0.690129,-0.872410,-0.665017,-0.805107,0.340931,-0.702260,-0.020393,-0.692942,0.190000,-0.242572,0.367170,-0.294037,-0.992142,-0.925893,0.037664,-0.844186,0.754258,0.543918,0.042123,-1.000000,-0.962097,0.574105,0.387555,0.275175,-1.000000,0.474593,-0.563018,-0.962097,-0.962097,-0.266765,0.784107,0.139883,-0.641778,-0.335014,0.569805,0.432593,-1.000000,0.073300,-1.000000,0.068852,-1.000000,0.022811,0.509293,-0.954253,0.371566,-0.357824,-1.000000,-0.024848,-0.921169,0.329293,0.467380,-1.000000,-0.925892,-0.498429,0.471726,-0.888151,-0.962096,0.009428,-0.905395,-0.947903,-0.919553,0.600008,-0.150615,-0.962096,-0.362386,0.037690,0.187092,-0.083115,0.634433,0.428270,-1.000000,0.792673,-0.958983,-0.478485,0.432627,0.784164,-0.962095,-0.962095,-0.604662,0.852153,-0.739580,0.187102,-0.943174,-0.380659,0.098513,-0.518387,0.125142,0.089629,-0.572256,0.248837,0.463074,-1.000000,-0.637128,-0.921168,-0.924273,0.463078,0.463079,-0.638675,-0.924273,-0.539912,0.600049,0.345383,0.784198,-0.886535,-0.800412,0.015405,0.165015,-0.962094,-0.750438,0.476116,-0.995258,0.010943,-0.198765,0.030323,0.724488,-0.925889,-1.000000,0.104453,-1.000000,-0.962094,-0.962094,-0.962094,-0.921167,-1.000000,-0.056167,0.634495,0.244461,-1.000000,-0.609290,0.039209,-0.604655,0.754399,-0.914829,
0.651243,0.305685,-0.689823,-0.586187,-0.371603,-0.153744,0.126416,-1.000000,-0.570767,-0.962105,-0.366992,-0.844201,-0.966839,-0.825413,-0.962105,-0.952643,-0.962105,-1.000000,-1.000000,-0.711609,-0.883453,-0.925903,-0.604706,-1.000000,-0.213967,-0.938458,-0.966838,-0.661903,-0.787898,-0.629391,-0.947913,-0.952642,-0.952642,-0.976309,-1.000000,-0.787897,-0.140170,-0.063757,-0.787897,-0.458587,0.213382,-1.000000,-0.335042,-1.000000,-0.895976,-0.680507,-0.453993,-0.435637,-0.933732,-0.755140,-0.905407,-0.825410,-0.745792,0.105784,-0.801954,-0.167217,0.843321,0.123530,0.061342,0.911033,-1.000000,-0.618606,-0.523047,-0.914843,-0.900690,-0.699132,-0.839499,-0.221456,-0.095165,0.251610,0.513433,0.826368,0.724158,0.728431,0.465752,0.788120,0.762569,0.868773,0.860304,0.881473,-0.116182,-0.995265,-0.610835,-0.811331,-0.834800,-0.957371,-0.666546,-0.266788,-0.032372,0.625609,0.877257,0.573943,0.889951,0.779630,0.796653,0.796655,0.745535,0.775376,0.949050,0.881501,-0.929006,-0.919561,-0.919561,-0.905405,-0.792577,-0.657246,-0.198819,0.638519,0.391807,0.766871,0.629929,0.642819,0.822176,0.851877,0.860353,0.788171,0.573968,0.970129,0.278019,0.595520,-0.924282,-0.371574,-0.957370,-0.867711,0.096944,0.470139,0.856132,0.642836,0.136868,0.308743,-0.122121,-0.559921,-0.703786,-0.947909,-1.000000,-0.938454,-0.910121,-0.587668,-0.811327,-0.943181,-0.492324,-1.000000,-0.532258,0.548098,0.225245,0.617068,0.435396,0.556739,-0.366958,0.247266,-0.952638,-0.504558,-0.914839,-0.990522,-0.872416,-0.995263,-0.929004,-0.825404,-0.971569,-1.000000,-0.649537,-0.962101,-0.005502,0.617088,0.444109,-0.063701,-0.068186,0.194386,-0.398958,-0.522988,-0.171689,-0.877124,-0.914838,-0.900685,-0.990521,-0.853594,-0.929003,-0.962100,-1.000000,-1.000000,-0.905401,-0.848892,0.343817,-0.339564,-0.289476,0.264884,-0.914838,0.595591,0.698637,0.448478,0.330694,0.198815,-0.933727,0.074761,-0.248604,0.311675,-1.000000,-1.000000,-1.000000,-1.000000,-0.062231,-0.844190,-0.755127,-0.844190,-0.971568,-0.134139,0.335084,-0.294016,-0.573778,0.236996,0.304418,0.021315,0.096994,-0.764479,0.326334,-0.180704,-0.872413,-1.000000,-0.924278,-1.000000,-0.962099,-0.587656,-0.839490,-0.476933,-0.806631,0.247319,-0.036785,-0.910117,0.079227,-0.126584,0.715797,-0.727097,-0.731765,-0.446345,0.771288,-0.647937,-0.990520,-1.000000,-1.000000,-1.000000,-0.847364,-0.806630,-0.362367,-1.000000,-0.140090,-0.666528,-0.081615,0.513602,0.097014,0.330740,0.079239,-0.685141,-0.353233,-0.135581,-0.620085,-0.773834,-0.938450,-1.000000,-1.000000,-1.000000,-0.933724,-1.000000,0.431146,0.339466,0.409375,-0.914835,0.114781,0.608593,-0.236531,-0.380638,-0.943176,-0.792565,0.181202,-0.144585,-0.023335,-0.394357,-0.990519,-0.938449,-0.962097,-1.000000,-0.924276,-1.000000,0.291310,-0.298543,0.101475,-1.000000,-0.933723,0.282532,-0.928999,-0.947904,-0.140072,-0.153596,0.608619,-0.036755,0.057016,-0.257646,-0.862996,-0.919554,-0.797250,-0.475427,-0.787878,0.229717,0.426828,-0.032273,0.213556,-0.703769,-0.573763,-0.891251,-0.377622,-0.444758,-0.453940,-0.108592,-0.430995,-0.194226,-0.212319,0.928285,-0.144569,-0.262219,-0.138600,-0.408080,-0.957364,-0.457041,-0.615439,0.496346,-0.671171,-0.587642,-0.966829,-0.248562,0.052581,-0.569177,-0.371481,-0.509132,0.604356,-0.643280,-0.283412,0.048130,0.288383,0.765695,-0.938447,0.728749,-0.914832,-0.910112,-0.239488,-0.848883,0.190084,0.057043,0.194501,-0.316733,-0.421818,-0.376047,-0.325844,-0.426401,0.079295,-0.858288,0.043684,0.512223,0.886089,0.012461,0.612993,0.332244,-1.000000,-1.000000,-1.000000,-0.633991,-0.952631,0.444286,0.860657,-0.357769,0.516565,0.128147,0.145872,-0.408068,0.365829,-0.643276,-0.050158,-0.467709,0.932554,-0.464686,0.361463,-0.059162,-0.412688,-0.891247,-1.000000,-0.933720,-0.834782,-0.853583,-0.550641,-0.801931,0.025866,0.431256,-0.362330,-0.353198,-0.362329,-0.773824,0.265032,-0.153557,0.604385,-0.666553,-0.155100,-0.050187,
0.881363,-0.292602,-0.353297,-0.010048,-0.929009,-0.564562,0.110194,0.044948,-0.185336,-0.194333,-0.615480,-0.198853,-0.509189,-0.538431,0.223649,0.098322,-0.380699,0.475786,-0.059322,-0.526129,-0.962105,-0.368553,0.805064,0.247138,-0.558439,0.225165,-0.117663,-0.137212,-0.750510,-0.457100,-0.449406,-0.453997,0.625546,0.430946,-0.750467,-0.289561,0.317437,-0.463181,0.716955,0.911003,-0.036871,0.147109,0.061293,-0.150724,0.749736,0.612659,0.999444,0.298409,0.339337,0.034572,0.223673,-0.090680,0.110220,-0.325966,0.570990,0.210451,0.136824,0.220779,0.472931,0.578221,0.711320,0.758286,0.612677,-0.362412,0.539378,-0.180758,0.417917,-0.769169,0.092471,0.413565,0.030164,0.625588,-0.750464,0.894151,0.478770,0.565298,0.141266,0.556668,-0.990524,-0.563051,0.211977,0.378655,0.269206,-0.449395,0.295552,-0.745790,-0.032373,0.681392,0.065807,0.317477,0.965879,0.868791,0.167827,0.530760,-0.303147,-0.699130,-0.041324,-0.209417,-0.018985,-0.713113,0.383074,-0.431040,0.638474,-0.126674,0.114687,0.737008,-0.481554,-0.140143,-0.550727,0.504810,0.273580,-0.601564,-0.108633,-0.509171,-0.615466,-0.750460,-0.962102,-0.957370,-0.731775,-1.000000,-0.621690,0.220822,-0.014462,0.209026,0.194317,-0.532219,-0.727107,-0.476951,-0.759809,-0.680499,-0.938454,-0.661891,-0.059232,-0.495352,-0.910121,-0.938454,-0.863004,-0.863004,-1.000000,-1.000000,0.548094,-0.769163,0.949113,-0.924281,-0.647948,-0.713109,-0.518382,-0.952638,-0.867709,-0.212375,-0.298582,0.167864,0.150167,-0.449381,-0.490746,-0.820710,-0.783205,-0.976305,-0.985782,-1.000000,-0.755131,-0.722479,-0.699123,-0.938453,-0.811325,-0.366954,0.052495,-0.853595,-0.266764,-0.490743,0.269268,-0.527599,0.664343,0.400581,0.431069,0.048046,-0.522987,-0.797258,-1.000000,-1.000000,-0.692951,0.225269,0.579745,-0.981042,0.374412,0.269279,-0.051777,0.378781,0.500552,0.660073,-0.095115,-0.624732,-0.253141,0.906998,0.919668,0.400599,-0.708441,-0.504550,-0.990521,-1.000000,-0.844191,0.677237,0.074766,-0.759803,0.435445,-0.689802,0.543839,0.273689,0.300030,-0.036794,0.070322,-0.122090,0.269258,-0.077141,0.150205,0.431104,-0.398947,0.418047,-0.126588,-0.995262,-1.000000,-0.773837,-0.957367,-0.797255,-0.787884,-0.933726,-0.113084,-0.239525,0.260517,-0.113083,0.007933,-0.606181,-0.573774,-0.099591,-0.189734,0.721463,0.655834,0.647250,0.843562,-0.638648,-0.758284,-0.924278,-0.957366,-1.000000,-0.947906,-0.957366,-0.919556,-0.914835,-0.499935,0.690144,-0.198770,-0.606178,0.470253,0.181189,0.535241,0.561164,-0.045730,0.678691,0.788351,-0.476926,-0.995261,-0.990519,-0.952635,-1.000000,-0.995261,-0.962098,-0.962098,-0.962098,-1.000000,-0.750447,-0.924277,-0.713097,-0.262233,0.513626,0.642996,0.207695,-0.198761,0.813894,0.226764,0.685857,-0.081601,-0.952634,-0.952634,-1.000000,-1.000000,-1.000000,-1.000000,-1.000000,-0.962097,-1.000000,-1.000000,-0.755120,0.509275,0.400681,0.625828,0.326395,0.361397,0.954921,0.945128,-0.321302,0.924041,-0.117553,-0.440171,-0.633998,-0.787878,-1.000000,-1.000000,-0.962096,-0.962096,-0.957364,-0.957364,-0.703768,0.582792,-0.068122,0.830933,-0.380627,-0.550652,0.326412,0.207723,0.465933,0.907178,0.919850,0.079278,0.357047,0.136984,-0.253099,-0.820699,-0.131048,-0.881826,0.039214,-0.318297,0.543962,-0.769149,0.677387,0.483347,0.365798,0.114821,0.505025,-0.054657,-0.748926,0.788455,0.911432,0.881836,0.792715,0.630181,0.374543,0.526680,-0.023301,-0.081572,0.703103,0.710196,0.234196,0.638786,0.043683,0.400732,-0.307625,0.647381,-0.345642,-0.862993,-0.730240,0.907234,0.600079,0.030313,0.251814,0.361451,0.426882,0.110400,0.025855,-0.162590,0.330831,0.098523,-0.271243,0.304538,0.198893,-0.298517,-0.158075,0.168004,0.873418,-0.339555,-0.739577,0.999958,0.818279,0.873425,0.387670,-0.054636,0.686017,0.860721,0.600106,-0.050152,0.203357,0.092651,0.582873,-0.666512,0.269427,-0.122017,-0.144539,-0.629345,-0.617017,-0.003939,-0.981036,
-0.144731,0.834723,-0.758303,0.497450,-0.604709,0.397494,0.111632,0.041977,-0.958993,-0.056338,-0.020518,-0.024991,0.694113,0.406217,0.806430,0.432341,0.532086,0.037526,-0.921181,0.766718,0.073144,-0.914844,-1.000000,-1.000000,0.197195,-0.995266,-0.962105,0.855957,-0.962105,-0.962105,0.130861,-0.257769,0.732611,-1.000000,-0.924286,0.634104,-0.385307,-0.321415,-0.834803,-0.660394,-0.995266,-1.000000,0.629815,0.241284,-0.158240,0.144159,-0.371552,0.771014,-0.830106,-0.719379,0.182493,0.059813,-0.962104,0.582485,0.834832,-0.285009,-0.914843,0.104265,-0.919563,0.834800,0.015248,0.371361,0.414971,-0.812938,-0.257759,-1.000000,-0.957372,0.015252,-0.412758,-0.944802,0.417881,-0.748948,0.396096,-0.513827,0.001861,-0.777011,0.484514,0.292581,-0.509177,0.340779,0.817846,0.179567,-0.262292,0.860270,-0.883450,0.788092,-0.722444,-0.558429,-0.321401,-0.957371,-0.863007,0.478745,-0.128180,-0.919562,-1.000000,0.231045,-1.000000,0.711324,-0.655740,-0.289542,-0.532224,0.839098,-0.863006,-0.962103,-0.637160,-0.911738,-0.962103,-1.000000,0.461399,-0.952640,0.530776,-0.335065,-0.132675,-0.924283,-0.791057,0.522091,0.745518,-0.248670,-0.764487,-0.665035,-0.655737,-1.000000,-1.000000,0.170754,-0.977928,-0.435621,-0.962102,-1.000000,0.461417,-0.814498,-0.180776,-0.123663,0.487457,0.625615,-0.532218,-0.990522,0.488906,-0.426489,-0.992145,-0.600058,-0.226001,0.340828,0.522156,0.406327,0.540857,0.771136,-0.007041,-0.096672,-0.910120,-0.335055,-0.170233,-0.988985,-0.472391,0.478802,-0.245635,0.142749,0.431013,0.513475,-0.722437,-0.444831,0.792442,-0.919559,-0.987404,0.510595,0.419413,-0.280432,-0.200347,-0.467792,-0.150678,-0.259239,0.015303,0.160464,-0.692952,-0.398999,-0.168720,0.150141,-0.848893,0.822220,-0.325932,-0.812931,-0.189794,0.834962,-0.938453,0.702870,0.715702,0.561053,-0.683638,-0.435649,-0.271340,0.327733,0.007913,-0.476981,-0.030873,0.356904,0.374380,-0.977926,-0.919558,0.139821,-0.629412,-0.072700,-1.000000,-0.924279,-1.000000,-0.902299,-0.947907,-0.601593,-0.924279,-0.919557,-0.962099,-0.762963,-0.480043,0.135399,-0.985780,-0.469315,-1.000000,0.532280,-0.888156,-0.600047,-1.000000,-0.047281,-1.000000,0.497654,-0.068162,-0.325920,-0.101134,-0.044292,0.129499,-0.688289,-0.800422,0.809542,0.231136,-0.736435,0.617120,-0.057733,-0.567651,-0.919556,0.732856,-0.911732,-0.207820,-1.000000,-0.389832,-1.000000,0.046555,-0.530704,-0.069689,-0.200320,-0.171662,-0.476970,0.535195,-0.914835,-1.000000,0.095494,0.561121,0.478894,-0.536812,-0.987402,0.019809,-0.225963,-0.189766,0.139858,-0.637140,-0.962098,0.491913,0.578390,0.257570,0.231160,-0.209360,-0.101117,-0.204835,-0.110109,-0.736431,0.319035,-0.350227,0.354053,-0.869314,-0.257693,-0.434102,-0.962097,-0.527581,0.860536,-0.987401,-0.558399,-0.962097,0.031718,0.574098,-1.000000,-0.400499,-0.357831,-0.389821,-0.995260,0.239986,-0.155141,0.116234,-0.995260,-0.957365,-0.389819,0.402097,-0.883440,0.732931,-0.734914,-0.801980,-0.995260,-0.467724,-1.000000,0.071815,-1.000000,0.082193,0.621502,-0.957364,-0.042761,0.428245,0.608598,0.565497,-0.844184,0.144321,0.856347,0.445651,-0.962096,-0.985777,-0.803541,0.732957,0.006448,-0.357822,0.133988,0.393399,0.502085,0.612918,-1.000000,-0.074140,-0.440207,-0.856764,-0.839484,-0.444795,-0.949522,-0.530688,-0.981038,-0.911728,-0.563012,0.694489,0.728708,0.758590,0.175311,-0.758275,-0.225934,-0.632488,-0.660359,-1.000000,-0.952632,-1.000000,0.483321,-0.657218,0.445682,-0.284922,-0.921168,-0.126576,0.694509,0.677374,-0.949521,-0.099540,-0.294014,-0.020353,-0.921168,-0.962095,0.698799,-0.641771,0.801213,0.707401,-0.924273,-0.914831,0.031762,-0.910111,0.592870,-0.990516,0.441353,0.049594,-0.895962,0.406523,-0.962094,0.792720,0.860672,0.690255,-0.119062,-0.507629,-0.600024,0.792728,0.703105,-1.000000,-0.321319,-0.962094,0.370170,-0.919550,-0.338031,-0.924272,0.762920,0.792740,-0.392846,0.788486,0.376001,0.387682,0.541107,
0.625471,-0.766098,0.135274,-0.535357,0.210416,0.006292,-0.198896,-0.576933,-0.087746,-0.965304,-0.001149,-0.501555,-0.722451,-0.728715,0.494571,0.095361,0.414931,0.293999,-0.947913,-0.262311,-0.235101,0.462767,0.753933,-0.194369,0.305700,-0.129707,-0.481611,-0.688310,-0.527623,-0.990525,-0.962105,-0.881840,-0.839501,-0.245673,0.751105,0.506142,-0.592312,0.308632,-0.995266,0.616913,-0.503085,0.135297,-0.921180,-1.000000,0.615485,0.738318,-0.229052,-1.000000,-0.995266,-0.731782,0.470029,0.970026,0.970027,0.685635,-0.603158,-0.990524,0.229550,-1.000000,-0.386827,0.457011,-0.971572,0.068717,-0.294100,-0.558433,-0.383777,0.889871,-1.000000,-0.985784,0.556657,-0.176241,0.957428,0.970056,0.647066,-0.644902,0.317425,-0.638711,-0.947911,-1.000000,-1.000000,-0.932199,-0.888162,0.432397,0.010795,-0.914842,0.556634,-0.848898,-0.806641,0.289662,-0.924284,0.242822,-0.271329,0.119114,-0.995265,-0.962103,-0.825408,-0.685157,-0.593889,-0.995265,-0.596976,-0.741159,-0.292573,-0.962103,-0.632518,-0.110177,0.095411,-0.153667,-0.412750,-0.005530,0.465780,-0.394397,-0.230500,-0.853598,0.251638,-0.620146,-0.652598,0.539387,-0.431037,-0.507677,0.927996,-0.412705,-1.000000,-0.962102,-0.886547,-0.678990,0.537955,-0.435621,-0.510746,-0.363960,0.898414,0.013794,-0.666541,0.548044,0.513451,0.612751,0.974357,0.455631,0.843423,-0.041306,0.999583,0.999584,-0.592298,0.213447,-0.924281,0.552375,0.788204,-0.957369,-0.476948,0.185539,0.599854,0.783954,0.509177,0.586934,0.651447,0.881572,0.805231,0.594080,-0.564539,0.297027,-0.222977,0.658568,0.719947,-0.490787,-0.995263,-0.535331,-0.087680,-0.059218,-0.399001,0.608484,0.578330,0.783979,0.672875,0.599878,0.141322,-0.592293,-0.402050,-0.773841,-0.036850,-0.357859,-0.370038,0.881569,-0.806634,-0.572282,0.213474,0.546656,-0.521490,-0.825402,0.548138,-0.388320,-0.444826,0.016840,0.286811,0.721408,0.092499,-0.713105,-1.000000,-1.000000,-0.446354,-0.866181,0.749884,-0.957368,-0.731768,-0.558412,-0.024902,0.212018,-0.783202,0.181118,0.533712,-0.421849,-0.830096,-0.117591,-0.536819,-0.086122,0.957638,-1.000000,-0.985780,-1.000000,0.591271,-1.000000,0.024251,0.318995,0.310230,-0.758285,-0.938451,0.500544,-0.924278,-0.280374,0.442672,0.959026,0.612852,-0.708438,-0.587656,-0.778517,0.232606,-0.119122,-0.363933,-0.755167,0.062879,-0.867705,-0.836399,-0.660372,0.571177,0.144276,-0.050259,-0.207860,-0.952635,-0.886541,0.478926,0.725748,-0.530703,-0.680486,-0.131079,0.399152,-0.334987,-0.518363,-0.600042,0.181149,-0.675831,-1.000000,-1.000000,-0.886540,0.522269,0.936601,-0.527584,-0.773834,-0.177717,-0.778515,-1.000000,0.677271,-0.449399,-0.620083,0.792620,0.413735,-0.319832,-0.694453,-1.000000,-0.944795,0.642996,0.478915,-1.000000,0.638665,0.340935,-0.836397,-0.504535,0.999806,-0.269797,-0.150634,-0.080144,-0.339538,-0.338059,0.241452,-0.333498,-0.689793,-0.506110,-0.886539,-0.335017,0.083668,-0.880300,0.664442,0.222369,-0.289484,-0.671174,0.006438,-0.221419,0.234122,0.828048,-0.146118,-0.830090,-0.559894,-0.376099,-0.652575,0.043619,-0.518353,0.145835,-0.503036,-0.001001,-0.946370,-1.000000,0.566940,-0.595402,0.108853,-0.734912,0.108854,-0.431035,-0.056199,0.147279,-0.452448,0.295689,-0.330408,0.784142,0.465979,-0.550650,-0.167117,-0.703766,-0.655712,-0.985777,-0.098092,-0.553771,-0.644871,0.575590,-0.294020,-0.643280,0.259090,0.212109,-0.685131,-0.891249,0.286924,0.159136,-0.008434,0.474640,-0.694445,0.030306,0.322056,-0.507635,-0.952632,-0.593853,-0.886536,0.457277,0.493446,0.856404,-0.669659,-0.234991,-1.000000,-0.943173,0.160582,0.733047,-0.435570,-0.919551,0.869166,-0.486105,-0.830087,-0.957362,-0.624709,-0.862992,-0.845790,-0.848882,-0.889719,0.502132,-0.841090,-0.461624,-0.461623,-0.694442,-0.772307,-0.889719,0.643075,-0.297040,0.037715,-0.068091,-0.144584,-0.741092,-0.900676,-0.090579,-0.559881,-0.766067,-0.400474,-0.973184,0.578524,-0.238001,-1.000000,0.640227,0.515149,
0.267641,0.108670,0.940476,0.817743,-1.000000,0.642659,0.465647,0.248592,0.151513,-1.000000,0.247127,-0.900693,-0.914845,-0.647964,0.267651,-0.567684,-0.162762,0.427990,-0.156747,-0.330532,-0.198891,-0.674348,-1.000000,0.019691,0.783756,0.919421,-0.731826,-0.558439,-0.995266,-1.000000,-0.929009,0.516239,0.472905,0.912359,-0.271346,-0.711608,0.183955,0.397519,-0.911740,-0.888164,-1.000000,-0.957373,-0.086194,0.706982,0.826289,0.406242,-0.848900,-0.618608,-1.000000,-0.265329,-0.417302,0.254488,0.449763,-0.536845,-0.573801,0.178077,-0.968458,-0.226029,0.780961,0.724099,-0.925901,0.175134,-1.000000,0.033091,-0.590807,-0.316853,0.478760,-1.000000,-0.886549,0.523487,0.788071,0.805123,-0.962104,-0.895975,-0.051828,-0.929007,-0.380726,-0.280459,-0.665039,0.475840,-0.812937,0.037558,0.114673,0.327650,0.419342,-1.000000,-1.000000,-0.119181,-0.716266,0.796642,0.295514,-0.657290,-0.195852,0.305750,0.644188,0.578216,0.304291,0.248654,-0.024951,0.384486,-0.140188,-0.353314,-0.194342,0.248658,-0.990523,-1.000000,-0.661895,0.488877,-0.578419,-0.638665,-1.000000,-0.731776,-0.481595,0.685702,0.030145,-0.985783,-0.962102,-1.000000,0.677101,-0.539953,0.719898,-1.000000,-0.122167,-1.000000,0.089498,-0.957370,-0.699127,-0.590798,0.826438,0.132395,-0.995264,0.758330,-0.093683,-0.424963,0.346653,0.737002,-0.962102,-0.289532,-0.230491,-0.888159,0.206094,-0.958989,-0.351782,-0.981043,-0.924281,0.530769,0.728513,-0.801948,0.800932,-0.018963,-0.624737,0.050961,0.550943,0.520683,-0.476947,-0.581538,-0.042831,-0.503064,-0.198843,-0.567662,0.719946,-0.503063,-0.353257,0.179618,0.006370,0.198756,-0.943180,0.377267,-0.147673,0.970201,0.478816,0.258970,0.432475,-0.096662,-0.590792,0.834989,-0.412734,-0.530715,0.655766,-0.987404,0.401998,0.135380,-0.162700,-0.772322,-0.852069,-0.027894,-0.741152,0.801020,-0.590790,-0.020435,-0.629372,0.595591,0.788264,-0.801945,-0.380698,-0.316817,0.672904,0.108782,0.340871,-0.734923,0.915450,-0.916453,0.413676,0.415089,0.226712,-0.962100,-0.795736,-0.924279,-0.866180,0.361286,-0.596960,0.045053,-0.371553,-0.889727,0.591268,-0.476977,0.792511,-0.924279,-0.453959,-0.925895,0.099917,-0.958987,-0.976304,-0.294054,-0.924278,-0.952636,-0.259222,-0.867705,0.655783,-0.990520,-0.283443,-0.071191,-0.867705,-0.981041,-0.938451,0.288306,-1.000000,-0.674324,-0.230500,-0.962099,-0.925895,-0.576899,-0.914836,-0.641786,-0.056235,-0.521480,0.813811,-0.303146,-1.000000,-0.773835,-0.615491,-0.146139,0.387521,-0.541470,0.397700,-0.981040,-0.321355,-1.000000,-0.638646,-0.503046,-0.962098,-0.916451,0.436904,-0.919555,-0.883442,0.476010,-1.000000,0.530887,-1.000000,0.273691,-0.078654,-0.023379,-0.371538,-1.000000,-0.962098,-0.853589,-0.902296,0.380267,-0.576893,-0.949524,-0.198801,0.471685,-0.020391,-0.962097,-0.995260,-0.720912,-0.995260,-0.929042,-1.000000,0.522256,-1.000000,0.517930,-0.301616,0.749998,0.953508,-0.105602,-0.069667,-0.995260,0.940908,-0.406600,-0.680523,0.349700,-1.000000,0.562609,0.484723,-0.957364,-0.741099,0.758547,0.153171,-0.867701,0.604329,0.034704,0.036191,0.136936,-0.532188,-0.117589,-0.126592,0.648727,0.294219,0.046594,-0.539920,-0.924275,-0.110088,-0.830089,-0.230431,-0.409647,0.637283,-0.438679,-0.260703,0.738660,-0.772311,-0.198783,-0.541457,-0.006952,-0.153622,0.813927,-0.212354,-0.867700,0.416656,0.822430,-1.000000,-0.325888,0.288384,0.311783,0.512208,-0.347167,0.198913,-0.914832,-0.421819,0.164997,-0.108578,-1.000000,-1.000000,-0.995258,-0.825392,-0.995258,0.617251,0.037700,0.037701,-0.987399,-1.000000,-0.957363,0.970491,-0.176176,-0.111571,-0.586135,-0.962095,-0.327400,-0.287949,0.415231,-1.000000,-0.952631,0.391983,0.365787,-0.280371,-0.095080,0.431202,-0.280370,-0.353202,-0.995258,0.720207,0.068890,-1.000000,-1.000000,-0.356285,0.983110,-0.162584,-0.434078,-0.481501,0.108892,-1.000000,-1.000000,-1.000000,-1.000000,-0.886534,-0.426434,-0.692930,0.046635,-0.924272,-0.234979,
-0.736455,-0.995267,-1.000000,-0.325980,-0.853604,-0.750470,-0.962106,-0.995267,-0.867717,-0.848902,-1.000000,-0.962106,-0.919565,-0.957373,-0.881841,0.711262,-0.117669,0.834779,0.517707,0.425090,-0.787899,0.207486,-0.573806,-0.962105,-0.801956,-0.224531,-0.929009,-0.550699,-0.736453,0.216350,-0.312269,-0.532236,-0.444817,-0.717784,-0.806644,-0.731783,-0.703796,-0.863010,0.618344,0.702737,0.629848,0.200146,-1.000000,-0.947912,-0.536847,-0.689819,-0.797268,-0.207887,-0.171735,-0.325927,0.664202,-0.634030,-0.601572,0.957399,-0.389836,0.337841,-0.253184,-0.596940,0.522072,0.130876,-0.644904,-0.995266,-0.325964,-0.778530,-0.657251,0.198730,0.185486,-0.513787,0.123534,0.247207,-0.224516,0.163390,-0.699132,-0.081691,0.238408,-0.077202,-0.289509,0.830615,0.368461,0.105796,-0.962103,-0.198830,-0.634026,-0.689815,-0.041331,-0.601568,-0.652601,-0.262250,-0.929006,-0.769168,-0.910123,-0.891261,-0.104146,-0.493868,-0.431042,-0.811330,-0.708451,0.299945,-0.957371,-1.000000,-0.995265,-0.141690,0.034637,-0.703789,-0.271325,-0.578419,-0.307696,-0.858301,-0.050279,0.286790,-0.573793,0.012337,0.096935,0.181098,-0.117630,-0.848896,0.595512,-0.769166,-0.995264,-0.919561,-0.995264,-0.620103,-0.895973,-0.773845,0.621341,0.457108,0.915343,0.569661,0.668577,0.422322,-0.472354,0.474480,0.426677,0.617050,0.483159,0.792445,-0.426449,-0.458568,-0.745785,-0.995264,-0.403584,-0.001046,0.444085,0.417980,0.974369,0.940683,0.621365,0.737054,0.749859,0.517832,-0.962101,0.378748,0.668604,0.843444,0.847685,0.873107,0.426698,-0.189762,-0.606191,-0.820710,0.970186,0.452795,0.457141,0.522173,0.965984,0.856178,0.719990,0.707164,0.724266,0.681481,-0.054733,0.591262,0.642880,0.860426,0.847712,0.556762,0.478860,-0.962101,0.150181,-0.924280,0.999644,0.758429,0.720009,0.936522,0.991248,0.835001,0.792510,0.758436,0.159038,-0.694462,-0.634013,0.677222,0.915438,0.860454,0.999666,0.114737,-0.122097,-0.962100,-0.900685,-1.000000,0.970246,0.642912,0.660083,0.698649,0.625727,0.487561,0.361322,0.864709,-0.486135,-0.417267,-0.481535,-0.398950,0.762731,0.974473,0.949213,0.578376,-0.081630,-0.990520,-0.971568,-1.000000,0.664392,-0.104093,0.150207,0.587006,0.630047,0.677260,0.386044,-0.207825,-0.117584,-0.550667,-0.176184,0.805328,0.444165,0.796825,0.216486,0.185594,-0.924278,-0.872412,-0.900683,-1.000000,-0.241074,0.154645,-0.122079,0.119201,0.847806,0.119202,0.582720,0.216495,-0.216869,-0.583025,-0.569148,-0.149104,0.784082,0.999757,0.552523,-0.666528,-0.652581,-0.759799,-0.652581,-0.830093,-1.000000,-0.248584,-0.910116,-0.083148,0.737195,0.375891,0.079245,-0.476925,-0.289453,-0.708434,0.251747,0.300074,0.396300,0.413735,-0.230447,-0.834789,-0.881829,-0.635591,-0.694452,-0.666525,-0.914834,-0.417251,-0.919555,-0.764474,-0.411184,-0.834789,-0.886539,0.330765,-0.830092,-0.569142,-0.344099,0.114793,-0.018855,-0.924276,-0.638642,-0.745772,-0.248573,-0.886539,-0.666523,-1.000000,-0.219911,-0.362353,0.052564,-0.703769,-0.820701,-0.905396,-0.895965,-0.957364,-0.947904,-0.541419,0.083716,-0.615441,-0.834787,-0.592274,-0.054669,-0.307637,-0.703768,-0.764471,-0.928998,-1.000000,-1.000000,-0.518352,-0.417242,-0.933722,-0.990518,-0.943175,-0.938448,-0.947903,-0.947903,-0.962096,-0.966830,-0.962096,-0.830089,-0.666519,-0.513741,0.181239,-0.910113,-0.685132,-0.881826,-0.559889,-0.862994,-0.606166,-0.759792,-0.910113,-0.990517,-0.792560,-0.910112,-0.872407,-0.764469,-0.995259,-1.000000,-0.962095,-0.787875,-0.910112,-0.458525,0.016922,-0.344082,-0.032291,0.083742,-0.095046,-0.731754,-0.867699,-0.769147,-0.995258,0.097036,0.172417,0.405099,-0.481505,-0.731753,-0.844181,-0.731753,-0.228946,-0.607749,-0.041199,-0.198728,-0.325880,0.509390,0.187117,0.775722,0.999951,-0.830086,-0.919551,-0.180646,0.132545,0.864912,0.105970,0.890354,0.137019,-0.072579,-0.713086,-0.675817,-0.966828,-0.919550,0.145883,0.314743,0.792738,0.991572,0.970542,0.999980,0.194532,
-0.185300,-0.808252,0.851681,0.132319,-0.435648,0.384407,0.009268,-1.000000,-1.000000,-1.000000,-1.000000,-0.943185,0.092437,0.481562,0.096879,0.910961,0.969969,0.500387,0.526358,0.840398,-0.090736,0.425090,-0.394418,0.638382,0.555132,0.826300,0.961568,0.012295,-0.867716,-0.834804,-0.962105,-0.914844,0.732645,0.809321,0.352443,0.881404,0.940522,0.910993,-0.005564,-0.056327,-0.933732,0.277919,0.426559,0.736928,-0.063757,0.809337,0.573891,-0.010029,-0.816025,-0.962104,-1.000000,-0.962104,-0.924285,0.158955,0.500422,0.881432,0.851792,0.599755,0.396081,0.258889,0.999458,0.108703,-0.020496,0.500430,0.454117,-0.812938,-0.643313,-0.573800,-0.957372,-0.962104,-1.000000,-0.995265,-0.518395,0.248636,0.999479,0.923710,0.885691,-0.122145,0.269199,-0.466278,0.380105,0.378690,0.732705,-0.661897,0.167779,0.517770,-0.643311,-0.872420,-0.957371,-0.943183,-1.000000,-0.995265,-0.257711,0.885715,0.461422,-0.010006,-0.596935,-0.727110,-1.000000,-0.962103,-0.113178,-0.461679,0.356828,0.384487,-0.129678,0.342255,0.627014,-0.376107,-0.797263,-0.962103,-0.981044,-1.000000,0.647107,0.591200,0.711378,0.219306,-0.001059,-0.348706,-0.891259,-0.962102,-0.204887,-0.711599,-0.210919,0.048016,-0.368529,0.326222,-0.546065,0.034649,-0.943182,-0.962102,-1.000000,0.163426,0.595528,0.771154,-0.344140,-0.023403,-0.867710,-0.444795,-0.924282,-1.000000,-0.306210,-0.288016,0.429547,0.426686,0.295553,0.048027,0.612761,-0.708446,-0.938454,-0.929004,-0.806637,0.698587,0.711422,-0.787889,-0.015980,-0.713108,0.056939,-0.764484,-0.671190,-1.000000,-0.005546,-0.164213,0.278006,0.462893,0.159023,0.999620,0.711439,0.400572,0.141318,-0.380663,-0.532213,-0.009970,0.685767,0.278054,-0.801946,-0.522988,-0.176204,0.801005,0.195820,-1.000000,-0.063697,0.868907,0.932302,0.915423,0.766957,0.039137,0.762697,0.722824,0.444125,-0.232027,-0.472343,0.631404,0.843494,0.586974,0.056960,0.702918,0.172311,-0.307711,-0.077190,0.257522,0.779718,0.961828,0.326280,0.720033,0.056965,0.234093,-0.507661,0.830785,0.949203,0.225245,0.326326,0.429607,0.447005,-0.186771,0.444148,0.758470,0.548164,0.178177,0.690103,0.566838,0.762739,0.269261,-0.627863,-0.458593,-0.083165,-0.149114,-0.092147,0.595627,0.556814,0.333599,0.037634,0.617154,0.198838,0.185592,0.513584,0.526568,0.172336,0.702967,0.698688,0.166402,0.154604,-0.666529,-0.703818,0.065848,-0.325915,-0.398942,-0.024883,0.374459,0.340908,0.132505,0.885933,0.767040,0.264927,0.591346,0.911301,0.569790,0.715821,0.242935,-0.532198,0.368606,-0.086143,-1.000000,-0.891253,-0.271318,0.122129,-0.050209,0.305878,0.304456,0.203275,-0.606176,0.724386,-0.499932,0.405019,0.110344,-0.736431,-0.610810,-0.872410,-0.985779,-0.962097,-0.604672,0.030228,-0.791045,-0.518359,-0.090585,-0.555277,-0.377629,0.278135,0.556873,0.754256,-0.412668,-0.450925,-0.504534,-0.362356,-0.769152,-0.736429,-0.914834,-0.886539,-0.990518,-0.957365,-0.836396,-0.728689,-0.976302,-0.464702,-0.362353,-0.244036,-0.386769,-0.703769,0.212124,-0.457045,-0.039776,0.110365,-0.905396,-0.731801,-0.773830,-0.811316,-0.787878,-0.769150,-0.526079,-0.783194,-1.000000,0.535262,-0.741140,-0.877117,0.864866,-0.292509,0.172391,-0.647927,-0.509134,-0.671171,-0.499922,-0.126546,-0.389771,-0.634037,0.345350,0.260588,-0.741097,-0.806624,-0.816006,-0.811314,-0.376092,0.301547,-0.297053,-0.825393,-0.663460,-0.730241,-0.171627,-0.839483,-0.483084,-0.643279,-0.825392,-0.830088,-0.720906,-0.745767,0.065947,-0.513737,-0.566092,-0.587638,-0.152111,-0.680475,-0.877115,-0.168653,0.377424,0.505044,-0.213854,-0.538375,-0.518386,-0.839482,-0.853584,-0.806622,-0.578381,-0.811312,-0.077075,-0.643277,-0.228946,0.201833,0.225357,-0.254638,0.244445,-0.564506,-0.593850,-0.412689,-0.225923,0.660282,0.394898,-0.464686,-0.872405,-0.962094,-0.872405,-0.914830,-0.476902,-0.727083,-0.914830,-0.054675,-0.638630,-0.102564,-0.389755,0.418156,-0.544525,0.698874,-0.792557,
0.580989,-0.812942,-0.461699,-0.943186,0.195707,-0.863011,-0.834805,-0.140184,0.691249,-0.059289,-0.059288,0.396081,-0.604708,-0.643320,0.021213,-0.150737,-0.877131,-0.797270,-0.848902,-0.365510,-0.464758,-0.924286,0.150045,-1.000000,-1.000000,-0.476972,-0.573806,-0.225999,-0.248658,0.894081,0.526330,0.877166,-0.068288,-0.778533,-0.458589,-0.750467,-0.792582,-0.902306,-0.453996,-0.914844,-0.183821,-0.295623,-1.000000,-1.000000,-0.971573,-0.759816,-0.606206,-0.717783,-0.811333,-0.248693,-0.036869,-0.431052,0.659913,0.509042,0.318867,0.813598,-0.486164,0.150106,0.478710,0.310106,0.178078,-0.521512,-1.000000,-0.680548,-0.995266,-0.703793,-0.962104,-0.671200,-0.891262,-0.848899,-0.362412,0.003386,0.154541,-0.610837,-0.403559,-0.041336,-0.580008,0.079141,-0.156726,-0.910124,0.906829,-0.526119,-0.775450,-0.910123,-0.736448,-1.000000,-0.900689,-1.000000,-0.801952,-0.090667,-0.348713,-0.198827,-0.140151,0.851840,0.491791,0.321858,0.906852,0.800901,0.800902,-0.792578,0.961676,0.442559,-0.194343,-1.000000,-1.000000,-0.891260,-1.000000,-0.486155,-0.371538,-1.000000,-0.536837,-0.138683,0.426658,0.898425,0.578271,0.431012,0.461441,0.796674,0.595512,-0.167196,-0.952639,0.569614,-0.262240,-0.444798,-0.990523,-0.962102,-0.380674,-0.919561,-0.759810,0.732760,0.409256,0.251649,0.470139,0.775413,0.326267,0.088062,0.788189,0.953310,0.638546,0.409263,-0.877125,0.721344,0.176656,0.478828,0.220833,0.404911,0.526481,0.775430,0.974372,0.754123,0.702864,0.944904,-0.162672,0.612768,0.282431,0.509178,0.413634,-0.050258,0.214925,0.487517,-0.271350,0.264862,0.238467,0.282438,-0.047308,0.711436,0.813742,0.647166,0.370027,0.582639,-0.736440,0.012366,-0.910120,-0.444829,-0.518378,0.530834,-0.316782,-0.536826,-0.230479,-0.877124,0.625699,0.999643,0.685778,0.383137,0.114730,0.813767,0.715737,-0.171685,-0.253144,-0.957368,-0.844191,-0.924280,-0.652589,-0.722434,-0.453965,0.216459,-0.722434,0.070312,0.493294,-0.444783,-0.952680,0.406371,-0.569155,-0.755128,-0.755128,-0.096650,-0.421850,-0.036797,-0.638653,-0.722433,-0.769159,-0.661883,-0.638652,-0.886543,-0.962099,-0.816014,-0.522981,-0.221408,-0.490735,0.970272,-0.629368,0.647226,-0.233526,-0.504546,-0.947907,-0.624728,-0.872413,-0.877121,-0.778518,-0.839490,-0.844189,-0.685143,-0.943178,-0.881831,-0.394369,0.365713,-0.816013,-0.801942,-0.764478,0.915502,0.232608,0.808134,-0.759800,-0.750450,-0.495333,-0.947906,-0.797254,-0.914836,-0.957366,-0.995261,-0.914836,-0.962098,-0.872412,0.229720,0.504941,0.400644,0.330740,-0.858294,-0.467733,-0.253121,-0.453951,0.830855,0.548209,-0.032294,-0.495330,-0.877119,-0.947905,-0.952635,-0.962098,-0.933724,-0.778515,-0.773834,0.007951,0.504959,-0.499932,-0.699112,-0.834789,-0.731762,0.348222,-0.558400,0.694455,0.561184,0.720125,-0.050202,-0.171650,0.621512,-0.661874,-0.905397,-0.919554,-0.877118,-0.643287,0.396314,0.217953,0.681621,0.522297,-0.900680,-0.867702,-0.797250,-0.952634,-1.000000,0.970393,0.856360,0.556887,0.578465,0.843643,0.664485,-0.054674,0.370140,0.396328,-0.421828,0.690208,-0.200299,-0.539922,0.238570,-0.430996,-0.212362,-0.717757,-0.962096,-0.952633,-0.792605,0.655921,0.664503,0.578484,-0.440168,0.873337,0.940943,0.707348,0.775656,0.788432,0.733001,0.286950,-0.207790,-0.504527,0.474662,-0.773829,-0.952633,-0.990517,-1.000000,-0.995259,-1.000000,0.978869,-0.221367,0.970457,0.728745,0.970460,0.615801,0.661633,0.911432,0.565568,0.187098,-0.284883,-0.158086,-0.219895,-0.257630,-0.919552,-1.000000,-1.000000,-1.000000,-1.000000,-0.362381,-0.962095,-0.962095,0.070401,-0.481506,0.507894,0.999926,0.361448,0.767183,0.715952,0.595774,0.881867,0.822506,-0.629349,-0.806622,-0.990516,-0.924273,-0.962095,-1.000000,-0.138580,-1.000000,-0.274312,-0.224414,-0.135534,-0.221353,-0.430981,-0.578378,-0.150597,0.061474,-0.685127,-0.578378,-0.689783,-0.601526,-0.933720,-0.943173,-0.962094,-1.000000,-0.938445,-0.271278,-1.000000,-0.947901,
0.388763,0.506105,-0.947914,-0.609343,0.749641,-1.000000,-0.198898,0.397490,-0.925904,-0.609343,-0.510768,0.135277,-0.576933,0.068689,0.749653,0.427985,0.427986,-0.925903,-0.924286,-0.539970,-0.925903,-0.535355,-0.266851,0.719779,-0.158250,0.749705,0.307159,-0.924286,0.792267,0.406225,-1.000000,0.099808,-0.888164,-0.235099,0.130859,-0.924286,-0.925902,0.749681,0.099812,-0.886551,0.749684,0.749686,0.719801,-0.958993,0.104254,-0.461691,0.694145,-0.962105,-0.298654,0.758224,-0.844199,-0.535350,-0.641809,-0.330524,-1.000000,-0.235091,0.724091,0.037544,-0.742720,-0.266840,-0.609336,-0.609336,-1.000000,-0.925901,-0.230558,-0.257761,-0.266797,0.073166,-0.637165,-0.665041,-0.294099,-0.925901,-0.949531,0.698456,-0.699132,-0.362452,0.753993,0.042010,-0.925901,-1.000000,0.104275,-0.609333,-0.027903,0.077621,-0.266832,-0.609332,-0.924284,-0.992147,-1.000000,-0.734933,-0.318365,-0.962103,0.006333,-0.289546,-0.503076,0.367016,0.719865,-1.000000,-0.045845,0.689925,-0.947911,-0.016006,0.462836,-0.916457,-0.330511,0.467180,-0.559926,-0.848897,-0.706939,0.046482,-1.000000,0.698500,0.736970,-0.503072,-0.938455,-0.949529,0.428072,-1.000000,-0.609328,-0.235071,-0.609328,0.719895,-0.518429,0.432429,-0.526112,-0.014504,-0.289536,-0.962102,-0.185296,-0.056288,0.614137,-0.298630,0.672827,-0.230535,0.310162,-0.995264,-0.925899,-0.888160,-0.294039,0.099869,0.397601,-1.000000,-0.958990,-0.266814,-0.362435,-0.230531,-0.295593,0.539413,-0.162714,0.800928,-0.224490,-0.180770,-0.344177,0.340832,0.317521,0.754090,-1.000000,-0.992145,0.336460,-0.925898,-0.362431,0.073217,0.519245,-0.262269,-0.962101,-0.958989,-0.294072,-0.674333,-1.000000,0.210522,0.042059,0.441170,-0.669680,0.375814,-0.940071,0.475924,0.694295,-0.266804,-0.291037,-0.995263,-0.572283,0.754122,0.099893,0.006377,-0.262262,-0.954257,-0.050286,-0.958988,-0.567658,-1.000000,-0.697610,0.046525,-0.216930,0.279491,-1.000000,0.068787,0.690037,-0.888157,0.139818,0.113219,0.802411,-0.944798,-0.225983,-0.921174,0.037619,-0.609316,0.042077,0.144253,0.068794,-1.000000,0.077691,0.006391,0.015321,0.732821,-1.000000,-0.957367,-0.958987,0.135399,0.707220,-0.958987,0.104354,-0.609314,-0.194301,-1.000000,0.253139,-0.225975,-0.842665,-0.185261,0.367123,0.099919,-0.962099,-1.000000,0.275127,-0.253171,-0.546048,-0.921173,0.068809,-0.235032,0.367132,-0.925895,-0.235031,-1.000000,0.194429,-1.000000,-1.000000,-1.000000,0.668668,0.599914,-0.739589,0.275139,-0.152152,0.574059,-1.000000,-0.572272,0.467315,0.077715,-0.266780,0.397699,-0.675832,0.749952,-0.266779,-1.000000,-0.921172,0.720063,0.099939,0.818080,0.145804,0.630052,-0.674322,-0.262236,-0.924277,-0.426462,0.077725,-0.257696,-0.331985,0.237036,-0.886540,-0.266773,-0.958985,0.099948,0.788332,0.784076,-0.610809,0.402081,0.749982,0.104391,-0.503041,-0.266770,-0.198800,-0.576892,0.052556,-0.024863,-0.572267,-0.954253,-1.000000,0.077737,0.792608,-0.576891,-0.971565,0.660149,-0.526083,-1.000000,-0.198795,-0.924276,-0.235011,-1.000000,0.545332,0.099964,-0.925892,-0.294030,0.634396,-0.995260,-0.126595,-0.992141,-0.523006,-1.000000,0.436948,0.397749,-0.235006,0.784124,-1.000000,0.099971,-0.559892,-0.888151,-0.262219,-0.453980,0.480402,-0.530691,-0.266758,-1.000000,-0.914832,0.600002,-0.883439,0.402123,-0.962096,-0.024842,-0.153622,-0.567636,0.229777,-0.609298,0.750051,0.720156,-1.000000,-1.000000,-1.000000,0.104425,-0.472313,0.179731,-1.000000,0.006459,-0.905395,-0.864604,0.750066,-0.194255,0.668828,-0.572257,0.788428,0.397783,0.463066,-0.503028,0.397785,0.397786,-0.661866,0.428286,-0.958983,0.690231,-0.962095,-0.535298,-0.498422,-1.000000,0.477549,0.724466,-0.962095,-0.604660,0.724469,0.531028,0.082228,0.668815,-1.000000,0.428300,-0.958982,-0.924273,0.135497,-1.000000,-0.262201,0.135499,-0.806621,-0.962094,-0.535294,0.830984,-0.957362,0.660251,-0.641768,0.630188,0.126639,-0.225919,0.754386,0.135506,0.432668,0.750123,
-0.620161,-0.995267,0.235381,-0.794189,-0.830109,0.157409,-0.087749,0.235384,-0.689823,0.248590,-0.159759,0.114589,0.557995,0.885599,-0.536853,0.642665,0.452662,-0.927477,-0.032449,-0.711610,0.638376,0.006297,0.282294,-1.000000,-0.924286,-0.285020,-0.105714,-0.504582,0.439594,-0.592314,-0.232079,-0.877131,-0.116205,-0.563060,-0.761418,-0.036918,-0.042888,-0.493879,-0.506156,0.194257,-0.731783,0.102772,-1.000000,-0.272900,-0.995266,0.251548,-0.481608,-0.325969,-0.962105,-0.376122,-0.910125,-0.095217,-1.000000,-1.000000,-0.995266,-0.770773,-0.624750,-0.985784,-1.000000,-1.000000,0.219267,-0.985784,-0.957372,-0.995266,-0.090678,-0.914843,-0.244153,-0.379206,-0.446381,-0.806685,-1.000000,-0.966880,-0.820758,-0.935349,-1.000000,-0.981045,-0.938457,-1.000000,-1.000000,-1.000000,-0.010015,-0.797308,-0.643354,0.036071,0.220752,-0.872420,-0.629385,-0.759813,-1.000000,-1.000000,-0.962103,-1.000000,-0.962103,-0.943183,-1.000000,-0.863007,-0.606200,-1.000000,-0.995265,-0.962103,-0.665037,0.345166,0.383030,0.150093,-0.615469,-0.661895,-0.062276,-0.026441,-0.891260,0.203129,0.286748,-0.741116,-0.685156,0.250129,-0.848896,-0.230541,-0.513821,-0.848896,-0.253207,-0.440253,0.250133,-0.741115,0.216369,-0.444799,-0.527608,0.291188,0.308694,0.915339,0.074721,0.003413,0.327683,0.999563,0.302852,0.571062,0.919570,0.369999,0.974351,0.194321,0.565354,0.974356,-0.289491,0.911136,-0.072687,-0.069736,0.890011,0.286813,0.267741,0.012353,0.621363,0.949112,0.999592,0.999593,0.881562,0.978583,0.776818,0.839161,0.805226,0.586895,0.119149,0.999606,0.487516,0.978595,0.953344,0.928052,0.327709,-0.526106,0.457141,0.387446,0.336467,-0.159699,0.974403,0.530828,-0.036814,0.698609,0.851947,0.923850,-0.233542,-0.741111,-0.050250,0.890059,0.749854,-0.300133,-0.914838,-0.312268,0.494724,-0.741110,-0.330448,-0.412692,0.352562,-0.104108,0.070307,0.207635,0.625671,-0.671186,0.449884,0.894310,0.228172,0.999664,0.339408,0.348198,-0.806633,0.826528,-0.596920,-0.801944,-0.587702,0.435439,-0.428004,0.822289,0.264894,0.431092,-0.929002,-0.736437,-0.569154,-0.515340,0.203238,0.655763,0.915466,-0.529172,-0.092152,0.717160,0.607060,-0.727099,-0.801943,0.012390,-0.811322,-0.694458,0.685826,-0.173217,0.352594,0.491876,0.000444,-0.683634,-0.429527,0.132494,-0.069696,0.435466,0.009380,0.652926,0.974505,0.911276,0.982920,-0.484638,0.561142,0.076226,-0.635596,-0.347194,-0.647979,-0.257663,-0.149106,-0.638648,-0.235029,0.496270,-0.032341,-0.801941,0.974529,0.684392,0.304446,0.839335,0.805357,0.415133,0.561122,-0.210872,0.660145,0.684402,-0.546044,0.025799,-0.995261,0.147240,0.477455,-0.144590,-0.104075,-0.225919,-0.929000,0.467331,0.380261,-0.180685,-0.801939,-0.629403,-0.703772,-0.825397,0.999792,0.148725,0.378852,-0.126566,0.582755,-0.281914,0.406441,-0.637138,0.668714,0.150246,0.932455,0.822399,-0.458538,0.999812,-0.546039,0.056971,-0.858292,-0.420345,0.247323,-0.769152,-0.750445,-0.521471,-0.018893,-0.304648,0.321976,0.409402,0.671593,0.142836,0.040644,0.133976,-0.561477,0.108845,-0.081632,-0.928998,-0.720910,-0.811316,-0.962096,0.065886,-1.000000,0.030247,-0.287964,-0.322858,-0.947903,-0.919553,-0.907011,-0.277358,-0.438680,-0.891250,-0.919553,-0.848884,-0.877116,-0.867700,-0.769191,-0.126587,-0.444796,-0.716243,-0.161141,-0.881826,-0.995259,-1.000000,-0.947903,-0.322852,0.062932,-0.962096,-0.003969,-0.744253,-0.461631,-0.671169,-0.962095,-0.895963,-0.767630,-0.509130,-0.643279,-0.797246,-0.797246,-0.905394,-0.924274,-0.947902,-0.962095,-0.281892,-0.578382,-0.476950,-0.423386,-0.649514,-0.787916,-0.666516,-0.256155,-0.583008,0.043646,-0.661907,-0.877114,-0.900677,-0.895962,-0.731753,-0.629349,-0.391327,-0.050161,-0.881867,-0.834826,-0.995258,0.184171,0.612969,-0.341076,-0.386751,-0.376041,-0.470815,0.330799,-0.689784,0.264982,-0.947901,-0.792557,-0.830086,-0.238004,-0.633988,-0.460090,0.039203,-0.834782,-0.928995,-1.000000,-0.962094,
-0.839503,0.698370,0.099790,-0.738054,-0.019034,0.536391,0.007778,-0.278967,-0.624756,0.999373,-0.102724,0.416372,0.635502,0.601101,-0.086209,0.206008,-0.738053,0.635508,0.753920,-0.962105,-1.000000,-0.925903,-0.555319,-0.194372,-0.242656,-0.716272,0.229525,-0.509188,-0.170280,-0.062311,0.296928,0.308622,-0.478545,0.280838,0.566647,0.635528,-0.733382,-0.836412,-0.140173,-0.921181,0.749682,-0.883453,-0.162754,-0.392930,0.241279,-0.834803,0.127911,0.601137,0.605443,0.158910,0.592528,0.978427,0.589658,0.052390,-0.444813,0.451209,0.510485,-0.489273,0.501826,0.889852,0.068713,-0.962104,-0.587681,0.953158,0.605459,0.806486,0.520594,0.520595,0.776709,-0.210938,0.844701,0.559492,-0.473940,0.999472,0.999473,0.642768,0.936321,0.285260,-0.380727,-0.424976,-1.000000,0.817837,0.635579,0.052406,-0.102694,0.498964,-0.587677,0.999493,-0.366975,0.970072,0.970074,0.761115,0.697049,0.999503,0.685635,-0.583048,0.179572,0.601189,0.276493,-0.356359,0.569628,-0.787893,-0.675849,0.844745,0.529282,-0.478532,0.555210,-0.332030,0.874408,0.874410,0.830613,0.999530,0.999532,-0.007060,-0.357836,0.776768,-0.041359,-0.661894,0.429523,-0.090696,0.104296,-0.769166,-0.437194,-0.441781,0.940645,-0.805118,0.822182,0.269191,0.999556,-0.547646,0.052431,0.299927,0.999563,0.999564,-0.332022,0.092463,0.970143,0.021233,-0.283472,0.532198,-0.572290,0.844796,0.186964,0.772543,0.486015,-0.134166,0.234010,0.874462,-0.283469,0.986946,0.266278,0.999592,0.999593,-0.327460,0.979947,0.999598,-0.332017,-0.066739,0.830715,-0.844193,-0.018960,-0.587666,0.194336,-0.283465,0.670003,0.264823,0.638534,0.708545,0.957525,0.970192,0.439718,-0.182270,-0.250167,0.234029,0.741350,0.132419,0.844843,-0.677434,-0.388324,0.436826,-0.699122,0.520704,0.509162,0.970213,0.158993,-0.405101,0.096933,0.555291,0.076195,0.004891,0.220822,0.517829,-0.327449,0.589804,0.999658,0.999660,-0.624732,-0.624732,-0.268312,0.340867,0.535140,0.844876,0.525051,0.806664,-0.663476,0.520727,0.164904,0.999678,0.474506,0.658616,0.685768,0.517848,0.999686,0.999687,-0.303116,-0.330440,0.874557,-0.050273,0.245800,-0.919557,0.108792,0.704331,0.135401,0.712888,0.198790,-0.209377,0.795353,-0.222956,-0.286476,-0.362373,0.212071,0.984268,0.874579,0.589846,0.662934,-0.431013,0.881677,0.957627,0.569768,-0.881831,-0.850499,-0.769156,-0.589240,0.644345,0.999735,-0.327435,0.260484,0.374417,0.374417,0.970312,0.779815,0.970315,0.490451,0.772681,-0.221438,0.975893,0.940838,0.566872,0.381702,0.822317,-0.162674,-0.392879,-0.830093,-0.356318,0.381707,0.999767,-0.294002,0.378799,0.198819,-0.026366,-0.570729,0.045081,-0.331986,-0.170191,0.857693,-0.289452,-0.086138,-0.515329,-0.685139,0.346762,-1.000000,0.601383,-0.429516,0.316117,0.159054,0.163479,-0.872410,-0.437159,-0.583020,0.525135,-0.476922,0.163483,0.999809,0.111793,-0.176203,0.128057,-0.476921,-0.295551,0.455770,0.088111,0.263453,0.575545,0.940905,0.605711,0.708706,0.455777,0.304443,-0.201809,0.555412,0.975975,0.259063,0.490506,-0.259197,-0.398927,0.999843,-0.102599,-0.464700,0.970414,0.056983,-0.883440,-0.812922,-0.987400,-0.018884,-0.575346,-0.030816,-0.263733,0.543948,-0.057695,0.999864,0.970433,0.970434,-0.437150,-0.222921,-0.102591,-0.686727,-0.403500,0.777045,-0.624714,-0.657220,-0.539918,-0.198782,0.068865,0.317622,0.416655,0.529515,0.273741,-0.253095,0.765695,0.182677,-0.146104,0.940975,-0.042745,0.405043,0.940980,-0.736424,0.123658,0.490548,0.159099,-0.265236,-0.330443,0.754339,-0.925890,0.139915,-0.886536,-0.129577,-0.473884,-0.647923,-0.403492,0.970491,-0.513735,-0.476906,-0.331959,0.912834,0.281084,-0.126571,-0.708425,-0.764467,-0.122068,0.175330,-0.919551,-0.234987,-0.883437,-0.050159,0.788460,-0.769145,-0.347158,-0.736422,0.386172,0.021359,0.840885,0.452994,-0.161121,0.351225,-0.806621,-0.392848,0.750116,0.720218,-0.812917,0.157649,0.245925,
-0.072749,-0.493886,0.164777,0.311522,-0.162769,-0.995267,-1.000000,-1.000000,-1.000000,-0.952643,-0.905409,-0.825414,-0.919565,0.264755,0.061312,0.889828,-0.216949,0.944701,-0.284982,0.864445,0.435237,0.715499,0.763870,-0.045881,0.144141,-0.657256,-1.000000,-0.995267,-1.000000,-0.891264,-0.895977,-0.853603,-0.546081,0.158939,-0.661904,-0.486169,-0.212417,-0.981046,-0.811334,0.286735,-0.550698,0.007795,0.889866,0.932093,0.417851,-0.962105,-1.000000,-0.962105,-0.727115,-0.867715,-0.629390,0.286744,-0.527621,0.517735,-0.274411,-0.353286,0.535038,0.114654,-0.717782,-0.176248,-0.867714,-0.278951,0.133828,-0.573801,-0.575384,-0.962104,-1.000000,-0.839500,-0.783212,0.439668,0.932133,0.612676,-0.559931,0.132358,-0.325921,-0.652603,-0.325921,0.172233,0.500439,-0.105693,-0.498474,-0.265321,-0.447909,0.028639,-0.773848,-0.952641,-0.947911,-0.924284,-0.212399,0.304320,0.970072,0.409219,0.365595,0.348113,-0.423445,0.176664,-0.248638,-0.408133,0.349535,-0.519970,0.611234,-0.018989,0.012329,-0.316844,-0.957371,-0.500005,-0.881837,-0.727109,0.203167,0.970101,0.970102,0.439705,-0.072701,0.335004,0.681412,-0.144650,-0.624742,0.752618,-0.221442,0.805176,0.018249,-0.339625,-0.894444,-1.000000,0.167841,-0.778526,-0.032360,0.304348,0.923779,0.923781,0.830677,0.758360,-0.536834,-0.081668,-0.518385,-0.509169,0.771152,-0.207858,0.396183,0.724224,-0.769207,-1.000000,-0.221475,0.439733,-0.957370,-0.610828,-0.325902,-0.773843,0.273639,0.902696,-0.863004,-0.362392,-0.825405,-0.661890,-0.769163,-0.820711,-0.962101,-0.394387,-0.957369,0.365649,-0.183780,-0.493856,0.582627,0.207615,-0.792616,0.647160,0.582631,0.136884,0.260468,0.826483,-0.054736,-0.750456,-0.839494,-0.527600,-0.914839,-0.629374,-0.689806,-0.769161,-0.492319,-0.844192,-0.952638,-0.140159,-0.137155,0.203216,0.457155,0.444118,0.448466,0.677210,0.944952,0.278022,-0.886544,-0.839492,-0.881833,-0.830098,-0.708442,-0.671186,-0.244072,-0.924280,-0.606186,0.487550,-0.952637,0.574044,0.189985,-0.845800,0.625721,0.176733,0.435439,0.690085,0.409318,-0.713104,-0.848891,-0.914837,-0.811323,-0.657235,-0.834793,-0.643296,0.771213,-0.476936,-0.023407,-0.962099,-1.000000,0.681534,-0.929044,-0.541434,0.491909,0.711502,0.638637,0.552490,0.758479,-0.727098,-0.717766,-0.877121,-0.731766,-0.009943,-0.113085,-0.014413,0.974499,-0.573775,-0.872412,-0.234992,-1.000000,0.361345,-0.415775,0.021326,0.661514,-0.403520,-0.339551,0.999738,-0.629365,-0.891254,-0.872412,-0.830094,-0.072640,-0.652582,0.604262,0.435481,0.021332,-0.895967,-0.962098,-0.985779,-0.755123,0.552524,0.847822,0.452881,-0.050212,-0.736432,0.568319,-0.072634,-0.408094,-0.797252,-0.862998,-0.797252,0.500622,0.096982,0.630095,-1.000000,-0.153605,-0.280402,-0.995260,-1.000000,-0.717761,-0.629361,0.724395,0.617204,0.762812,0.286914,0.003449,0.612906,-0.072624,-0.731761,-0.891252,0.190043,0.269348,0.370125,0.698748,0.092592,-1.000000,-0.848886,-0.995260,-1.000000,0.203253,0.668765,-0.020385,0.750041,-0.032277,0.457263,0.677345,0.685916,0.745779,-0.180674,-0.307640,-0.014377,0.234162,-0.481517,0.555417,-0.703769,-0.731758,-1.000000,-1.000000,-0.856765,-0.985778,0.119203,-0.518353,0.110370,0.465968,0.182662,0.565541,0.818195,0.474654,-0.472317,-0.140061,-0.583014,-0.312186,0.021371,-0.458530,-1.000000,-0.872408,-1.000000,-1.000000,-1.000000,-0.045697,-0.289433,-0.225897,-0.158091,0.396355,0.505023,0.079286,0.452955,0.452956,0.163558,0.431213,0.608670,-0.476910,-0.685131,-1.000000,-1.000000,-0.853585,-1.000000,-0.957363,-0.104080,-0.943174,-0.567633,0.911448,-0.077081,0.418164,0.466005,0.703111,-0.435572,0.754386,0.890322,-0.357771,-0.086058,-0.189689,-1.000000,-0.985776,-0.995258,-0.598482,-0.330438,0.505015,0.182696,0.529549,0.451497,0.893122,0.970512,-0.050158,0.483385,0.286988,-0.275784,-0.312171,-0.666513,-0.661863,-0.532177,-1.000000,-0.990516,-0.620068,-0.889719,-0.820696,-0.011395,-0.158111,-0.919550,
0.783755,-0.449456,-0.197393,0.343629,-0.661949,-0.745797,-0.138726,-0.342695,-0.266816,0.563743,-0.421894,-0.914845,-0.924287,-0.919565,-0.924287,-0.952643,-0.858307,-0.722451,-0.755143,0.530638,-0.262314,-0.150737,0.141187,-1.000000,-0.717785,-0.250213,-0.207896,0.070217,0.330560,0.915195,0.718358,0.050893,-0.877131,0.194291,-0.435643,-0.504622,0.585331,0.374245,-0.403568,0.475796,-0.330529,-0.706946,-0.584640,-1.000000,-0.891263,-0.379212,0.139725,0.413537,0.894100,0.251588,-0.629390,-0.801955,-0.985785,-0.877130,-0.877130,0.034609,0.709838,0.369894,0.444005,0.578171,-1.000000,0.181021,-1.000000,-0.792581,-0.736450,0.572427,0.800855,0.430966,0.365575,-0.741120,-0.877129,-0.947912,-0.872421,-0.900690,-0.671200,-0.185275,0.167811,0.308695,0.599771,0.765360,0.336397,-0.386823,-0.596979,-0.787895,-0.830104,-0.189790,0.974272,0.677096,0.999492,-0.877128,-0.962103,-0.962103,-0.924284,-0.867713,-0.366974,-0.149166,0.114676,0.629902,0.365599,0.749790,-0.596935,-1.000000,-0.830103,-0.683648,-0.203346,-0.307698,0.381576,0.944832,0.604108,-0.421873,-0.924283,-0.962103,-0.463168,0.348128,0.858886,0.884289,0.694260,0.181096,0.092493,-0.207865,0.298455,-0.150699,-0.724039,-0.731776,-0.764487,-0.564545,0.974332,0.762617,0.762618,-0.421868,-0.962102,-0.834798,-0.153660,0.724216,0.052472,0.817944,0.439687,0.512004,-0.512282,-0.403545,-0.783207,0.412126,-0.426449,0.834936,0.201679,0.635645,0.039113,0.754114,0.655724,0.362688,-0.481548,-0.666540,0.608458,-0.362392,-0.863004,-0.339575,0.167860,-0.834797,-0.284941,-0.125156,-0.705380,0.585460,-0.685151,-0.518381,0.308760,-0.458605,0.096961,0.928053,0.999615,0.978603,-0.914839,-0.634016,-0.366955,-0.805115,0.719953,0.582640,-0.867708,0.513524,-0.472346,-0.347212,-1.000000,0.665732,-0.403535,0.080638,-0.811325,0.497611,-0.027857,0.923863,0.974425,0.805265,-0.412692,-0.143160,-0.513767,-0.339565,0.522157,0.771224,0.660068,-0.467746,0.423787,0.530813,0.295629,0.483214,0.647199,-0.748938,-0.262216,-0.620093,0.167892,0.150194,0.961830,0.813791,-0.117594,-0.089161,0.034690,-0.606184,-0.773881,0.083659,0.220878,0.317526,-0.780122,-0.747379,-0.720919,-0.030865,-0.671183,-0.583030,-0.059236,0.444152,0.396256,0.470221,0.587004,0.599929,0.190003,0.545254,-0.495336,0.260513,-0.143143,0.260475,-0.048772,-0.713101,-0.658823,-0.811321,-0.962099,-0.919556,0.999729,-0.834791,-0.045741,0.025788,-0.371505,0.749971,0.491930,0.378822,-0.773836,-0.750450,-0.206352,0.043625,0.150222,-0.708437,0.045072,-0.713099,-0.689798,-1.000000,-1.000000,-0.995261,-0.900682,-0.638647,0.198815,-0.412675,0.754260,0.612883,0.843588,0.500618,-0.962098,-0.947905,0.364243,-0.417254,0.264939,-0.234980,-0.499932,-0.787881,-0.914835,-1.000000,-0.877161,-0.215393,-0.569144,-0.573768,-0.806628,-0.717761,0.822389,0.999798,0.826638,0.737217,0.496304,0.125098,-0.368489,0.238553,-0.426416,0.885987,0.444215,-0.555276,-0.881828,-0.862996,0.720102,-0.792606,-0.595405,-0.900680,-0.886539,-0.495323,0.999827,0.995628,0.595705,-0.080138,-0.727091,-0.924275,0.750050,-0.820701,0.065923,0.668780,-0.018888,-0.792605,-1.000000,-0.995259,-0.466232,-0.919553,-0.881827,-0.864606,-0.875590,-0.435581,0.999858,0.805442,0.647338,-0.014369,-0.449347,0.065932,-0.522962,-0.251629,0.101457,0.750078,-0.412700,-0.914832,-0.647926,0.330760,-1.000000,-0.301604,-0.185221,-0.891250,-0.412657,-0.755116,-0.629353,0.163516,-0.284885,0.216558,0.317666,-0.689788,-0.023304,-0.389767,0.074843,-0.083112,-0.745767,-0.957363,-0.995259,0.574165,-1.000000,0.089626,-0.924273,-0.990517,-0.924273,-0.962095,-0.180654,0.431227,-0.158082,0.132572,-0.280333,-0.287950,-0.504562,-0.731753,-0.009876,0.025813,-0.825391,-0.216869,-0.449337,0.062950,0.784196,-0.962095,-0.995258,-1.000000,-0.943173,-0.957362,-0.957362,-0.440156,0.431245,0.814025,0.978937,0.818278,0.970524,0.653096,-0.242538,-0.858287,-0.928995,-0.797286,0.383270,0.391998,
-0.339616,-1.000000,-0.447926,0.498884,0.488773,0.194233,0.123453,0.779505,-0.080267,-0.916461,-0.806646,-0.713123,-0.866191,-0.773896,-1.000000,-1.000000,-0.962106,-1.000000,-0.756744,-0.286538,-0.609342,-0.113212,-1.000000,-0.921181,-1.000000,0.483051,0.135283,-0.438744,-0.063767,-0.634034,-0.877131,-0.699137,-0.741123,-0.844201,-0.769215,-1.000000,-1.000000,-0.957373,-1.000000,-0.981046,-0.708458,0.150053,-0.467777,-0.677449,-0.426470,-0.886551,-0.385307,0.222194,-0.431095,0.715568,-0.750509,0.040509,-0.647960,-0.717783,-0.834803,-0.957372,-0.966838,-0.498479,-0.509183,-0.685162,0.575296,-0.834802,-0.434150,0.391719,-0.263814,-0.180803,-0.736492,-0.138702,-0.232068,0.269188,-0.745792,0.256001,-0.801954,-0.886550,-0.957372,-0.914843,-0.050338,-0.325962,0.599731,-0.741119,-0.976308,-0.877129,-0.275917,-0.848898,-0.886549,-0.990524,0.150080,0.380105,0.483109,-0.068225,0.439685,0.018233,-0.113143,0.535033,0.771097,0.167782,0.176664,0.264813,-0.149205,0.206061,-0.962103,-0.924283,-0.848940,-0.292576,0.182520,0.506199,0.383069,0.817906,-0.126677,0.195771,0.822157,0.898414,-0.275867,0.985486,0.657077,0.423715,0.970108,0.362661,-0.345707,-0.583087,0.393220,-0.773845,0.659984,0.435364,-0.266781,0.213429,0.999549,0.176683,0.830671,0.332057,0.659993,0.953292,0.999558,-0.216911,0.628470,-0.938455,-0.288019,-0.057781,0.211968,0.940663,0.332065,-0.429547,-0.546064,0.762635,0.022722,-0.275857,-0.371530,-0.200358,0.138309,-0.717774,0.694298,0.940680,0.439739,-0.592297,-0.068237,-0.604690,-0.990522,-0.755132,-0.153691,-0.634060,0.018268,-0.050300,-0.212375,-0.532215,-0.271309,-0.271309,-0.666539,-0.327457,-1.000000,-0.253193,0.491857,0.400569,0.839216,-0.764484,-1.000000,-1.000000,-0.863003,-1.000000,-0.811325,-0.869320,-1.000000,-0.929003,-0.232031,-0.344129,-0.262223,-0.054771,-0.773841,0.574027,0.361262,0.021257,-0.371560,-0.573782,0.030220,-0.310749,-1.000000,-0.938453,-0.569157,-0.943179,0.500550,0.480280,0.881623,-0.206370,-0.108601,-0.156681,0.311672,0.729958,0.021306,-0.158142,0.704312,0.278075,-0.026395,-0.675837,-0.513805,-0.938452,0.283894,-0.839491,-0.924322,0.036138,-0.083170,0.105871,0.429608,-0.113091,-0.509154,-0.376081,-0.018891,0.899945,0.139832,-0.455531,0.711503,0.141350,-0.089153,-0.536818,-0.054750,-0.065212,-0.475442,-0.601548,-0.383738,0.238514,-0.414249,0.111760,0.989882,0.474534,0.697219,0.788317,-0.032346,-0.634007,-0.084655,-0.041260,0.367136,-0.351757,0.273711,0.383188,0.494784,0.422421,-0.045777,0.406412,0.151659,0.292705,0.474588,0.932404,-0.398940,0.987150,0.898626,0.307332,0.117690,-0.009928,-0.398939,-0.490727,-0.938450,-0.144633,-0.680485,0.477454,0.650099,0.339463,0.132516,0.269295,-0.032332,0.276620,0.522276,0.638693,0.532333,0.890196,0.830875,0.105907,0.552545,-0.185201,0.181163,-0.036804,-0.248578,-0.773833,0.326382,-0.238038,-0.098114,-0.606174,0.422417,0.278137,0.057010,0.826649,0.877526,0.728685,-0.257648,-0.170182,0.835146,0.847875,0.999823,0.732965,0.407908,0.465950,0.452919,0.461609,0.157593,-0.060693,-0.853588,0.135453,-0.083129,-0.583017,0.617198,0.932488,0.999844,0.924051,0.056983,-0.536803,0.886023,-0.289439,0.561221,0.715894,0.148750,0.864862,-0.467721,-0.536802,-0.657221,-0.307635,-1.000000,-0.928998,-0.773829,-0.862994,-0.463124,0.335176,0.015381,0.343891,0.525182,-0.180704,-0.750442,0.450013,-0.900679,-0.269782,-0.731756,0.025839,-0.952632,-0.862994,-0.797247,-0.886537,-0.981038,-0.966829,-0.914832,-0.938447,-0.924274,-0.858289,-0.398959,-0.304633,-0.265236,0.655921,-0.289469,-1.000000,-1.000000,-1.000000,-0.825392,-0.806623,-1.000000,-0.910112,-0.844182,-0.952632,-0.981037,-0.872406,-0.839482,-0.747366,-0.325840,-1.000000,0.543958,0.343922,-0.697591,-0.414218,-0.621658,-1.000000,-0.957362,-1.000000,-1.000000,-1.000000,-1.000000,-0.962094,-0.962094,-1.000000,-0.976299,-0.872405,-0.839481,-0.981037,-0.207811,-1.000000,-0.051687,-1.000000,
0.216325,-0.669700,-1.000000,-0.298668,-1.000000,0.186874,-0.481575,-0.257780,0.314445,-0.952643,-0.686761,-1.000000,-0.518449,0.182462,0.295491,0.724035,0.467094,-0.576933,-0.958994,-0.576933,0.068689,-0.925903,-0.532239,0.758185,-0.056337,0.634119,-1.000000,-0.982669,0.358220,-0.176301,0.435282,-0.062312,0.270586,-0.943185,-0.916460,-0.253235,0.104246,-0.535353,-0.976309,-1.000000,-0.958993,-0.958993,-1.000000,-0.637169,-0.056328,0.151530,-0.440227,-0.307756,-0.606207,-0.455568,0.704127,0.428011,-0.753625,-0.207929,-0.215470,0.289631,-0.958992,-0.576927,-0.266842,0.068710,0.397530,-0.235091,-0.830106,-0.056320,-1.000000,-0.805122,-0.773850,0.096864,-0.251712,-0.867714,0.181025,-0.010062,0.452669,-0.647958,-0.171770,-0.428033,-0.629387,-0.289552,-0.985784,0.336394,0.068722,-0.226025,-0.982667,0.126453,0.413528,0.219280,0.487442,0.775308,0.758265,-0.586176,-0.569215,-1.000000,0.040530,0.024183,-0.280457,0.064281,0.702754,0.358275,-1.000000,-0.992147,0.216351,-0.016009,-0.353316,-0.380722,-0.177779,0.364107,0.793777,0.148616,-0.895974,-0.194343,-0.294049,-0.627878,0.689933,-0.128176,0.470077,-0.610874,0.741236,-0.307736,-0.634023,-0.198860,0.310147,0.046485,0.415012,-0.886547,0.698508,0.970120,0.070270,0.013788,-0.855208,-0.863005,0.285296,0.477325,-0.758293,0.036094,-0.661892,0.560991,-0.634062,-0.449428,-0.995264,-0.925899,0.689965,-0.669684,-0.024935,0.021234,0.372874,-0.966835,-1.000000,-0.426490,0.665692,0.793831,0.796707,-0.570747,-0.936921,-0.368524,-0.472393,-0.905403,-1.000000,-0.641797,0.499028,-0.992145,-1.000000,-0.995263,0.095437,-0.536829,0.540865,-0.669681,-0.618594,-0.717772,0.965977,0.940705,-0.700719,-0.624778,0.352506,-0.084687,-0.426442,-0.366996,0.139801,0.445518,0.130941,-0.990521,-0.162705,-0.389849,-0.461665,0.346684,0.834950,0.151615,-0.153681,0.542328,0.367086,-0.990521,0.651477,-0.643341,-0.985781,-0.957368,-0.005534,0.192883,-0.135649,0.830723,0.801022,-0.618590,-0.123640,0.384561,0.130955,-0.371557,-0.207877,0.311672,0.074761,0.018291,-0.962100,-0.268310,0.242858,-0.952637,0.444100,-0.858296,0.506301,0.056926,0.161959,-0.762963,-0.872414,-0.342640,-0.987403,0.184066,-0.453960,-0.886543,0.314608,-0.159680,-0.646433,-0.933726,-0.110130,-0.867706,-0.573777,-0.671183,0.264868,-0.146149,-0.015946,-0.620089,0.890094,-0.837966,0.932372,0.970291,0.428174,-0.153661,-0.761402,0.144271,0.059910,0.122114,-0.910117,0.391871,-0.418829,-0.872412,0.273671,-0.509190,-0.509190,-0.526092,0.970314,-0.564525,0.668673,0.263420,-0.533779,-0.719361,-0.235027,-0.641785,-0.467734,-0.640237,0.346747,0.074753,-0.722428,0.250232,0.454292,0.253167,-0.334985,-0.435634,0.749960,-0.521477,0.484686,-0.490726,0.257570,0.484689,-0.947905,-0.493835,0.099945,0.809594,0.451407,-0.587650,-0.643288,0.597076,0.974570,0.898660,-0.493834,0.741446,0.257580,0.420963,0.852060,0.400631,0.067354,-0.661916,-0.758280,0.206191,-0.900681,0.519371,-0.486120,-0.600037,-0.559896,-1.000000,-0.374579,0.532356,-0.823873,-0.905397,-0.623214,-0.665014,-0.717759,0.387561,-0.914833,-0.596948,0.229717,0.612893,-0.892865,0.584182,0.970410,-0.595403,0.068851,-0.669664,0.750022,-0.921170,-0.916449,-0.699108,-0.039772,-1.000000,0.088125,-0.247094,-0.519930,-0.976301,0.558311,-0.354779,0.569862,-1.000000,-0.911729,-0.911729,0.724419,-0.298572,-0.850494,0.367210,-0.825393,-0.921169,-0.958983,-0.883439,-0.992140,-1.000000,-0.290989,-0.496891,-0.928997,-0.943174,0.690209,-0.981038,-0.962095,-0.962095,-0.576883,0.724442,0.668826,0.694500,-0.230463,0.135481,-0.962095,0.660213,-0.958983,0.144344,-0.694444,-0.962095,0.305948,0.138440,-0.685172,0.822459,-0.023336,0.076294,0.890325,-0.408112,0.077778,-0.962095,0.139922,-0.957362,-0.576880,0.428296,-0.713087,-0.576879,-0.234987,0.690247,-0.995258,-0.144588,0.197423,-0.995258,0.235642,0.437008,0.122199,-0.792558,-0.051690,-0.289460,0.144363,-0.230451,0.442814,-0.567627,
-0.131182,0.475759,-0.924287,-0.567687,-0.056346,-0.672800,-1.000000,-1.000000,-0.962106,-0.962106,-0.666556,-0.253202,-0.962106,-0.303174,-0.666556,-0.476975,0.762476,0.105755,-0.466292,0.110193,0.639801,0.501787,0.728313,-0.924286,0.093879,-0.454042,-1.000000,-0.990525,-0.825413,-0.985785,-0.117667,-0.652609,-0.224532,0.216346,-0.339607,-0.001102,-0.271390,0.936295,0.919424,0.762504,0.532097,0.310087,-0.385309,-0.773852,-0.113163,-0.914844,-0.914844,-0.957373,-0.985785,-0.830107,-0.431054,-0.886551,-0.853602,-0.371553,-0.074264,-0.694476,0.694187,-0.647960,-0.644905,-0.319894,-0.019010,0.445415,0.095381,-0.405130,-0.750466,-1.000000,-0.952641,-0.952641,-0.910124,-0.825410,0.231019,-0.699133,-0.592309,-0.801954,-0.647958,-0.426464,-0.232066,0.158964,0.157450,-0.321407,-0.919563,-0.236596,-0.114688,-0.306229,-0.801953,-0.680547,-1.000000,-0.962104,-1.000000,-0.657249,-0.266792,0.119107,-0.797265,0.530708,-0.104190,-0.615471,-0.564550,-0.423445,-0.221450,-0.108644,0.101323,0.475850,-0.162734,0.158940,-0.962103,-0.811330,-0.675849,-0.962103,-0.957371,-0.792578,0.860327,0.817908,0.898413,0.296986,0.242831,-0.385250,0.668553,0.788155,0.881507,0.749811,-0.558426,-0.600062,-0.848896,-0.001100,-0.943182,-1.000000,-0.853598,-1.000000,-0.952639,-0.001057,0.873059,0.796681,0.582592,0.672859,0.343768,-0.383763,-0.339581,0.435375,-0.017482,0.999566,-0.472354,-0.189812,-0.848895,-0.113164,-0.244130,-0.606194,-1.000000,-0.914840,-0.976306,0.923804,0.391829,0.830699,0.660016,-0.910121,-0.952639,-0.995264,-1.000000,0.359779,0.439742,0.999596,0.126497,-0.957369,0.037594,-0.741112,-0.694465,-0.629376,-0.461668,-0.891258,-0.722437,-0.117612,0.483183,-0.005505,-0.601557,-0.957369,-1.000000,-0.905402,-0.962101,-0.886545,-0.761407,-0.811325,0.132459,0.275085,-0.232032,0.915410,-0.009968,-0.389848,-0.703782,-0.801946,0.483199,0.132464,0.771214,-0.863002,-0.834795,-0.995263,-1.000000,-0.957368,-0.886544,-0.957368,-0.886544,-0.848892,-0.518375,0.493289,-0.026399,0.010849,0.260491,0.732842,0.123568,0.885861,0.352573,0.108783,-0.232023,-0.518373,-0.722433,-0.872414,-0.957368,-0.924279,-0.962100,-1.000000,-0.527635,-0.716255,-0.111633,-0.476978,-0.853593,0.932349,0.953426,0.361329,0.128054,-0.050231,0.339466,0.212027,0.396257,0.307307,0.300038,-0.981041,-0.778518,-0.910117,-0.834792,-1.000000,-0.881831,-0.253171,-0.420358,-0.385220,-0.341114,-0.463143,-0.212348,-0.050222,-0.905399,-0.330433,-0.321319,0.595640,-0.481529,0.502003,-0.054701,-0.509149,-0.518365,-0.914836,-1.000000,-0.990520,-0.848889,-0.426466,0.166409,0.163501,0.371513,0.105855,-0.601545,-0.919556,-0.012950,-0.486126,-0.203291,0.966126,0.136943,-0.341107,-0.426421,-0.657228,-0.778515,-0.947905,-0.990519,0.809587,0.104383,0.809590,0.167896,-0.797252,-0.905398,-0.522971,0.348260,0.413737,0.843608,0.915559,0.869042,0.737214,-0.006978,-0.104069,-0.671176,-0.394357,0.509263,-0.919554,-1.000000,-0.872410,-0.801938,-0.382199,-0.104065,-0.787879,-0.976302,-0.532234,-0.862996,0.579857,0.157589,0.945121,0.970393,0.681630,0.911368,0.530959,0.911371,-0.458535,-0.463129,-0.104099,0.617235,-1.000000,-0.908584,-0.483091,-0.847361,0.465961,0.612939,-0.475425,0.282548,0.839417,-0.077098,0.945150,0.784165,0.902945,0.813945,0.079276,-0.014369,-0.881826,-0.834786,-0.750443,-0.475423,-1.000000,-1.000000,0.040657,-0.092103,0.164985,-0.836394,-0.820742,-0.283413,-0.962096,0.179726,0.220964,-0.303079,0.513685,0.339561,0.194495,-0.924274,-1.000000,-1.000000,-1.000000,-0.962095,0.387598,-0.504565,0.643035,0.116265,0.128093,0.707381,-0.569132,0.185669,-0.050169,-0.731754,-0.050168,-0.230420,-0.207780,0.247409,-0.041205,-0.947902,-1.000000,-1.000000,0.518000,-0.290981,-0.359334,0.904385,0.278156,-0.620071,-0.295528,0.297184,0.181223,-0.351723,-0.675819,-0.284875,-0.671166,-0.417229,-0.131030,-0.324359,0.600096,-0.553764,-0.910154,-0.910111,-0.924272,-0.685169,0.543974,-0.820696,-0.230451,
-0.750471,0.129358,-0.403618,-0.643364,0.974142,0.672713,-0.298627,0.049394,0.163344,0.847476,0.264709,-0.176267,-0.033947,-0.499981,-0.900693,-0.962106,-1.000000,-0.949533,-0.292601,0.195711,-0.490815,-0.881841,-0.806688,0.478670,-0.224535,0.364042,0.732626,0.736896,-0.014514,-0.045840,-0.342690,-0.004124,-0.395984,-0.938458,0.247136,-0.207895,-0.900692,-0.952642,-1.000000,-1.000000,-0.919564,-0.845810,-0.773852,-0.675856,-1.000000,-0.900692,-0.467777,-0.463182,-0.877130,-0.198845,-0.005564,-0.578429,-0.386831,-0.453995,0.034607,-0.713119,-0.839501,-0.797310,-0.652606,-0.510760,-0.952642,-0.966838,-0.680507,-0.294063,-0.412762,-0.985784,-0.171773,0.387398,0.530682,-0.221460,-0.408140,-0.962104,-0.248647,-0.095170,-0.153683,-0.624748,-0.886550,-0.962104,-0.861482,-1.000000,-0.914843,-0.976308,0.321801,-0.285005,-0.990524,-0.490762,-0.294097,0.241304,0.391737,0.569611,0.936371,0.634150,-0.620108,0.330607,-0.041331,-0.578422,-0.886549,-0.962103,-0.777010,-1.000000,0.172244,0.500417,0.461381,-0.185267,-0.271328,-0.853599,0.031621,0.452737,0.238424,0.517784,0.974302,0.638506,0.043550,-0.212393,-0.541453,-0.713113,-0.957371,-0.914841,-1.000000,-0.933773,-0.924283,0.273577,0.369983,0.426660,-0.048824,0.573922,-0.054798,0.025686,0.229629,0.601217,0.932212,0.843399,0.504817,0.070272,-0.266778,-0.914840,-0.867711,-0.881836,-0.867711,-0.586169,-0.207900,-0.353266,0.116139,0.885770,0.608446,0.621313,-0.444795,-0.592299,-0.675844,0.552407,0.711408,0.762642,0.758380,-0.330458,-0.230490,-0.801948,-0.773843,-0.526108,-0.962101,-0.962101,0.571082,-0.458566,-0.126616,0.459988,0.251626,-0.615462,-1.000000,-0.877125,-0.643302,-0.703784,-0.386803,0.370023,0.634277,-0.971569,-0.458563,-0.830099,-0.914839,-0.861477,-0.039841,-0.678985,0.519255,0.970201,-0.981043,-0.117607,-1.000000,-1.000000,-0.881833,-0.863002,-0.473919,-0.952637,0.176721,-0.225948,0.582653,-0.189754,-0.825403,-0.962100,-0.842668,-0.947908,-0.481539,0.999657,0.448474,-0.168715,-0.564534,-1.000000,-1.000000,-1.000000,-0.943179,-0.985781,-0.527595,-0.914838,-0.610820,0.435439,0.754189,-0.848891,-0.924279,-0.962100,-0.962100,-0.962100,-0.004033,0.432506,0.788245,-0.678981,-1.000000,-1.000000,-1.000000,-0.041272,-0.412684,-0.919557,0.163480,0.153116,0.724327,0.136880,0.473076,-0.886542,-0.914837,-0.962099,-1.000000,0.074736,-0.722473,-0.239567,-0.977925,0.071773,-0.657232,-1.000000,-1.000000,-0.449365,0.003467,-0.023355,0.207668,0.065846,0.556826,0.444172,-0.643292,-0.952635,-0.962099,-1.000000,-0.677426,-0.652583,0.016868,0.393333,-0.141633,0.326318,-0.731806,-0.162675,-0.495331,0.642970,0.907080,0.565477,0.898631,0.755642,0.978749,-0.564523,-0.877120,-1.000000,-0.962098,-0.328948,0.105902,-0.251647,-0.403555,0.030263,-0.952635,-0.962098,-0.093625,-0.312201,0.132520,0.762807,-0.198762,0.256150,0.128090,0.999795,0.548228,-0.303095,-0.914834,-0.825396,-0.943176,-0.506112,0.483298,0.545315,0.441275,0.715860,0.728683,-0.995260,-0.561479,-0.713095,0.101478,0.924027,-0.408086,0.176795,-0.242567,0.737236,0.724422,-0.167129,-0.257645,-0.830091,0.273715,-0.312192,-0.239501,0.067365,-0.512251,0.190057,-1.000000,-1.000000,-0.773873,-0.764472,-0.185188,0.308877,-0.155133,0.894485,0.561222,0.813942,-0.212319,-0.486114,0.248809,0.647339,-0.872408,-0.253101,0.080720,0.483336,0.974645,0.088170,-0.924274,-1.000000,-0.589226,-0.881826,-0.412658,0.750086,0.974657,0.505020,-0.132588,-0.105585,-0.806624,-0.458527,-0.647925,0.116261,0.405079,0.374539,-0.467757,-0.245574,0.517983,0.974677,0.077768,-0.185216,-0.724017,-0.905394,0.830941,0.999912,0.465962,-0.674312,-0.275791,-0.699104,0.903001,0.225387,-0.144554,0.648776,0.843724,0.361448,0.788482,0.999931,0.605784,-0.476906,0.668810,-0.957362,-0.957362,-0.536835,-0.713087,-0.027806,-0.853584,-0.126528,-0.947901,-0.862992,-0.914830,-0.077071,-0.376040,0.207763,-0.277339,-0.464686,-0.368464,0.305968,0.579951,0.329343,
-0.444826,-0.641817,0.068678,0.366935,0.046423,-0.113221,0.545027,-0.216995,0.047950,-0.886553,-0.498488,0.349462,-0.976310,-0.806647,-0.424991,-0.014561,-0.714719,-0.226047,-0.921182,0.694103,0.462754,0.397495,-0.198895,-0.911742,-0.830108,-0.171748,-0.045882,-0.724048,0.061277,0.681308,0.047921,0.625528,-0.573806,-1.000000,-0.660397,0.157422,-0.613975,-0.943185,-0.881840,-0.325974,0.877165,-1.000000,-0.457100,0.834759,-0.750467,0.241275,-0.863010,-0.399031,-0.563059,-0.819196,-1.000000,-0.198885,-0.867715,0.401880,-0.688309,-0.122199,0.110173,-0.371594,-0.489275,0.041996,-0.674345,0.532116,-0.244157,0.037542,0.642748,0.647043,-0.900691,0.291100,0.042001,0.634164,-0.797267,-0.519975,-0.527618,-0.535348,-0.957372,0.182499,-0.038395,-0.973193,0.698451,-0.595437,0.176611,-0.949531,-0.244151,-0.844198,-0.087719,0.443985,-0.567675,0.708444,-0.424975,0.204582,-0.847374,0.548030,-0.827016,0.153032,-0.420391,-0.176278,-0.787894,-0.859913,-0.595434,0.323274,-0.806641,-0.149206,-0.867712,0.336411,0.417897,0.669928,-0.805120,-0.933730,-0.177778,-1.000000,-0.518432,0.235450,-1.000000,-0.891260,0.582572,0.349544,0.019731,-1.000000,-0.734932,0.702778,0.724195,-0.590801,-0.576918,0.042030,0.383041,-0.741116,-0.973192,0.327674,-0.546109,-0.925899,-0.047328,-0.618599,-0.688301,-0.702276,-1.000000,0.565303,-0.509170,-0.744271,0.349562,-0.189814,0.113180,-0.911737,-1.000000,0.484562,0.999570,0.719951,-0.272871,-0.018970,0.868847,-0.741114,-0.499956,-0.637156,0.826453,-0.262274,0.573990,-0.848895,-0.218454,0.323318,-1.000000,-0.962101,-0.634018,-0.563041,-0.947909,-0.919560,-0.020453,-0.944799,0.232551,-0.219960,-0.463158,-0.247146,-0.362430,-0.472390,-0.101162,0.635670,-0.769162,-0.316785,-0.149137,-0.962101,-0.262267,-0.812932,-0.995263,0.073223,-0.289522,-0.119148,-0.274374,-0.618592,0.095449,0.013816,0.749893,0.324802,-0.943180,0.335060,-0.423425,-0.766084,0.638557,0.517826,-1.000000,0.117649,0.634265,-0.952637,0.064335,-0.289517,-0.284971,0.860451,0.856176,-0.362422,-0.940071,-0.014469,-0.995262,0.439785,0.333576,-0.819186,0.745655,0.327740,-1.000000,-0.155175,-0.881832,-0.623226,0.310218,0.629990,-0.087662,0.046536,-0.362417,-0.827008,-0.730253,-0.620091,-1.000000,0.228187,-0.135638,0.278086,0.302919,-0.755126,-0.661882,0.116191,-1.000000,0.370034,-1.000000,0.677221,-0.886542,-0.054749,-0.834792,0.037634,0.634313,-0.995261,-0.962099,-0.218424,-0.885014,0.539503,-0.198776,0.317586,0.383184,-0.131125,-0.457058,-0.834791,-0.669672,0.452829,0.868995,-0.660371,-0.189772,-0.526091,0.758473,0.345285,-0.952635,-1.000000,-0.509147,0.436896,0.634378,-0.253163,-0.461648,-0.886541,0.578421,-0.162672,-0.558403,-0.239556,-1.000000,-0.811319,-0.947905,-0.553782,-0.595409,0.175263,-0.171655,0.279548,0.380261,-0.348707,-0.225959,-1.000000,-0.759798,-0.287976,0.039184,-0.874022,-0.805107,-0.750447,0.223824,-0.703772,0.592774,-0.995260,0.302968,0.091069,-0.845795,-0.957365,-0.447865,-0.738029,-0.845795,-0.303133,-0.306167,-0.271309,0.630123,-0.018894,-0.099607,0.526590,-0.048741,-0.499968,-0.773831,0.131019,0.298595,0.578428,0.024294,0.064398,0.668739,-0.284936,-0.745771,-0.990518,-0.126594,-1.000000,-0.962096,-0.962096,0.625845,0.655917,0.535259,-1.000000,-0.253143,0.122162,0.788425,0.704453,-0.957364,-0.646421,0.999866,0.046597,-0.385239,-0.604665,-0.911729,-0.958984,-0.325892,-0.271297,0.257616,-0.878728,-0.995259,-0.794165,-0.095096,-0.745768,0.460155,-0.844183,0.266416,0.747211,0.691636,0.399227,-0.110080,0.126612,-0.567634,0.371590,-0.406589,0.073321,-0.702253,0.170894,-0.665009,-1.000000,0.254699,-0.995258,0.139914,-0.853585,-0.808228,0.579922,-0.674311,-0.132579,-0.708425,0.489114,-0.825391,-0.985776,0.099999,-1.000000,0.432645,-0.992140,0.257643,-0.376084,0.779974,-1.000000,0.545402,-0.911727,0.552644,-0.552225,-1.000000,-0.539911,-0.919551,-0.847357,0.911485,0.454402,-0.339554,-0.604657,0.073341,0.467438,
-0.637174,0.013723,-0.739612,-0.852080,-0.886553,-0.844203,-0.872424,-0.783217,0.025665,-0.417355,0.397485,0.940468,-0.149199,-0.316830,-0.929010,-0.805126,-0.924287,0.430878,-0.981047,0.480110,0.488784,-0.177810,-0.592316,0.334929,-0.575391,-0.806646,-0.914845,-0.825413,-0.086206,0.470035,0.400447,-0.226002,-0.703798,-0.745795,-0.881841,-0.839502,-0.703797,-0.797269,-0.914844,-0.962105,0.772405,-0.357856,0.647017,-0.962105,-0.910125,-0.848901,-0.792582,-0.546080,0.154520,-0.095181,-0.541463,-0.321374,-0.671203,-0.527622,-0.895976,-0.811334,-0.647961,-0.463180,0.095377,0.507594,0.028624,0.715576,0.728396,-0.881839,-0.848900,-0.689818,-0.727114,-0.615475,0.530719,-0.371550,-0.783213,-0.453992,-0.750465,-0.736450,-0.708455,-0.476965,-0.248647,0.308690,-0.010020,0.457055,0.749760,0.439672,0.851811,0.766817,-0.041337,0.291152,-0.490762,0.659940,0.927931,0.788115,0.599777,0.711336,-0.385256,-0.431045,0.334984,0.927941,0.991094,0.702789,0.775355,0.978488,0.927948,0.940600,0.915290,0.771102,-0.225978,0.242822,-0.257710,0.745526,0.291169,0.317479,0.788142,0.561002,0.664257,0.741266,0.400517,0.365608,0.396159,0.207580,0.949053,0.940626,0.970107,0.860338,0.158990,0.754077,0.548061,-0.153665,0.387445,0.535100,0.595511,0.999546,0.999547,0.758351,0.754088,0.439718,0.651410,0.426669,0.096941,0.749829,0.999560,0.707116,0.539436,-0.344141,0.513485,0.145724,-0.872417,-0.180735,-0.881835,-1.000000,0.291198,0.535122,0.535123,0.291201,-0.647949,-0.830101,-0.910121,-0.596928,-1.000000,-0.924281,-0.722439,-0.900687,0.452743,0.142743,-0.764485,-0.677436,-0.156698,0.225247,-0.303131,-0.962101,-0.371526,-0.858299,-0.952638,-0.966835,-1.000000,-0.952638,-0.863003,-0.962101,-0.615460,-0.900686,-0.924281,-1.000000,0.664333,-0.647946,0.074746,-0.038346,0.070259,-0.801946,-0.435612,-0.962101,-0.830098,-0.895970,-0.900685,-0.657238,-0.699122,-0.962100,-0.962100,-0.394380,-0.848892,-0.962100,-0.820708,-1.000000,-0.095158,0.500548,0.247251,-0.307713,0.101420,-0.394378,-0.820708,-0.933727,-0.820708,-0.408109,-0.189748,-0.583032,-0.541437,-0.962100,-0.059203,-0.068172,-0.546053,-0.962100,-1.000000,-0.905401,-0.244066,-0.905400,-0.727099,0.007921,-0.362376,0.317567,-0.578403,-0.943179,-0.769158,-0.759802,-0.362374,-0.162647,-0.330438,-0.863000,-0.816013,0.715782,0.083668,-0.149114,-0.990520,-0.962099,0.819450,-0.947906,-0.910117,-0.098136,-0.985780,-0.339553,-0.853592,-1.000000,-0.900683,-0.745777,0.101446,-0.063671,-0.403520,-0.135588,0.352607,-0.634006,-0.453954,0.830835,-0.844188,-1.000000,-0.467735,-1.000000,-0.995261,-0.140090,-0.385215,-0.952635,-0.895967,-0.914835,-0.476928,0.539562,0.877481,0.809614,0.016874,-0.041251,0.569797,-0.280363,0.206174,-0.615447,-0.962098,-0.872411,-1.000000,-0.985779,-0.952635,0.630097,0.119177,-0.140081,-0.606175,-0.490725,-0.713097,0.724395,0.673033,0.548227,0.198869,-0.348664,0.251754,-0.476922,-0.717760,-0.928999,-0.924276,-0.947904,0.021351,-0.844186,-0.839486,0.030274,-0.564519,-0.353224,-1.000000,-1.000000,0.034736,0.548245,0.698758,0.569834,0.526631,-0.592275,-0.834788,0.418116,-0.694450,-1.000000,-1.000000,-0.962097,-0.787878,-0.344094,0.052568,-0.722423,-0.509137,-0.905396,-0.924275,-0.685134,0.264973,0.801185,0.898715,0.805440,0.587106,0.452937,0.487669,-0.449347,-0.750443,-1.000000,-1.000000,-1.000000,-0.943175,-0.755117,-0.713092,-0.380624,0.396349,0.461637,-0.769149,0.028770,0.326423,0.864885,0.600050,0.264989,0.154705,0.500691,-0.801935,0.461646,-0.928997,-1.000000,-0.995259,-1.000000,-0.828565,-0.713132,-0.629352,0.291316,-0.426402,0.138435,-0.244020,0.003525,0.673121,0.300097,0.479026,0.694548,0.150290,0.387648,0.535342,-0.962095,-0.207779,-0.995258,-1.000000,-1.000000,-0.496886,0.703121,0.370191,0.565592,0.002004,0.799800,-0.495309,0.008002,-0.403489,-0.029297,0.915702,0.132582,0.207761,0.496395,0.380351,-1.000000,-0.952631,-0.957362,-0.708423,-1.000000,
0.205993,0.930577,0.999349,0.220731,0.070201,-0.518409,-0.787901,-0.541470,-0.797271,-0.905409,-0.895978,-0.117677,0.264748,0.211921,0.552270,-0.095195,-0.643321,-0.675859,-0.750470,-0.962106,0.173626,0.037519,0.868672,-0.541509,0.591056,0.258856,-0.532239,-1.000000,-0.764495,-0.699138,-0.647964,-0.394419,-0.467780,0.203113,-0.053347,-0.467779,-0.559938,-0.339608,-0.919565,-1.000000,0.625535,0.121992,-0.054797,-0.180772,0.685606,-0.230527,0.500402,-0.449448,-0.536849,0.822069,-0.708457,-0.198845,0.282348,0.711291,0.817829,-0.216939,0.385892,-0.764493,-0.976309,-1.000000,0.672733,0.719849,0.282356,0.321824,0.025693,0.448352,-0.303160,-0.216935,-0.778531,-0.806643,-0.486164,0.198725,0.591144,0.681356,0.339343,0.277974,0.573908,-0.321367,-0.844199,-0.962104,-0.023435,0.365580,0.517755,0.404849,-0.316811,0.435326,-0.001079,-0.389831,-0.023431,-0.783211,-0.527616,0.387415,0.894152,0.805132,0.822128,0.034626,0.439685,-0.126643,-0.412714,-1.000000,0.256017,0.387423,0.264772,0.822140,0.932170,-0.472362,-0.239570,-0.834800,-0.647955,-0.962103,-0.680502,0.612710,0.771112,0.834887,0.634210,0.715639,0.088045,0.561007,-0.203344,-0.995264,0.868806,0.608418,0.766864,0.056915,-0.830102,-0.680501,-0.962102,-0.797263,-0.929005,-0.900688,-0.380676,0.758350,0.894208,0.834914,0.724209,0.599824,0.123565,0.932218,-0.167194,-0.995264,0.204614,0.391818,-0.573790,-0.741114,-0.981044,-1.000000,-1.000000,-0.995264,-0.717774,-0.661891,0.745577,0.711406,0.621356,0.123575,0.745582,-0.099631,0.509168,-0.518383,-0.592297,-0.924281,-0.820711,-1.000000,-0.952638,-0.957369,-0.995263,-0.995263,-0.990522,-0.957369,-0.853596,0.291213,0.834963,0.647157,0.291215,0.830723,0.426701,-0.307680,-0.221426,-0.522989,-0.957369,-0.957369,0.182565,-0.848893,-0.905402,-0.976305,-1.000000,-0.995263,-0.727103,-0.647945,0.413651,0.229669,0.474521,0.711453,-0.009966,-0.089171,0.313161,-0.385232,-0.624733,-0.316821,-0.825403,-0.957368,0.055432,-0.484647,-0.750454,-0.881833,0.132431,0.025764,0.079205,-0.131103,0.361312,-0.853594,-0.507663,-0.041279,-0.266756,-0.086128,-0.713104,-0.691397,-0.764481,0.999680,0.076207,-0.910118,0.617089,-0.440192,-0.881832,-0.458554,-0.449370,-0.490736,-0.811323,-0.654177,0.448496,0.383165,-0.881831,0.247310,-0.357808,-0.532204,-0.900684,-0.018889,0.864730,0.822315,0.999712,-0.527590,0.630050,0.400623,-0.825400,-0.472335,-0.830095,-0.910117,-0.924278,-0.919556,-0.504544,-0.280371,-0.722430,-0.325876,-0.629366,-0.162639,-0.000998,0.668705,0.465899,0.543871,0.999743,-0.536814,0.805347,-0.486128,-0.596913,-0.741104,-0.914835,-1.000000,-1.000000,-1.000000,-0.990519,-0.985779,-0.741103,-0.417256,-0.546044,-0.453951,0.185609,0.612884,-0.541427,0.771318,0.348252,-0.444768,0.873260,0.321951,0.295684,-0.541426,-0.881829,-0.995260,-1.000000,-1.000000,-0.985779,-0.914834,-0.806628,-0.412671,0.021346,0.198869,0.949311,0.634407,0.136957,0.881749,0.317622,-0.962097,0.122143,0.775608,0.796895,0.248787,-0.713095,-0.820702,-1.000000,-0.943176,-0.830091,-0.708432,-0.830091,0.083708,0.513646,0.452918,0.452919,0.647316,0.132537,-0.086084,-0.858291,-0.924275,0.339535,0.204732,0.767112,0.886016,0.387607,0.198890,-0.371487,0.242974,0.383246,-0.666521,0.198893,-0.153588,-0.633997,0.436953,0.238576,-0.131052,0.215035,-0.572262,-0.990518,-1.000000,0.405065,0.677376,0.591425,0.784179,0.924079,-0.652573,0.911414,-0.421822,-0.722421,0.707361,0.225371,-0.366912,0.212145,0.088176,0.435561,0.278175,0.339563,-0.699105,-1.000000,-0.995259,0.522349,0.974675,0.532407,0.061495,-0.158086,0.801230,-0.280337,0.291358,-0.569132,0.197407,0.668834,0.034768,0.522361,0.873387,-0.366906,0.796988,-0.238013,-0.360857,-0.962095,-0.699145,0.957864,0.941008,0.945225,0.860693,-0.018819,0.243014,-0.307621,-0.176132,-0.171616,-0.957362,-0.212300,-0.086053,-0.844181,-0.564505,-0.122065,-0.268255,-0.990516,-1.000000,-0.962094,-0.957362,
0.948876,-0.925904,-0.680514,-0.962106,-0.503094,0.397479,0.506099,-0.731787,-0.002647,-0.812943,-1.000000,0.036028,-1.000000,-0.209452,-0.949533,0.961492,-0.584645,0.738264,-0.703799,-0.429575,-1.000000,-0.925903,-0.572309,-0.811336,0.406211,0.545043,0.208950,-0.891264,-0.412771,0.241262,-0.434158,-0.679002,0.107200,-1.000000,-0.185293,-0.713121,0.999399,0.030097,0.999365,-0.696073,0.099806,0.006302,0.092446,-0.417348,-0.907023,-0.924286,-0.609339,-0.713120,0.104250,0.074632,0.244210,-0.478544,-0.981089,-0.324452,0.044962,0.999429,-0.218489,-0.561517,0.569576,-0.586181,0.601140,-0.050348,-0.294105,-0.990525,-0.484673,-0.362458,0.788084,-0.490766,-0.376120,0.545086,-0.797309,-1.000000,-1.000000,-0.995266,0.664212,0.145682,-0.138702,0.877173,-0.397500,0.285255,-0.848899,0.210456,0.672795,-0.949531,-0.962104,-0.132692,-0.722446,-0.156727,-0.135694,0.383010,-0.962104,-0.054816,-0.995265,-0.933731,-0.661898,0.124978,-0.152214,0.592566,-0.863007,-0.801952,-0.722486,0.188403,-0.957371,0.010797,0.353905,0.396109,-0.454027,0.493197,-0.421916,-0.307740,-1.000000,-0.834842,-0.962103,-0.863006,0.999519,0.999521,-0.347230,0.235452,0.902602,0.766820,-0.424969,-0.484663,-0.356356,-0.748945,-0.952640,0.459951,0.139768,-0.651091,-0.988986,0.269186,-0.947910,-0.806681,-0.995264,-0.773845,0.839156,0.949075,0.575367,-0.891259,-0.090652,-0.919561,-0.153701,-0.567667,0.082093,-0.814498,-0.434134,-0.470863,0.178124,-0.038364,0.569628,-0.957370,-1.000000,0.127967,-0.671234,0.764021,-0.120660,-0.026424,-0.411216,0.122059,0.157496,-0.530721,-0.841103,-0.253197,-0.689850,-0.385281,0.433905,-0.288013,0.655735,-0.365477,-0.251683,-0.853596,-1.000000,-0.634059,-0.891258,0.834966,0.826478,-0.820710,0.826442,0.788186,-0.444831,-0.298620,0.566784,0.139801,-0.553797,-0.900686,-0.210902,-0.134155,-0.722436,-0.613956,-0.764483,0.668590,-0.493853,-0.877124,-0.651084,0.792500,0.000421,-0.051781,-0.682087,0.694305,0.135381,-0.869319,-0.330447,0.445534,-0.164203,0.627104,-0.379175,-0.032368,0.715745,0.758404,-0.853594,-0.910119,-0.867707,0.685796,0.254589,-0.461660,0.796743,0.514957,-0.113136,-0.943179,0.248727,-0.198828,0.402018,-0.949526,-0.590787,0.991247,-0.380653,0.749896,-0.952636,0.843522,-0.071199,0.877421,-0.647940,-0.806632,0.082142,-0.188275,0.448461,0.237000,0.188489,-0.090651,0.012352,0.126541,-0.198821,-0.158173,0.923930,0.946387,0.864739,0.022769,0.242878,-0.620088,-0.733364,-0.507656,-0.886542,-0.750450,0.016823,-0.652584,0.634323,-0.750450,-0.083157,-0.820705,-0.778517,-0.877120,0.856248,-0.694456,-0.522975,0.222334,0.371511,0.894393,0.701519,-0.002522,-0.755123,-0.775437,-0.655722,-0.536812,-0.111614,0.261962,-0.699113,0.645801,0.999769,-0.529163,-0.292527,-0.957366,-0.180728,0.088096,-0.342625,0.637219,0.668697,0.890192,0.860560,-0.541425,0.136911,0.400623,-0.750447,0.062899,0.030227,0.655838,-0.161161,0.808187,0.374448,-0.685138,0.409387,0.108832,0.660175,-0.682076,0.079217,0.932419,-0.431001,0.361350,-0.481520,0.837934,0.874670,0.538119,-0.287970,0.745772,0.504944,-0.446333,-0.408086,-0.093613,0.003459,0.445636,-0.572265,0.690164,-0.466233,-0.775433,0.234163,0.493399,-0.872409,-0.830090,-0.877117,-0.257683,-0.962096,-0.990518,-0.438681,-0.038280,-0.555272,-0.550653,-0.581514,0.999860,-0.072648,0.139894,-0.180708,0.694470,0.754303,0.788394,0.898691,0.380308,0.380309,0.526622,0.703077,-1.000000,0.042145,0.617226,-0.321334,0.565519,-0.490713,0.936710,-0.449343,0.566961,0.999892,-0.153619,0.720161,0.367219,-0.987400,-0.194257,-0.976300,-0.389808,-0.194256,-0.521462,-0.875588,-0.209332,-0.263722,-0.186721,-0.552228,0.351201,-0.589223,-0.766070,-0.919552,0.535302,-0.657217,0.792696,0.209181,-0.674311,-0.234990,0.135489,-0.503026,-0.158120,-0.921168,-0.284918,0.970503,-0.995258,0.273765,0.125151,-0.119066,0.690286,0.957880,0.241512,0.159155,-0.493815,0.635909,-0.461623,-1.000000,-0.919551,
